{"learner":{"attributes":{},"feature_names":[],"feature_types":[],"gradient_booster":{"model":{"gbtree_model_param":{"num_parallel_tree":"1","num_trees":"1500"},"iteration_indptr":[0,2,4,6,8,10,12,14,16,18,20,22,24,26,28,30,32,34,36,38,40,42,44,46,48,50,52,54,56,58,60,62,64,66,68,70,72,74,76,78,80,82,84,86,88,90,92,94,96,98,100,102,104,106,108,110,112,114,116,118,120,122,124,126,128,130,132,134,136,138,140,142,144,146,148,150,152,154,156,158,160,162,164,166,168,170,172,174,176,178,180,182,184,186,188,190,192,194,196,198,200,202,204,206,208,210,212,214,216,218,220,222,224,226,228,230,232,234,236,238,240,242,244,246,248,250,252,254,256,258,260,262,264,266,268,270,272,274,276,278,280,282,284,286,288,290,292,294,296,298,300,302,304,306,308,310,312,314,316,318,320,322,324,326,328,330,332,334,336,338,340,342,344,346,348,350,352,354,356,358,360,362,364,366,368,370,372,374,376,378,380,382,384,386,388,390,392,394,396,398,400,402,404,406,408,410,412,414,416,418,420,422,424,426,428,430,432,434,436,438,440,442,444,446,448,450,452,454,456,458,460,462,464,466,468,470,472,474,476,478,480,482,484,486,488,490,492,494,496,498,500,502,504,506,508,510,512,514,516,518,520,522,524,526,528,530,532,534,536,538,540,542,544,546,548,550,552,554,556,558,560,562,564,566,568,570,572,574,576,578,580,582,584,586,588,590,592,594,596,598,600,602,604,606,608,610,612,614,616,618,620,622,624,626,628,630,632,634,636,638,640,642,644,646,648,650,652,654,656,658,660,662,664,666,668,670,672,674,676,678,680,682,684,686,688,690,692,694,696,698,700,702,704,706,708,710,712,714,716,718,720,722,724,726,728,730,732,734,736,738,740,742,744,746,748,750,752,754,756,758,760,762,764,766,768,770,772,774,776,778,780,782,784,786,788,790,792,794,796,798,800,802,804,806,808,810,812,814,816,818,820,822,824,826,828,830,832,834,836,838,840,842,844,846,848,850,852,854,856,858,860,862,864,866,868,870,872,874,876,878,880,882,884,886,888,890,892,894,896,898,900,902,904,906,908,910,912,914,916,918,920,922,924,926,928,930,932,934,936,938,940,942,944,946,948,950,952,954,956,958,960,962,964,966,968,970,972,974,976,978,980,982,984,986,988,990,992,994,996,998,1000,1002,1004,1006,1008,1010,1012,1014,1016,1018,1020,1022,1024,1026,1028,1030,1032,1034,1036,1038,1040,1042,1044,1046,1048,1050,1052,1054,1056,1058,1060,1062,1064,1066,1068,1070,1072,1074,1076,1078,1080,1082,1084,1086,1088,1090,1092,1094,1096,1098,1100,1102,1104,1106,1108,1110,1112,1114,1116,1118,1120,1122,1124,1126,1128,1130,1132,1134,1136,1138,1140,1142,1144,1146,1148,1150,1152,1154,1156,1158,1160,1162,1164,1166,1168,1170,1172,1174,1176,1178,1180,1182,1184,1186,1188,1190,1192,1194,1196,1198,1200,1202,1204,1206,1208,1210,1212,1214,1216,1218,1220,1222,1224,1226,1228,1230,1232,1234,1236,1238,1240,1242,1244,1246,1248,1250,1252,1254,1256,1258,1260,1262,1264,1266,1268,1270,1272,1274,1276,1278,1280,1282,1284,1286,1288,1290,1292,1294,1296,1298,1300,1302,1304,1306,1308,1310,1312,1314,1316,1318,1320,1322,1324,1326,1328,1330,1332,1334,1336,1338,1340,1342,1344,1346,1348,1350,1352,1354,1356,1358,1360,1362,1364,1366,1368,1370,1372,1374,1376,1378,1380,1382,1384,1386,1388,1390,1392,1394,1396,1398,1400,1402,1404,1406,1408,1410,1412,1414,1416,1418,1420,1422,1424,1426,1428,1430,1432,1434,1436,1438,1440,1442,1444,1446,1448,1450,1452,1454,1456,1458,1460,1462,1464,1466,1468,1470,1472,1474,1476,1478,1480,1482,1484,1486,1488,1490,1492,1494,1496,1498,1500],"tree_info":[0,1,0,1,0,1,0,1,0,1,0,1,0,1,0,1,0,1,0,1,0,1,0,1,0,1,0,1,0,1,0,1,0,1,0,1,0,1,0,1,0,1,0,1,0,1,0,1,0,1,0,1,0,1,0,1,0,1,0,1,0,1,0,1,0,1,0,1,0,1,0,1,0,1,0,1,0,1,0,1,0,1,0,1,0,1,0,1,0,1,0,1,0,1,0,1,0,1,0,1,0,1,0,1,0,1,0,1,0,1,0,1,0,1,0,1,0,1,0,1,0,1,0,1,0,1,0,1,0,1,0,1,0,1,0,1,0,1,0,1,0,1,0,1,0,1,0,1,0,1,0,1,0,1,0,1,0,1,0,1,0,1,0,1,0,1,0,1,0,1,0,1,0,1,0,1,0,1,0,1,0,1,0,1,0,1,0,1,0,1,0,1,0,1,0,1,0,1,0,1,0,1,0,1,0,1,0,1,0,1,0,1,0,1,0,1,0,1,0,1,0,1,0,1,0,1,0,1,0,1,0,1,0,1,0,1,0,1,0,1,0,1,0,1,0,1,0,1,0,1,0,1,0,1,0,1,0,1,0,1,0,1,0,1,0,1,0,1,0,1,0,1,0,1,0,1,0,1,0,1,0,1,0,1,0,1,0,1,0,1,0,1,0,1,0,1,0,1,0,1,0,1,0,1,0,1,0,1,0,1,0,1,0,1,0,1,0,1,0,1,0,1,0,1,0,1,0,1,0,1,0,1,0,1,0,1,0,1,0,1,0,1,0,1,0,1,0,1,0,1,0,1,0,1,0,1,0,1,0,1,0,1,0,1,0,1,0,1,0,1,0,1,0,1,0,1,0,1,0,1,0,1,0,1,0,1,0,1,0,1,0,1,0,1,0,1,0,1,0,1,0,1,0,1,0,1,0,1,0,1,0,1,0,1,0,1,0,1,0,1,0,1,0,1,0,1,0,1,0,1,0,1,0,1,0,1,0,1,0,1,0,1,0,1,0,1,0,1,0,1,0,1,0,1,0,1,0,1,0,1,0,1,0,1,0,1,0,1,0,1,0,1,0,1,0,1,0,1,0,1,0,1,0,1,0,1,0,1,0,1,0,1,0,1,0,1,0,1,0,1,0,1,0,1,0,1,0,1,0,1,0,1,0,1,0,1,0,1,0,1,0,1,0,1,0,1,0,1,0,1,0,1,0,1,0,1,0,1,0,1,0,1,0,1,0,1,0,1,0,1,0,1,0,1,0,1,0,1,0,1,0,1,0,1,0,1,0,1,0,1,0,1,0,1,0,1,0,1,0,1,0,1,0,1,0,1,0,1,0,1,0,1,0,1,0,1,0,1,0,1,0,1,0,1,0,1,0,1,0,1,0,1,0,1,0,1,0,1,0,1,0,1,0,1,0,1,0,1,0,1,0,1,0,1,0,1,0,1,0,1,0,1,0,1,0,1,0,1,0,1,0,1,0,1,0,1,0,1,0,1,0,1,0,1,0,1,0,1,0,1,0,1,0,1,0,1,0,1,0,1,0,1,0,1,0,1,0,1,0,1,0,1,0,1,0,1,0,1,0,1,0,1,0,1,0,1,0,1,0,1,0,1,0,1,0,1,0,1,0,1,0,1,0,1,0,1,0,1,0,1,0,1,0,1,0,1,0,1,0,1,0,1,0,1,0,1,0,1,0,1,0,1,0,1,0,1,0,1,0,1,0,1,0,1,0,1,0,1,0,1,0,1,0,1,0,1,0,1,0,1,0,1,0,1,0,1,0,1,0,1,0,1,0,1,0,1,0,1,0,1,0,1,0,1,0,1,0,1,0,1,0,1,0,1,0,1,0,1,0,1,0,1,0,1,0,1,0,1,0,1,0,1,0,1,0,1,0,1,0,1,0,1,0,1,0,1,0,1,0,1,0,1,0,1,0,1,0,1,0,1,0,1,0,1,0,1,0,1,0,1,0,1,0,1,0,1,0,1,0,1,0,1,0,1,0,1,0,1,0,1,0,1,0,1,0,1,0,1,0,1,0,1,0,1,0,1,0,1,0,1,0,1,0,1,0,1,0,1,0,1,0,1,0,1,0,1,0,1,0,1,0,1,0,1,0,1,0,1,0,1,0,1,0,1,0,1,0,1,0,1,0,1,0,1,0,1,0,1,0,1,0,1,0,1,0,1,0,1,0,1,0,1,0,1,0,1,0,1,0,1,0,1,0,1,0,1,0,1,0,1,0,1,0,1,0,1,0,1,0,1,0,1,0,1,0,1,0,1,0,1,0,1,0,1,0,1,0,1,0,1,0,1,0,1,0,1,0,1,0,1,0,1,0,1,0,1,0,1,0,1,0,1,0,1,0,1,0,1,0,1,0,1,0,1,0,1,0,1,0,1,0,1,0,1,0,1,0,1,0,1,0,1,0,1,0,1,0,1,0,1,0,1,0,1,0,1,0,1,0,1,0,1,0,1,0,1,0,1,0,1,0,1,0,1,0,1,0,1,0,1,0,1,0,1,0,1,0,1,0,1,0,1,0,1,0,1,0,1,0,1,0,1,0,1,0,1,0,1,0,1,0,1,0,1,0,1,0,1,0,1,0,1,0,1,0,1,0,1,0,1,0,1,0,1,0,1,0,1,0,1,0,1,0,1,0,1,0,1,0,1,0,1,0,1,0,1,0,1,0,1,0,1,0,1,0,1,0,1,0,1,0,1,0,1,0,1,0,1,0,1,0,1,0,1,0,1,0,1,0,1,0,1,0,1,0,1,0,1,0,1,0,1,0,1,0,1,0,1,0,1,0,1,0,1,0,1,0,1,0,1,0,1,0,1,0,1,0,1,0,1,0,1,0,1,0,1,0,1,0,1,0,1,0,1,0,1,0,1,0,1,0,1,0,1,0,1,0,1,0,1,0,1,0,1,0,1,0,1,0,1,0,1,0,1,0,1,0,1,0,1,0,1,0,1,0,1,0,1,0,1,0,1,0,1,0,1,0,1,0,1,0,1,0,1,0,1,0,1,0,1,0,1,0,1,0,1,0,1,0,1,0,1,0,1,0,1,0,1,0,1,0,1,0,1,0,1,0,1,0,1,0,1,0,1,0,1,0,1,0,1,0,1,0,1,0,1,0,1,0,1,0,1,0,1,0,1,0,1,0,1,0,1,0,1,0,1,0,1,0,1,0,1,0,1,0,1,0,1,0,1,0,1,0,1,0,1,0,1,0,1,0,1,0,1,0,1,0,1,0,1,0,1,0,1,0,1,0,1,0,1,0,1,0,1,0,1,0,1,0,1,0,1,0,1,0,1,0,1,0,1,0,1,0,1,0,1,0,1,0,1,0,1,0,1,0,1,0,1,0,1,0,1,0,1,0,1,0,1,0,1],"trees":[{"base_weights":[-4.379562E-3,4.147018E-1,-4.6850997E-1,-3.7E-1,7.131931E-1,-7.680525E-1,2.3469388E-1,3.7777778E-3,-9.642857E-3,9.533527E-3,2.5274726E-3,-3.4693878E-3,-9.615384E-3,9.555555E-3,-3.7037034E-3],"categories":[],"categories_nodes":[],"categories_segments":[],"categories_sizes":[],"default_left":[0,0,0,0,0,0,0,0,0,0,0,0,0,0,0],"id":0,"left_children":[1,3,5,7,9,11,13,-1,-1,-1,-1,-1,-1,-1,-1],"loss_changes":[1.3343256E2,8.470259E1,6.874341E1,4.4803654E1,2.8675858E1,1.82845E1,4.3098335E1,0E0,0E0,0E0,0E0,0E0,0E0,0E0,0E0],"parents":[2147483647,0,0,1,1,2,2,3,3,4,4,5,5,6,6],"right_children":[2,4,6,8,10,12,14,-1,-1,-1,-1,-1,-1,-1,-1],"split_conditions":[4.81E-1,1.08E2,1.23E2,1.05E2,1.14E2,1.18E2,1.27E2,3.7777778E-3,-9.642857E-3,9.533527E-3,2.5274726E-3,-3.4693878E-3,-9.615384E-3,9.555555E-3,-3.7037034E-3],"split_indices":[3,26,26,13,13,13,13,0,0,0,0,0,0,0,0],"split_type":[0,0,0,0,0,0,0,0,0,0,0,0,0,0,0],"sum_hessian":[6.84E2,3.595E2,3.245E2,9.9E1,2.605E2,2.275E2,9.7E1,4.4E1,5.5E1,1.705E2,9E1,7.25E1,1.55E2,4.4E1,5.3E1],"tree_param":{"num_deleted":"0","num_feature":"27","num_nodes":"15","size_leaf_vector":"1"}},{"base_weights":[4.379562E-3,-4.147018E-1,4.6850997E-1,3.7E-1,-7.131931E-1,7.680525E-1,-2.3469388E-1,-3.7777778E-3,9.642857E-3,-9.533527E-3,-2.5274726E-3,3.4693878E-3,9.615384E-3,-9.555555E-3,3.7037034E-3],"categories":[],"categories_nodes":[],"categories_segments":[],"categories_sizes":[],"default_left":[0,0,0,0,0,0,0,0,0,0,0,0,0,0,0],"id":1,"left_children":[1,3,5,7,9,11,13,-1,-1,-1,-1,-1,-1,-1,-1],"loss_changes":[1.3343256E2,8.470259E1,6.874341E1,4.4803654E1,2.8675858E1,1.82845E1,4.3098335E1,0E0,0E0,0E0,0E0,0E0,0E0,0E0,0E0],"parents":[2147483647,0,0,1,1,2,2,3,3,4,4,5,5,6,6],"right_children":[2,4,6,8,10,12,14,-1,-1,-1,-1,-1,-1,-1,-1],"split_conditions":[4.81E-1,1.08E2,1.23E2,1.05E2,1.14E2,1.18E2,1.27E2,-3.7777778E-3,9.642857E-3,-9.533527E-3,-2.5274726E-3,3.4693878E-3,9.615384E-3,-9.555555E-3,3.7037034E-3],"split_indices":[3,26,26,13,13,13,13,0,0,0,0,0,0,0,0],"split_type":[0,0,0,0,0,0,0,0,0,0,0,0,0,0,0],"sum_hessian":[6.84E2,3.595E2,3.245E2,9.9E1,2.605E2,2.275E2,9.7E1,4.4E1,5.5E1,1.705E2,9E1,7.25E1,1.55E2,4.4E1,5.3E1],"tree_param":{"num_deleted":"0","num_feature":"27","num_nodes":"15","size_leaf_vector":"1"}},{"base_weights":[-4.33757E-3,4.1059688E-1,-4.6387565E-1,-3.6637983E-1,7.061509E-1,-7.604801E-1,2.32418E-1,3.7408918E-3,-9.549025E-3,9.439603E-3,2.5024912E-3,-3.4352068E-3,-9.520724E-3,9.46297E-3,-3.6674016E-3],"categories":[],"categories_nodes":[],"categories_segments":[],"categories_sizes":[],"default_left":[0,0,0,0,0,0,0,0,0,0,0,0,0,0,0],"id":2,"left_children":[1,3,5,7,9,11,13,-1,-1,-1,-1,-1,-1,-1,-1],"loss_changes":[1.3079707E2,8.303842E1,6.739611E1,4.3933006E1,2.8113281E1,1.7925735E1,4.2262207E1,0E0,0E0,0E0,0E0,0E0,0E0,0E0,0E0],"parents":[2147483647,0,0,1,1,2,2,3,3,4,4,5,5,6,6],"right_children":[2,4,6,8,10,12,14,-1,-1,-1,-1,-1,-1,-1,-1],"split_conditions":[4.81E-1,1.08E2,1.23E2,1.05E2,1.14E2,1.18E2,1.27E2,3.7408918E-3,-9.549025E-3,9.439603E-3,2.5024912E-3,-3.4352068E-3,-9.520724E-3,9.46297E-3,-3.6674016E-3],"split_indices":[3,26,26,13,13,13,13,0,0,0,0,0,0,0,0],"split_type":[0,0,0,0,0,0,0,0,0,0,0,0,0,0,0],"sum_hessian":[6.8395825E2,3.5947818E2,3.2448004E2,9.899426E1,2.6048392E2,2.274848E2,9.6995255E1,4.3999374E1,5.499489E1,1.704845E2,8.999943E1,7.249913E1,1.5498567E2,4.3995983E1,5.2999275E1],"tree_param":{"num_deleted":"0","num_feature":"27","num_nodes":"15","size_leaf_vector":"1"}},{"base_weights":[4.337533E-3,-4.1059694E-1,4.6387562E-1,3.6637983E-1,-7.0615095E-1,7.6048005E-1,-2.3241806E-1,-3.7408918E-3,9.549025E-3,-9.439604E-3,-2.5024912E-3,3.4352057E-3,9.520724E-3,-9.462971E-3,3.6674016E-3],"categories":[],"categories_nodes":[],"categories_segments":[],"categories_sizes":[],"default_left":[0,0,0,0,0,0,0,0,0,0,0,0,0,0,0],"id":3,"left_children":[1,3,5,7,9,11,13,-1,-1,-1,-1,-1,-1,-1,-1],"loss_changes":[1.3079704E2,8.303843E1,6.739612E1,4.3933E1,2.8113281E1,1.792575E1,4.226222E1,0E0,0E0,0E0,0E0,0E0,0E0,0E0,0E0],"parents":[2147483647,0,0,1,1,2,2,3,3,4,4,5,5,6,6],"right_children":[2,4,6,8,10,12,14,-1,-1,-1,-1,-1,-1,-1,-1],"split_conditions":[4.81E-1,1.08E2,1.23E2,1.05E2,1.14E2,1.18E2,1.27E2,-3.7408918E-3,9.549025E-3,-9.439604E-3,-2.5024912E-3,3.4352057E-3,9.520724E-3,-9.462971E-3,3.6674016E-3],"split_indices":[3,26,26,13,13,13,13,0,0,0,0,0,0,0,0],"split_type":[0,0,0,0,0,0,0,0,0,0,0,0,0,0,0],"sum_hessian":[6.8395825E2,3.5947818E2,3.2448004E2,9.8994255E1,2.6048392E2,2.274848E2,9.6995255E1,4.399937E1,5.4994884E1,1.704845E2,8.999943E1,7.249913E1,1.5498567E2,4.3995983E1,5.2999275E1],"tree_param":{"num_deleted":"0","num_feature":"27","num_nodes":"15","size_leaf_vector":"1"}},{"base_weights":[-4.2964485E-3,4.0658116E-1,-4.5934266E-1,-3.628364E-1,6.9926304E-1,-7.530811E-1,2.3018646E-1,3.704468E-3,-9.457809E-3,9.3482705E-3,2.477788E-3,-3.4014434E-3,-9.428702E-3,9.372933E-3,-3.6315527E-3],"categories":[],"categories_nodes":[],"categories_segments":[],"categories_sizes":[],"default_left":[0,0,0,0,0,0,0,0,0,0,0,0,0,0,0],"id":4,"left_children":[1,3,5,7,9,11,13,-1,-1,-1,-1,-1,-1,-1,-1],"loss_changes":[1.2822913E2,8.14169E1,6.608451E1,4.308698E1,2.7573036E1,1.7582352E1,4.1448986E1,0E0,0E0,0E0,0E0,0E0,0E0,0E0,0E0],"parents":[2147483647,0,0,1,1,2,2,3,3,4,4,5,5,6,6],"right_children":[2,4,6,8,10,12,14,-1,-1,-1,-1,-1,-1,-1,-1],"split_conditions":[4.81E-1,1.08E2,1.23E2,1.05E2,1.14E2,1.18E2,1.27E2,3.704468E-3,-9.457809E-3,9.3482705E-3,2.477788E-3,-3.4014434E-3,-9.428702E-3,9.372933E-3,-3.6315527E-3],"split_indices":[3,26,26,13,13,13,13,0,0,0,0,0,0,0,0],"split_type":[0,0,0,0,0,0,0,0,0,0,0,0,0,0,0],"sum_hessian":[6.8383466E2,3.5941364E2,3.24421E2,9.8977264E1,2.6043637E2,2.2743979E2,9.69812E1,4.3997513E1,5.497975E1,1.7043864E2,8.999773E1,7.249654E1,1.5494325E2,4.398409E1,5.2997116E1],"tree_param":{"num_deleted":"0","num_feature":"27","num_nodes":"15","size_leaf_vector":"1"}},{"base_weights":[4.29649E-3,-4.065811E-1,4.593427E-1,3.6283645E-1,-6.992629E-1,7.5308114E-1,-2.3018643E-1,-3.704468E-3,9.457809E-3,-9.348269E-3,-2.477788E-3,3.4014422E-3,9.428703E-3,-9.372933E-3,3.631553E-3],"categories":[],"categories_nodes":[],"categories_segments":[],"categories_sizes":[],"default_left":[0,0,0,0,0,0,0,0,0,0,0,0,0,0,0],"id":5,"left_children":[1,3,5,7,9,11,13,-1,-1,-1,-1,-1,-1,-1,-1],"loss_changes":[1.2822911E2,8.14169E1,6.608452E1,4.3086987E1,2.7573013E1,1.7582321E1,4.1448986E1,0E0,0E0,0E0,0E0,0E0,0E0,0E0,0E0],"parents":[2147483647,0,0,1,1,2,2,3,3,4,4,5,5,6,6],"right_children":[2,4,6,8,10,12,14,-1,-1,-1,-1,-1,-1,-1,-1],"split_conditions":[4.81E-1,1.08E2,1.23E2,1.05E2,1.14E2,1.18E2,1.27E2,-3.704468E-3,9.457809E-3,-9.348269E-3,-2.477788E-3,3.4014422E-3,9.428703E-3,-9.372933E-3,3.631553E-3],"split_indices":[3,26,26,13,13,13,13,0,0,0,0,0,0,0,0],"split_type":[0,0,0,0,0,0,0,0,0,0,0,0,0,0,0],"sum_hessian":[6.8383466E2,3.5941364E2,3.2442102E2,9.8977264E1,2.6043637E2,2.274398E2,9.698121E1,4.3997513E1,5.4979748E1,1.7043864E2,8.999773E1,7.2496544E1,1.5494325E2,4.398409E1,5.299712E1],"tree_param":{"num_deleted":"0","num_feature":"27","num_nodes":"15","size_leaf_vector":"1"}},{"base_weights":[-4.2562517E-3,4.0265128E-1,-4.5490727E-1,-3.59367E-1,6.9252384E-1,-7.4584913E-1,2.2799769E-1,3.6684962E-3,-9.3691E-3,9.2594195E-3,2.4533586E-3,-3.3680862E-3,-9.3392115E-3,9.285338E-3,-3.5961454E-3],"categories":[],"categories_nodes":[],"categories_segments":[],"categories_sizes":[],"default_left":[0,0,0,0,0,0,0,0,0,0,0,0,0,0,0],"id":6,"left_children":[1,3,5,7,9,11,13,-1,-1,-1,-1,-1,-1,-1,-1],"loss_changes":[1.2572632E2,7.9836555E1,6.480726E1,4.22646E1,2.7053871E1,1.725344E1,4.065776E1,0E0,0E0,0E0,0E0,0E0,0E0,0E0,0E0],"parents":[2147483647,0,0,1,1,2,2,3,3,4,4,5,5,6,6],"right_children":[2,4,6,8,10,12,14,-1,-1,-1,-1,-1,-1,-1,-1],"split_conditions":[4.81E-1,1.08E2,1.23E2,1.05E2,1.14E2,1.18E2,1.27E2,3.6684962E-3,-9.3691E-3,9.2594195E-3,2.4533586E-3,-3.3680862E-3,-9.3392115E-3,9.285338E-3,-3.5961454E-3],"split_indices":[3,26,26,13,13,13,13,0,0,0,0,0,0,0,0],"split_type":[0,0,0,0,0,0,0,0,0,0,0,0,0,0,0],"sum_hessian":[6.836316E2,3.593076E2,3.2432404E2,9.894934E1,2.6035825E2,2.273659E2,9.695814E1,4.3994457E1,5.4954884E1,1.7036331E2,8.999493E1,7.2492294E1,1.5487361E2,4.3964554E1,5.2993587E1],"tree_param":{"num_deleted":"0","num_feature":"27","num_nodes":"15","size_leaf_vector":"1"}},{"base_weights":[4.256235E-3,-4.026513E-1,4.5490727E-1,3.59367E-1,-6.9252384E-1,7.458491E-1,-2.2799766E-1,-3.668497E-3,9.369102E-3,-9.25942E-3,-2.4533574E-3,3.3680862E-3,9.3392115E-3,-9.285338E-3,3.5961466E-3],"categories":[],"categories_nodes":[],"categories_segments":[],"categories_sizes":[],"default_left":[0,0,0,0,0,0,0,0,0,0,0,0,0,0,0],"id":7,"left_children":[1,3,5,7,9,11,13,-1,-1,-1,-1,-1,-1,-1,-1],"loss_changes":[1.2572633E2,7.983656E1,6.480726E1,4.2264614E1,2.7053894E1,1.725344E1,4.0657764E1,0E0,0E0,0E0,0E0,0E0,0E0,0E0,0E0],"parents":[2147483647,0,0,1,1,2,2,3,3,4,4,5,5,6,6],"right_children":[2,4,6,8,10,12,14,-1,-1,-1,-1,-1,-1,-1,-1],"split_conditions":[4.81E-1,1.08E2,1.23E2,1.05E2,1.14E2,1.18E2,1.27E2,-3.668497E-3,9.369102E-3,-9.25942E-3,-2.4533574E-3,3.3680862E-3,9.3392115E-3,-9.285338E-3,3.5961466E-3],"split_indices":[3,26,26,13,13,13,13,0,0,0,0,0,0,0,0],"split_type":[0,0,0,0,0,0,0,0,0,0,0,0,0,0,0],"sum_hessian":[6.836316E2,3.593076E2,3.2432404E2,9.894934E1,2.6035825E2,2.2736589E2,9.695814E1,4.3994457E1,5.495488E1,1.7036331E2,8.999493E1,7.24923E1,1.548736E2,4.3964554E1,5.2993584E1],"tree_param":{"num_deleted":"0","num_feature":"27","num_nodes":"15","size_leaf_vector":"1"}},{"base_weights":[-4.216902E-3,3.9880422E-1,-4.50566E-1,-3.5596904E-1,6.859279E-1,-7.387779E-1,2.2585037E-1,3.632969E-3,-9.282803E-3,9.172954E-3,2.4291978E-3,-2.3191026E-3,-8.869581E-3,8.3477935E-3,-4.384325E-3],"categories":[],"categories_nodes":[],"categories_segments":[],"categories_sizes":[],"default_left":[0,0,0,0,0,0,0,0,0,0,0,0,0,0,0],"id":8,"left_children":[1,3,5,7,9,11,13,-1,-1,-1,-1,-1,-1,-1,-1],"loss_changes":[1.232864E2,7.829591E1,6.3563103E1,4.146494E1,2.6554733E1,1.6938713E1,3.9977295E1,0E0,0E0,0E0,0E0,0E0,0E0,0E0,0E0],"parents":[2147483647,0,0,1,1,2,2,3,3,4,4,5,5,6,6],"right_children":[2,4,6,8,10,12,14,-1,-1,-1,-1,-1,-1,-1,-1],"split_conditions":[4.81E-1,1.08E2,1.23E2,1.05E2,1.14E2,1.15E2,1.29E2,3.632969E-3,-9.282803E-3,9.172954E-3,2.4291978E-3,-2.3191026E-3,-8.869581E-3,8.3477935E-3,-4.384325E-3],"split_indices":[3,26,26,13,13,13,13,0,0,0,0,0,0,0,0],"split_type":[0,0,0,0,0,0,0,0,0,0,0,0,0,0,0],"sum_hessian":[6.833516E2,3.5916132E2,3.2419028E2,9.891082E1,2.602505E2,2.2726398E2,9.692631E1,4.3990242E1,5.4920578E1,1.7025941E2,8.9991066E1,5.199028E1,1.752737E2,5.0436214E1,4.6490093E1],"tree_param":{"num_deleted":"0","num_feature":"27","num_nodes":"15","size_leaf_vector":"1"}},{"base_weights":[4.216875E-3,-3.9880422E-1,4.5056602E-1,3.5596904E-1,-6.859279E-1,7.387779E-1,-2.2585031E-1,-3.632969E-3,9.282803E-3,-9.172955E-3,-2.4291968E-3,2.3191024E-3,8.869581E-3,-8.3477935E-3,4.384326E-3],"categories":[],"categories_nodes":[],"categories_segments":[],"categories_sizes":[],"default_left":[0,0,0,0,0,0,0,0,0,0,0,0,0,0,0],"id":9,"left_children":[1,3,5,7,9,11,13,-1,-1,-1,-1,-1,-1,-1,-1],"loss_changes":[1.2328641E2,7.8295906E1,6.3563095E1,4.146494E1,2.6554764E1,1.693869E1,3.9977295E1,0E0,0E0,0E0,0E0,0E0,0E0,0E0,0E0],"parents":[2147483647,0,0,1,1,2,2,3,3,4,4,5,5,6,6],"right_children":[2,4,6,8,10,12,14,-1,-1,-1,-1,-1,-1,-1,-1],"split_conditions":[4.81E-1,1.08E2,1.23E2,1.05E2,1.14E2,1.15E2,1.29E2,-3.632969E-3,9.282803E-3,-9.172955E-3,-2.4291968E-3,2.3191024E-3,8.869581E-3,-8.3477935E-3,4.384326E-3],"split_indices":[3,26,26,13,13,13,13,0,0,0,0,0,0,0,0],"split_type":[0,0,0,0,0,0,0,0,0,0,0,0,0,0,0],"sum_hessian":[6.833516E2,3.5916132E2,3.2419028E2,9.891082E1,2.6025052E2,2.2726396E2,9.692631E1,4.3990242E1,5.4920578E1,1.7025943E2,8.999107E1,5.1990276E1,1.752737E2,5.0436214E1,4.6490093E1],"tree_param":{"num_deleted":"0","num_feature":"27","num_nodes":"15","size_leaf_vector":"1"}},{"base_weights":[-4.178735E-3,3.95037E-1,-4.4630712E-1,-3.5263997E-1,6.794702E-1,-7.3184633E-1,2.2371648E-1,3.5978758E-3,-9.198819E-3,9.088776E-3,2.4053024E-3,-3.2944449E-3,-9.170891E-3,9.124726E-3,-3.533845E-3],"categories":[],"categories_nodes":[],"categories_segments":[],"categories_sizes":[],"default_left":[0,0,0,0,0,0,0,0,0,0,0,0,0,0,0],"id":10,"left_children":[1,3,5,7,9,11,13,-1,-1,-1,-1,-1,-1,-1,-1],"loss_changes":[1.2090611E2,7.6793594E1,6.234735E1,4.0687084E1,2.6074554E1,1.670372E1,3.9231926E1,0E0,0E0,0E0,0E0,0E0,0E0,0E0,0E0],"parents":[2147483647,0,0,1,1,2,2,3,3,4,4,5,5,6,6],"right_children":[2,4,6,8,10,12,14,-1,-1,-1,-1,-1,-1,-1,-1],"split_conditions":[4.81E-1,1.08E2,1.23E2,1.05E2,1.14E2,1.18E2,1.27E2,3.5978758E-3,-9.198819E-3,9.088776E-3,2.4053024E-3,-3.2944449E-3,-9.170891E-3,9.124726E-3,-3.533845E-3],"split_indices":[3,26,26,13,13,13,13,0,0,0,0,0,0,0,0],"split_type":[0,0,0,0,0,0,0,0,0,0,0,0,0,0,0],"sum_hessian":[6.8300366E2,3.5897604E2,3.240276E2,9.886202E1,2.6011404E2,2.2713768E2,9.688992E1,4.3984905E1,5.487712E1,1.7012785E2,8.998618E1,7.247628E1,1.5466139E2,4.390693E1,5.2982998E1],"tree_param":{"num_deleted":"0","num_feature":"27","num_nodes":"15","size_leaf_vector":"1"}},{"base_weights":[4.17874E-3,-3.9503703E-1,4.4630715E-1,3.5263994E-1,-6.7947024E-1,7.318464E-1,-2.2371648E-1,-3.5978758E-3,9.198818E-3,-9.088776E-3,-2.4053024E-3,3.2944444E-3,9.170892E-3,-9.124726E-3,3.5338458E-3],"categories":[],"categories_nodes":[],"categories_segments":[],"categories_sizes":[],"default_left":[0,0,0,0,0,0,0,0,0,0,0,0,0,0,0],"id":11,"left_children":[1,3,5,7,9,11,13,-1,-1,-1,-1,-1,-1,-1,-1],"loss_changes":[1.2090613E2,7.679361E1,6.234736E1,4.068708E1,2.6074554E1,1.6703735E1,3.923193E1,0E0,0E0,0E0,0E0,0E0,0E0,0E0,0E0],"parents":[2147483647,0,0,1,1,2,2,3,3,4,4,5,5,6,6],"right_children":[2,4,6,8,10,12,14,-1,-1,-1,-1,-1,-1,-1,-1],"split_conditions":[4.81E-1,1.08E2,1.23E2,1.05E2,1.14E2,1.18E2,1.27E2,-3.5978758E-3,9.198818E-3,-9.088776E-3,-2.4053024E-3,3.2944444E-3,9.170892E-3,-9.124726E-3,3.5338458E-3],"split_indices":[3,26,26,13,13,13,13,0,0,0,0,0,0,0,0],"split_type":[0,0,0,0,0,0,0,0,0,0,0,0,0,0,0],"sum_hessian":[6.8300366E2,3.5897607E2,3.240276E2,9.886203E1,2.6011404E2,2.2713768E2,9.688992E1,4.3984905E1,5.4877125E1,1.7012785E2,8.998618E1,7.247629E1,1.5466139E2,4.3906933E1,5.2982994E1],"tree_param":{"num_deleted":"0","num_feature":"27","num_nodes":"15","size_leaf_vector":"1"}},{"base_weights":[-4.1409587E-3,3.913469E-1,-4.4214216E-1,-3.4937742E-1,6.731459E-1,-7.2507745E-1,2.2164609E-1,3.5632094E-3,-9.117056E-3,9.006799E-3,2.3816691E-3,1.0650801E-5,-8.246447E-3,8.203799E-3,-4.3080607E-3],"categories":[],"categories_nodes":[],"categories_segments":[],"categories_sizes":[],"default_left":[0,0,0,0,0,0,0,0,0,0,0,0,0,0,0],"id":12,"left_children":[1,3,5,7,9,11,13,-1,-1,-1,-1,-1,-1,-1,-1],"loss_changes":[1.1858528E2,7.532834E1,6.116583E1,3.9930195E1,2.5612358E1,1.6484055E1,3.857503E1,0E0,0E0,0E0,0E0,0E0,0E0,0E0,0E0],"parents":[2147483647,0,0,1,1,2,2,3,3,4,4,5,5,6,6],"right_children":[2,4,6,8,10,12,14,-1,-1,-1,-1,-1,-1,-1,-1],"split_conditions":[4.81E-1,1.08E2,1.23E2,1.05E2,1.14E2,1.11E2,1.29E2,3.5632094E-3,-9.117056E-3,9.006799E-3,2.3816691E-3,1.0650801E-5,-8.246447E-3,8.203799E-3,-4.3080607E-3],"split_indices":[3,26,26,13,13,13,13,0,0,0,0,0,0,0,0],"split_type":[0,0,0,0,0,0,0,0,0,0,0,0,0,0,0],"sum_hessian":[6.825781E2,3.58753E2,3.2382513E2,9.880327E1,2.5994974E2,2.2698288E2,9.6842255E1,4.3978474E1,5.48248E1,1.6996942E2,8.99803E1,2.748977E1,1.994931E2,5.0365826E1,4.647643E1],"tree_param":{"num_deleted":"0","num_feature":"27","num_nodes":"15","size_leaf_vector":"1"}},{"base_weights":[4.1409964E-3,-3.9134684E-1,4.421422E-1,3.4937745E-1,-6.7314583E-1,7.250775E-1,-2.2164603E-1,-3.5632083E-3,9.117056E-3,-9.006799E-3,-2.381668E-3,-1.0651659E-5,8.246448E-3,-8.203798E-3,4.308061E-3],"categories":[],"categories_nodes":[],"categories_segments":[],"categories_sizes":[],"default_left":[0,0,0,0,0,0,0,0,0,0,0,0,0,0,0],"id":13,"left_children":[1,3,5,7,9,11,13,-1,-1,-1,-1,-1,-1,-1,-1],"loss_changes":[1.1858527E2,7.532833E1,6.116584E1,3.9930187E1,2.5612373E1,1.648404E1,3.8575027E1,0E0,0E0,0E0,0E0,0E0,0E0,0E0,0E0],"parents":[2147483647,0,0,1,1,2,2,3,3,4,4,5,5,6,6],"right_children":[2,4,6,8,10,12,14,-1,-1,-1,-1,-1,-1,-1,-1],"split_conditions":[4.81E-1,1.08E2,1.23E2,1.05E2,1.14E2,1.11E2,1.29E2,-3.5632083E-3,9.117056E-3,-9.006799E-3,-2.381668E-3,-1.0651659E-5,8.246448E-3,-8.203798E-3,4.308061E-3],"split_indices":[3,26,26,13,13,13,13,0,0,0,0,0,0,0,0],"split_type":[0,0,0,0,0,0,0,0,0,0,0,0,0,0,0],"sum_hessian":[6.825781E2,3.58753E2,3.2382513E2,9.880327E1,2.5994974E2,2.2698286E2,9.684226E1,4.3978474E1,5.48248E1,1.6996942E2,8.99803E1,2.7489773E1,1.994931E2,5.0365826E1,4.6476433E1],"tree_param":{"num_deleted":"0","num_feature":"27","num_nodes":"15","size_leaf_vector":"1"}},{"base_weights":[-4.1002575E-3,3.877311E-1,-4.3803817E-1,-3.4617913E-1,6.6695005E-1,-7.1840906E-1,2.1958725E-1,3.5289603E-3,-9.03743E-3,8.926935E-3,2.3582922E-3,-3.212784E-3,-9.015272E-3,8.972046E-3,-3.4730146E-3],"categories":[],"categories_nodes":[],"categories_segments":[],"categories_sizes":[],"default_left":[0,0,0,0,0,0,0,0,0,0,0,0,0,0,0],"id":14,"left_children":[1,3,5,7,9,11,13,-1,-1,-1,-1,-1,-1,-1,-1],"loss_changes":[1.1631667E2,7.389885E1,6.0007343E1,3.9193485E1,2.5167183E1,1.6277153E1,3.7876186E1,0E0,0E0,0E0,0E0,0E0,0E0,0E0,0E0],"parents":[2147483647,0,0,1,1,2,2,3,3,4,4,5,5,6,6],"right_children":[2,4,6,8,10,12,14,-1,-1,-1,-1,-1,-1,-1,-1],"split_conditions":[4.81E-1,1.08E2,1.23E2,1.05E2,1.14E2,1.18E2,1.27E2,3.5289603E-3,-9.03743E-3,8.926935E-3,2.3582922E-3,-3.212784E-3,-9.015272E-3,8.972046E-3,-3.4730146E-3],"split_indices":[3,26,26,13,13,13,13,0,0,0,0,0,0,0,0],"split_type":[0,0,0,0,0,0,0,0,0,0,0,0,0,0,0],"sum_hessian":[6.820942E2,3.584933E2,3.236009E2,9.873485E1,2.5975842E2,2.2681049E2,9.679041E1,4.3970985E1,5.4763866E1,1.6978497E2,8.997345E1,7.244742E1,1.5436307E2,4.382387E1,5.2966537E1],"tree_param":{"num_deleted":"0","num_feature":"27","num_nodes":"15","size_leaf_vector":"1"}},{"base_weights":[4.1002617E-3,-3.877311E-1,4.3803817E-1,3.461792E-1,-6.6695005E-1,7.1840906E-1,-2.195873E-1,-3.5289594E-3,9.03743E-3,-8.926936E-3,-2.3582913E-3,3.2127835E-3,9.015272E-3,-8.972047E-3,3.4730146E-3],"categories":[],"categories_nodes":[],"categories_segments":[],"categories_sizes":[],"default_left":[0,0,0,0,0,0,0,0,0,0,0,0,0,0,0],"id":15,"left_children":[1,3,5,7,9,11,13,-1,-1,-1,-1,-1,-1,-1,-1],"loss_changes":[1.1631667E2,7.389886E1,6.000736E1,3.9193478E1,2.5167213E1,1.6277168E1,3.787619E1,0E0,0E0,0E0,0E0,0E0,0E0,0E0,0E0],"parents":[2147483647,0,0,1,1,2,2,3,3,4,4,5,5,6,6],"right_children":[2,4,6,8,10,12,14,-1,-1,-1,-1,-1,-1,-1,-1],"split_conditions":[4.81E-1,1.08E2,1.23E2,1.05E2,1.14E2,1.18E2,1.27E2,-3.5289594E-3,9.03743E-3,-8.926936E-3,-2.3582913E-3,3.2127835E-3,9.015272E-3,-8.972047E-3,3.4730146E-3],"split_indices":[3,26,26,13,13,13,13,0,0,0,0,0,0,0,0],"split_type":[0,0,0,0,0,0,0,0,0,0,0,0,0,0,0],"sum_hessian":[6.820942E2,3.584933E2,3.2360092E2,9.873485E1,2.5975842E2,2.268105E2,9.679041E1,4.3970985E1,5.4763866E1,1.6978497E2,8.997346E1,7.244742E1,1.5436307E2,4.3823875E1,5.2966537E1],"tree_param":{"num_deleted":"0","num_feature":"27","num_nodes":"15","size_leaf_vector":"1"}},{"base_weights":[-4.0640067E-3,3.841871E-1,-4.3403664E-1,-3.4304312E-1,6.608785E-1,-7.1191907E-1,2.1758913E-1,3.495119E-3,-8.9598615E-3,8.849105E-3,2.3351698E-3,4.155187E-5,-8.102909E-3,8.0662565E-3,-4.233606E-3],"categories":[],"categories_nodes":[],"categories_segments":[],"categories_sizes":[],"default_left":[0,0,0,0,0,0,0,0,0,0,0,0,0,0,0],"id":16,"left_children":[1,3,5,7,9,11,13,-1,-1,-1,-1,-1,-1,-1,-1],"loss_changes":[1.1410695E2,7.250395E1,5.8883907E1,3.847618E1,2.4738235E1,1.6036339E1,3.7237926E1,0E0,0E0,0E0,0E0,0E0,0E0,0E0,0E0],"parents":[2147483647,0,0,1,1,2,2,3,3,4,4,5,5,6,6],"right_children":[2,4,6,8,10,12,14,-1,-1,-1,-1,-1,-1,-1,-1],"split_conditions":[4.81E-1,1.08E2,1.23E2,1.05E2,1.14E2,1.11E2,1.29E2,3.495119E-3,-8.9598615E-3,8.849105E-3,2.3351698E-3,4.155187E-5,-8.102909E-3,8.0662565E-3,-4.233606E-3],"split_indices":[3,26,26,13,13,13,13,0,0,0,0,0,0,0,0],"split_type":[0,0,0,0,0,0,0,0,0,0,0,0,0,0,0],"sum_hessian":[6.8153265E2,3.5819806E2,3.2333456E2,9.865707E1,2.59541E2,2.2660675E2,9.672781E1,4.3962467E1,5.46946E1,1.6957533E2,8.996566E1,2.7486094E1,1.9912067E2,5.0270473E1,4.645734E1],"tree_param":{"num_deleted":"0","num_feature":"27","num_nodes":"15","size_leaf_vector":"1"}},{"base_weights":[4.064016E-3,-3.841871E-1,4.3403667E-1,3.430431E-1,-6.608785E-1,7.119192E-1,-2.1758915E-1,-3.49512E-3,8.9598615E-3,-8.849106E-3,-2.3351684E-3,-4.1551575E-5,8.102911E-3,-8.0662565E-3,4.233606E-3],"categories":[],"categories_nodes":[],"categories_segments":[],"categories_sizes":[],"default_left":[0,0,0,0,0,0,0,0,0,0,0,0,0,0,0],"id":17,"left_children":[1,3,5,7,9,11,13,-1,-1,-1,-1,-1,-1,-1,-1],"loss_changes":[1.1410695E2,7.250394E1,5.888392E1,3.847619E1,2.4738266E1,1.6036339E1,3.7237934E1,0E0,0E0,0E0,0E0,0E0,0E0,0E0,0E0],"parents":[2147483647,0,0,1,1,2,2,3,3,4,4,5,5,6,6],"right_children":[2,4,6,8,10,12,14,-1,-1,-1,-1,-1,-1,-1,-1],"split_conditions":[4.81E-1,1.08E2,1.23E2,1.05E2,1.14E2,1.11E2,1.29E2,-3.49512E-3,8.9598615E-3,-8.849106E-3,-2.3351684E-3,-4.1551575E-5,8.102911E-3,-8.0662565E-3,4.233606E-3],"split_indices":[3,26,26,13,13,13,13,0,0,0,0,0,0,0,0],"split_type":[0,0,0,0,0,0,0,0,0,0,0,0,0,0,0],"sum_hessian":[6.8153265E2,3.581981E2,3.2333456E2,9.865707E1,2.5954102E2,2.2660675E2,9.672781E1,4.3962463E1,5.46946E1,1.6957535E2,8.996566E1,2.7486095E1,1.9912065E2,5.0270477E1,4.645734E1],"tree_param":{"num_deleted":"0","num_feature":"27","num_nodes":"15","size_leaf_vector":"1"}},{"base_weights":[-4.024786E-3,3.8071248E-1,-4.300912E-1,-3.3996698E-1,6.549268E-1,-7.0552105E-1,2.1560092E-1,3.4616825E-3,-8.88427E-3,8.773231E-3,2.312296E-3,-3.1334022E-3,-8.867272E-3,8.826733E-3,-3.4135974E-3],"categories":[],"categories_nodes":[],"categories_segments":[],"categories_sizes":[],"default_left":[0,0,0,0,0,0,0,0,0,0,0,0,0,0,0],"id":18,"left_children":[1,3,5,7,9,11,13,-1,-1,-1,-1,-1,-1,-1,-1],"loss_changes":[1.1194599E2,7.1142456E1,5.778177E1,3.777758E1,2.43247E1,1.5881531E1,3.6585747E1,0E0,0E0,0E0,0E0,0E0,0E0,0E0,0E0],"parents":[2147483647,0,0,1,1,2,2,3,3,4,4,5,5,6,6],"right_children":[2,4,6,8,10,12,14,-1,-1,-1,-1,-1,-1,-1,-1],"split_conditions":[4.81E-1,1.08E2,1.23E2,1.05E2,1.14E2,1.18E2,1.27E2,3.4616825E-3,-8.88427E-3,8.773231E-3,2.312296E-3,-3.1334022E-3,-8.867272E-3,8.826733E-3,-3.4135974E-3],"split_indices":[3,26,26,13,13,13,13,0,0,0,0,0,0,0,0],"split_type":[0,0,0,0,0,0,0,0,0,0,0,0,0,0,0],"sum_hessian":[6.809166E2,3.5786847E2,3.2304816E2,9.857021E1,2.5929825E2,2.2638678E2,9.666139E1,4.3952957E1,5.4617256E1,1.6934128E2,8.995697E1,7.2407005E1,1.5397977E2,4.3716858E1,5.294454E1],"tree_param":{"num_deleted":"0","num_feature":"27","num_nodes":"15","size_leaf_vector":"1"}},{"base_weights":[4.0248204E-3,-3.8071248E-1,4.300913E-1,3.3996707E-1,-6.5492684E-1,7.055211E-1,-2.1560086E-1,-3.4616815E-3,8.884271E-3,-8.773232E-3,-2.312296E-3,3.1334022E-3,8.867274E-3,-8.826733E-3,3.413598E-3],"categories":[],"categories_nodes":[],"categories_segments":[],"categories_sizes":[],"default_left":[0,0,0,0,0,0,0,0,0,0,0,0,0,0,0],"id":19,"left_children":[1,3,5,7,9,11,13,-1,-1,-1,-1,-1,-1,-1,-1],"loss_changes":[1.1194602E2,7.114247E1,5.778177E1,3.7777588E1,2.43247E1,1.5881538E1,3.6585754E1,0E0,0E0,0E0,0E0,0E0,0E0,0E0,0E0],"parents":[2147483647,0,0,1,1,2,2,3,3,4,4,5,5,6,6],"right_children":[2,4,6,8,10,12,14,-1,-1,-1,-1,-1,-1,-1,-1],"split_conditions":[4.81E-1,1.08E2,1.23E2,1.05E2,1.14E2,1.18E2,1.27E2,-3.4616815E-3,8.884271E-3,-8.773232E-3,-2.312296E-3,3.1334022E-3,8.867274E-3,-8.826733E-3,3.413598E-3],"split_indices":[3,26,26,13,13,13,13,0,0,0,0,0,0,0,0],"split_type":[0,0,0,0,0,0,0,0,0,0,0,0,0,0,0],"sum_hessian":[6.809166E2,3.5786844E2,3.2304816E2,9.857021E1,2.5929825E2,2.2638678E2,9.666139E1,4.3952957E1,5.4617256E1,1.6934128E2,8.995697E1,7.2407005E1,1.5397977E2,4.3716858E1,5.294454E1],"tree_param":{"num_deleted":"0","num_feature":"27","num_nodes":"15","size_leaf_vector":"1"}},{"base_weights":[-3.98994E-3,3.7730482E-1,-4.2624235E-1,-3.3694905E-1,6.490909E-1,-6.992912E-1,2.136708E-1,3.428638E-3,-8.8105835E-3,8.699239E-3,2.2896694E-3,-3.1031894E-3,-8.792479E-3,7.934725E-3,-4.160888E-3],"categories":[],"categories_nodes":[],"categories_segments":[],"categories_sizes":[],"default_left":[0,0,0,0,0,0,0,0,0,0,0,0,0,0,0],"id":20,"left_children":[1,3,5,7,9,11,13,-1,-1,-1,-1,-1,-1,-1,-1],"loss_changes":[1.0984022E2,6.9813324E1,5.6712536E1,3.709698E1,2.3925781E1,1.5626335E1,3.5961826E1,0E0,0E0,0E0,0E0,0E0,0E0,0E0,0E0],"parents":[2147483647,0,0,1,1,2,2,3,3,4,4,5,5,6,6],"right_children":[2,4,6,8,10,12,14,-1,-1,-1,-1,-1,-1,-1,-1],"split_conditions":[4.81E-1,1.08E2,1.23E2,1.05E2,1.14E2,1.18E2,1.29E2,3.428638E-3,-8.8105835E-3,8.699239E-3,2.2896694E-3,-3.1031894E-3,-8.792479E-3,7.934725E-3,-4.160888E-3],"split_indices":[3,26,26,13,13,13,13,0,0,0,0,0,0,0,0],"split_type":[0,0,0,0,0,0,0,0,0,0,0,0,0,0,0],"sum_hessian":[6.802273E2,3.5750555E2,3.2272177E2,9.847457E1,2.5903098E2,2.2613704E2,9.658473E1,4.3942482E1,5.453209E1,1.6908359E2,8.994739E1,7.239066E1,1.5374637E2,5.0151615E1,4.6433117E1],"tree_param":{"num_deleted":"0","num_feature":"27","num_nodes":"15","size_leaf_vector":"1"}},{"base_weights":[3.989948E-3,-3.7730485E-1,4.262424E-1,3.3694902E-1,-6.4909095E-1,6.992912E-1,-2.1367078E-1,-3.428638E-3,8.8105835E-3,-8.699239E-3,-2.2896703E-3,3.1031894E-3,8.7924795E-3,-7.934723E-3,4.1608885E-3],"categories":[],"categories_nodes":[],"categories_segments":[],"categories_sizes":[],"default_left":[0,0,0,0,0,0,0,0,0,0,0,0,0,0,0],"id":21,"left_children":[1,3,5,7,9,11,13,-1,-1,-1,-1,-1,-1,-1,-1],"loss_changes":[1.0984023E2,6.981334E1,5.671254E1,3.7096985E1,2.3925781E1,1.562632E1,3.596181E1,0E0,0E0,0E0,0E0,0E0,0E0,0E0,0E0],"parents":[2147483647,0,0,1,1,2,2,3,3,4,4,5,5,6,6],"right_children":[2,4,6,8,10,12,14,-1,-1,-1,-1,-1,-1,-1,-1],"split_conditions":[4.81E-1,1.08E2,1.23E2,1.05E2,1.14E2,1.18E2,1.29E2,-3.428638E-3,8.8105835E-3,-8.699239E-3,-2.2896703E-3,3.1031894E-3,8.7924795E-3,-7.934723E-3,4.1608885E-3],"split_indices":[3,26,26,13,13,13,13,0,0,0,0,0,0,0,0],"split_type":[0,0,0,0,0,0,0,0,0,0,0,0,0,0,0],"sum_hessian":[6.802273E2,3.5750555E2,3.2272177E2,9.847457E1,2.5903098E2,2.2613704E2,9.6584724E1,4.3942482E1,5.453209E1,1.6908359E2,8.994738E1,7.239066E1,1.5374638E2,5.0151615E1,4.643311E1],"tree_param":{"num_deleted":"0","num_feature":"27","num_nodes":"15","size_leaf_vector":"1"}},{"base_weights":[-3.958217E-3,3.7396196E-1,-4.2246783E-1,-3.339872E-1,6.4336693E-1,-6.9318676E-1,2.1174888E-1,3.395981E-3,-8.738732E-3,8.627061E-3,2.2672855E-3,1.0134959E-4,-7.901616E-3,8.688276E-3,-3.3555438E-3],"categories":[],"categories_nodes":[],"categories_segments":[],"categories_sizes":[],"default_left":[0,0,0,0,0,0,0,0,0,0,0,0,0,0,0],"id":22,"left_children":[1,3,5,7,9,11,13,-1,-1,-1,-1,-1,-1,-1,-1],"loss_changes":[1.0778486E2,6.851549E1,5.5667503E1,3.643373E1,2.3540787E1,1.5481216E1,3.5356266E1,0E0,0E0,0E0,0E0,0E0,0E0,0E0,0E0],"parents":[2147483647,0,0,1,1,2,2,3,3,4,4,5,5,6,6],"right_children":[2,4,6,8,10,12,14,-1,-1,-1,-1,-1,-1,-1,-1],"split_conditions":[4.81E-1,1.08E2,1.23E2,1.05E2,1.14E2,1.11E2,1.27E2,3.395981E-3,-8.738732E-3,8.627061E-3,2.2672855E-3,1.0134959E-4,-7.901616E-3,8.688276E-3,-3.3555438E-3],"split_indices":[3,26,26,13,13,13,13,0,0,0,0,0,0,0,0],"split_type":[0,0,0,0,0,0,0,0,0,0,0,0,0,0,0],"sum_hessian":[6.7947974E2,3.5711038E2,3.2236932E2,9.8370415E1,2.5873996E2,2.2586475E2,9.6504585E1,4.3931072E1,5.4439342E1,1.6880301E2,8.993696E1,2.7477385E1,1.9838736E2,4.3587296E1,5.291729E1],"tree_param":{"num_deleted":"0","num_feature":"27","num_nodes":"15","size_leaf_vector":"1"}},{"base_weights":[3.958212E-3,-3.7396193E-1,4.224678E-1,3.3398724E-1,-6.4336693E-1,6.9318664E-1,-2.1174885E-1,-3.395981E-3,8.738732E-3,-8.627061E-3,-2.267286E-3,-1.0134959E-4,7.901615E-3,-8.688276E-3,3.355545E-3],"categories":[],"categories_nodes":[],"categories_segments":[],"categories_sizes":[],"default_left":[0,0,0,0,0,0,0,0,0,0,0,0,0,0,0],"id":23,"left_children":[1,3,5,7,9,11,13,-1,-1,-1,-1,-1,-1,-1,-1],"loss_changes":[1.0778484E2,6.851549E1,5.5667484E1,3.6433743E1,2.354078E1,1.5481224E1,3.5356274E1,0E0,0E0,0E0,0E0,0E0,0E0,0E0,0E0],"parents":[2147483647,0,0,1,1,2,2,3,3,4,4,5,5,6,6],"right_children":[2,4,6,8,10,12,14,-1,-1,-1,-1,-1,-1,-1,-1],"split_conditions":[4.81E-1,1.08E2,1.23E2,1.05E2,1.14E2,1.11E2,1.27E2,-3.395981E-3,8.738732E-3,-8.627061E-3,-2.267286E-3,-1.0134959E-4,7.901615E-3,-8.688276E-3,3.355545E-3],"split_indices":[3,26,26,13,13,13,13,0,0,0,0,0,0,0,0],"split_type":[0,0,0,0,0,0,0,0,0,0,0,0,0,0,0],"sum_hessian":[6.794797E2,3.5711038E2,3.2236932E2,9.8370415E1,2.5873996E2,2.2586475E2,9.6504585E1,4.3931072E1,5.443934E1,1.68803E2,8.9936966E1,2.7477385E1,1.9838736E2,4.3587296E1,5.2917286E1],"tree_param":{"num_deleted":"0","num_feature":"27","num_nodes":"15","size_leaf_vector":"1"}},{"base_weights":[-3.9185677E-3,-3.752057E-1,4.1698697E-1,3.392541E-1,-6.3786936E-1,7.259414E-1,-2.725747E-1,-4.6385117E-3,8.538044E-3,-8.89261E-3,-1.7027054E-3,3.701756E-3,8.901649E-3,-7.912191E-3,4.740749E-3],"categories":[],"categories_nodes":[],"categories_segments":[],"categories_sizes":[],"default_left":[0,0,0,0,0,0,0,0,0,0,0,0,0,0,0],"id":24,"left_children":[1,3,5,7,9,11,13,-1,-1,-1,-1,-1,-1,-1,-1],"loss_changes":[1.0637438E2,6.8084785E1,6.816441E1,4.0839386E1,3.0973778E1,1.2558403E1,3.888216E1,0E0,0E0,0E0,0E0,0E0,0E0,0E0,0E0],"parents":[2147483647,0,0,1,1,2,2,3,3,4,4,5,5,6,6],"right_children":[2,4,6,8,10,12,14,-1,-1,-1,-1,-1,-1,-1,-1],"split_conditions":[4.81E-1,1.08E2,1.23E2,1.04E2,1.14E2,1.18E2,1.3E2,-4.6385117E-3,8.538044E-3,-8.89261E-3,-1.7027054E-3,3.701756E-3,8.901649E-3,-7.912191E-3,4.740749E-3],"split_indices":[16,13,13,26,26,26,26,0,0,0,0,0,0,0,0],"split_type":[0,0,0,0,0,0,0,0,0,0,0,0,0,0,0],"sum_hessian":[6.7867816E2,3.60651E2,3.1802713E2,9.686936E1,2.6378165E2,2.1958879E2,9.843834E1,3.786639E1,5.9002968E1,1.7096516E2,9.281648E1,7.037846E1,1.4921033E2,5.805321E1,4.038513E1],"tree_param":{"num_deleted":"0","num_feature":"27","num_nodes":"15","size_leaf_vector":"1"}},{"base_weights":[3.9185784E-3,3.752057E-1,-4.1698694E-1,-3.3925402E-1,6.378693E-1,-7.2594136E-1,2.7257466E-1,4.638512E-3,-8.538044E-3,8.89261E-3,1.7027053E-3,-3.7017555E-3,-8.901649E-3,7.912191E-3,-4.740749E-3],"categories":[],"categories_nodes":[],"categories_segments":[],"categories_sizes":[],"default_left":[0,0,0,0,0,0,0,0,0,0,0,0,0,0,0],"id":25,"left_children":[1,3,5,7,9,11,13,-1,-1,-1,-1,-1,-1,-1,-1],"loss_changes":[1.06374374E2,6.808477E1,6.816441E1,4.0839386E1,3.0973785E1,1.2558411E1,3.888216E1,0E0,0E0,0E0,0E0,0E0,0E0,0E0,0E0],"parents":[2147483647,0,0,1,1,2,2,3,3,4,4,5,5,6,6],"right_children":[2,4,6,8,10,12,14,-1,-1,-1,-1,-1,-1,-1,-1],"split_conditions":[4.81E-1,1.08E2,1.23E2,1.04E2,1.14E2,1.18E2,1.3E2,4.638512E-3,-8.538044E-3,8.89261E-3,1.7027053E-3,-3.7017555E-3,-8.901649E-3,7.912191E-3,-4.740749E-3],"split_indices":[16,13,13,26,26,26,26,0,0,0,0,0,0,0,0],"split_type":[0,0,0,0,0,0,0,0,0,0,0,0,0,0,0],"sum_hessian":[6.7867816E2,3.60651E2,3.1802713E2,9.686936E1,2.6378165E2,2.1958878E2,9.843834E1,3.786639E1,5.9002968E1,1.7096516E2,9.281648E1,7.037846E1,1.4921031E2,5.805321E1,4.038513E1],"tree_param":{"num_deleted":"0","num_feature":"27","num_nodes":"15","size_leaf_vector":"1"}},{"base_weights":[-3.87907E-3,3.6849302E-1,-4.1623878E-1,-3.2814875E-1,6.336493E-1,-6.827072E-1,2.0755444E-1,3.3589713E-3,-8.619346E-3,8.507002E-3,2.2255532E-3,-2.9995958E-3,-8.604384E-3,7.766597E-3,-4.085663E-3],"categories":[],"categories_nodes":[],"categories_segments":[],"categories_sizes":[],"default_left":[0,0,0,0,0,0,0,0,0,0,0,0,0,0,0],"id":26,"left_children":[1,3,5,7,9,11,13,-1,-1,-1,-1,-1,-1,-1,-1],"loss_changes":[1.04421234E2,6.621776E1,5.377959E1,3.544353E1,2.2936523E1,1.5138786E1,3.4452827E1,0E0,0E0,0E0,0E0,0E0,0E0,0E0,0E0],"parents":[2147483647,0,0,1,1,2,2,3,3,4,4,5,5,6,6],"right_children":[2,4,6,8,10,12,14,-1,-1,-1,-1,-1,-1,-1,-1],"split_conditions":[4.81E-1,1.08E2,1.23E2,1.05E2,1.14E2,1.18E2,1.29E2,3.3589713E-3,-8.619346E-3,8.507002E-3,2.2255532E-3,-2.9995958E-3,-8.604384E-3,7.766597E-3,-4.085663E-3],"split_indices":[3,26,26,13,13,13,13,0,0,0,0,0,0,0,0],"split_type":[0,0,0,0,0,0,0,0,0,0,0,0,0,0,0],"sum_hessian":[6.7804266E2,3.5635275E2,3.2168988E2,9.817671E1,2.5817603E2,2.253372E2,9.635269E1,4.3915375E1,5.426134E1,1.682653E2,8.991073E1,7.23081E1,1.530291E2,4.995195E1,4.640074E1],"tree_param":{"num_deleted":"0","num_feature":"27","num_nodes":"15","size_leaf_vector":"1"}},{"base_weights":[3.8790433E-3,-3.6849308E-1,4.1623878E-1,3.2814872E-1,-6.3364935E-1,6.827072E-1,-2.0755443E-1,-3.3589718E-3,8.619345E-3,-8.507004E-3,-2.225553E-3,2.9995956E-3,8.604384E-3,-7.766597E-3,4.0856632E-3],"categories":[],"categories_nodes":[],"categories_segments":[],"categories_sizes":[],"default_left":[0,0,0,0,0,0,0,0,0,0,0,0,0,0,0],"id":27,"left_children":[1,3,5,7,9,11,13,-1,-1,-1,-1,-1,-1,-1,-1],"loss_changes":[1.0442124E2,6.621775E1,5.377959E1,3.5443527E1,2.2936531E1,1.5138763E1,3.445283E1,0E0,0E0,0E0,0E0,0E0,0E0,0E0,0E0],"parents":[2147483647,0,0,1,1,2,2,3,3,4,4,5,5,6,6],"right_children":[2,4,6,8,10,12,14,-1,-1,-1,-1,-1,-1,-1,-1],"split_conditions":[4.81E-1,1.08E2,1.23E2,1.05E2,1.14E2,1.18E2,1.29E2,-3.3589718E-3,8.619345E-3,-8.507004E-3,-2.225553E-3,2.9995956E-3,8.604384E-3,-7.766597E-3,4.0856632E-3],"split_indices":[3,26,26,13,13,13,13,0,0,0,0,0,0,0,0],"split_type":[0,0,0,0,0,0,0,0,0,0,0,0,0,0,0],"sum_hessian":[6.7804266E2,3.5635275E2,3.2168988E2,9.817671E1,2.5817603E2,2.253372E2,9.635269E1,4.391537E1,5.426134E1,1.682653E2,8.991073E1,7.23081E1,1.530291E2,4.995195E1,4.640074E1],"tree_param":{"num_deleted":"0","num_feature":"27","num_nodes":"15","size_leaf_vector":"1"}},{"base_weights":[-3.8491236E-3,-3.700161E-1,4.112499E-1,3.3325323E-1,-6.286925E-1,7.1555996E-1,-2.6733643E-1,-4.5951623E-3,8.422868E-3,-8.770531E-3,-1.6753945E-3,3.643338E-3,8.778853E-3,-7.8033516E-3,4.69715E-3],"categories":[],"categories_nodes":[],"categories_segments":[],"categories_sizes":[],"default_left":[0,0,0,0,0,0,0,0,0,0,0,0,0,0,0],"id":28,"left_children":[1,3,5,7,9,11,13,-1,-1,-1,-1,-1,-1,-1,-1],"loss_changes":[1.0322634E2,6.585187E1,6.592183E1,3.9807426E1,3.0106468E1,1.222467E1,3.7904003E1,0E0,0E0,0E0,0E0,0E0,0E0,0E0,0E0],"parents":[2147483647,0,0,1,1,2,2,3,3,4,4,5,5,6,6],"right_children":[2,4,6,8,10,12,14,-1,-1,-1,-1,-1,-1,-1,-1],"split_conditions":[4.81E-1,1.08E2,1.23E2,1.04E2,1.14E2,1.18E2,1.3E2,-4.5951623E-3,8.422868E-3,-8.770531E-3,-1.6753945E-3,3.643338E-3,8.778853E-3,-7.8033516E-3,4.69715E-3],"split_indices":[16,13,13,26,26,26,26,0,0,0,0,0,0,0,0],"split_type":[0,0,0,0,0,0,0,0,0,0,0,0,0,0,0],"sum_hessian":[6.771393E2,3.5983255E2,3.1730673E2,9.668489E1,2.6314767E2,2.1902925E2,9.8277504E1,3.7843956E1,5.884093E1,1.704484E2,9.269927E1,7.025715E1,1.487721E2,5.7911507E1,4.0365997E1],"tree_param":{"num_deleted":"0","num_feature":"27","num_nodes":"15","size_leaf_vector":"1"}},{"base_weights":[3.8491196E-3,3.700161E-1,-4.112499E-1,-3.332532E-1,6.286925E-1,-7.1555996E-1,2.6733643E-1,4.5951623E-3,-8.422868E-3,8.770531E-3,1.6753942E-3,-3.6433383E-3,-8.778852E-3,7.8033516E-3,-4.69715E-3],"categories":[],"categories_nodes":[],"categories_segments":[],"categories_sizes":[],"default_left":[0,0,0,0,0,0,0,0,0,0,0,0,0,0,0],"id":29,"left_children":[1,3,5,7,9,11,13,-1,-1,-1,-1,-1,-1,-1,-1],"loss_changes":[1.0322632E2,6.5851875E1,6.5921844E1,3.9807426E1,3.0106476E1,1.2224663E1,3.7904003E1,0E0,0E0,0E0,0E0,0E0,0E0,0E0,0E0],"parents":[2147483647,0,0,1,1,2,2,3,3,4,4,5,5,6,6],"right_children":[2,4,6,8,10,12,14,-1,-1,-1,-1,-1,-1,-1,-1],"split_conditions":[4.81E-1,1.08E2,1.23E2,1.04E2,1.14E2,1.18E2,1.3E2,4.5951623E-3,-8.422868E-3,8.770531E-3,1.6753942E-3,-3.6433383E-3,-8.778852E-3,7.8033516E-3,-4.69715E-3],"split_indices":[16,13,13,26,26,26,26,0,0,0,0,0,0,0,0],"split_type":[0,0,0,0,0,0,0,0,0,0,0,0,0,0,0],"sum_hessian":[6.771393E2,3.5983255E2,3.1730676E2,9.668489E1,2.6314767E2,2.1902925E2,9.8277504E1,3.7843956E1,5.884093E1,1.704484E2,9.269928E1,7.025715E1,1.487721E2,5.791151E1,4.0365997E1],"tree_param":{"num_deleted":"0","num_feature":"27","num_nodes":"15","size_leaf_vector":"1"}},{"base_weights":[-3.8108865E-3,-3.6673155E-1,4.0761873E-1,3.302702E-1,-6.2315226E-1,7.093568E-1,-2.6489618E-1,-4.5506377E-3,8.352479E-3,-8.698199E-3,-1.6589301E-3,3.608573E-3,8.706465E-3,-7.736293E-3,4.6514794E-3],"categories":[],"categories_nodes":[],"categories_segments":[],"categories_sizes":[],"default_left":[0,0,0,0,0,0,0,0,0,0,0,0,0,0,0],"id":30,"left_children":[1,3,5,7,9,11,13,-1,-1,-1,-1,-1,-1,-1,-1],"loss_changes":[1.01296364E2,6.462644E1,6.4708565E1,3.908362E1,2.9615608E1,1.2037994E1,3.720358E1,0E0,0E0,0E0,0E0,0E0,0E0,0E0,0E0],"parents":[2147483647,0,0,1,1,2,2,3,3,4,4,5,5,6,6],"right_children":[2,4,6,8,10,12,14,-1,-1,-1,-1,-1,-1,-1,-1],"split_conditions":[4.81E-1,1.08E2,1.23E2,1.04E2,1.14E2,1.18E2,1.3E2,-4.5506377E-3,8.352479E-3,-8.698199E-3,-1.6589301E-3,3.608573E-3,8.706465E-3,-7.736293E-3,4.6514794E-3],"split_indices":[16,13,13,26,26,26,26,0,0,0,0,0,0,0,0],"split_type":[0,0,0,0,0,0,0,0,0,0,0,0,0,0,0],"sum_hessian":[6.7639996E2,3.5944415E2,3.169558E2,9.65942E1,2.6284995E2,2.1875291E2,9.820291E1,3.784189E1,5.875231E1,1.7015689E2,9.269307E1,7.023442E1,1.485185E2,5.7838383E1,4.036453E1],"tree_param":{"num_deleted":"0","num_feature":"27","num_nodes":"15","size_leaf_vector":"1"}},{"base_weights":[3.8108977E-3,3.6673158E-1,-4.0761873E-1,-3.302702E-1,6.231523E-1,-7.093568E-1,2.648962E-1,4.5506367E-3,-8.352479E-3,8.698201E-3,1.6589297E-3,-3.608573E-3,-8.706465E-3,7.7362936E-3,-4.6514794E-3],"categories":[],"categories_nodes":[],"categories_segments":[],"categories_sizes":[],"default_left":[0,0,0,0,0,0,0,0,0,0,0,0,0,0,0],"id":31,"left_children":[1,3,5,7,9,11,13,-1,-1,-1,-1,-1,-1,-1,-1],"loss_changes":[1.01296364E2,6.462645E1,6.470857E1,3.908362E1,2.9615631E1,1.2037994E1,3.7203583E1,0E0,0E0,0E0,0E0,0E0,0E0,0E0,0E0],"parents":[2147483647,0,0,1,1,2,2,3,3,4,4,5,5,6,6],"right_children":[2,4,6,8,10,12,14,-1,-1,-1,-1,-1,-1,-1,-1],"split_conditions":[4.81E-1,1.08E2,1.23E2,1.04E2,1.14E2,1.18E2,1.3E2,4.5506367E-3,-8.352479E-3,8.698201E-3,1.6589297E-3,-3.608573E-3,-8.706465E-3,7.7362936E-3,-4.6514794E-3],"split_indices":[16,13,13,26,26,26,26,0,0,0,0,0,0,0,0],"split_type":[0,0,0,0,0,0,0,0,0,0,0,0,0,0,0],"sum_hessian":[6.7639996E2,3.5944415E2,3.169558E2,9.65942E1,2.6284995E2,2.1875291E2,9.820291E1,3.7841892E1,5.8752308E1,1.7015688E2,9.269307E1,7.023442E1,1.485185E2,5.7838383E1,4.036453E1],"tree_param":{"num_deleted":"0","num_feature":"27","num_nodes":"15","size_leaf_vector":"1"}},{"base_weights":[-3.7733456E-3,3.611746E-1,-4.0791777E-1,-3.196998E-1,6.204322E-1,-6.684913E-1,2.0121148E-1,3.318769E-3,-8.459774E-3,8.346125E-3,2.1660663E-3,-1.9671682E-3,-8.082007E-3,7.133036E-3,-4.6298895E-3],"categories":[],"categories_nodes":[],"categories_segments":[],"categories_sizes":[],"default_left":[0,0,0,0,0,0,0,0,0,0,0,0,0,0,0],"id":32,"left_children":[1,3,5,7,9,11,13,-1,-1,-1,-1,-1,-1,-1,-1],"loss_changes":[9.994021E1,6.3052788E1,5.1168446E1,3.4178417E1,2.2152954E1,1.4699135E1,3.3357887E1,0E0,0E0,0E0,0E0,0E0,0E0,0E0,0E0],"parents":[2147483647,0,0,1,1,2,2,3,3,4,4,5,5,6,6],"right_children":[2,4,6,8,10,12,14,-1,-1,-1,-1,-1,-1,-1,-1],"split_conditions":[4.81E-1,1.08E2,1.23E2,1.05E2,1.14E2,1.15E2,1.3E2,3.318769E-3,-8.459774E-3,8.346125E-3,2.1660663E-3,-1.9671682E-3,-8.082007E-3,7.133036E-3,-4.6298895E-3],"split_indices":[3,26,26,13,13,13,13,0,0,0,0,0,0,0,0],"split_type":[0,0,0,0,0,0,0,0,0,0,0,0,0,0,0],"sum_hessian":[6.756001E2,3.5507175E2,3.2052835E2,9.785285E1,2.572189E2,2.2442589E2,9.6102455E1,4.3886726E1,5.396613E1,1.6737833E2,8.984057E1,5.1826107E1,1.7259978E2,5.4223064E1,4.187939E1],"tree_param":{"num_deleted":"0","num_feature":"27","num_nodes":"15","size_leaf_vector":"1"}},{"base_weights":[3.7733482E-3,-3.611746E-1,4.0791777E-1,3.196998E-1,-6.204322E-1,6.684913E-1,-2.012115E-1,-3.318769E-3,8.459775E-3,-8.346125E-3,-2.1660663E-3,1.9671682E-3,8.082007E-3,-7.133037E-3,4.6298895E-3],"categories":[],"categories_nodes":[],"categories_segments":[],"categories_sizes":[],"default_left":[0,0,0,0,0,0,0,0,0,0,0,0,0,0,0],"id":33,"left_children":[1,3,5,7,9,11,13,-1,-1,-1,-1,-1,-1,-1,-1],"loss_changes":[9.994021E1,6.3052788E1,5.116844E1,3.4178417E1,2.2152954E1,1.4699135E1,3.335789E1,0E0,0E0,0E0,0E0,0E0,0E0,0E0,0E0],"parents":[2147483647,0,0,1,1,2,2,3,3,4,4,5,5,6,6],"right_children":[2,4,6,8,10,12,14,-1,-1,-1,-1,-1,-1,-1,-1],"split_conditions":[4.81E-1,1.08E2,1.23E2,1.05E2,1.14E2,1.15E2,1.3E2,-3.318769E-3,8.459775E-3,-8.346125E-3,-2.1660663E-3,1.9671682E-3,8.082007E-3,-7.133037E-3,4.6298895E-3],"split_indices":[3,26,26,13,13,13,13,0,0,0,0,0,0,0,0],"split_type":[0,0,0,0,0,0,0,0,0,0,0,0,0,0,0],"sum_hessian":[6.756001E2,3.5507175E2,3.2052835E2,9.785285E1,2.572189E2,2.2442589E2,9.6102455E1,4.3886726E1,5.396613E1,1.6737833E2,8.984057E1,5.1826107E1,1.7259978E2,5.4223064E1,4.1879395E1],"tree_param":{"num_deleted":"0","num_feature":"27","num_nodes":"15","size_leaf_vector":"1"}},{"base_weights":[-3.7446453E-3,-3.618305E-1,4.0219966E-1,3.2437956E-1,-6.1441725E-1,6.996821E-1,-2.6010904E-1,-4.510634E-3,8.243232E-3,-8.583265E-3,-1.6333265E-3,3.5525241E-3,8.593533E-3,-7.6353913E-3,4.6063326E-3],"categories":[],"categories_nodes":[],"categories_segments":[],"categories_sizes":[],"default_left":[0,0,0,0,0,0,0,0,0,0,0,0,0,0,0],"id":34,"left_children":[1,3,5,7,9,11,13,-1,-1,-1,-1,-1,-1,-1,-1],"loss_changes":[9.83498E1,6.2506298E1,6.2659588E1,3.8121033E1,2.8807358E1,1.1743729E1,3.627828E1,0E0,0E0,0E0,0E0,0E0,0E0,0E0,0E0],"parents":[2147483647,0,0,1,1,2,2,3,3,4,4,5,5,6,6],"right_children":[2,4,6,8,10,12,14,-1,-1,-1,-1,-1,-1,-1,-1],"split_conditions":[4.81E-1,1.08E2,1.23E2,1.04E2,1.14E2,1.18E2,1.3E2,-4.510634E-3,8.243232E-3,-8.583265E-3,-1.6333265E-3,3.5525241E-3,8.593533E-3,-7.6353913E-3,4.6063326E-3],"split_indices":[16,13,13,26,26,26,26,0,0,0,0,0,0,0,0],"split_type":[0,0,0,0,0,0,0,0,0,0,0,0,0,0,0],"sum_hessian":[6.7458E2,3.584754E2,3.1610458E2,9.637265E1,2.6210275E2,2.1809062E2,9.801398E1,3.7815804E1,5.8556847E1,1.6953137E2,9.257137E1,7.01005E1,1.4799011E2,5.7671635E1,4.0342342E1],"tree_param":{"num_deleted":"0","num_feature":"27","num_nodes":"15","size_leaf_vector":"1"}},{"base_weights":[3.7446474E-3,3.618305E-1,-4.0219966E-1,-3.243795E-1,6.1441725E-1,-6.996821E-1,2.6010907E-1,4.5106346E-3,-8.24323E-3,8.583265E-3,1.6333262E-3,-3.5525241E-3,-8.593534E-3,7.635392E-3,-4.606333E-3],"categories":[],"categories_nodes":[],"categories_segments":[],"categories_sizes":[],"default_left":[0,0,0,0,0,0,0,0,0,0,0,0,0,0,0],"id":35,"left_children":[1,3,5,7,9,11,13,-1,-1,-1,-1,-1,-1,-1,-1],"loss_changes":[9.83498E1,6.250629E1,6.2659603E1,3.8121033E1,2.8807358E1,1.1743713E1,3.6278286E1,0E0,0E0,0E0,0E0,0E0,0E0,0E0,0E0],"parents":[2147483647,0,0,1,1,2,2,3,3,4,4,5,5,6,6],"right_children":[2,4,6,8,10,12,14,-1,-1,-1,-1,-1,-1,-1,-1],"split_conditions":[4.81E-1,1.08E2,1.23E2,1.04E2,1.14E2,1.18E2,1.3E2,4.5106346E-3,-8.24323E-3,8.583265E-3,1.6333262E-3,-3.5525241E-3,-8.593534E-3,7.635392E-3,-4.606333E-3],"split_indices":[16,13,13,26,26,26,26,0,0,0,0,0,0,0,0],"split_type":[0,0,0,0,0,0,0,0,0,0,0,0,0,0,0],"sum_hessian":[6.7458E2,3.584754E2,3.161046E2,9.637266E1,2.6210275E2,2.1809062E2,9.801398E1,3.7815807E1,5.855685E1,1.6953137E2,9.257137E1,7.01005E1,1.4799013E2,5.7671635E1,4.0342342E1],"tree_param":{"num_deleted":"0","num_feature":"27","num_nodes":"15","size_leaf_vector":"1"}},{"base_weights":[-3.7082892E-3,3.561696E-1,-4.0222383E-1,-3.1430373E-1,6.115394E-1,-6.589603E-1,1.9724932E-1,3.2837423E-3,-8.353087E-3,8.23841E-3,2.1267552E-3,-2.8582835E-3,-8.334094E-3,7.0380545E-3,-4.583037E-3],"categories":[],"categories_nodes":[],"categories_segments":[],"categories_sizes":[],"default_left":[0,0,0,0,0,0,0,0,0,0,0,0,0,0,0],"id":36,"left_children":[1,3,5,7,9,11,13,-1,-1,-1,-1,-1,-1,-1,-1],"loss_changes":[9.6904564E1,6.0985023E1,4.9476418E1,3.3287514E1,2.1626778E1,1.4389114E1,3.250389E1,0E0,0E0,0E0,0E0,0E0,0E0,0E0,0E0],"parents":[2147483647,0,0,1,1,2,2,3,3,4,4,5,5,6,6],"right_children":[2,4,6,8,10,12,14,-1,-1,-1,-1,-1,-1,-1,-1],"split_conditions":[4.81E-1,1.08E2,1.23E2,1.05E2,1.14E2,1.18E2,1.3E2,3.2837423E-3,-8.353087E-3,8.23841E-3,2.1267552E-3,-2.8582835E-3,-8.334094E-3,7.0380545E-3,-4.583037E-3],"split_indices":[3,26,26,13,13,13,13,0,0,0,0,0,0,0,0],"split_type":[0,0,0,0,0,0,0,0,0,0,0,0,0,0,0],"sum_hessian":[6.7368536E2,3.5405954E2,3.1962582E2,9.759448E1,2.5646506E2,2.2371579E2,9.591002E1,4.386061E1,5.373387E1,1.6668102E2,8.978404E1,7.211225E1,1.5160353E2,5.406192E1,4.1848103E1],"tree_param":{"num_deleted":"0","num_feature":"27","num_nodes":"15","size_leaf_vector":"1"}},{"base_weights":[3.7082762E-3,-3.5616964E-1,4.0222386E-1,3.1430373E-1,-6.115395E-1,6.589603E-1,-1.9724932E-1,-3.283742E-3,8.353087E-3,-8.238411E-3,-2.1267554E-3,2.8582835E-3,8.334094E-3,-7.0380536E-3,4.5830365E-3],"categories":[],"categories_nodes":[],"categories_segments":[],"categories_sizes":[],"default_left":[0,0,0,0,0,0,0,0,0,0,0,0,0,0,0],"id":37,"left_children":[1,3,5,7,9,11,13,-1,-1,-1,-1,-1,-1,-1,-1],"loss_changes":[9.690457E1,6.0985027E1,4.9476418E1,3.328751E1,2.1626785E1,1.4389114E1,3.2503883E1,0E0,0E0,0E0,0E0,0E0,0E0,0E0,0E0],"parents":[2147483647,0,0,1,1,2,2,3,3,4,4,5,5,6,6],"right_children":[2,4,6,8,10,12,14,-1,-1,-1,-1,-1,-1,-1,-1],"split_conditions":[4.81E-1,1.08E2,1.23E2,1.05E2,1.14E2,1.18E2,1.3E2,-3.283742E-3,8.353087E-3,-8.238411E-3,-2.1267554E-3,2.8582835E-3,8.334094E-3,-7.0380536E-3,4.5830365E-3],"split_indices":[3,26,26,13,13,13,13,0,0,0,0,0,0,0,0],"split_type":[0,0,0,0,0,0,0,0,0,0,0,0,0,0,0],"sum_hessian":[6.7368536E2,3.5405954E2,3.1962582E2,9.759448E1,2.5646506E2,2.2371579E2,9.591002E1,4.386061E1,5.373387E1,1.6668102E2,8.9784035E1,7.211225E1,1.5160353E2,5.406192E1,4.1848103E1],"tree_param":{"num_deleted":"0","num_feature":"27","num_nodes":"15","size_leaf_vector":"1"}},{"base_weights":[-3.6826239E-3,-3.5709226E-1,3.9695838E-1,3.1880733E-1,-6.06027E-1,6.902761E-1,-2.5534233E-1,-4.4696955E-3,8.13961E-3,-8.4743295E-3,-1.6074545E-3,3.497419E-3,8.48442E-3,-7.536643E-3,4.5621525E-3],"categories":[],"categories_nodes":[],"categories_segments":[],"categories_sizes":[],"default_left":[0,0,0,0,0,0,0,0,0,0,0,0,0,0,0],"id":38,"left_children":[1,3,5,7,9,11,13,-1,-1,-1,-1,-1,-1,-1,-1],"loss_changes":[9.551383E1,6.0497524E1,6.0668888E1,3.7192352E1,2.8057518E1,1.1464676E1,3.5377007E1,0E0,0E0,0E0,0E0,0E0,0E0,0E0,0E0],"parents":[2147483647,0,0,1,1,2,2,3,3,4,4,5,5,6,6],"right_children":[2,4,6,8,10,12,14,-1,-1,-1,-1,-1,-1,-1,-1],"split_conditions":[4.81E-1,1.08E2,1.23E2,1.04E2,1.14E2,1.18E2,1.3E2,-4.4696955E-3,8.13961E-3,-8.4743295E-3,-1.6074545E-3,3.497419E-3,8.48442E-3,-7.536643E-3,4.5621525E-3],"split_indices":[16,13,13,26,26,26,26,0,0,0,0,0,0,0,0],"split_type":[0,0,0,0,0,0,0,0,0,0,0,0,0,0,0],"sum_hessian":[6.725774E2,3.574105E2,3.1516687E2,9.61275E1,2.61283E2,2.1736632E2,9.780055E1,3.7786434E1,5.834107E1,1.6884296E2,9.244004E1,6.9957596E1,1.4740872E2,5.7483917E1,4.031663E1],"tree_param":{"num_deleted":"0","num_feature":"27","num_nodes":"15","size_leaf_vector":"1"}},{"base_weights":[3.6825996E-3,3.5709223E-1,-3.9695838E-1,-3.1880742E-1,6.06027E-1,-6.902761E-1,2.5534227E-1,4.4696946E-3,-8.13961E-3,8.4743295E-3,1.6074543E-3,-3.4974192E-3,-8.48442E-3,7.5366423E-3,-4.562153E-3],"categories":[],"categories_nodes":[],"categories_segments":[],"categories_sizes":[],"default_left":[0,0,0,0,0,0,0,0,0,0,0,0,0,0,0],"id":39,"left_children":[1,3,5,7,9,11,13,-1,-1,-1,-1,-1,-1,-1,-1],"loss_changes":[9.551383E1,6.0497536E1,6.0668884E1,3.719235E1,2.8057518E1,1.1464668E1,3.5377007E1,0E0,0E0,0E0,0E0,0E0,0E0,0E0,0E0],"parents":[2147483647,0,0,1,1,2,2,3,3,4,4,5,5,6,6],"right_children":[2,4,6,8,10,12,14,-1,-1,-1,-1,-1,-1,-1,-1],"split_conditions":[4.81E-1,1.08E2,1.23E2,1.04E2,1.14E2,1.18E2,1.3E2,4.4696946E-3,-8.13961E-3,8.4743295E-3,1.6074543E-3,-3.4974192E-3,-8.48442E-3,7.5366423E-3,-4.562153E-3],"split_indices":[16,13,13,26,26,26,26,0,0,0,0,0,0,0,0],"split_type":[0,0,0,0,0,0,0,0,0,0,0,0,0,0,0],"sum_hessian":[6.725774E2,3.574105E2,3.1516687E2,9.61275E1,2.61283E2,2.1736632E2,9.780055E1,3.7786434E1,5.8341072E1,1.6884296E2,9.244004E1,6.9957596E1,1.4740872E2,5.7483917E1,4.0316635E1],"tree_param":{"num_deleted":"0","num_feature":"27","num_nodes":"15","size_leaf_vector":"1"}},{"base_weights":[-3.6473277E-3,3.513318E-1,-3.9672855E-1,-3.0906433E-1,6.029422E-1,-6.497756E-1,1.9338787E-1,3.2494979E-3,-8.25097E-3,8.135159E-3,2.0882948E-3,-1.8783986E-3,-7.874282E-3,8.229135E-3,-3.2394165E-3],"categories":[],"categories_nodes":[],"categories_segments":[],"categories_sizes":[],"default_left":[0,0,0,0,0,0,0,0,0,0,0,0,0,0,0],"id":40,"left_children":[1,3,5,7,9,11,13,-1,-1,-1,-1,-1,-1,-1,-1],"loss_changes":[9.3990105E1,5.9000595E1,4.7856197E1,3.2433334E1,2.1128883E1,1.4091568E1,3.1758736E1,0E0,0E0,0E0,0E0,0E0,0E0,0E0,0E0],"parents":[2147483647,0,0,1,1,2,2,3,3,4,4,5,5,6,6],"right_children":[2,4,6,8,10,12,14,-1,-1,-1,-1,-1,-1,-1,-1],"split_conditions":[4.81E-1,1.08E2,1.23E2,1.05E2,1.14E2,1.15E2,1.27E2,3.2494979E-3,-8.25097E-3,8.135159E-3,2.0882948E-3,-1.8783986E-3,-7.874282E-3,8.229135E-3,-3.2394165E-3],"split_indices":[3,26,26,13,13,13,13,0,0,0,0,0,0,0,0],"split_type":[0,0,0,0,0,0,0,0,0,0,0,0,0,0,0],"sum_hessian":[6.7159326E2,3.529561E2,3.1863718E2,9.731286E1,2.5564322E2,2.2293822E2,9.569896E1,4.3831E1,5.348186E1,1.659254E2,8.971781E1,5.172467E1,1.7121355E2,4.2901943E1,5.279702E1],"tree_param":{"num_deleted":"0","num_feature":"27","num_nodes":"15","size_leaf_vector":"1"}},{"base_weights":[3.6473263E-3,-3.513318E-1,3.9672855E-1,3.090643E-1,-6.029422E-1,6.497756E-1,-1.9338787E-1,-3.2494979E-3,8.25097E-3,-8.135159E-3,-2.0882955E-3,1.8783985E-3,7.874282E-3,-8.229135E-3,3.2394168E-3],"categories":[],"categories_nodes":[],"categories_segments":[],"categories_sizes":[],"default_left":[0,0,0,0,0,0,0,0,0,0,0,0,0,0,0],"id":41,"left_children":[1,3,5,7,9,11,13,-1,-1,-1,-1,-1,-1,-1,-1],"loss_changes":[9.3990105E1,5.9000576E1,4.7856197E1,3.2433334E1,2.1128876E1,1.4091568E1,3.1758736E1,0E0,0E0,0E0,0E0,0E0,0E0,0E0,0E0],"parents":[2147483647,0,0,1,1,2,2,3,3,4,4,5,5,6,6],"right_children":[2,4,6,8,10,12,14,-1,-1,-1,-1,-1,-1,-1,-1],"split_conditions":[4.81E-1,1.08E2,1.23E2,1.05E2,1.14E2,1.15E2,1.27E2,-3.2494979E-3,8.25097E-3,-8.135159E-3,-2.0882955E-3,1.8783985E-3,7.874282E-3,-8.229135E-3,3.2394168E-3],"split_indices":[3,26,26,13,13,13,13,0,0,0,0,0,0,0,0],"split_type":[0,0,0,0,0,0,0,0,0,0,0,0,0,0,0],"sum_hessian":[6.7159326E2,3.5295605E2,3.1863718E2,9.731286E1,2.556432E2,2.2293822E2,9.569896E1,4.3831E1,5.3481857E1,1.659254E2,8.9717804E1,5.172467E1,1.7121355E2,4.2901947E1,5.2797016E1],"tree_param":{"num_deleted":"0","num_feature":"27","num_nodes":"15","size_leaf_vector":"1"}},{"base_weights":[-3.6165675E-3,-3.5250774E-1,3.9191228E-1,3.1323463E-1,-5.978528E-1,6.811462E-1,-2.5044483E-1,-3.8313624E-3,8.471987E-3,-8.004126E-3,-7.9676893E-4,3.4439655E-3,8.379024E-3,-7.440893E-3,4.524402E-3],"categories":[],"categories_nodes":[],"categories_segments":[],"categories_sizes":[],"default_left":[0,0,0,0,0,0,0,0,0,0,0,0,0,0,0],"id":42,"left_children":[1,3,5,7,9,11,13,-1,-1,-1,-1,-1,-1,-1,-1],"loss_changes":[9.278889E1,5.8540497E1,5.8721207E1,3.634125E1,2.7372787E1,1.1196304E1,3.4539448E1,0E0,0E0,0E0,0E0,0E0,0E0,0E0,0E0],"parents":[2147483647,0,0,1,1,2,2,3,3,4,4,5,5,6,6],"right_children":[2,4,6,8,10,12,14,-1,-1,-1,-1,-1,-1,-1,-1],"split_conditions":[4.81E-1,1.08E2,1.23E2,1.05E2,1.16E2,1.18E2,1.3E2,-3.8313624E-3,8.471987E-3,-8.004126E-3,-7.9676893E-4,3.4439655E-3,8.379024E-3,-7.440893E-3,4.524402E-3],"split_indices":[16,13,13,26,26,26,26,0,0,0,0,0,0,0,0],"split_type":[0,0,0,0,0,0,0,0,0,0,0,0,0,0,0],"sum_hessian":[6.7039905E2,3.5625748E2,3.1414157E2,9.586141E1,2.6039606E2,2.1656744E2,9.7574135E1,4.1726345E1,5.4135067E1,1.8682121E2,7.3574844E1,6.9805565E1,1.4676187E2,5.7284164E1,4.028997E1],"tree_param":{"num_deleted":"0","num_feature":"27","num_nodes":"15","size_leaf_vector":"1"}},{"base_weights":[3.616585E-3,3.5250774E-1,-3.9191228E-1,-3.1323466E-1,5.978528E-1,-6.811462E-1,2.5044483E-1,3.8313617E-3,-8.471987E-3,8.004126E-3,7.967691E-4,-3.443965E-3,-8.379024E-3,7.440893E-3,-4.524402E-3],"categories":[],"categories_nodes":[],"categories_segments":[],"categories_sizes":[],"default_left":[0,0,0,0,0,0,0,0,0,0,0,0,0,0,0],"id":43,"left_children":[1,3,5,7,9,11,13,-1,-1,-1,-1,-1,-1,-1,-1],"loss_changes":[9.278889E1,5.85405E1,5.87212E1,3.6341248E1,2.7372787E1,1.1196304E1,3.4539448E1,0E0,0E0,0E0,0E0,0E0,0E0,0E0,0E0],"parents":[2147483647,0,0,1,1,2,2,3,3,4,4,5,5,6,6],"right_children":[2,4,6,8,10,12,14,-1,-1,-1,-1,-1,-1,-1,-1],"split_conditions":[4.81E-1,1.08E2,1.23E2,1.05E2,1.16E2,1.18E2,1.3E2,3.8313617E-3,-8.471987E-3,8.004126E-3,7.967691E-4,-3.443965E-3,-8.379024E-3,7.440893E-3,-4.524402E-3],"split_indices":[16,13,13,26,26,26,26,0,0,0,0,0,0,0,0],"split_type":[0,0,0,0,0,0,0,0,0,0,0,0,0,0,0],"sum_hessian":[6.7039905E2,3.5625748E2,3.1414157E2,9.5861404E1,2.6039606E2,2.1656744E2,9.757414E1,4.172634E1,5.4135067E1,1.8682121E2,7.3574844E1,6.9805565E1,1.4676187E2,5.728417E1,4.028997E1],"tree_param":{"num_deleted":"0","num_feature":"27","num_nodes":"15","size_leaf_vector":"1"}},{"base_weights":[-3.5789243E-3,3.4663185E-1,-3.913872E-1,-3.0395198E-1,5.9461737E-1,-6.407921E-1,1.8952428E-1,5.133144E-3,-6.9601713E-3,8.035626E-3,2.0514908E-3,-2.747986E-3,-8.130454E-3,6.8692593E-3,-4.506077E-3],"categories":[],"categories_nodes":[],"categories_segments":[],"categories_sizes":[],"default_left":[0,0,0,0,0,0,0,0,0,0,0,0,0,0,0],"id":44,"left_children":[1,3,5,7,9,11,13,-1,-1,-1,-1,-1,-1,-1,-1],"loss_changes":[9.11769E1,5.7095367E1,4.6275425E1,3.1764744E1,2.0647705E1,1.3841797E1,3.102245E1,0E0,0E0,0E0,0E0,0E0,0E0,0E0,0E0],"parents":[2147483647,0,0,1,1,2,2,3,3,4,4,5,5,6,6],"right_children":[2,4,6,8,10,12,14,-1,-1,-1,-1,-1,-1,-1,-1],"split_conditions":[4.81E-1,1.08E2,1.23E2,1.02E2,1.14E2,1.18E2,1.3E2,5.133144E-3,-6.9601713E-3,8.035626E-3,2.0514908E-3,-2.747986E-3,-8.130454E-3,6.8692593E-3,-4.506077E-3],"split_indices":[3,26,26,13,13,13,13,0,0,0,0,0,0,0,0],"split_type":[0,0,0,0,0,0,0,0,0,0,0,0,0,0,0],"sum_hessian":[6.693345E2,3.5177222E2,3.1756223E2,9.701916E1,2.5475307E2,2.2210289E2,9.5459335E1,3.135334E1,6.566582E1,1.6511012E2,8.9642944E1,7.1909454E1,1.5019344E2,5.367734E1,4.1781994E1],"tree_param":{"num_deleted":"0","num_feature":"27","num_nodes":"15","size_leaf_vector":"1"}},{"base_weights":[3.5788976E-3,-3.466319E-1,3.9138716E-1,3.0395192E-1,-5.9461737E-1,6.407921E-1,-1.8952428E-1,-5.1331446E-3,6.960171E-3,-8.035627E-3,-2.0514913E-3,2.7479858E-3,8.130454E-3,-6.8692593E-3,4.506077E-3],"categories":[],"categories_nodes":[],"categories_segments":[],"categories_sizes":[],"default_left":[0,0,0,0,0,0,0,0,0,0,0,0,0,0,0],"id":45,"left_children":[1,3,5,7,9,11,13,-1,-1,-1,-1,-1,-1,-1,-1],"loss_changes":[9.117691E1,5.7095364E1,4.6275417E1,3.1764742E1,2.0647705E1,1.3841789E1,3.1022451E1,0E0,0E0,0E0,0E0,0E0,0E0,0E0,0E0],"parents":[2147483647,0,0,1,1,2,2,3,3,4,4,5,5,6,6],"right_children":[2,4,6,8,10,12,14,-1,-1,-1,-1,-1,-1,-1,-1],"split_conditions":[4.81E-1,1.08E2,1.23E2,1.02E2,1.14E2,1.18E2,1.3E2,-5.1331446E-3,6.960171E-3,-8.035627E-3,-2.0514913E-3,2.7479858E-3,8.130454E-3,-6.8692593E-3,4.506077E-3],"split_indices":[3,26,26,13,13,13,13,0,0,0,0,0,0,0,0],"split_type":[0,0,0,0,0,0,0,0,0,0,0,0,0,0,0],"sum_hessian":[6.693345E2,3.5177222E2,3.1756223E2,9.701916E1,2.5475307E2,2.2210289E2,9.5459335E1,3.135334E1,6.566582E1,1.6511012E2,8.9642944E1,7.1909454E1,1.5019344E2,5.367734E1,4.1781994E1],"tree_param":{"num_deleted":"0","num_feature":"27","num_nodes":"15","size_leaf_vector":"1"}},{"base_weights":[-3.54998E-3,-3.4803015E-1,3.8700902E-1,3.0847216E-1,-5.9012365E-1,6.723659E-1,-2.4592414E-1,-4.387334E-3,7.949058E-3,-8.273533E-3,-1.5508905E-3,3.3910174E-3,8.278746E-3,-7.3490427E-3,4.481922E-3],"categories":[],"categories_nodes":[],"categories_segments":[],"categories_sizes":[],"default_left":[0,0,0,0,0,0,0,0,0,0,0,0,0,0,0],"id":46,"left_children":[1,3,5,7,9,11,13,-1,-1,-1,-1,-1,-1,-1,-1],"loss_changes":[9.015566E1,5.6770912E1,5.6886887E1,3.5452805E1,2.6752914E1,1.0951347E1,3.3701202E1,0E0,0E0,0E0,0E0,0E0,0E0,0E0,0E0],"parents":[2147483647,0,0,1,1,2,2,3,3,4,4,5,5,6,6],"right_children":[2,4,6,8,10,12,14,-1,-1,-1,-1,-1,-1,-1,-1],"split_conditions":[4.81E-1,1.08E2,1.23E2,1.04E2,1.14E2,1.18E2,1.3E2,-4.387334E-3,7.949058E-3,-8.273533E-3,-1.5508905E-3,3.3910174E-3,8.278746E-3,-7.3490427E-3,4.481922E-3],"split_indices":[16,13,13,26,26,26,26,0,0,0,0,0,0,0,0],"split_type":[0,0,0,0,0,0,0,0,0,0,0,0,0,0,0],"sum_hessian":[6.681027E2,3.5505057E2,3.130522E2,9.5581406E1,2.5946915E2,2.1572887E2,9.7323296E1,3.772717E1,5.7854237E1,1.6732368E2,9.214546E1,6.96486E1,1.4608028E2,5.7064575E1,4.025872E1],"tree_param":{"num_deleted":"0","num_feature":"27","num_nodes":"15","size_leaf_vector":"1"}},{"base_weights":[3.54998E-3,3.4803015E-1,-3.8700902E-1,-3.084722E-1,5.9012365E-1,-6.723659E-1,2.4592416E-1,4.3873335E-3,-7.949058E-3,8.273534E-3,1.5508905E-3,-3.3910174E-3,-8.278746E-3,7.3490427E-3,-4.481921E-3],"categories":[],"categories_nodes":[],"categories_segments":[],"categories_sizes":[],"default_left":[0,0,0,0,0,0,0,0,0,0,0,0,0,0,0],"id":47,"left_children":[1,3,5,7,9,11,13,-1,-1,-1,-1,-1,-1,-1,-1],"loss_changes":[9.015566E1,5.6770916E1,5.6886887E1,3.5452805E1,2.6752914E1,1.0951347E1,3.37012E1,0E0,0E0,0E0,0E0,0E0,0E0,0E0,0E0],"parents":[2147483647,0,0,1,1,2,2,3,3,4,4,5,5,6,6],"right_children":[2,4,6,8,10,12,14,-1,-1,-1,-1,-1,-1,-1,-1],"split_conditions":[4.81E-1,1.08E2,1.23E2,1.04E2,1.14E2,1.18E2,1.3E2,4.3873335E-3,-7.949058E-3,8.273534E-3,1.5508905E-3,-3.3910174E-3,-8.278746E-3,7.3490427E-3,-4.481921E-3],"split_indices":[16,13,13,26,26,26,26,0,0,0,0,0,0,0,0],"split_type":[0,0,0,0,0,0,0,0,0,0,0,0,0,0,0],"sum_hessian":[6.681027E2,3.5505057E2,3.130522E2,9.5581406E1,2.5946915E2,2.1572888E2,9.7323296E1,3.7727165E1,5.7854237E1,1.673237E2,9.214546E1,6.964859E1,1.4608029E2,5.7064575E1,4.025872E1],"tree_param":{"num_deleted":"0","num_feature":"27","num_nodes":"15","size_leaf_vector":"1"}},{"base_weights":[-3.5167949E-3,-3.4515348E-1,3.8383824E-1,3.058929E-1,-5.8528847E-1,6.670031E-1,-2.4380493E-1,-3.7574652E-3,8.31738E-3,-8.213115E-3,-1.5357042E-3,3.3592083E-3,8.218327E-3,-7.2912253E-3,4.439223E-3],"categories":[],"categories_nodes":[],"categories_segments":[],"categories_sizes":[],"default_left":[0,0,0,0,0,0,0,0,0,0,0,0,0,0,0],"id":48,"left_children":[1,3,5,7,9,11,13,-1,-1,-1,-1,-1,-1,-1,-1],"loss_changes":[8.852624E1,5.574971E1,5.5880985E1,3.4878437E1,2.6368164E1,1.0812096E1,3.3099365E1,0E0,0E0,0E0,0E0,0E0,0E0,0E0,0E0],"parents":[2147483647,0,0,1,1,2,2,3,3,4,4,5,5,6,6],"right_children":[2,4,6,8,10,12,14,-1,-1,-1,-1,-1,-1,-1,-1],"split_conditions":[4.81E-1,1.08E2,1.23E2,1.05E2,1.14E2,1.18E2,1.3E2,-3.7574652E-3,8.31738E-3,-8.213115E-3,-1.5357042E-3,3.3592083E-3,8.218327E-3,-7.2912253E-3,4.439223E-3],"split_indices":[16,13,13,26,26,26,26,0,0,0,0,0,0,0,0],"split_type":[0,0,0,0,0,0,0,0,0,0,0,0,0,0,0],"sum_hessian":[6.6695605E2,3.5444983E2,3.1250623E2,9.5435165E1,2.5901465E2,2.1530666E2,9.719957E1,4.1685184E1,5.374998E1,1.6687862E2,9.213604E1,6.961468E1,1.4569199E2,5.695042E1,4.024915E1],"tree_param":{"num_deleted":"0","num_feature":"27","num_nodes":"15","size_leaf_vector":"1"}},{"base_weights":[3.5167744E-3,3.4515345E-1,-3.8383827E-1,-3.0589288E-1,5.852884E-1,-6.670031E-1,2.4380486E-1,3.7574652E-3,-8.31738E-3,8.213115E-3,1.5357038E-3,-3.3592083E-3,-8.218327E-3,7.2912243E-3,-4.4392236E-3],"categories":[],"categories_nodes":[],"categories_segments":[],"categories_sizes":[],"default_left":[0,0,0,0,0,0,0,0,0,0,0,0,0,0,0],"id":49,"left_children":[1,3,5,7,9,11,13,-1,-1,-1,-1,-1,-1,-1,-1],"loss_changes":[8.852624E1,5.5749702E1,5.5880974E1,3.4878433E1,2.6368172E1,1.0812103E1,3.3099365E1,0E0,0E0,0E0,0E0,0E0,0E0,0E0,0E0],"parents":[2147483647,0,0,1,1,2,2,3,3,4,4,5,5,6,6],"right_children":[2,4,6,8,10,12,14,-1,-1,-1,-1,-1,-1,-1,-1],"split_conditions":[4.81E-1,1.08E2,1.23E2,1.05E2,1.14E2,1.18E2,1.3E2,3.7574652E-3,-8.31738E-3,8.213115E-3,1.5357038E-3,-3.3592083E-3,-8.218327E-3,7.2912243E-3,-4.4392236E-3],"split_indices":[16,13,13,26,26,26,26,0,0,0,0,0,0,0,0],"split_type":[0,0,0,0,0,0,0,0,0,0,0,0,0,0,0],"sum_hessian":[6.6695605E2,3.544498E2,3.1250623E2,9.5435165E1,2.5901465E2,2.1530666E2,9.719957E1,4.1685184E1,5.374998E1,1.6687862E2,9.213604E1,6.961467E1,1.4569199E2,5.6950417E1,4.024915E1],"tree_param":{"num_deleted":"0","num_feature":"27","num_nodes":"15","size_leaf_vector":"1"}},{"base_weights":[-3.4825795E-3,3.403816E-1,-3.8428926E-1,-3.8965932E-1,5.52141E-1,-6.2871933E-1,1.8382236E-1,4.2935545E-3,-7.930552E-3,7.5731874E-3,1.568589E-3,-2.67533E-3,-7.995671E-3,7.2357953E-3,-3.9035182E-3],"categories":[],"categories_nodes":[],"categories_segments":[],"categories_sizes":[],"default_left":[0,0,0,0,0,0,0,0,0,0,0,0,0,0,0],"id":50,"left_children":[1,3,5,7,9,11,13,-1,-1,-1,-1,-1,-1,-1,-1],"loss_changes":[8.744041E1,5.4462814E1,4.411522E1,2.6601624E1,2.1975334E1,1.3470718E1,3.0062351E1,0E0,0E0,0E0,0E0,0E0,0E0,0E0,0E0],"parents":[2147483647,0,0,1,1,2,2,3,3,4,4,5,5,6,6],"right_children":[2,4,6,8,10,12,14,-1,-1,-1,-1,-1,-1,-1,-1],"split_conditions":[4.81E-1,1.06E2,1.23E2,1.02E2,1.14E2,1.18E2,1.29E2,4.2935545E-3,-7.930552E-3,7.5731874E-3,1.568589E-3,-2.67533E-3,-7.995671E-3,7.2357953E-3,-3.9035182E-3],"split_indices":[3,26,26,13,13,13,13,0,0,0,0,0,0,0,0],"split_type":[0,0,0,0,0,0,0,0,0,0,0,0,0,0,0],"sum_hessian":[6.6576154E2,3.4990625E2,3.158553E2,7.848589E1,2.7142035E2,2.2076462E2,9.509067E1,2.5879131E1,5.2606762E1,1.7807281E2,9.334754E1,7.171632E1,1.490483E2,4.8880215E1,4.6210453E1],"tree_param":{"num_deleted":"0","num_feature":"27","num_nodes":"15","size_leaf_vector":"1"}},{"base_weights":[3.4825471E-3,-3.4038162E-1,3.8428923E-1,3.896593E-1,-5.52141E-1,6.2871933E-1,-1.8382238E-1,-4.2935545E-3,7.930552E-3,-7.5731874E-3,-1.5685891E-3,2.6753303E-3,7.995671E-3,-7.2357943E-3,3.9035177E-3],"categories":[],"categories_nodes":[],"categories_segments":[],"categories_sizes":[],"default_left":[0,0,0,0,0,0,0,0,0,0,0,0,0,0,0],"id":51,"left_children":[1,3,5,7,9,11,13,-1,-1,-1,-1,-1,-1,-1,-1],"loss_changes":[8.7440414E1,5.4462803E1,4.4115227E1,2.6601622E1,2.1975334E1,1.3470711E1,3.0062347E1,0E0,0E0,0E0,0E0,0E0,0E0,0E0,0E0],"parents":[2147483647,0,0,1,1,2,2,3,3,4,4,5,5,6,6],"right_children":[2,4,6,8,10,12,14,-1,-1,-1,-1,-1,-1,-1,-1],"split_conditions":[4.81E-1,1.06E2,1.23E2,1.02E2,1.14E2,1.18E2,1.29E2,-4.2935545E-3,7.930552E-3,-7.5731874E-3,-1.5685891E-3,2.6753303E-3,7.995671E-3,-7.2357943E-3,3.9035177E-3],"split_indices":[3,26,26,13,13,13,13,0,0,0,0,0,0,0,0],"split_type":[0,0,0,0,0,0,0,0,0,0,0,0,0,0,0],"sum_hessian":[6.6576154E2,3.4990625E2,3.158553E2,7.848589E1,2.7142038E2,2.207646E2,9.509067E1,2.5879131E1,5.260676E1,1.7807283E2,9.334754E1,7.171632E1,1.490483E2,4.8880215E1,4.6210457E1],"tree_param":{"num_deleted":"0","num_feature":"27","num_nodes":"15","size_leaf_vector":"1"}},{"base_weights":[-3.457514E-3,-3.4091687E-1,3.791872E-1,3.0127394E-1,-5.7792604E-1,6.5856117E-1,-2.3923321E-1,-4.2962795E-3,7.7993106E-3,-7.764106E-3,-7.448447E-4,3.30226E-3,8.1254495E-3,-7.203367E-3,4.402119E-3],"categories":[],"categories_nodes":[],"categories_segments":[],"categories_sizes":[],"default_left":[0,0,0,0,0,0,0,0,0,0,0,0,0,0,0],"id":52,"left_children":[1,3,5,7,9,11,13,-1,-1,-1,-1,-1,-1,-1,-1],"loss_changes":[8.605764E1,5.407492E1,5.411784E1,3.3963562E1,2.5823906E1,1.0622009E1,3.2326088E1,0E0,0E0,0E0,0E0,0E0,0E0,0E0,0E0],"parents":[2147483647,0,0,1,1,2,2,3,3,4,4,5,5,6,6],"right_children":[2,4,6,8,10,12,14,-1,-1,-1,-1,-1,-1,-1,-1],"split_conditions":[4.81E-1,1.08E2,1.23E2,1.04E2,1.16E2,1.18E2,1.3E2,-4.2962795E-3,7.7993106E-3,-7.764106E-3,-7.448447E-4,3.30226E-3,8.1254495E-3,-7.203367E-3,4.402119E-3],"split_indices":[16,13,13,26,26,26,26,0,0,0,0,0,0,0,0],"split_type":[0,0,0,0,0,0,0,0,0,0,0,0,0,0,0],"sum_hessian":[6.6445605E2,3.5313275E2,3.1132333E2,9.512219E1,2.5801056E2,2.144016E2,9.692172E1,3.768311E1,5.7439083E1,1.8466368E2,7.334688E1,6.945317E1,1.4494843E2,5.670775E1,4.021397E1],"tree_param":{"num_deleted":"0","num_feature":"27","num_nodes":"15","size_leaf_vector":"1"}},{"base_weights":[3.457527E-3,3.4091687E-1,-3.7918717E-1,-3.0127394E-1,5.7792604E-1,-6.5856117E-1,2.3923324E-1,4.29628E-3,-7.7993106E-3,7.764106E-3,7.448449E-4,-3.3022596E-3,-8.1254495E-3,7.203367E-3,-4.402119E-3],"categories":[],"categories_nodes":[],"categories_segments":[],"categories_sizes":[],"default_left":[0,0,0,0,0,0,0,0,0,0,0,0,0,0,0],"id":53,"left_children":[1,3,5,7,9,11,13,-1,-1,-1,-1,-1,-1,-1,-1],"loss_changes":[8.605764E1,5.4074913E1,5.4117832E1,3.3963566E1,2.5823906E1,1.0622009E1,3.232609E1,0E0,0E0,0E0,0E0,0E0,0E0,0E0,0E0],"parents":[2147483647,0,0,1,1,2,2,3,3,4,4,5,5,6,6],"right_children":[2,4,6,8,10,12,14,-1,-1,-1,-1,-1,-1,-1,-1],"split_conditions":[4.81E-1,1.08E2,1.23E2,1.04E2,1.16E2,1.18E2,1.3E2,4.29628E-3,-7.7993106E-3,7.764106E-3,7.448449E-4,-3.3022596E-3,-8.1254495E-3,7.203367E-3,-4.402119E-3],"split_indices":[16,13,13,26,26,26,26,0,0,0,0,0,0,0,0],"split_type":[0,0,0,0,0,0,0,0,0,0,0,0,0,0,0],"sum_hessian":[6.6445605E2,3.5313275E2,3.113233E2,9.512219E1,2.5801056E2,2.144016E2,9.692172E1,3.7683105E1,5.7439083E1,1.8466368E2,7.334688E1,6.945317E1,1.4494843E2,5.670775E1,4.0213974E1],"tree_param":{"num_deleted":"0","num_feature":"27","num_nodes":"15","size_leaf_vector":"1"}},{"base_weights":[-3.4239332E-3,3.3599147E-1,-3.7937933E-1,-2.9248E-1,5.759656E-1,-6.2048525E-1,1.8016687E-1,5.0348523E-3,-6.771991E-3,7.81554E-3,1.9672734E-3,-1.7260021E-3,-7.556037E-3,6.6760336E-3,-4.423699E-3],"categories":[],"categories_nodes":[],"categories_segments":[],"categories_sizes":[],"default_left":[0,0,0,0,0,0,0,0,0,0,0,0,0,0,0],"id":54,"left_children":[1,3,5,7,9,11,13,-1,-1,-1,-1,-1,-1,-1,-1],"loss_changes":[8.488235E1,5.2892807E1,4.2690037E1,3.0125608E1,1.9597427E1,1.3231247E1,2.937021E1,0E0,0E0,0E0,0E0,0E0,0E0,0E0,0E0],"parents":[2147483647,0,0,1,1,2,2,3,3,4,4,5,5,6,6],"right_children":[2,4,6,8,10,12,14,-1,-1,-1,-1,-1,-1,-1,-1],"split_conditions":[4.81E-1,1.08E2,1.23E2,1.02E2,1.14E2,1.15E2,1.3E2,5.0348523E-3,-6.771991E-3,7.81554E-3,1.9672734E-3,-1.7260021E-3,-7.556037E-3,6.6760336E-3,-4.423699E-3],"split_indices":[3,26,26,13,13,13,13,0,0,0,0,0,0,0,0],"split_type":[0,0,0,0,0,0,0,0,0,0,0,0,0,0,0],"sum_hessian":[6.631969E2,3.4859186E2,3.1460507E2,9.626455E1,2.523273E2,2.1978976E2,9.4815315E1,3.1266655E1,6.4997894E1,1.629369E2,8.939039E1,5.1466904E1,1.6832286E2,5.313727E1,4.167804E1],"tree_param":{"num_deleted":"0","num_feature":"27","num_nodes":"15","size_leaf_vector":"1"}},{"base_weights":[3.4239404E-3,-3.3599144E-1,3.7937933E-1,2.9247996E-1,-5.759656E-1,6.2048525E-1,-1.8016686E-1,-5.0348532E-3,6.771991E-3,-7.81554E-3,-1.967273E-3,1.7260021E-3,7.5560375E-3,-6.6760336E-3,4.4236993E-3],"categories":[],"categories_nodes":[],"categories_segments":[],"categories_sizes":[],"default_left":[0,0,0,0,0,0,0,0,0,0,0,0,0,0,0],"id":55,"left_children":[1,3,5,7,9,11,13,-1,-1,-1,-1,-1,-1,-1,-1],"loss_changes":[8.488234E1,5.289281E1,4.2690037E1,3.0125614E1,1.9597404E1,1.3231247E1,2.937021E1,0E0,0E0,0E0,0E0,0E0,0E0,0E0,0E0],"parents":[2147483647,0,0,1,1,2,2,3,3,4,4,5,5,6,6],"right_children":[2,4,6,8,10,12,14,-1,-1,-1,-1,-1,-1,-1,-1],"split_conditions":[4.81E-1,1.08E2,1.23E2,1.02E2,1.14E2,1.15E2,1.3E2,-5.0348532E-3,6.771991E-3,-7.81554E-3,-1.967273E-3,1.7260021E-3,7.5560375E-3,-6.6760336E-3,4.4236993E-3],"split_indices":[3,26,26,13,13,13,13,0,0,0,0,0,0,0,0],"split_type":[0,0,0,0,0,0,0,0,0,0,0,0,0,0,0],"sum_hessian":[6.631969E2,3.4859183E2,3.1460507E2,9.626455E1,2.5232729E2,2.1978975E2,9.4815315E1,3.1266655E1,6.4997894E1,1.629369E2,8.939039E1,5.1466904E1,1.6832285E2,5.313727E1,4.167804E1],"tree_param":{"num_deleted":"0","num_feature":"27","num_nodes":"15","size_leaf_vector":"1"}},{"base_weights":[-3.395134E-3,-3.367943E-1,3.746807E-1,2.9667568E-1,-5.7074165E-1,6.505603E-1,-2.3508228E-1,-3.6749023E-3,8.134263E-3,-8.034468E-3,-1.4806018E-3,3.2524504E-3,8.035846E-3,-7.120489E-3,4.3619215E-3],"categories":[],"categories_nodes":[],"categories_segments":[],"categories_sizes":[],"default_left":[0,0,0,0,0,0,0,0,0,0,0,0,0,0,0],"id":56,"left_children":[1,3,5,7,9,11,13,-1,-1,-1,-1,-1,-1,-1,-1],"loss_changes":[8.367364E1,5.24453E1,5.248126E1,3.317643E1,2.5252838E1,1.0413475E1,3.1570316E1,0E0,0E0,0E0,0E0,0E0,0E0,0E0,0E0],"parents":[2147483647,0,0,1,1,2,2,3,3,4,4,5,5,6,6],"right_children":[2,4,6,8,10,12,14,-1,-1,-1,-1,-1,-1,-1,-1],"split_conditions":[4.81E-1,1.08E2,1.23E2,1.05E2,1.14E2,1.18E2,1.3E2,-3.6749023E-3,8.134263E-3,-8.034468E-3,-1.4806018E-3,3.2524504E-3,8.035846E-3,-7.120489E-3,4.3619215E-3],"split_indices":[16,13,13,26,26,26,26,0,0,0,0,0,0,0,0],"split_type":[0,0,0,0,0,0,0,0,0,0,0,0,0,0,0],"sum_hessian":[6.618111E2,3.517426E2,3.100685E2,9.4794655E1,2.5694794E2,2.1343541E2,9.6633095E1,4.160705E1,5.3187603E1,1.6513364E2,9.181432E1,6.927938E1,1.4415602E2,5.6457264E1,4.017583E1],"tree_param":{"num_deleted":"0","num_feature":"27","num_nodes":"15","size_leaf_vector":"1"}},{"base_weights":[3.3951353E-3,3.367943E-1,-3.7468067E-1,-2.966757E-1,5.7074165E-1,-6.505603E-1,2.3508233E-1,3.674902E-3,-8.134263E-3,8.034468E-3,1.4806015E-3,-3.2524508E-3,-8.035845E-3,7.12049E-3,-4.3619215E-3],"categories":[],"categories_nodes":[],"categories_segments":[],"categories_sizes":[],"default_left":[0,0,0,0,0,0,0,0,0,0,0,0,0,0,0],"id":57,"left_children":[1,3,5,7,9,11,13,-1,-1,-1,-1,-1,-1,-1,-1],"loss_changes":[8.367364E1,5.2445297E1,5.2481255E1,3.3176426E1,2.5252853E1,1.0413475E1,3.1570324E1,0E0,0E0,0E0,0E0,0E0,0E0,0E0,0E0],"parents":[2147483647,0,0,1,1,2,2,3,3,4,4,5,5,6,6],"right_children":[2,4,6,8,10,12,14,-1,-1,-1,-1,-1,-1,-1,-1],"split_conditions":[4.81E-1,1.08E2,1.23E2,1.05E2,1.14E2,1.18E2,1.3E2,3.674902E-3,-8.134263E-3,8.034468E-3,1.4806015E-3,-3.2524508E-3,-8.035845E-3,7.12049E-3,-4.3619215E-3],"split_indices":[16,13,13,26,26,26,26,0,0,0,0,0,0,0,0],"split_type":[0,0,0,0,0,0,0,0,0,0,0,0,0,0,0],"sum_hessian":[6.618111E2,3.5174258E2,3.100685E2,9.4794655E1,2.5694794E2,2.1343542E2,9.6633095E1,4.1607048E1,5.3187603E1,1.6513362E2,9.1814316E1,6.927939E1,1.4415604E2,5.6457268E1,4.0175827E1],"tree_param":{"num_deleted":"0","num_feature":"27","num_nodes":"15","size_leaf_vector":"1"}},{"base_weights":[-3.362713E-3,3.317737E-1,-3.7459764E-1,-2.8758287E-1,5.684692E-1,-6.1253875E-1,1.767073E-1,3.1589018E-3,-7.882835E-3,7.7287536E-3,1.9322868E-3,-2.5736522E-3,-7.818726E-3,7.847526E-3,-3.1388912E-3],"categories":[],"categories_nodes":[],"categories_segments":[],"categories_sizes":[],"default_left":[0,0,0,0,0,0,0,0,0,0,0,0,0,0,0],"id":58,"left_children":[1,3,5,7,9,11,13,-1,-1,-1,-1,-1,-1,-1,-1],"loss_changes":[8.2421646E1,5.1205055E1,4.1338383E1,2.9538017E1,1.9197762E1,1.3016594E1,2.8744265E1,0E0,0E0,0E0,0E0,0E0,0E0,0E0,0E0],"parents":[2147483647,0,0,1,1,2,2,3,3,4,4,5,5,6,6],"right_children":[2,4,6,8,10,12,14,-1,-1,-1,-1,-1,-1,-1,-1],"split_conditions":[4.81E-1,1.08E2,1.23E2,1.05E2,1.14E2,1.18E2,1.27E2,3.1589018E-3,-7.882835E-3,7.7287536E-3,1.9322868E-3,-2.5736522E-3,-7.818726E-3,7.847526E-3,-3.1388912E-3],"split_indices":[3,26,26,13,13,13,13,0,0,0,0,0,0,0,0],"split_type":[0,0,0,0,0,0,0,0,0,0,0,0,0,0,0],"sum_hessian":[6.60478E2,3.4717145E2,3.1330655E2,9.5932304E1,2.5123915E2,2.1877362E2,9.453294E1,4.3669018E1,5.2263287E1,1.619564E2,8.928275E1,7.144317E1,1.4733044E2,4.1945763E1,5.2587177E1],"tree_param":{"num_deleted":"0","num_feature":"27","num_nodes":"15","size_leaf_vector":"1"}},{"base_weights":[3.3626924E-3,-3.3177376E-1,3.7459764E-1,2.8758284E-1,-5.684693E-1,6.1253875E-1,-1.7670734E-1,-3.1589018E-3,7.882835E-3,-7.728754E-3,-1.9322868E-3,2.573652E-3,7.818726E-3,-7.847527E-3,3.1388912E-3],"categories":[],"categories_nodes":[],"categories_segments":[],"categories_sizes":[],"default_left":[0,0,0,0,0,0,0,0,0,0,0,0,0,0,0],"id":59,"left_children":[1,3,5,7,9,11,13,-1,-1,-1,-1,-1,-1,-1,-1],"loss_changes":[8.242164E1,5.120505E1,4.133839E1,2.9538017E1,1.919777E1,1.3016594E1,2.8744268E1,0E0,0E0,0E0,0E0,0E0,0E0,0E0,0E0],"parents":[2147483647,0,0,1,1,2,2,3,3,4,4,5,5,6,6],"right_children":[2,4,6,8,10,12,14,-1,-1,-1,-1,-1,-1,-1,-1],"split_conditions":[4.81E-1,1.08E2,1.23E2,1.05E2,1.14E2,1.18E2,1.27E2,-3.1589018E-3,7.882835E-3,-7.728754E-3,-1.9322868E-3,2.573652E-3,7.818726E-3,-7.847527E-3,3.1388912E-3],"split_indices":[3,26,26,13,13,13,13,0,0,0,0,0,0,0,0],"split_type":[0,0,0,0,0,0,0,0,0,0,0,0,0,0,0],"sum_hessian":[6.60478E2,3.4717145E2,3.1330658E2,9.59323E1,2.5123915E2,2.1877362E2,9.453294E1,4.3669018E1,5.2263283E1,1.619564E2,8.928275E1,7.144317E1,1.4733046E2,4.1945763E1,5.2587177E1],"tree_param":{"num_deleted":"0","num_feature":"27","num_nodes":"15","size_leaf_vector":"1"}},{"base_weights":[-3.3377723E-3,-3.328201E-1,3.7032193E-1,2.9185414E-1,-5.636849E-1,6.426404E-1,-2.3056813E-1,-4.2202272E-3,7.633162E-3,-7.94763E-3,-1.4568061E-3,3.203639E-3,7.947289E-3,-7.0369574E-3,4.327465E-3],"categories":[],"categories_nodes":[],"categories_segments":[],"categories_sizes":[],"default_left":[0,0,0,0,0,0,0,0,0,0,0,0,0,0,0],"id":60,"left_children":[1,3,5,7,9,11,13,-1,-1,-1,-1,-1,-1,-1,-1],"loss_changes":[8.137741E1,5.082082E1,5.0831215E1,3.2445312E1,2.4689987E1,1.0205376E1,3.084979E1,0E0,0E0,0E0,0E0,0E0,0E0,0E0,0E0],"parents":[2147483647,0,0,1,1,2,2,3,3,4,4,5,5,6,6],"right_children":[2,4,6,8,10,12,14,-1,-1,-1,-1,-1,-1,-1,-1],"split_conditions":[4.81E-1,1.08E2,1.23E2,1.04E2,1.14E2,1.18E2,1.3E2,-4.2202272E-3,7.633162E-3,-7.94763E-3,-1.4568061E-3,3.203639E-3,7.947289E-3,-7.0369574E-3,4.327465E-3],"split_indices":[16,13,13,26,26,26,26,0,0,0,0,0,0,0,0],"split_type":[0,0,0,0,0,0,0,0,0,0,0,0,0,0,0],"sum_hessian":[6.5898987E2,3.502547E2,3.0873517E2,9.4443954E1,2.5581075E2,2.1240532E2,9.632984E1,3.7606274E1,5.6837677E1,1.6415976E2,9.165098E1,6.909631E1,1.43309E2,5.618993E1,4.0139915E1],"tree_param":{"num_deleted":"0","num_feature":"27","num_nodes":"15","size_leaf_vector":"1"}},{"base_weights":[3.3377672E-3,3.3282006E-1,-3.703219E-1,-2.9185414E-1,5.636848E-1,-6.4264035E-1,2.3056813E-1,4.220227E-3,-7.633162E-3,7.94763E-3,1.4568059E-3,-3.2036388E-3,-7.947289E-3,7.0369574E-3,-4.3274644E-3],"categories":[],"categories_nodes":[],"categories_segments":[],"categories_sizes":[],"default_left":[0,0,0,0,0,0,0,0,0,0,0,0,0,0,0],"id":61,"left_children":[1,3,5,7,9,11,13,-1,-1,-1,-1,-1,-1,-1,-1],"loss_changes":[8.1377396E1,5.082081E1,5.0831207E1,3.2445312E1,2.4689995E1,1.0205368E1,3.0849787E1,0E0,0E0,0E0,0E0,0E0,0E0,0E0,0E0],"parents":[2147483647,0,0,1,1,2,2,3,3,4,4,5,5,6,6],"right_children":[2,4,6,8,10,12,14,-1,-1,-1,-1,-1,-1,-1,-1],"split_conditions":[4.81E-1,1.08E2,1.23E2,1.04E2,1.14E2,1.18E2,1.3E2,4.220227E-3,-7.633162E-3,7.94763E-3,1.4568059E-3,-3.2036388E-3,-7.947289E-3,7.0369574E-3,-4.3274644E-3],"split_indices":[16,13,13,26,26,26,26,0,0,0,0,0,0,0,0],"split_type":[0,0,0,0,0,0,0,0,0,0,0,0,0,0,0],"sum_hessian":[6.5898987E2,3.502547E2,3.0873517E2,9.4443954E1,2.5581075E2,2.1240532E2,9.632984E1,3.7606277E1,5.6837677E1,1.6415976E2,9.165098E1,6.909631E1,1.43309E2,5.618993E1,4.0139915E1],"tree_param":{"num_deleted":"0","num_feature":"27","num_nodes":"15","size_leaf_vector":"1"}},{"base_weights":[-3.307765E-3,3.2770348E-1,-3.699848E-1,-2.8306055E-1,5.6123596E-1,-6.048731E-1,1.7337649E-1,4.958703E-3,-6.6240006E-3,7.6458203E-3,1.8979913E-3,-2.5282905E-3,-7.7345055E-3,6.5323305E-3,-4.351981E-3],"categories":[],"categories_nodes":[],"categories_segments":[],"categories_sizes":[],"default_left":[0,0,0,0,0,0,0,0,0,0,0,0,0,0,0],"id":62,"left_children":[1,3,5,7,9,11,13,-1,-1,-1,-1,-1,-1,-1,-1],"loss_changes":[8.005769E1,4.9604313E1,4.004432E1,2.885738E1,1.8821281E1,1.2784042E1,2.8092875E1,0E0,0E0,0E0,0E0,0E0,0E0,0E0,0E0],"parents":[2147483647,0,0,1,1,2,2,3,3,4,4,5,5,6,6],"right_children":[2,4,6,8,10,12,14,-1,-1,-1,-1,-1,-1,-1,-1],"split_conditions":[4.81E-1,1.08E2,1.23E2,1.02E2,1.14E2,1.18E2,1.3E2,4.958703E-3,-6.6240006E-3,7.6458203E-3,1.8979913E-3,-2.5282905E-3,-7.7345055E-3,6.5323305E-3,-4.351981E-3],"split_indices":[3,26,26,13,13,13,13,0,0,0,0,0,0,0,0],"split_type":[0,0,0,0,0,0,0,0,0,0,0,0,0,0,0],"sum_hessian":[6.5759485E2,3.456614E2,3.1193344E2,9.555132E1,2.5011009E2,2.1770786E2,9.42256E1,3.1192942E1,6.435838E1,1.6094244E2,8.916765E1,7.13033E1,1.4640454E2,5.2643333E1,4.1582264E1],"tree_param":{"num_deleted":"0","num_feature":"27","num_nodes":"15","size_leaf_vector":"1"}},{"base_weights":[3.307769E-3,-3.2770345E-1,3.699848E-1,2.8306058E-1,-5.6123596E-1,6.048731E-1,-1.7337653E-1,-4.9587027E-3,6.6240006E-3,-7.6458203E-3,-1.8979913E-3,2.5282907E-3,7.7345055E-3,-6.532331E-3,4.3519805E-3],"categories":[],"categories_nodes":[],"categories_segments":[],"categories_sizes":[],"default_left":[0,0,0,0,0,0,0,0,0,0,0,0,0,0,0],"id":63,"left_children":[1,3,5,7,9,11,13,-1,-1,-1,-1,-1,-1,-1,-1],"loss_changes":[8.005768E1,4.960431E1,4.0044323E1,2.8857378E1,1.882129E1,1.2784035E1,2.8092873E1,0E0,0E0,0E0,0E0,0E0,0E0,0E0,0E0],"parents":[2147483647,0,0,1,1,2,2,3,3,4,4,5,5,6,6],"right_children":[2,4,6,8,10,12,14,-1,-1,-1,-1,-1,-1,-1,-1],"split_conditions":[4.81E-1,1.08E2,1.23E2,1.02E2,1.14E2,1.18E2,1.3E2,-4.9587027E-3,6.6240006E-3,-7.6458203E-3,-1.8979913E-3,2.5282907E-3,7.7345055E-3,-6.532331E-3,4.3519805E-3],"split_indices":[3,26,26,13,13,13,13,0,0,0,0,0,0,0,0],"split_type":[0,0,0,0,0,0,0,0,0,0,0,0,0,0,0],"sum_hessian":[6.5759485E2,3.456614E2,3.1193344E2,9.555132E1,2.5011008E2,2.1770786E2,9.42256E1,3.1192944E1,6.435838E1,1.6094243E2,8.916765E1,7.13033E1,1.4640456E2,5.2643333E1,4.1582264E1],"tree_param":{"num_deleted":"0","num_feature":"27","num_nodes":"15","size_leaf_vector":"1"}},{"base_weights":[-3.2824434E-3,-3.2894054E-1,3.6607906E-1,2.8763407E-1,-5.569759E-1,6.35064E-1,-2.2651033E-1,-3.6097106E-3,7.970747E-3,-7.5149145E-3,-6.916691E-4,3.1555276E-3,7.863564E-3,-6.9580832E-3,4.2887116E-3],"categories":[],"categories_nodes":[],"categories_segments":[],"categories_sizes":[],"default_left":[0,0,0,0,0,0,0,0,0,0,0,0,0,0,0],"id":64,"left_children":[1,3,5,7,9,11,13,-1,-1,-1,-1,-1,-1,-1,-1],"loss_changes":[7.915903E1,4.9332764E1,4.9295662E1,3.1705635E1,2.4205597E1,1.00168915E1,3.0134945E1,0E0,0E0,0E0,0E0,0E0,0E0,0E0,0E0],"parents":[2147483647,0,0,1,1,2,2,3,3,4,4,5,5,6,6],"right_children":[2,4,6,8,10,12,14,-1,-1,-1,-1,-1,-1,-1,-1],"split_conditions":[4.81E-1,1.08E2,1.23E2,1.05E2,1.16E2,1.18E2,1.3E2,-3.6097106E-3,7.970747E-3,-7.5149145E-3,-6.916691E-4,3.1555276E-3,7.863564E-3,-6.9580832E-3,4.2887116E-3],"split_indices":[16,13,13,26,26,26,26,0,0,0,0,0,0,0,0],"split_type":[0,0,0,0,0,0,0,0,0,0,0,0,0,0,0],"sum_hessian":[6.560914E2,3.4873163E2,3.0735977E2,9.408313E1,2.546485E2,2.1135223E2,9.600752E1,4.1516697E1,5.2566433E1,1.8166743E2,7.298107E1,6.89095E1,1.4244273E2,5.5910263E1,4.009726E1],"tree_param":{"num_deleted":"0","num_feature":"27","num_nodes":"15","size_leaf_vector":"1"}},{"base_weights":[3.2824397E-3,3.2894054E-1,-3.6607903E-1,-2.8763407E-1,5.569759E-1,-6.3506395E-1,2.265103E-1,3.6097101E-3,-7.970747E-3,7.514914E-3,6.916691E-4,-3.155527E-3,-7.863564E-3,6.9580832E-3,-4.288712E-3],"categories":[],"categories_nodes":[],"categories_segments":[],"categories_sizes":[],"default_left":[0,0,0,0,0,0,0,0,0,0,0,0,0,0,0],"id":65,"left_children":[1,3,5,7,9,11,13,-1,-1,-1,-1,-1,-1,-1,-1],"loss_changes":[7.915902E1,4.933276E1,4.929566E1,3.1705635E1,2.4205597E1,1.00168915E1,3.0134945E1,0E0,0E0,0E0,0E0,0E0,0E0,0E0,0E0],"parents":[2147483647,0,0,1,1,2,2,3,3,4,4,5,5,6,6],"right_children":[2,4,6,8,10,12,14,-1,-1,-1,-1,-1,-1,-1,-1],"split_conditions":[4.81E-1,1.08E2,1.23E2,1.05E2,1.16E2,1.18E2,1.3E2,3.6097101E-3,-7.970747E-3,7.514914E-3,6.916691E-4,-3.155527E-3,-7.863564E-3,6.9580832E-3,-4.288712E-3],"split_indices":[16,13,13,26,26,26,26,0,0,0,0,0,0,0,0],"split_type":[0,0,0,0,0,0,0,0,0,0,0,0,0,0,0],"sum_hessian":[6.560914E2,3.4873163E2,3.0735977E2,9.408313E1,2.546485E2,2.1135223E2,9.600752E1,4.1516697E1,5.2566433E1,1.8166743E2,7.2981064E1,6.890951E1,1.4244273E2,5.5910263E1,4.009726E1],"tree_param":{"num_deleted":"0","num_feature":"27","num_nodes":"15","size_leaf_vector":"1"}},{"base_weights":[-3.249784E-3,3.2371455E-1,-3.6547995E-1,-3.6742947E-1,5.245992E-1,-5.9734875E-1,1.6992857E-1,4.169334E-3,-7.605575E-3,7.249891E-3,1.4540635E-3,-1.6029163E-3,-7.308945E-3,7.6931E-3,-3.0896983E-3],"categories":[],"categories_nodes":[],"categories_segments":[],"categories_sizes":[],"default_left":[0,0,0,0,0,0,0,0,0,0,0,0,0,0,0],"id":66,"left_children":[1,3,5,7,9,11,13,-1,-1,-1,-1,-1,-1,-1,-1],"loss_changes":[7.777014E1,4.8110073E1,3.8774544E1,2.4464485E1,2.0244919E1,1.2583435E1,2.7483149E1,0E0,0E0,0E0,0E0,0E0,0E0,0E0,0E0],"parents":[2147483647,0,0,1,1,2,2,3,3,4,4,5,5,6,6],"right_children":[2,4,6,8,10,12,14,-1,-1,-1,-1,-1,-1,-1,-1],"split_conditions":[4.81E-1,1.06E2,1.23E2,1.02E2,1.14E2,1.15E2,1.27E2,4.169334E-3,-7.605575E-3,7.249891E-3,1.4540635E-3,-1.6029163E-3,-7.308945E-3,7.6931E-3,-3.0896983E-3],"split_indices":[3,26,26,13,13,13,13,0,0,0,0,0,0,0,0],"split_type":[0,0,0,0,0,0,0,0,0,0,0,0,0,0,0],"sum_hessian":[6.5464185E2,3.441257E2,3.1051617E2,7.7310326E1,2.668154E2,2.1659842E2,9.391774E1,2.5791325E1,5.1518997E1,1.7396771E2,9.284768E1,5.1208347E1,1.6539008E2,4.144253E1,5.2475212E1],"tree_param":{"num_deleted":"0","num_feature":"27","num_nodes":"15","size_leaf_vector":"1"}},{"base_weights":[3.2498022E-3,-3.2371452E-1,3.6547998E-1,3.6742947E-1,-5.245992E-1,5.9734875E-1,-1.699285E-1,-4.169334E-3,7.605575E-3,-7.249891E-3,-1.4540635E-3,1.6029163E-3,7.308945E-3,-7.6930984E-3,3.0896987E-3],"categories":[],"categories_nodes":[],"categories_segments":[],"categories_sizes":[],"default_left":[0,0,0,0,0,0,0,0,0,0,0,0,0,0,0],"id":67,"left_children":[1,3,5,7,9,11,13,-1,-1,-1,-1,-1,-1,-1,-1],"loss_changes":[7.777014E1,4.8110077E1,3.8774532E1,2.4464489E1,2.0244919E1,1.2583427E1,2.7483147E1,0E0,0E0,0E0,0E0,0E0,0E0,0E0,0E0],"parents":[2147483647,0,0,1,1,2,2,3,3,4,4,5,5,6,6],"right_children":[2,4,6,8,10,12,14,-1,-1,-1,-1,-1,-1,-1,-1],"split_conditions":[4.81E-1,1.06E2,1.23E2,1.02E2,1.14E2,1.15E2,1.27E2,-4.169334E-3,7.605575E-3,-7.249891E-3,-1.4540635E-3,1.6029163E-3,7.308945E-3,-7.6930984E-3,3.0896987E-3],"split_indices":[3,26,26,13,13,13,13,0,0,0,0,0,0,0,0],"split_type":[0,0,0,0,0,0,0,0,0,0,0,0,0,0,0],"sum_hessian":[6.5464185E2,3.441257E2,3.1051617E2,7.7310326E1,2.668154E2,2.1659842E2,9.391774E1,2.5791325E1,5.1518997E1,1.7396771E2,9.284768E1,5.1208347E1,1.6539008E2,4.144253E1,5.2475212E1],"tree_param":{"num_deleted":"0","num_feature":"27","num_nodes":"15","size_leaf_vector":"1"}},{"base_weights":[-3.22341E-3,-3.2518E-1,3.6197627E-1,2.833445E-1,-5.5037045E-1,6.2761855E-1,-2.2221524E-1,-4.131285E-3,7.4750953E-3,-7.7887713E-3,-1.4042795E-3,1.4523225E-3,7.257916E-3,-6.880409E-3,4.2563537E-3],"categories":[],"categories_nodes":[],"categories_segments":[],"categories_sizes":[],"default_left":[0,0,0,0,0,0,0,0,0,0,0,0,0,0,0],"id":68,"left_children":[1,3,5,7,9,11,13,-1,-1,-1,-1,-1,-1,-1,-1],"loss_changes":[7.7027E1,4.786618E1,4.777328E1,3.0923557E1,2.3727325E1,9.899422E0,2.9470781E1,0E0,0E0,0E0,0E0,0E0,0E0,0E0,0E0],"parents":[2147483647,0,0,1,1,2,2,3,3,4,4,5,5,6,6],"right_children":[2,4,6,8,10,12,14,-1,-1,-1,-1,-1,-1,-1,-1],"split_conditions":[4.81E-1,1.08E2,1.23E2,1.04E2,1.14E2,1.13E2,1.3E2,-4.131285E-3,7.4750953E-3,-7.7887713E-3,-1.4042795E-3,1.4523225E-3,7.257916E-3,-6.880409E-3,4.2563537E-3],"split_indices":[16,13,13,26,26,26,26,0,0,0,0,0,0,0,0],"split_type":[0,0,0,0,0,0,0,0,0,0,0,0,0,0,0],"sum_hessian":[6.531104E2,3.4716373E2,3.059467E2,9.370085E1,2.5346289E2,2.1026233E2,9.568436E1,3.751703E1,5.618382E1,1.6216838E2,9.129452E1,3.5974808E1,1.7428752E2,5.5625664E1,4.0058697E1],"tree_param":{"num_deleted":"0","num_feature":"27","num_nodes":"15","size_leaf_vector":"1"}},{"base_weights":[3.2234008E-3,3.2518E-1,-3.619763E-1,-2.8334448E-1,5.5037045E-1,-6.2761855E-1,2.2221519E-1,4.1312845E-3,-7.4750944E-3,7.7887718E-3,1.4042796E-3,-1.4523225E-3,-7.257917E-3,6.880408E-3,-4.2563537E-3],"categories":[],"categories_nodes":[],"categories_segments":[],"categories_sizes":[],"default_left":[0,0,0,0,0,0,0,0,0,0,0,0,0,0,0],"id":69,"left_children":[1,3,5,7,9,11,13,-1,-1,-1,-1,-1,-1,-1,-1],"loss_changes":[7.7027E1,4.786618E1,4.7773285E1,3.0923553E1,2.3727325E1,9.899414E0,2.9470783E1,0E0,0E0,0E0,0E0,0E0,0E0,0E0,0E0],"parents":[2147483647,0,0,1,1,2,2,3,3,4,4,5,5,6,6],"right_children":[2,4,6,8,10,12,14,-1,-1,-1,-1,-1,-1,-1,-1],"split_conditions":[4.81E-1,1.08E2,1.23E2,1.04E2,1.14E2,1.13E2,1.3E2,4.1312845E-3,-7.4750944E-3,7.7887718E-3,1.4042796E-3,-1.4523225E-3,-7.257917E-3,6.880408E-3,-4.2563537E-3],"split_indices":[16,13,13,26,26,26,26,0,0,0,0,0,0,0,0],"split_type":[0,0,0,0,0,0,0,0,0,0,0,0,0,0,0],"sum_hessian":[6.531104E2,3.4716373E2,3.059467E2,9.370085E1,2.5346289E2,2.1026233E2,9.568436E1,3.7517033E1,5.618382E1,1.6216838E2,9.129452E1,3.5974808E1,1.7428752E2,5.562566E1,4.0058697E1],"tree_param":{"num_deleted":"0","num_feature":"27","num_nodes":"15","size_leaf_vector":"1"}},{"base_weights":[-3.1983927E-3,-3.2268086E-1,3.5921815E-1,2.8113845E-1,-5.4618186E-1,6.2300557E-1,-2.2040893E-1,-3.53797E-3,7.838569E-3,-7.738983E-3,-1.3905748E-3,3.0650133E-3,7.7378307E-3,-6.831136E-3,4.216608E-3],"categories":[],"categories_nodes":[],"categories_segments":[],"categories_sizes":[],"default_left":[0,0,0,0,0,0,0,0,0,0,0,0,0,0,0],"id":70,"left_children":[1,3,5,7,9,11,13,-1,-1,-1,-1,-1,-1,-1,-1],"loss_changes":[7.567841E1,4.703325E1,4.695959E1,3.0442307E1,2.3428497E1,9.818535E0,2.8961863E1,0E0,0E0,0E0,0E0,0E0,0E0,0E0,0E0],"parents":[2147483647,0,0,1,1,2,2,3,3,4,4,5,5,6,6],"right_children":[2,4,6,8,10,12,14,-1,-1,-1,-1,-1,-1,-1,-1],"split_conditions":[4.81E-1,1.08E2,1.23E2,1.05E2,1.14E2,1.18E2,1.3E2,-3.53797E-3,7.838569E-3,-7.738983E-3,-1.3905748E-3,3.0650133E-3,7.7378307E-3,-6.831136E-3,4.216608E-3],"split_indices":[16,13,13,26,26,26,26,0,0,0,0,0,0,0,0],"split_type":[0,0,0,0,0,0,0,0,0,0,0,0,0,0,0],"sum_hessian":[6.5160626E2,3.463748E2,3.0523148E2,9.350366E1,2.5287112E2,2.0971545E2,9.551602E1,4.1449284E1,5.205438E1,1.6158891E2,9.128222E1,6.864736E1,1.410681E2,5.5474586E1,4.0041435E1],"tree_param":{"num_deleted":"0","num_feature":"27","num_nodes":"15","size_leaf_vector":"1"}},{"base_weights":[3.1984127E-3,3.226809E-1,-3.5921812E-1,-2.8113845E-1,5.461819E-1,-6.230055E-1,2.2040899E-1,3.53797E-3,-7.838569E-3,7.738983E-3,1.3905751E-3,-3.0650133E-3,-7.7378307E-3,6.831137E-3,-4.216608E-3],"categories":[],"categories_nodes":[],"categories_segments":[],"categories_sizes":[],"default_left":[0,0,0,0,0,0,0,0,0,0,0,0,0,0,0],"id":71,"left_children":[1,3,5,7,9,11,13,-1,-1,-1,-1,-1,-1,-1,-1],"loss_changes":[7.5678406E1,4.7033253E1,4.69596E1,3.0442307E1,2.342849E1,9.8185425E0,2.8961863E1,0E0,0E0,0E0,0E0,0E0,0E0,0E0,0E0],"parents":[2147483647,0,0,1,1,2,2,3,3,4,4,5,5,6,6],"right_children":[2,4,6,8,10,12,14,-1,-1,-1,-1,-1,-1,-1,-1],"split_conditions":[4.81E-1,1.08E2,1.23E2,1.05E2,1.14E2,1.18E2,1.3E2,3.53797E-3,-7.838569E-3,7.738983E-3,1.3905751E-3,-3.0650133E-3,-7.7378307E-3,6.831137E-3,-4.216608E-3],"split_indices":[16,13,13,26,26,26,26,0,0,0,0,0,0,0,0],"split_type":[0,0,0,0,0,0,0,0,0,0,0,0,0,0,0],"sum_hessian":[6.5160626E2,3.463748E2,3.0523148E2,9.350366E1,2.5287112E2,2.0971545E2,9.551602E1,4.1449284E1,5.205438E1,1.6158891E2,9.128222E1,6.864736E1,1.410681E2,5.5474586E1,4.0041435E1],"tree_param":{"num_deleted":"0","num_feature":"27","num_nodes":"15","size_leaf_vector":"1"}},{"base_weights":[-3.1687343E-3,3.1845313E-1,-3.5953546E-1,-2.724534E-1,5.448935E-1,-5.8732784E-1,1.6505337E-1,3.0947137E-3,-7.637922E-3,7.459551E-3,1.8218847E-3,-2.4133201E-3,-7.5472305E-3,6.3743144E-3,-4.2842953E-3],"categories":[],"categories_nodes":[],"categories_segments":[],"categories_sizes":[],"default_left":[0,0,0,0,0,0,0,0,0,0,0,0,0,0,0],"id":72,"left_children":[1,3,5,7,9,11,13,-1,-1,-1,-1,-1,-1,-1,-1],"loss_changes":[7.473628E1,4.600939E1,3.7059692E1,2.7576714E1,1.7958694E1,1.2321678E1,2.6746534E1,0E0,0E0,0E0,0E0,0E0,0E0,0E0,0E0],"parents":[2147483647,0,0,1,1,2,2,3,3,4,4,5,5,6,6],"right_children":[2,4,6,8,10,12,14,-1,-1,-1,-1,-1,-1,-1,-1],"split_conditions":[4.81E-1,1.08E2,1.23E2,1.05E2,1.14E2,1.18E2,1.3E2,3.0947137E-3,-7.637922E-3,7.459551E-3,1.8218847E-3,-2.4133201E-3,-7.5472305E-3,6.3743144E-3,-4.2842953E-3],"split_indices":[3,26,26,13,13,13,13,0,0,0,0,0,0,0,0],"split_type":[0,0,0,0,0,0,0,0,0,0,0,0,0,0,0],"sum_hessian":[6.5006287E2,3.4174423E2,3.0831863E2,9.46216E1,2.4712262E2,2.148881E2,9.3430534E1,4.348711E1,5.1134487E1,1.5830905E2,8.8813576E1,7.0862114E1,1.44026E2,5.1981895E1,4.1448635E1],"tree_param":{"num_deleted":"0","num_feature":"27","num_nodes":"15","size_leaf_vector":"1"}},{"base_weights":[3.1687533E-3,-3.184531E-1,3.5953546E-1,2.7245343E-1,-5.4489344E-1,5.8732784E-1,-1.650534E-1,-3.0947134E-3,7.6379227E-3,-7.459551E-3,-1.8218847E-3,2.4133204E-3,7.547231E-3,-6.3743144E-3,4.2842943E-3],"categories":[],"categories_nodes":[],"categories_segments":[],"categories_sizes":[],"default_left":[0,0,0,0,0,0,0,0,0,0,0,0,0,0,0],"id":73,"left_children":[1,3,5,7,9,11,13,-1,-1,-1,-1,-1,-1,-1,-1],"loss_changes":[7.4736275E1,4.6009384E1,3.7059704E1,2.7576712E1,1.7958702E1,1.2321678E1,2.6746532E1,0E0,0E0,0E0,0E0,0E0,0E0,0E0,0E0],"parents":[2147483647,0,0,1,1,2,2,3,3,4,4,5,5,6,6],"right_children":[2,4,6,8,10,12,14,-1,-1,-1,-1,-1,-1,-1,-1],"split_conditions":[4.81E-1,1.08E2,1.23E2,1.05E2,1.14E2,1.18E2,1.3E2,-3.0947134E-3,7.6379227E-3,-7.459551E-3,-1.8218847E-3,2.4133204E-3,7.547231E-3,-6.3743144E-3,4.2842943E-3],"split_indices":[3,26,26,13,13,13,13,0,0,0,0,0,0,0,0],"split_type":[0,0,0,0,0,0,0,0,0,0,0,0,0,0,0],"sum_hessian":[6.5006287E2,3.4174423E2,3.0831866E2,9.46216E1,2.4712262E2,2.1488812E2,9.3430534E1,4.3487114E1,5.1134487E1,1.5830905E2,8.881357E1,7.086212E1,1.44026E2,5.1981895E1,4.144864E1],"tree_param":{"num_deleted":"0","num_feature":"27","num_nodes":"15","size_leaf_vector":"1"}},{"base_weights":[-3.1501937E-3,-3.191111E-1,3.5529038E-1,2.7669522E-1,-5.398231E-1,6.15995E-1,-2.1656032E-1,-5.5223606E-3,6.5572993E-3,-7.316226E-3,-6.4505934E-4,3.0196744E-3,7.66159E-3,-6.7581367E-3,4.179776E-3],"categories":[],"categories_nodes":[],"categories_segments":[],"categories_sizes":[],"default_left":[0,0,0,0,0,0,0,0,0,0,0,0,0,0,0],"id":74,"left_children":[1,3,5,7,9,11,13,-1,-1,-1,-1,-1,-1,-1,-1],"loss_changes":[7.366183E1,4.5607872E1,4.5563538E1,2.9928862E1,2.2979797E1,9.650879E0,2.8305347E1,0E0,0E0,0E0,0E0,0E0,0E0,0E0,0E0],"parents":[2147483647,0,0,1,1,2,2,3,3,4,4,5,5,6,6],"right_children":[2,4,6,8,10,12,14,-1,-1,-1,-1,-1,-1,-1,-1],"split_conditions":[4.81E-1,1.08E2,1.23E2,1.02E2,1.16E2,1.18E2,1.3E2,-5.5223606E-3,6.5572993E-3,-7.316226E-3,-6.4505934E-4,3.0196744E-3,7.66159E-3,-6.7581367E-3,4.179776E-3],"split_indices":[16,13,13,26,26,26,26,0,0,0,0,0,0,0,0],"split_type":[0,0,0,0,0,0,0,0,0,0,0,0,0,0,0],"sum_hessian":[6.48416E2,3.4468777E2,3.0372824E2,9.3103546E1,2.5158423E2,2.085664E2,9.516184E1,2.9070581E1,6.403297E1,1.7886826E2,7.2715965E1,6.8444374E1,1.4012204E2,5.5168224E1,3.9993618E1],"tree_param":{"num_deleted":"0","num_feature":"27","num_nodes":"15","size_leaf_vector":"1"}},{"base_weights":[3.1502037E-3,3.1911108E-1,-3.5529035E-1,-2.7669525E-1,5.398231E-1,-6.1599493E-1,2.1656036E-1,5.52236E-3,-6.5572993E-3,7.316226E-3,6.4506E-4,-3.0196744E-3,-7.6615894E-3,6.7581367E-3,-4.1797752E-3],"categories":[],"categories_nodes":[],"categories_segments":[],"categories_sizes":[],"default_left":[0,0,0,0,0,0,0,0,0,0,0,0,0,0,0],"id":75,"left_children":[1,3,5,7,9,11,13,-1,-1,-1,-1,-1,-1,-1,-1],"loss_changes":[7.366181E1,4.5607876E1,4.5563545E1,2.992886E1,2.297979E1,9.650871E0,2.8305347E1,0E0,0E0,0E0,0E0,0E0,0E0,0E0,0E0],"parents":[2147483647,0,0,1,1,2,2,3,3,4,4,5,5,6,6],"right_children":[2,4,6,8,10,12,14,-1,-1,-1,-1,-1,-1,-1,-1],"split_conditions":[4.81E-1,1.08E2,1.23E2,1.02E2,1.16E2,1.18E2,1.3E2,5.52236E-3,-6.5572993E-3,7.316226E-3,6.4506E-4,-3.0196744E-3,-7.6615894E-3,6.7581367E-3,-4.1797752E-3],"split_indices":[16,13,13,26,26,26,26,0,0,0,0,0,0,0,0],"split_type":[0,0,0,0,0,0,0,0,0,0,0,0,0,0,0],"sum_hessian":[6.48416E2,3.4468777E2,3.0372824E2,9.3103546E1,2.5158423E2,2.085664E2,9.516184E1,2.9070581E1,6.403297E1,1.7886826E2,7.2715965E1,6.844437E1,1.4012204E2,5.5168224E1,3.9993618E1],"tree_param":{"num_deleted":"0","num_feature":"27","num_nodes":"15","size_leaf_vector":"1"}},{"base_weights":[-3.1246252E-3,3.147305E-1,-3.5535005E-1,-2.6870278E-1,5.384605E-1,-5.8035165E-1,1.6179001E-1,4.8414427E-3,-6.4045456E-3,7.067078E-3,1.117561E-3,-2.3707997E-3,-7.4725454E-3,6.772274E-3,-3.7215096E-3],"categories":[],"categories_nodes":[],"categories_segments":[],"categories_sizes":[],"default_left":[0,0,0,0,0,0,0,0,0,0,0,0,0,0,0],"id":76,"left_children":[1,3,5,7,9,11,13,-1,-1,-1,-1,-1,-1,-1,-1],"loss_changes":[7.2643684E1,4.4665565E1,3.5906685E1,2.6955626E1,1.7644104E1,1.212294E1,2.6148268E1,0E0,0E0,0E0,0E0,0E0,0E0,0E0,0E0],"parents":[2147483647,0,0,1,1,2,2,3,3,4,4,5,5,6,6],"right_children":[2,4,6,8,10,12,14,-1,-1,-1,-1,-1,-1,-1,-1],"split_conditions":[4.81E-1,1.08E2,1.23E2,1.02E2,1.16E2,1.18E2,1.29E2,4.8414427E-3,-6.4045456E-3,7.067078E-3,1.117561E-3,-2.3707997E-3,-7.4725454E-3,6.772274E-3,-3.7215096E-3],"split_indices":[3,26,26,13,13,13,13,0,0,0,0,0,0,0,0],"split_type":[0,0,0,0,0,0,0,0,0,0,0,0,0,0,0],"sum_hessian":[6.468565E2,3.4007373E2,3.0678275E2,9.420612E1,2.458676E2,2.1368755E2,9.309521E1,3.1041203E1,6.3164917E1,1.758677E2,6.999989E1,7.0699425E1,1.4298813E2,4.7231827E1,4.5863377E1],"tree_param":{"num_deleted":"0","num_feature":"27","num_nodes":"15","size_leaf_vector":"1"}},{"base_weights":[3.1246007E-3,-3.1473053E-1,3.5535002E-1,2.6870275E-1,-5.384605E-1,5.8035165E-1,-1.6179001E-1,-4.841443E-3,6.404545E-3,-7.067078E-3,-1.1175609E-3,2.3708001E-3,7.472545E-3,-6.772274E-3,3.7215096E-3],"categories":[],"categories_nodes":[],"categories_segments":[],"categories_sizes":[],"default_left":[0,0,0,0,0,0,0,0,0,0,0,0,0,0,0],"id":77,"left_children":[1,3,5,7,9,11,13,-1,-1,-1,-1,-1,-1,-1,-1],"loss_changes":[7.2643684E1,4.466556E1,3.590668E1,2.6955624E1,1.7644104E1,1.212294E1,2.6148272E1,0E0,0E0,0E0,0E0,0E0,0E0,0E0,0E0],"parents":[2147483647,0,0,1,1,2,2,3,3,4,4,5,5,6,6],"right_children":[2,4,6,8,10,12,14,-1,-1,-1,-1,-1,-1,-1,-1],"split_conditions":[4.81E-1,1.08E2,1.23E2,1.02E2,1.16E2,1.18E2,1.29E2,-4.841443E-3,6.404545E-3,-7.067078E-3,