{"learner":{"attributes":{},"feature_names":[],"feature_types":[],"gradient_booster":{"model":{"gbtree_model_param":{"num_parallel_tree":"1","num_trees":"1500"},"iteration_indptr":[0,2,4,6,8,10,12,14,16,18,20,22,24,26,28,30,32,34,36,38,40,42,44,46,48,50,52,54,56,58,60,62,64,66,68,70,72,74,76,78,80,82,84,86,88,90,92,94,96,98,100,102,104,106,108,110,112,114,116,118,120,122,124,126,128,130,132,134,136,138,140,142,144,146,148,150,152,154,156,158,160,162,164,166,168,170,172,174,176,178,180,182,184,186,188,190,192,194,196,198,200,202,204,206,208,210,212,214,216,218,220,222,224,226,228,230,232,234,236,238,240,242,244,246,248,250,252,254,256,258,260,262,264,266,268,270,272,274,276,278,280,282,284,286,288,290,292,294,296,298,300,302,304,306,308,310,312,314,316,318,320,322,324,326,328,330,332,334,336,338,340,342,344,346,348,350,352,354,356,358,360,362,364,366,368,370,372,374,376,378,380,382,384,386,388,390,392,394,396,398,400,402,404,406,408,410,412,414,416,418,420,422,424,426,428,430,432,434,436,438,440,442,444,446,448,450,452,454,456,458,460,462,464,466,468,470,472,474,476,478,480,482,484,486,488,490,492,494,496,498,500,502,504,506,508,510,512,514,516,518,520,522,524,526,528,530,532,534,536,538,540,542,544,546,548,550,552,554,556,558,560,562,564,566,568,570,572,574,576,578,580,582,584,586,588,590,592,594,596,598,600,602,604,606,608,610,612,614,616,618,620,622,624,626,628,630,632,634,636,638,640,642,644,646,648,650,652,654,656,658,660,662,664,666,668,670,672,674,676,678,680,682,684,686,688,690,692,694,696,698,700,702,704,706,708,710,712,714,716,718,720,722,724,726,728,730,732,734,736,738,740,742,744,746,748,750,752,754,756,758,760,762,764,766,768,770,772,774,776,778,780,782,784,786,788,790,792,794,796,798,800,802,804,806,808,810,812,814,816,818,820,822,824,826,828,830,832,834,836,838,840,842,844,846,848,850,852,854,856,858,860,862,864,866,868,870,872,874,876,878,880,882,884,886,888,890,892,894,896,898,900,902,904,906,908,910,912,914,916,918,920,922,924,926,928,930,932,934,936,938,940,942,944,946,948,950,952,954,956,958,960,962,964,966,968,970,972,974,976,978,980,982,984,986,988,990,992,994,996,998,1000,1002,1004,1006,1008,1010,1012,1014,1016,1018,1020,1022,1024,1026,1028,1030,1032,1034,1036,1038,1040,1042,1044,1046,1048,1050,1052,1054,1056,1058,1060,1062,1064,1066,1068,1070,1072,1074,1076,1078,1080,1082,1084,1086,1088,1090,1092,1094,1096,1098,1100,1102,1104,1106,1108,1110,1112,1114,1116,1118,1120,1122,1124,1126,1128,1130,1132,1134,1136,1138,1140,1142,1144,1146,1148,1150,1152,1154,1156,1158,1160,1162,1164,1166,1168,1170,1172,1174,1176,1178,1180,1182,1184,1186,1188,1190,1192,1194,1196,1198,1200,1202,1204,1206,1208,1210,1212,1214,1216,1218,1220,1222,1224,1226,1228,1230,1232,1234,1236,1238,1240,1242,1244,1246,1248,1250,1252,1254,1256,1258,1260,1262,1264,1266,1268,1270,1272,1274,1276,1278,1280,1282,1284,1286,1288,1290,1292,1294,1296,1298,1300,1302,1304,1306,1308,1310,1312,1314,1316,1318,1320,1322,1324,1326,1328,1330,1332,1334,1336,1338,1340,1342,1344,1346,1348,1350,1352,1354,1356,1358,1360,1362,1364,1366,1368,1370,1372,1374,1376,1378,1380,1382,1384,1386,1388,1390,1392,1394,1396,1398,1400,1402,1404,1406,1408,1410,1412,1414,1416,1418,1420,1422,1424,1426,1428,1430,1432,1434,1436,1438,1440,1442,1444,1446,1448,1450,1452,1454,1456,1458,1460,1462,1464,1466,1468,1470,1472,1474,1476,1478,1480,1482,1484,1486,1488,1490,1492,1494,1496,1498,1500],"tree_info":[0,1,0,1,0,1,0,1,0,1,0,1,0,1,0,1,0,1,0,1,0,1,0,1,0,1,0,1,0,1,0,1,0,1,0,1,0,1,0,1,0,1,0,1,0,1,0,1,0,1,0,1,0,1,0,1,0,1,0,1,0,1,0,1,0,1,0,1,0,1,0,1,0,1,0,1,0,1,0,1,0,1,0,1,0,1,0,1,0,1,0,1,0,1,0,1,0,1,0,1,0,1,0,1,0,1,0,1,0,1,0,1,0,1,0,1,0,1,0,1,0,1,0,1,0,1,0,1,0,1,0,1,0,1,0,1,0,1,0,1,0,1,0,1,0,1,0,1,0,1,0,1,0,1,0,1,0,1,0,1,0,1,0,1,0,1,0,1,0,1,0,1,0,1,0,1,0,1,0,1,0,1,0,1,0,1,0,1,0,1,0,1,0,1,0,1,0,1,0,1,0,1,0,1,0,1,0,1,0,1,0,1,0,1,0,1,0,1,0,1,0,1,0,1,0,1,0,1,0,1,0,1,0,1,0,1,0,1,0,1,0,1,0,1,0,1,0,1,0,1,0,1,0,1,0,1,0,1,0,1,0,1,0,1,0,1,0,1,0,1,0,1,0,1,0,1,0,1,0,1,0,1,0,1,0,1,0,1,0,1,0,1,0,1,0,1,0,1,0,1,0,1,0,1,0,1,0,1,0,1,0,1,0,1,0,1,0,1,0,1,0,1,0,1,0,1,0,1,0,1,0,1,0,1,0,1,0,1,0,1,0,1,0,1,0,1,0,1,0,1,0,1,0,1,0,1,0,1,0,1,0,1,0,1,0,1,0,1,0,1,0,1,0,1,0,1,0,1,0,1,0,1,0,1,0,1,0,1,0,1,0,1,0,1,0,1,0,1,0,1,0,1,0,1,0,1,0,1,0,1,0,1,0,1,0,1,0,1,0,1,0,1,0,1,0,1,0,1,0,1,0,1,0,1,0,1,0,1,0,1,0,1,0,1,0,1,0,1,0,1,0,1,0,1,0,1,0,1,0,1,0,1,0,1,0,1,0,1,0,1,0,1,0,1,0,1,0,1,0,1,0,1,0,1,0,1,0,1,0,1,0,1,0,1,0,1,0,1,0,1,0,1,0,1,0,1,0,1,0,1,0,1,0,1,0,1,0,1,0,1,0,1,0,1,0,1,0,1,0,1,0,1,0,1,0,1,0,1,0,1,0,1,0,1,0,1,0,1,0,1,0,1,0,1,0,1,0,1,0,1,0,1,0,1,0,1,0,1,0,1,0,1,0,1,0,1,0,1,0,1,0,1,0,1,0,1,0,1,0,1,0,1,0,1,0,1,0,1,0,1,0,1,0,1,0,1,0,1,0,1,0,1,0,1,0,1,0,1,0,1,0,1,0,1,0,1,0,1,0,1,0,1,0,1,0,1,0,1,0,1,0,1,0,1,0,1,0,1,0,1,0,1,0,1,0,1,0,1,0,1,0,1,0,1,0,1,0,1,0,1,0,1,0,1,0,1,0,1,0,1,0,1,0,1,0,1,0,1,0,1,0,1,0,1,0,1,0,1,0,1,0,1,0,1,0,1,0,1,0,1,0,1,0,1,0,1,0,1,0,1,0,1,0,1,0,1,0,1,0,1,0,1,0,1,0,1,0,1,0,1,0,1,0,1,0,1,0,1,0,1,0,1,0,1,0,1,0,1,0,1,0,1,0,1,0,1,0,1,0,1,0,1,0,1,0,1,0,1,0,1,0,1,0,1,0,1,0,1,0,1,0,1,0,1,0,1,0,1,0,1,0,1,0,1,0,1,0,1,0,1,0,1,0,1,0,1,0,1,0,1,0,1,0,1,0,1,0,1,0,1,0,1,0,1,0,1,0,1,0,1,0,1,0,1,0,1,0,1,0,1,0,1,0,1,0,1,0,1,0,1,0,1,0,1,0,1,0,1,0,1,0,1,0,1,0,1,0,1,0,1,0,1,0,1,0,1,0,1,0,1,0,1,0,1,0,1,0,1,0,1,0,1,0,1,0,1,0,1,0,1,0,1,0,1,0,1,0,1,0,1,0,1,0,1,0,1,0,1,0,1,0,1,0,1,0,1,0,1,0,1,0,1,0,1,0,1,0,1,0,1,0,1,0,1,0,1,0,1,0,1,0,1,0,1,0,1,0,1,0,1,0,1,0,1,0,1,0,1,0,1,0,1,0,1,0,1,0,1,0,1,0,1,0,1,0,1,0,1,0,1,0,1,0,1,0,1,0,1,0,1,0,1,0,1,0,1,0,1,0,1,0,1,0,1,0,1,0,1,0,1,0,1,0,1,0,1,0,1,0,1,0,1,0,1,0,1,0,1,0,1,0,1,0,1,0,1,0,1,0,1,0,1,0,1,0,1,0,1,0,1,0,1,0,1,0,1,0,1,0,1,0,1,0,1,0,1,0,1,0,1,0,1,0,1,0,1,0,1,0,1,0,1,0,1,0,1,0,1,0,1,0,1,0,1,0,1,0,1,0,1,0,1,0,1,0,1,0,1,0,1,0,1,0,1,0,1,0,1,0,1,0,1,0,1,0,1,0,1,0,1,0,1,0,1,0,1,0,1,0,1,0,1,0,1,0,1,0,1,0,1,0,1,0,1,0,1,0,1,0,1,0,1,0,1,0,1,0,1,0,1,0,1,0,1,0,1,0,1,0,1,0,1,0,1,0,1,0,1,0,1,0,1,0,1,0,1,0,1,0,1,0,1,0,1,0,1,0,1,0,1,0,1,0,1,0,1,0,1,0,1,0,1,0,1,0,1,0,1,0,1,0,1,0,1,0,1,0,1,0,1,0,1,0,1,0,1,0,1,0,1,0,1,0,1,0,1,0,1,0,1,0,1,0,1,0,1,0,1,0,1,0,1,0,1,0,1,0,1,0,1,0,1,0,1,0,1,0,1,0,1,0,1,0,1,0,1,0,1,0,1,0,1,0,1,0,1,0,1,0,1,0,1,0,1,0,1,0,1,0,1,0,1,0,1,0,1,0,1,0,1,0,1,0,1,0,1,0,1,0,1,0,1,0,1,0,1,0,1,0,1,0,1,0,1,0,1,0,1,0,1,0,1,0,1,0,1,0,1,0,1,0,1,0,1,0,1,0,1,0,1,0,1,0,1,0,1,0,1,0,1,0,1,0,1,0,1,0,1,0,1,0,1,0,1,0,1,0,1,0,1,0,1,0,1,0,1,0,1,0,1,0,1,0,1,0,1,0,1,0,1,0,1,0,1,0,1,0,1,0,1,0,1,0,1,0,1,0,1,0,1,0,1,0,1,0,1,0,1,0,1,0,1,0,1,0,1,0,1,0,1,0,1,0,1,0,1,0,1,0,1],"trees":[{"base_weights":[-3.957911E-3,-3.428991E-1,4.2454377E-1,2.673913E-1,-6.2742364E-1,7.596464E-1,-1.7859328E-1,-4.643289E-3,8.6390525E-3,-9.340337E-3,-1.6118736E-3,2.2809363E-3,9.403189E-3,-8.170656E-3,4.5465613E-3],"categories":[],"categories_nodes":[],"categories_segments":[],"categories_sizes":[],"default_left":[0,0,0,0,0,0,0,0,0,0,0,0,0,0,0],"id":0,"left_children":[1,3,5,7,9,11,13,-1,-1,-1,-1,-1,-1,-1,-1],"loss_changes":[1.5046544E3,1.0046032E3,9.2490295E2,8.0352686E2,5.6386926E2,2.8227832E2,6.6142206E2,0E0,0E0,0E0,0E0,0E0,0E0,0E0,0E0],"parents":[2147483647,0,0,1,1,2,2,3,3,4,4,5,5,6,6],"right_children":[2,4,6,8,10,12,14,-1,-1,-1,-1,-1,-1,-1,-1],"split_conditions":[4.7E-1,1.02E2,1.15E2,9.6E1,1.08E2,1.08E2,1.22E2,-4.643289E-3,8.6390525E-3,-9.340337E-3,-1.6118736E-3,2.2809363E-3,9.403189E-3,-8.170656E-3,4.5465613E-3],"split_indices":[16,13,13,26,26,26,26,0,0,0,0,0,0,0,0],"split_type":[0,0,0,0,0,0,0,0,0,0,0,0,0,0,0],"sum_hessian":[1.0358E4,5.7835E3,4.5745E3,1.839E3,3.9445E3,2.9405E3,1.634E3,8.26E2,1.013E3,2.379E3,1.5655E3,7.465E2,2.194E3,8.135E2,8.205E2],"tree_param":{"num_deleted":"0","num_feature":"27","num_nodes":"15","size_leaf_vector":"1"}},{"base_weights":[3.957911E-3,3.428991E-1,-4.2454377E-1,-2.673913E-1,6.2742364E-1,-7.596464E-1,1.7859328E-1,4.643289E-3,-8.6390525E-3,9.340337E-3,1.6118736E-3,-2.2809363E-3,-9.403189E-3,8.170656E-3,-4.5465613E-3],"categories":[],"categories_nodes":[],"categories_segments":[],"categories_sizes":[],"default_left":[0,0,0,0,0,0,0,0,0,0,0,0,0,0,0],"id":1,"left_children":[1,3,5,7,9,11,13,-1,-1,-1,-1,-1,-1,-1,-1],"loss_changes":[1.5046544E3,1.0046032E3,9.2490295E2,8.0352686E2,5.6386926E2,2.8227832E2,6.6142206E2,0E0,0E0,0E0,0E0,0E0,0E0,0E0,0E0],"parents":[2147483647,0,0,1,1,2,2,3,3,4,4,5,5,6,6],"right_children":[2,4,6,8,10,12,14,-1,-1,-1,-1,-1,-1,-1,-1],"split_conditions":[4.7E-1,1.02E2,1.15E2,9.6E1,1.08E2,1.08E2,1.22E2,4.643289E-3,-8.6390525E-3,9.340337E-3,1.6118736E-3,-2.2809363E-3,-9.403189E-3,8.170656E-3,-4.5465613E-3],"split_indices":[16,13,13,26,26,26,26,0,0,0,0,0,0,0,0],"split_type":[0,0,0,0,0,0,0,0,0,0,0,0,0,0,0],"sum_hessian":[1.0358E4,5.7835E3,4.5745E3,1.839E3,3.9445E3,2.9405E3,1.634E3,8.26E2,1.013E3,2.379E3,1.5655E3,7.465E2,2.194E3,8.135E2,8.205E2],"tree_param":{"num_deleted":"0","num_feature":"27","num_nodes":"15","size_leaf_vector":"1"}},{"base_weights":[-3.918418E-3,-3.394893E-1,4.2032492E-1,2.647331E-1,-6.2118566E-1,7.316359E-1,-2.1654303E-1,-4.597012E-3,8.553388E-3,-9.247782E-3,-1.5957687E-3,2.3517613E-3,9.239635E-3,-8.659674E-3,4.102295E-3],"categories":[],"categories_nodes":[],"categories_segments":[],"categories_sizes":[],"default_left":[0,0,0,0,0,0,0,0,0,0,0,0,0,0,0],"id":2,"left_children":[1,3,5,7,9,11,13,-1,-1,-1,-1,-1,-1,-1,-1],"loss_changes":[1.4748068E3,9.8467615E2,9.0726215E2,7.8760645E2,5.527489E2,2.9322986E2,6.121119E2,0E0,0E0,0E0,0E0,0E0,0E0,0E0,0E0],"parents":[2147483647,0,0,1,1,2,2,3,3,4,4,5,5,6,6],"right_children":[2,4,6,8,10,12,14,-1,-1,-1,-1,-1,-1,-1,-1],"split_conditions":[4.7E-1,1.02E2,1.16E2,9.6E1,1.08E2,1.09E2,1.22E2,-4.597012E-3,8.553388E-3,-9.247782E-3,-1.5957687E-3,2.3517613E-3,9.239635E-3,-8.659674E-3,4.102295E-3],"split_indices":[16,13,13,26,26,26,26,0,0,0,0,0,0,0,0],"split_type":[0,0,0,0,0,0,0,0,0,0,0,0,0,0,0],"sum_hessian":[1.0357426E4,5.783195E3,4.574231E3,1.8389065E3,3.9442883E3,3.072296E3,1.5019349E3,8.259821E2,1.0129244E3,2.3787922E3,1.565496E3,8.584867E2,2.2138093E3,7.3745074E2,7.644842E2],"tree_param":{"num_deleted":"0","num_feature":"27","num_nodes":"15","size_leaf_vector":"1"}},{"base_weights":[3.9184373E-3,3.394893E-1,-4.203249E-1,-2.647331E-1,6.2118566E-1,-7.3163587E-1,2.1654303E-1,4.597012E-3,-8.553388E-3,9.247782E-3,1.5957686E-3,-2.3517613E-3,-9.2396345E-3,8.659674E-3,-4.102295E-3],"categories":[],"categories_nodes":[],"categories_segments":[],"categories_sizes":[],"default_left":[0,0,0,0,0,0,0,0,0,0,0,0,0,0,0],"id":3,"left_children":[1,3,5,7,9,11,13,-1,-1,-1,-1,-1,-1,-1,-1],"loss_changes":[1.4748065E3,9.846763E2,9.072619E2,7.876064E2,5.527488E2,2.9322998E2,6.121119E2,0E0,0E0,0E0,0E0,0E0,0E0,0E0,0E0],"parents":[2147483647,0,0,1,1,2,2,3,3,4,4,5,5,6,6],"right_children":[2,4,6,8,10,12,14,-1,-1,-1,-1,-1,-1,-1,-1],"split_conditions":[4.7E-1,1.02E2,1.16E2,9.6E1,1.08E2,1.09E2,1.22E2,4.597012E-3,-8.553388E-3,9.247782E-3,1.5957686E-3,-2.3517613E-3,-9.2396345E-3,8.659674E-3,-4.102295E-3],"split_indices":[16,13,13,26,26,26,26,0,0,0,0,0,0,0,0],"split_type":[0,0,0,0,0,0,0,0,0,0,0,0,0,0,0],"sum_hessian":[1.0357426E4,5.783195E3,4.574231E3,1.8389066E3,3.9442883E3,3.0722961E3,1.5019349E3,8.259822E2,1.01292444E3,2.3787925E3,1.5654958E3,8.584867E2,2.2138093E3,7.3745074E2,7.644842E2],"tree_param":{"num_deleted":"0","num_feature":"27","num_nodes":"15","size_leaf_vector":"1"}},{"base_weights":[-3.8798589E-3,3.2964996E-1,-4.23148E-1,-2.8312E-1,6.176566E-1,-7.3025966E-1,2.0495135E-1,4.3169525E-3,-8.558028E-3,9.22193E-3,1.5086499E-3,-2.306588E-3,-9.237463E-3,8.60703E-3,-4.3639312E-3],"categories":[],"categories_nodes":[],"categories_segments":[],"categories_sizes":[],"default_left":[0,0,0,0,0,0,0,0,0,0,0,0,0,0,0],"id":4,"left_children":[1,3,5,7,9,11,13,-1,-1,-1,-1,-1,-1,-1,-1],"loss_changes":[1.4484117E3,1.0182492E3,8.853591E2,7.556954E2,5.577612E2,2.9773828E2,6.3448444E2,0E0,0E0,0E0,0E0,0E0,0E0,0E0,0E0],"parents":[2147483647,0,0,1,1,2,2,3,3,4,4,5,5,6,6],"right_children":[2,4,6,8,10,12,14,-1,-1,-1,-1,-1,-1,-1,-1],"split_conditions":[4.7E-1,1.02E2,1.16E2,9.6E1,1.08E2,1.09E2,1.22E2,4.3169525E-3,-8.558028E-3,9.22193E-3,1.5086499E-3,-2.306588E-3,-9.237463E-3,8.60703E-3,-4.3639312E-3],"split_indices":[3,26,26,13,13,13,13,0,0,0,0,0,0,0,0],"split_type":[0,0,0,0,0,0,0,0,0,0,0,0,0,0,0],"sum_hessian":[1.0355755E4,5.76772E3,4.588035E3,1.8441273E3,3.923593E3,3.0812722E3,1.5067627E3,8.203826E2,1.0237446E3,2.3738862E3,1.5497068E3,8.6079926E2,2.220473E3,7.448442E2,7.619185E2],"tree_param":{"num_deleted":"0","num_feature":"27","num_nodes":"15","size_leaf_vector":"1"}},{"base_weights":[3.8798514E-3,-3.2964996E-1,4.23148E-1,2.8311998E-1,-6.176566E-1,7.302596E-1,-2.0495133E-1,-4.3169525E-3,8.558028E-3,-9.22193E-3,-1.5086499E-3,2.3065878E-3,9.237463E-3,-8.60703E-3,4.3639312E-3],"categories":[],"categories_nodes":[],"categories_segments":[],"categories_sizes":[],"default_left":[0,0,0,0,0,0,0,0,0,0,0,0,0,0,0],"id":5,"left_children":[1,3,5,7,9,11,13,-1,-1,-1,-1,-1,-1,-1,-1],"loss_changes":[1.4484119E3,1.0182492E3,8.853588E2,7.556953E2,5.577612E2,2.9773816E2,6.344844E2,0E0,0E0,0E0,0E0,0E0,0E0,0E0,0E0],"parents":[2147483647,0,0,1,1,2,2,3,3,4,4,5,5,6,6],"right_children":[2,4,6,8,10,12,14,-1,-1,-1,-1,-1,-1,-1,-1],"split_conditions":[4.7E-1,1.02E2,1.16E2,9.6E1,1.08E2,1.09E2,1.22E2,-4.3169525E-3,8.558028E-3,-9.22193E-3,-1.5086499E-3,2.3065878E-3,9.237463E-3,-8.60703E-3,4.3639312E-3],"split_indices":[3,26,26,13,13,13,13,0,0,0,0,0,0,0,0],"split_type":[0,0,0,0,0,0,0,0,0,0,0,0,0,0,0],"sum_hessian":[1.0355755E4,5.76772E3,4.5880347E3,1.8441272E3,3.923593E3,3.0812722E3,1.5067627E3,8.203826E2,1.0237446E3,2.3738862E3,1.5497068E3,8.6079926E2,2.220473E3,7.448442E2,7.619185E2],"tree_param":{"num_deleted":"0","num_feature":"27","num_nodes":"15","size_leaf_vector":"1"}},{"base_weights":[-3.8418756E-3,-3.3418983E-1,4.1380736E-1,2.5962514E-1,-6.1104846E-1,7.40142E-1,-1.7343363E-1,-4.544399E-3,8.419816E-3,-9.099406E-3,-1.568063E-3,2.2168444E-3,9.164572E-3,-7.974833E-3,4.452973E-3],"categories":[],"categories_nodes":[],"categories_segments":[],"categories_sizes":[],"default_left":[0,0,0,0,0,0,0,0,0,0,0,0,0,0,0],"id":6,"left_children":[1,3,5,7,9,11,13,-1,-1,-1,-1,-1,-1,-1,-1],"loss_changes":[1.4287876E3,9.507739E2,8.765962E2,7.652582E2,5.353164E2,2.6855347E2,6.314744E2,0E0,0E0,0E0,0E0,0E0,0E0,0E0,0E0],"parents":[2147483647,0,0,1,1,2,2,3,3,4,4,5,5,6,6],"right_children":[2,4,6,8,10,12,14,-1,-1,-1,-1,-1,-1,-1,-1],"split_conditions":[4.7E-1,1.02E2,1.15E2,9.6E1,1.08E2,1.08E2,1.22E2,-4.544399E-3,8.419816E-3,-9.099406E-3,-1.568063E-3,2.2168444E-3,9.164572E-3,-7.974833E-3,4.452973E-3],"split_indices":[16,13,13,26,26,26,26,0,0,0,0,0,0,0,0],"split_type":[0,0,0,0,0,0,0,0,0,0,0,0,0,0,0],"sum_hessian":[1.0353814E4,5.7812334E3,4.5725815E3,1.8383486E3,3.9428848E3,2.9390608E3,1.6335206E3,8.2589044E2,1.0124581E3,2.377489E3,1.5653956E3,7.464299E2,2.192631E3,8.13121E2,8.2039966E2],"tree_param":{"num_deleted":"0","num_feature":"27","num_nodes":"15","size_leaf_vector":"1"}},{"base_weights":[3.8418786E-3,3.3418983E-1,-4.1380736E-1,-2.596251E-1,6.1104846E-1,-7.40142E-1,1.7343363E-1,4.5444E-3,-8.419816E-3,9.099406E-3,1.5680628E-3,-2.2168444E-3,-9.164572E-3,7.974833E-3,-4.4529736E-3],"categories":[],"categories_nodes":[],"categories_segments":[],"categories_sizes":[],"default_left":[0,0,0,0,0,0,0,0,0,0,0,0,0,0,0],"id":7,"left_children":[1,3,5,7,9,11,13,-1,-1,-1,-1,-1,-1,-1,-1],"loss_changes":[1.4287876E3,9.5077405E2,8.765962E2,7.6525836E2,5.353163E2,2.6855347E2,6.314744E2,0E0,0E0,0E0,0E0,0E0,0E0,0E0,0E0],"parents":[2147483647,0,0,1,1,2,2,3,3,4,4,5,5,6,6],"right_children":[2,4,6,8,10,12,14,-1,-1,-1,-1,-1,-1,-1,-1],"split_conditions":[4.7E-1,1.02E2,1.15E2,9.6E1,1.08E2,1.08E2,1.22E2,4.5444E-3,-8.419816E-3,9.099406E-3,1.5680628E-3,-2.2168444E-3,-9.164572E-3,7.974833E-3,-4.4529736E-3],"split_indices":[16,13,13,26,26,26,26,0,0,0,0,0,0,0,0],"split_type":[0,0,0,0,0,0,0,0,0,0,0,0,0,0,0],"sum_hessian":[1.0353814E4,5.7812334E3,4.5725815E3,1.8383486E3,3.9428845E3,2.9390608E3,1.6335206E3,8.2589044E2,1.0124581E3,2.377489E3,1.5653956E3,7.464299E2,2.192631E3,8.13121E2,8.203996E2],"tree_param":{"num_deleted":"0","num_feature":"27","num_nodes":"15","size_leaf_vector":"1"}},{"base_weights":[-3.80458E-3,3.2462054E-1,-4.166566E-1,-2.7772436E-1,6.0775346E-1,-7.608125E-1,1.2539701E-1,4.2694677E-3,-8.4253205E-3,9.075008E-3,1.4853384E-3,-2.6664734E-3,-9.35325E-3,8.921195E-3,-3.8968988E-3],"categories":[],"categories_nodes":[],"categories_segments":[],"categories_sizes":[],"default_left":[0,0,0,0,0,0,0,0,0,0,0,0,0,0,0],"id":8,"left_children":[1,3,5,7,9,11,13,-1,-1,-1,-1,-1,-1,-1,-1],"loss_changes":[1.4036908E3,9.8347894E2,8.557403E2,7.3439417E2,5.3978955E2,2.4169861E2,7.041372E2,0E0,0E0,0E0,0E0,0E0,0E0,0E0,0E0],"parents":[2147483647,0,0,1,1,2,2,3,3,4,4,5,5,6,6],"right_children":[2,4,6,8,10,12,14,-1,-1,-1,-1,-1,-1,-1,-1],"split_conditions":[4.7E-1,1.02E2,1.14E2,9.6E1,1.08E2,1.08E2,1.19E2,4.2694677E-3,-8.4253205E-3,9.075008E-3,1.4853384E-3,-2.6664734E-3,-9.35325E-3,8.921195E-3,-3.8968988E-3],"split_indices":[3,26,26,13,13,13,13,0,0,0,0,0,0,0,0],"split_type":[0,0,0,0,0,0,0,0,0,0,0,0,0,0,0],"sum_hessian":[1.0350393E4,5.7647383E3,4.585655E3,1.8432902E3,3.9214482E3,2.8045872E3,1.7810673E3,8.202125E2,1.0230777E3,2.372116E3,1.5493323E3,7.3260516E2,2.0719822E3,7.154163E2,1.065651E3],"tree_param":{"num_deleted":"0","num_feature":"27","num_nodes":"15","size_leaf_vector":"1"}},{"base_weights":[3.8045887E-3,-3.2462057E-1,4.1665664E-1,2.7772433E-1,-6.0775346E-1,7.608126E-1,-1.2539703E-1,-4.269468E-3,8.4253205E-3,-9.075008E-3,-1.4853381E-3,2.666473E-3,9.35325E-3,-8.921195E-3,3.8968986E-3],"categories":[],"categories_nodes":[],"categories_segments":[],"categories_sizes":[],"default_left":[0,0,0,0,0,0,0,0,0,0,0,0,0,0,0],"id":9,"left_children":[1,3,5,7,9,11,13,-1,-1,-1,-1,-1,-1,-1,-1],"loss_changes":[1.403691E3,9.834789E2,8.557402E2,7.3439417E2,5.397898E2,2.4169885E2,7.041372E2,0E0,0E0,0E0,0E0,0E0,0E0,0E0,0E0],"parents":[2147483647,0,0,1,1,2,2,3,3,4,4,5,5,6,6],"right_children":[2,4,6,8,10,12,14,-1,-1,-1,-1,-1,-1,-1,-1],"split_conditions":[4.7E-1,1.02E2,1.14E2,9.6E1,1.08E2,1.08E2,1.19E2,-4.269468E-3,8.4253205E-3,-9.075008E-3,-1.4853381E-3,2.666473E-3,9.35325E-3,-8.921195E-3,3.8968986E-3],"split_indices":[3,26,26,13,13,13,13,0,0,0,0,0,0,0,0],"split_type":[0,0,0,0,0,0,0,0,0,0,0,0,0,0,0],"sum_hessian":[1.0350393E4,5.7647383E3,4.5856543E3,1.8432903E3,3.9214482E3,2.8045872E3,1.7810673E3,8.202125E2,1.0230777E3,2.372116E3,1.5493323E3,7.326051E2,2.0719822E3,7.154163E2,1.065651E3],"tree_param":{"num_deleted":"0","num_feature":"27","num_nodes":"15","size_leaf_vector":"1"}},{"base_weights":[-3.7679456E-3,-3.2904553E-1,4.0748334E-1,1.5190405E-1,-6.595216E-1,7.083555E-1,-2.076918E-1,-4.078735E-3,8.109397E-3,-8.825743E-3,-7.774511E-4,2.2666298E-3,8.951825E-3,-8.409226E-3,4.028333E-3],"categories":[],"categories_nodes":[],"categories_segments":[],"categories_sizes":[],"default_left":[0,0,0,0,0,0,0,0,0,0,0,0,0,0,0],"id":10,"left_children":[1,3,5,7,9,11,13,-1,-1,-1,-1,-1,-1,-1,-1],"loss_changes":[1.384358E3,9.185247E2,8.460733E2,8.6883044E2,4.4440125E2,2.7602917E2,5.809762E2,0E0,0E0,0E0,0E0,0E0,0E0,0E0,0E0],"parents":[2147483647,0,0,1,1,2,2,3,3,4,4,5,5,6,6],"right_children":[2,4,6,8,10,12,14,-1,-1,-1,-1,-1,-1,-1,-1],"split_conditions":[4.7E-1,1.05E2,1.16E2,9.9E1,1.12E2,1.09E2,1.22E2,-4.078735E-3,8.109397E-3,-8.825743E-3,-7.774511E-4,2.2666298E-3,8.951825E-3,-8.409226E-3,4.028333E-3],"split_indices":[16,13,13,26,26,26,26,0,0,0,0,0,0,0,0],"split_type":[0,0,0,0,0,0,0,0,0,0,0,0,0,0,0],"sum_hessian":[1.0346726E4,5.7773516E3,4.5693735E3,2.3532097E3,3.4241416E3,3.068479E3,1.5008947E3,1.2726317E3,1.0805781E3,2.4747913E3,9.493505E2,8.581473E2,2.2103318E3,7.365621E2,7.643326E2],"tree_param":{"num_deleted":"0","num_feature":"27","num_nodes":"15","size_leaf_vector":"1"}},{"base_weights":[3.7679551E-3,3.2904556E-1,-4.0748334E-1,-1.5190402E-1,6.595215E-1,-7.083555E-1,2.0769179E-1,4.078736E-3,-8.109397E-3,8.825743E-3,7.774508E-4,-2.2666296E-3,-8.951825E-3,8.409225E-3,-4.028333E-3],"categories":[],"categories_nodes":[],"categories_segments":[],"categories_sizes":[],"default_left":[0,0,0,0,0,0,0,0,0,0,0,0,0,0,0],"id":11,"left_children":[1,3,5,7,9,11,13,-1,-1,-1,-1,-1,-1,-1,-1],"loss_changes":[1.3843579E3,9.1852454E2,8.4607324E2,8.6883044E2,4.4440112E2,2.760293E2,5.809762E2,0E0,0E0,0E0,0E0,0E0,0E0,0E0,0E0],"parents":[2147483647,0,0,1,1,2,2,3,3,4,4,5,5,6,6],"right_children":[2,4,6,8,10,12,14,-1,-1,-1,-1,-1,-1,-1,-1],"split_conditions":[4.7E-1,1.05E2,1.16E2,9.9E1,1.12E2,1.09E2,1.22E2,4.078736E-3,-8.109397E-3,8.825743E-3,7.774508E-4,-2.2666296E-3,-8.951825E-3,8.409225E-3,-4.028333E-3],"split_indices":[16,13,13,26,26,26,26,0,0,0,0,0,0,0,0],"split_type":[0,0,0,0,0,0,0,0,0,0,0,0,0,0,0],"sum_hessian":[1.0346726E4,5.7773516E3,4.5693735E3,2.3532097E3,3.4241418E3,3.068479E3,1.5008947E3,1.2726317E3,1.0805781E3,2.4747913E3,9.493506E2,8.581473E2,2.2103318E3,7.365621E2,7.643326E2],"tree_param":{"num_deleted":"0","num_feature":"27","num_nodes":"15","size_leaf_vector":"1"}},{"base_weights":[-3.7318713E-3,3.1965974E-1,-4.1028893E-1,-2.7218214E-1,5.979383E-1,-7.075343E-1,1.9722435E-1,4.2404756E-3,-8.306429E-3,8.92898E-3,1.4645193E-3,-2.233057E-3,-8.952896E-3,8.376667E-3,-4.284431E-3],"categories":[],"categories_nodes":[],"categories_segments":[],"categories_sizes":[],"default_left":[0,0,0,0,0,0,0,0,0,0,0,0,0,0,0],"id":12,"left_children":[1,3,5,7,9,11,13,-1,-1,-1,-1,-1,-1,-1,-1],"loss_changes":[1.3599907E3,9.490199E2,8.2768634E2,7.170283E2,5.217648E2,2.795813E2,6.039645E2,0E0,0E0,0E0,0E0,0E0,0E0,0E0,0E0],"parents":[2147483647,0,0,1,1,2,2,3,3,4,4,5,5,6,6],"right_children":[2,4,6,8,10,12,14,-1,-1,-1,-1,-1,-1,-1,-1],"split_conditions":[4.7E-1,1.02E2,1.16E2,9.6E1,1.08E2,1.09E2,1.22E2,4.2404756E-3,-8.306429E-3,8.92898E-3,1.4645193E-3,-2.233057E-3,-8.952896E-3,8.376667E-3,-4.284431E-3],"split_indices":[3,26,26,13,13,13,13,0,0,0,0,0,0,0,0],"split_type":[0,0,0,0,0,0,0,0,0,0,0,0,0,0,0],"sum_hessian":[1.0341936E4,5.760232E3,4.581703E3,1.8422222E3,3.9180098E3,3.0763403E3,1.5053629E3,8.2007733E2,1.0221449E3,2.369209E3,1.5488007E3,8.6015515E2,2.216185E3,7.437305E2,7.616323E2],"tree_param":{"num_deleted":"0","num_feature":"27","num_nodes":"15","size_leaf_vector":"1"}},{"base_weights":[3.7318731E-3,-3.1965974E-1,4.1028893E-1,2.7218214E-1,-5.9793836E-1,7.075343E-1,-1.9722438E-1,-4.2404756E-3,8.306429E-3,-8.92898E-3,-1.4645196E-3,2.233057E-3,8.952896E-3,-8.376668E-3,4.284431E-3],"categories":[],"categories_nodes":[],"categories_segments":[],"categories_sizes":[],"default_left":[0,0,0,0,0,0,0,0,0,0,0,0,0,0,0],"id":13,"left_children":[1,3,5,7,9,11,13,-1,-1,-1,-1,-1,-1,-1,-1],"loss_changes":[1.3599907E3,9.4902E2,8.2768646E2,7.170283E2,5.217644E2,2.7958105E2,6.0396454E2,0E0,0E0,0E0,0E0,0E0,0E0,0E0,0E0],"parents":[2147483647,0,0,1,1,2,2,3,3,4,4,5,5,6,6],"right_children":[2,4,6,8,10,12,14,-1,-1,-1,-1,-1,-1,-1,-1],"split_conditions":[4.7E-1,1.02E2,1.16E2,9.6E1,1.08E2,1.09E2,1.22E2,-4.2404756E-3,8.306429E-3,-8.92898E-3,-1.4645196E-3,2.233057E-3,8.952896E-3,-8.376668E-3,4.284431E-3],"split_indices":[3,26,26,13,13,13,13,0,0,0,0,0,0,0,0],"split_type":[0,0,0,0,0,0,0,0,0,0,0,0,0,0,0],"sum_hessian":[1.0341936E4,5.760232E3,4.581703E3,1.8422222E3,3.9180095E3,3.0763403E3,1.5053629E3,8.2007733E2,1.0221449E3,2.369209E3,1.5488007E3,8.6015515E2,2.2161853E3,7.437305E2,7.616323E2],"tree_param":{"num_deleted":"0","num_feature":"27","num_nodes":"15","size_leaf_vector":"1"}},{"base_weights":[-3.6965369E-3,-3.2410973E-1,4.014399E-1,2.5113586E-1,-5.9240484E-1,7.3905164E-1,-1.2934083E-1,-4.4465503E-3,8.19421E-3,-8.835299E-3,-1.5083206E-3,2.5038915E-3,9.101108E-3,-8.769607E-3,3.6516178E-3],"categories":[],"categories_nodes":[],"categories_segments":[],"categories_sizes":[],"default_left":[0,0,0,0,0,0,0,0,0,0,0,0,0,0,0],"id":14,"left_children":[1,3,5,7,9,11,13,-1,-1,-1,-1,-1,-1,-1,-1],"loss_changes":[1.3420724E3,8.9112054E2,8.1825995E2,7.2666394E2,5.059944E2,2.3305652E2,6.568689E2,0E0,0E0,0E0,0E0,0E0,0E0,0E0,0E0],"parents":[2147483647,0,0,1,1,2,2,3,3,4,4,5,5,6,6],"right_children":[2,4,6,8,10,12,14,-1,-1,-1,-1,-1,-1,-1,-1],"split_conditions":[4.7E-1,1.02E2,1.14E2,9.6E1,1.08E2,1.08E2,1.19E2,-4.4465503E-3,8.19421E-3,-8.835299E-3,-1.5083206E-3,2.5038915E-3,9.101108E-3,-8.769607E-3,3.6516178E-3],"split_indices":[16,13,13,26,26,26,26,0,0,0,0,0,0,0,0],"split_type":[0,0,0,0,0,0,0,0,0,0,0,0,0,0,0],"sum_hessian":[1.0336657E4,5.7719517E3,4.564705E3,1.8358374E3,3.9361143E3,2.7898093E3,1.7748959E3,8.2542725E2,1.01041016E3,2.3715627E3,1.5645515E3,7.240084E2,2.0658008E3,7.0629767E2,1.0685983E3],"tree_param":{"num_deleted":"0","num_feature":"27","num_nodes":"15","size_leaf_vector":"1"}},{"base_weights":[3.696536E-3,3.2410973E-1,-4.0143993E-1,-2.5113586E-1,5.9240484E-1,-7.3905164E-1,1.2934081E-1,4.44655E-3,-8.19421E-3,8.835299E-3,1.5083203E-3,-2.5038915E-3,-9.101109E-3,8.769607E-3,-3.6516183E-3],"categories":[],"categories_nodes":[],"categories_segments":[],"categories_sizes":[],"default_left":[0,0,0,0,0,0,0,0,0,0,0,0,0,0,0],"id":15,"left_children":[1,3,5,7,9,11,13,-1,-1,-1,-1,-1,-1,-1,-1],"loss_changes":[1.3420724E3,8.9112067E2,8.1825977E2,7.266639E2,5.0599426E2,2.330564E2,6.568691E2,0E0,0E0,0E0,0E0,0E0,0E0,0E0,0E0],"parents":[2147483647,0,0,1,1,2,2,3,3,4,4,5,5,6,6],"right_children":[2,4,6,8,10,12,14,-1,-1,-1,-1,-1,-1,-1,-1],"split_conditions":[4.7E-1,1.02E2,1.14E2,9.6E1,1.08E2,1.08E2,1.19E2,4.44655E-3,-8.19421E-3,8.835299E-3,1.5083203E-3,-2.5038915E-3,-9.101109E-3,8.769607E-3,-3.6516183E-3],"split_indices":[16,13,13,26,26,26,26,0,0,0,0,0,0,0,0],"split_type":[0,0,0,0,0,0,0,0,0,0,0,0,0,0,0],"sum_hessian":[1.0336657E4,5.771952E3,4.564705E3,1.8358374E3,3.9361145E3,2.7898093E3,1.7748959E3,8.2542725E2,1.01041016E3,2.371563E3,1.5645516E3,7.240084E2,2.065801E3,7.0629767E2,1.0685983E3],"tree_param":{"num_deleted":"0","num_feature":"27","num_nodes":"15","size_leaf_vector":"1"}},{"base_weights":[-3.6618449E-3,3.1495166E-1,-4.042203E-1,-2.671277E-1,5.887063E-1,-7.159663E-1,1.5590127E-1,4.853622E-3,-7.712305E-3,8.793902E-3,1.4436189E-3,-2.5202872E-3,-9.00326E-3,7.7592283E-3,-4.6268106E-3],"categories":[],"categories_nodes":[],"categories_segments":[],"categories_sizes":[],"default_left":[0,0,0,0,0,0,0,0,0,0,0,0,0,0,0],"id":16,"left_children":[1,3,5,7,9,11,13,-1,-1,-1,-1,-1,-1,-1,-1],"loss_changes":[1.3186287E3,9.1715814E2,7.994056E2,6.9889624E2,5.054579E2,2.5131348E2,6.284115E2,0E0,0E0,0E0,0E0,0E0,0E0,0E0,0E0],"parents":[2147483647,0,0,1,1,2,2,3,3,4,4,5,5,6,6],"right_children":[2,4,6,8,10,12,14,-1,-1,-1,-1,-1,-1,-1,-1],"split_conditions":[4.7E-1,1.02E2,1.15E2,9.5E1,1.08E2,1.09E2,1.22E2,4.853622E-3,-7.712305E-3,8.793902E-3,1.4436189E-3,-2.5202872E-3,-9.00326E-3,7.7592283E-3,-4.6268106E-3],"split_indices":[3,26,26,13,13,13,13,0,0,0,0,0,0,0,0],"split_type":[0,0,0,0,0,0,0,0,0,0,0,0,0,0,0],"sum_hessian":[1.0330192E4,5.753744E3,4.576448E3,1.8404514E3,3.913293E3,2.9399094E3,1.6365388E3,7.383422E2,1.1021093E3,2.3650994E3,1.5481935E3,8.367112E2,2.1031982E3,8.171916E2,8.193472E2],"tree_param":{"num_deleted":"0","num_feature":"27","num_nodes":"15","size_leaf_vector":"1"}},{"base_weights":[3.6618267E-3,-3.1495172E-1,4.042203E-1,2.671277E-1,-5.887064E-1,7.159663E-1,-1.5590128E-1,-4.853622E-3,7.7123046E-3,-8.793903E-3,-1.4436188E-3,2.520287E-3,9.003261E-3,-7.759229E-3,4.6268106E-3],"categories":[],"categories_nodes":[],"categories_segments":[],"categories_sizes":[],"default_left":[0,0,0,0,0,0,0,0,0,0,0,0,0,0,0],"id":17,"left_children":[1,3,5,7,9,11,13,-1,-1,-1,-1,-1,-1,-1,-1],"loss_changes":[1.3186288E3,9.171582E2,7.994057E2,6.9889624E2,5.05458E2,2.5131335E2,6.2841156E2,0E0,0E0,0E0,0E0,0E0,0E0,0E0,0E0],"parents":[2147483647,0,0,1,1,2,2,3,3,4,4,5,5,6,6],"right_children":[2,4,6,8,10,12,14,-1,-1,-1,-1,-1,-1,-1,-1],"split_conditions":[4.7E-1,1.02E2,1.15E2,9.5E1,1.08E2,1.09E2,1.22E2,-4.853622E-3,7.7123046E-3,-8.793903E-3,-1.4436188E-3,2.520287E-3,9.003261E-3,-7.759229E-3,4.6268106E-3],"split_indices":[3,26,26,13,13,13,13,0,0,0,0,0,0,0,0],"split_type":[0,0,0,0,0,0,0,0,0,0,0,0,0,0,0],"sum_hessian":[1.0330192E4,5.753744E3,4.576448E3,1.8404514E3,3.913293E3,2.9399094E3,1.6365388E3,7.383422E2,1.1021093E3,2.3650994E3,1.5481935E3,8.367112E2,2.1031982E3,8.171916E2,8.193473E2],"tree_param":{"num_deleted":"0","num_feature":"27","num_nodes":"15","size_leaf_vector":"1"}},{"base_weights":[-3.6277291E-3,-3.1934625E-1,3.9559636E-1,2.4663189E-1,-5.8338076E-1,6.87271E-1,-2.0006508E-1,-4.3953657E-3,8.077188E-3,-8.705833E-3,-1.4844566E-3,2.1853617E-3,8.695075E-3,-8.191894E-3,3.9559635E-3],"categories":[],"categories_nodes":[],"categories_segments":[],"categories_sizes":[],"default_left":[0,0,0,0,0,0,0,0,0,0,0,0,0,0,0],"id":18,"left_children":[1,3,5,7,9,11,13,-1,-1,-1,-1,-1,-1,-1,-1],"loss_changes":[1.3014398E3,8.617577E2,7.923372E2,7.0676306E2,4.910193E2,2.6129248E2,5.5335425E2,0E0,0E0,0E0,0E0,0E0,0E0,0E0,0E0],"parents":[2147483647,0,0,1,1,2,2,3,3,4,4,5,5,6,6],"right_children":[2,4,6,8,10,12,14,-1,-1,-1,-1,-1,-1,-1,-1],"split_conditions":[4.7E-1,1.02E2,1.16E2,9.6E1,1.08E2,1.09E2,1.22E2,-4.3953657E-3,8.077188E-3,-8.705833E-3,-1.4844566E-3,2.1853617E-3,8.695075E-3,-8.191894E-3,3.9559635E-3],"split_indices":[16,13,13,26,26,26,26,0,0,0,0,0,0,0,0],"split_type":[0,0,0,0,0,0,0,0,0,0,0,0,0,0,0],"sum_hessian":[1.0323407E4,5.764704E3,4.558703E3,1.8338253E3,3.930879E3,3.060117E3,1.4985863E3,8.250571E2,1.0087682E3,2.3669192E3,1.5639597E3,8.572819E2,2.202835E3,7.3463696E2,7.6394934E2],"tree_param":{"num_deleted":"0","num_feature":"27","num_nodes":"15","size_leaf_vector":"1"}},{"base_weights":[3.6277343E-3,3.1934628E-1,-3.9559636E-1,-2.4663188E-1,5.8338076E-1,-6.8727094E-1,2.0006506E-1,4.3953657E-3,-8.077188E-3,8.705833E-3,1.4844566E-3,-2.1853612E-3,-8.695075E-3,8.191894E-3,-3.9559635E-3],"categories":[],"categories_nodes":[],"categories_segments":[],"categories_sizes":[],"default_left":[0,0,0,0,0,0,0,0,0,0,0,0,0,0,0],"id":19,"left_children":[1,3,5,7,9,11,13,-1,-1,-1,-1,-1,-1,-1,-1],"loss_changes":[1.3014398E3,8.617578E2,7.923372E2,7.067631E2,4.910194E2,2.6129236E2,5.5335425E2,0E0,0E0,0E0,0E0,0E0,0E0,0E0,0E0],"parents":[2147483647,0,0,1,1,2,2,3,3,4,4,5,5,6,6],"right_children":[2,4,6,8,10,12,14,-1,-1,-1,-1,-1,-1,-1,-1],"split_conditions":[4.7E-1,1.02E2,1.16E2,9.6E1,1.08E2,1.09E2,1.22E2,4.3953657E-3,-8.077188E-3,8.705833E-3,1.4844566E-3,-2.1853612E-3,-8.695075E-3,8.191894E-3,-3.9559635E-3],"split_indices":[16,13,13,26,26,26,26,0,0,0,0,0,0,0,0],"split_type":[0,0,0,0,0,0,0,0,0,0,0,0,0,0,0],"sum_hessian":[1.0323407E4,5.764704E3,4.558703E3,1.8338254E3,3.930879E3,3.060117E3,1.4985863E3,8.250571E2,1.00876825E3,2.3669192E3,1.5639597E3,8.572819E2,2.202835E3,7.3463696E2,7.6394934E2],"tree_param":{"num_deleted":"0","num_feature":"27","num_nodes":"15","size_leaf_vector":"1"}},{"base_weights":[-3.5942204E-3,3.1044662E-1,-3.9843255E-1,-2.6219666E-1,5.798476E-1,-7.265606E-1,1.1737023E-1,4.802666E-3,-7.601523E-3,8.667777E-3,1.4195828E-3,-2.5462268E-3,-8.938332E-3,8.582187E-3,-3.7892219E-3],"categories":[],"categories_nodes":[],"categories_segments":[],"categories_sizes":[],"default_left":[0,0,0,0,0,0,0,0,0,0,0,0,0,0,0],"id":20,"left_children":[1,3,5,7,9,11,13,-1,-1,-1,-1,-1,-1,-1,-1],"loss_changes":[1.279313E3,8.8669995E2,7.73677E2,6.8036896E2,4.9094702E2,2.2031543E2,6.5405566E2,0E0,0E0,0E0,0E0,0E0,0E0,0E0,0E0],"parents":[2147483647,0,0,1,1,2,2,3,3,4,4,5,5,6,6],"right_children":[2,4,6,8,10,12,14,-1,-1,-1,-1,-1,-1,-1,-1],"split_conditions":[4.7E-1,1.02E2,1.14E2,9.5E1,1.08E2,1.08E2,1.19E2,4.802666E-3,-7.601523E-3,8.667777E-3,1.4195828E-3,-2.5462268E-3,-8.938332E-3,8.582187E-3,-3.7892219E-3],"split_indices":[3,26,26,13,13,13,13,0,0,0,0,0,0,0,0],"split_type":[0,0,0,0,0,0,0,0,0,0,0,0,0,0,0],"sum_hessian":[1.0315429E4,5.7457056E3,4.5697227E3,1.8382711E3,3.9074343E3,2.7927231E3,1.7769998E3,7.379726E2,1.1002986E3,2.3600286E3,1.5474058E3,7.3147736E2,2.0612456E3,7.125701E2,1.0644297E3],"tree_param":{"num_deleted":"0","num_feature":"27","num_nodes":"15","size_leaf_vector":"1"}},{"base_weights":[3.5942066E-3,-3.1044665E-1,3.9843255E-1,2.6219666E-1,-5.798476E-1,7.265606E-1,-1.1737023E-1,-4.8026666E-3,7.6015233E-3,-8.667778E-3,-1.4195828E-3,2.5462266E-3,8.938332E-3,-8.582187E-3,3.7892219E-3],"categories":[],"categories_nodes":[],"categories_segments":[],"categories_sizes":[],"default_left":[0,0,0,0,0,0,0,0,0,0,0,0,0,0,0],"id":21,"left_children":[1,3,5,7,9,11,13,-1,-1,-1,-1,-1,-1,-1,-1],"loss_changes":[1.279313E3,8.867E2,7.73677E2,6.803691E2,4.9094714E2,2.2031543E2,6.5405566E2,0E0,0E0,0E0,0E0,0E0,0E0,0E0,0E0],"parents":[2147483647,0,0,1,1,2,2,3,3,4,4,5,5,6,6],"right_children":[2,4,6,8,10,12,14,-1,-1,-1,-1,-1,-1,-1,-1],"split_conditions":[4.7E-1,1.02E2,1.14E2,9.5E1,1.08E2,1.08E2,1.19E2,-4.8026666E-3,7.6015233E-3,-8.667778E-3,-1.4195828E-3,2.5462266E-3,8.938332E-3,-8.582187E-3,3.7892219E-3],"split_indices":[3,26,26,13,13,13,13,0,0,0,0,0,0,0,0],"split_type":[0,0,0,0,0,0,0,0,0,0,0,0,0,0,0],"sum_hessian":[1.0315429E4,5.7457056E3,4.5697227E3,1.8382711E3,3.9074343E3,2.7927231E3,1.7769998E3,7.379726E2,1.1002985E3,2.3600286E3,1.5474058E3,7.3147736E2,2.0612456E3,7.125701E2,1.0644297E3],"tree_param":{"num_deleted":"0","num_feature":"27","num_nodes":"15","size_leaf_vector":"1"}},{"base_weights":[-3.561066E-3,-3.147207E-1,3.899255E-1,1.448453E-1,-6.307918E-1,6.960749E-1,-1.5956005E-1,-3.9334027E-3,7.8008855E-3,-8.458859E-3,-7.2408677E-4,2.0679121E-3,8.633455E-3,-7.5643775E-3,4.299849E-3],"categories":[],"categories_nodes":[],"categories_segments":[],"categories_sizes":[],"default_left":[0,0,0,0,0,0,0,0,0,0,0,0,0,0,0],"id":22,"left_children":[1,3,5,7,9,11,13,-1,-1,-1,-1,-1,-1,-1,-1],"loss_changes":[1.2622219E3,8.3629803E2,7.659277E2,8.025939E2,4.096283E2,2.39104E2,5.7377997E2,0E0,0E0,0E0,0E0,0E0,0E0,0E0,0E0],"parents":[2147483647,0,0,1,1,2,2,3,3,4,4,5,5,6,6],"right_children":[2,4,6,8,10,12,14,-1,-1,-1,-1,-1,-1,-1,-1],"split_conditions":[4.7E-1,1.05E2,1.15E2,9.9E1,1.12E2,1.08E2,1.22E2,-3.9334027E-3,7.8008855E-3,-8.458859E-3,-7.2408677E-4,2.0679121E-3,8.633455E-3,-7.5643775E-3,4.299849E-3],"split_indices":[16,13,13,26,26,26,26,0,0,0,0,0,0,0,0],"split_type":[0,0,0,0,0,0,0,0,0,0,0,0,0,0,0],"sum_hessian":[1.0307142E4,5.7557974E3,4.5513447E3,2.3457007E3,3.4100967E3,2.922685E3,1.6286595E3,1.2700663E3,1.0756343E3,2.4614204E3,9.486763E2,7.451833E2,2.1775017E3,8.0915607E2,8.195035E2],"tree_param":{"num_deleted":"0","num_feature":"27","num_nodes":"15","size_leaf_vector":"1"}},{"base_weights":[3.5610457E-3,3.1472066E-1,-3.899255E-1,-1.448453E-1,6.307917E-1,-6.960749E-1,1.5956001E-1,3.9334027E-3,-7.8008855E-3,8.458859E-3,7.240863E-4,-2.0679121E-3,-8.633455E-3,7.5643775E-3,-4.2998493E-3],"categories":[],"categories_nodes":[],"categories_segments":[],"categories_sizes":[],"default_left":[0,0,0,0,0,0,0,0,0,0,0,0,0,0,0],"id":23,"left_children":[1,3,5,7,9,11,13,-1,-1,-1,-1,-1,-1,-1,-1],"loss_changes":[1.262222E3,8.36298E2,7.659277E2,8.0259393E2,4.0962842E2,2.39104E2,5.737801E2,0E0,0E0,0E0,0E0,0E0,0E0,0E0,0E0],"parents":[2147483647,0,0,1,1,2,2,3,3,4,4,5,5,6,6],"right_children":[2,4,6,8,10,12,14,-1,-1,-1,-1,-1,-1,-1,-1],"split_conditions":[4.7E-1,1.05E2,1.15E2,9.9E1,1.12E2,1.08E2,1.22E2,3.9334027E-3,-7.8008855E-3,8.458859E-3,7.240863E-4,-2.0679121E-3,-8.633455E-3,7.5643775E-3,-4.2998493E-3],"split_indices":[16,13,13,26,26,26,26,0,0,0,0,0,0,0,0],"split_type":[0,0,0,0,0,0,0,0,0,0,0,0,0,0,0],"sum_hessian":[1.0307142E4,5.7557974E3,4.5513447E3,2.3457007E3,3.4100967E3,2.922685E3,1.6286595E3,1.2700663E3,1.0756344E3,2.4614204E3,9.486763E2,7.451833E2,2.1775017E3,8.0915607E2,8.195035E2],"tree_param":{"num_deleted":"0","num_feature":"27","num_nodes":"15","size_leaf_vector":"1"}},{"base_weights":[-3.5282953E-3,3.0595106E-1,-3.9269596E-1,-2.5705987E-1,5.70993E-1,-6.765161E-1,1.860138E-1,4.133847E-3,-7.969139E-3,8.538457E-3,1.4020333E-3,-2.1265184E-3,-8.571463E-3,8.060145E-3,-4.17421E-3],"categories":[],"categories_nodes":[],"categories_segments":[],"categories_sizes":[],"default_left":[0,0,0,0,0,0,0,0,0,0,0,0,0,0,0],"id":24,"left_children":[1,3,5,7,9,11,13,-1,-1,-1,-1,-1,-1,-1,-1],"loss_changes":[1.2405214E3,8.562906E2,7.495251E2,6.6525653E2,4.752528E2,2.5632983E2,5.6232544E2,0E0,0E0,0E0,0E0,0E0,0E0,0E0,0E0],"parents":[2147483647,0,0,1,1,2,2,3,3,4,4,5,5,6,6],"right_children":[2,4,6,8,10,12,14,-1,-1,-1,-1,-1,-1,-1,-1],"split_conditions":[4.7E-1,1.02E2,1.16E2,9.6E1,1.08E2,1.09E2,1.22E2,4.133847E-3,-7.969139E-3,8.538457E-3,1.4020333E-3,-2.1265184E-3,-8.571463E-3,8.060145E-3,-4.17421E-3],"split_indices":[3,26,26,13,13,13,13,0,0,0,0,0,0,0,0],"split_type":[0,0,0,0,0,0,0,0,0,0,0,0,0,0,0],"sum_hessian":[1.0297968E4,5.736401E3,4.5615674E3,1.8361084E3,3.9002925E3,3.0604453E3,1.5011218E3,8.1910114E2,1.0170073E3,2.353816E3,1.5464766E3,8.5835065E2,2.2020947E3,7.4023236E2,7.608894E2],"tree_param":{"num_deleted":"0","num_feature":"27","num_nodes":"15","size_leaf_vector":"1"}},{"base_weights":[3.5282841E-3,-3.0595106E-1,3.9269593E-1,2.570599E-1,-5.7099307E-1,6.7651606E-1,-1.860138E-1,-4.133847E-3,7.969139E-3,-8.538457E-3,-1.4020328E-3,2.1265184E-3,8.571463E-3,-8.060145E-3,4.1742106E-3],"categories":[],"categories_nodes":[],"categories_segments":[],"categories_sizes":[],"default_left":[0,0,0,0,0,0,0,0,0,0,0,0,0,0,0],"id":25,"left_children":[1,3,5,7,9,11,13,-1,-1,-1,-1,-1,-1,-1,-1],"loss_changes":[1.2405212E3,8.562906E2,7.495251E2,6.652565E2,4.7525305E2,2.5632983E2,5.6232544E2,0E0,0E0,0E0,0E0,0E0,0E0,0E0,0E0],"parents":[2147483647,0,0,1,1,2,2,3,3,4,4,5,5,6,6],"right_children":[2,4,6,8,10,12,14,-1,-1,-1,-1,-1,-1,-1,-1],"split_conditions":[4.7E-1,1.02E2,1.16E2,9.6E1,1.08E2,1.09E2,1.22E2,-4.133847E-3,7.969139E-3,-8.538457E-3,-1.4020328E-3,2.1265184E-3,8.571463E-3,-8.060145E-3,4.1742106E-3],"split_indices":[3,26,26,13,13,13,13,0,0,0,0,0,0,0,0],"split_type":[0,0,0,0,0,0,0,0,0,0,0,0,0,0,0],"sum_hessian":[1.0297969E4,5.736401E3,4.5615674E3,1.8361085E3,3.9002925E3,3.0604456E3,1.5011218E3,8.191012E2,1.0170073E3,2.353816E3,1.5464766E3,8.5835065E2,2.2020947E3,7.4023236E2,7.608894E2],"tree_param":{"num_deleted":"0","num_feature":"27","num_nodes":"15","size_leaf_vector":"1"}},{"base_weights":[-3.4963782E-3,-3.283962E-1,3.629423E-1,2.8857297E-1,-5.541423E-1,6.896702E-1,-1.5170255E-1,-4.2493264E-3,8.2322685E-3,-8.510802E-3,-1.7808649E-3,2.1938542E-3,8.691859E-3,-8.469189E-3,3.4300913E-3],"categories":[],"categories_nodes":[],"categories_segments":[],"categories_sizes":[],"default_left":[0,0,0,0,0,0,0,0,0,0,0,0,0,0,0],"id":26,"left_children":[1,3,5,7,9,11,13,-1,-1,-1,-1,-1,-1,-1,-1],"loss_changes":[1.2251208E3,7.598245E2,8.13274E2,5.5797595E2,4.4578796E2,2.4955408E2,6.464603E2,0E0,0E0,0E0,0E0,0E0,0E0,0E0,0E0],"parents":[2147483647,0,0,1,1,2,2,3,3,4,4,5,5,6,6],"right_children":[2,4,6,8,10,12,14,-1,-1,-1,-1,-1,-1,-1,-1],"split_conditions":[4.66E-1,1E2,1.14E2,9.5E1,1.06E2,1.08E2,1.19E2,-4.2493264E-3,8.2322685E-3,-8.510802E-3,-1.7808649E-3,2.1938542E-3,8.691859E-3,-8.469189E-3,3.4300913E-3],"split_indices":[16,13,13,26,26,26,26,0,0,0,0,0,0,0,0],"split_type":[0,0,0,0,0,0,0,0,0,0,0,0,0,0,0],"sum_hessian":[1.02883E4,5.4532896E3,4.8350103E3,1.4607495E3,3.9925403E3,2.9572366E3,1.8777739E3,6.2580554E2,8.34944E2,2.230248E3,1.7622922E3,8.175882E2,2.1396482E3,7.8038715E2,1.0973868E3],"tree_param":{"num_deleted":"0","num_feature":"27","num_nodes":"15","size_leaf_vector":"1"}},{"base_weights":[3.4963924E-3,3.283962E-1,-3.6294228E-1,-2.8857297E-1,5.541423E-1,-6.896702E-1,1.5170258E-1,4.249326E-3,-8.232268E-3,8.510802E-3,1.7808644E-3,-2.1938537E-3,-8.6918585E-3,8.469189E-3,-3.430091E-3],"categories":[],"categories_nodes":[],"categories_segments":[],"categories_sizes":[],"default_left":[0,0,0,0,0,0,0,0,0,0,0,0,0,0,0],"id":27,"left_children":[1,3,5,7,9,11,13,-1,-1,-1,-1,-1,-1,-1,-1],"loss_changes":[1.2251206E3,7.598246E2,8.132743E2,5.579758E2,4.457881E2,2.4955396E2,6.464604E2,0E0,0E0,0E0,0E0,0E0,0E0,0E0,0E0],"parents":[2147483647,0,0,1,1,2,2,3,3,4,4,5,5,6,6],"right_children":[2,4,6,8,10,12,14,-1,-1,-1,-1,-1,-1,-1,-1],"split_conditions":[4.66E-1,1E2,1.14E2,9.5E1,1.06E2,1.08E2,1.19E2,4.249326E-3,-8.232268E-3,8.510802E-3,1.7808644E-3,-2.1938537E-3,-8.6918585E-3,8.469189E-3,-3.430091E-3],"split_indices":[16,13,13,26,26,26,26,0,0,0,0,0,0,0,0],"split_type":[0,0,0,0,0,0,0,0,0,0,0,0,0,0,0],"sum_hessian":[1.02883E4,5.45329E3,4.8350103E3,1.4607496E3,3.9925403E3,2.9572363E3,1.8777739E3,6.2580554E2,8.3494403E2,2.230248E3,1.7622922E3,8.175882E2,2.1396482E3,7.8038715E2,1.0973868E3],"tree_param":{"num_deleted":"0","num_feature":"27","num_nodes":"15","size_leaf_vector":"1"}},{"base_weights":[-3.464759E-3,3.0174664E-1,-3.8728672E-1,-2.5238234E-1,5.626979E-1,-7.057357E-1,1.122163E-1,4.717978E-3,-7.395734E-3,8.4225405E-3,1.3793214E-3,-2.4721175E-3,-8.689533E-3,8.378065E-3,-3.7229E-3],"categories":[],"categories_nodes":[],"categories_segments":[],"categories_sizes":[],"default_left":[0,0,0,0,0,0,0,0,0,0,0,0,0,0,0],"id":28,"left_children":[1,3,5,7,9,11,13,-1,-1,-1,-1,-1,-1,-1,-1],"loss_changes":[1.204294E3,8.282029E2,7.2441504E2,6.4743286E2,4.6221765E2,2.0790955E2,6.238691E2,0E0,0E0,0E0,0E0,0E0,0E0,0E0,0E0],"parents":[2147483647,0,0,1,1,2,2,3,3,4,4,5,5,6,6],"right_children":[2,4,6,8,10,12,14,-1,-1,-1,-1,-1,-1,-1,-1],"split_conditions":[4.7E-1,1.02E2,1.14E2,9.5E1,1.08E2,1.08E2,1.19E2,4.717978E-3,-7.395734E-3,8.4225405E-3,1.3793214E-3,-2.4721175E-3,-8.689533E-3,8.378065E-3,-3.7229E-3],"split_indices":[3,26,26,13,13,13,13,0,0,0,0,0,0,0,0],"split_type":[0,0,0,0,0,0,0,0,0,0,0,0,0,0,0],"sum_hessian":[1.0278212E4,5.7255366E3,4.5526753E3,1.8330645E3,3.892472E3,2.779954E3,1.7727213E3,7.372373E2,1.0958271E3,2.3468975E3,1.5455746E3,7.30445E2,2.049509E3,7.094817E2,1.0632396E3],"tree_param":{"num_deleted":"0","num_feature":"27","num_nodes":"15","size_leaf_vector":"1"}},{"base_weights":[3.4647642E-3,-3.017466E-1,3.8728675E-1,2.5238237E-1,-5.626979E-1,7.0573574E-1,-1.1221631E-1,-4.7179777E-3,7.395734E-3,-8.4225405E-3,-1.379321E-3,2.4721175E-3,8.689534E-3,-8.378065E-3,3.7229E-3],"categories":[],"categories_nodes":[],"categories_segments":[],"categories_sizes":[],"default_left":[0,0,0,0,0,0,0,0,0,0,0,0,0,0,0],"id":29,"left_children":[1,3,5,7,9,11,13,-1,-1,-1,-1,-1,-1,-1,-1],"loss_changes":[1.204294E3,8.282031E2,7.244153E2,6.474327E2,4.6221753E2,2.0790942E2,6.238691E2,0E0,0E0,0E0,0E0,0E0,0E0,0E0,0E0],"parents":[2147483647,0,0,1,1,2,2,3,3,4,4,5,5,6,6],"right_children":[2,4,6,8,10,12,14,-1,-1,-1,-1,-1,-1,-1,-1],"split_conditions":[4.7E-1,1.02E2,1.14E2,9.5E1,1.08E2,1.08E2,1.19E2,-4.7179777E-3,7.395734E-3,-8.4225405E-3,-1.379321E-3,2.4721175E-3,8.689534E-3,-8.378065E-3,3.7229E-3],"split_indices":[3,26,26,13,13,13,13,0,0,0,0,0,0,0,0],"split_type":[0,0,0,0,0,0,0,0,0,0,0,0,0,0,0],"sum_hessian":[1.0278212E4,5.7255366E3,4.5526753E3,1.8330645E3,3.892472E3,2.7799539E3,1.7727213E3,7.3723724E2,1.0958271E3,2.3468975E3,1.5455746E3,7.3044495E2,2.049509E3,7.0948175E2,1.0632396E3],"tree_param":{"num_deleted":"0","num_feature":"27","num_nodes":"15","size_leaf_vector":"1"}},{"base_weights":[-3.4337165E-3,-3.0597875E-1,3.7928167E-1,1.4057456E-1,-6.134295E-1,6.581675E-1,-1.8847391E-1,-4.2831106E-3,7.1314387E-3,-8.240788E-3,-6.9156324E-4,2.072777E-3,8.3447425E-3,-7.89289E-3,3.8655677E-3],"categories":[],"categories_nodes":[],"categories_segments":[],"categories_sizes":[],"default_left":[0,0,0,0,0,0,0,0,0,0,0,0,0,0,0],"id":30,"left_children":[1,3,5,7,9,11,13,-1,-1,-1,-1,-1,-1,-1,-1],"loss_changes":[1.1890557E3,7.875035E2,7.180156E2,7.6231775E2,3.8939734E2,2.4154236E2,5.1655005E2,0E0,0E0,0E0,0E0,0E0,0E0,0E0,0E0],"parents":[2147483647,0,0,1,1,2,2,3,3,4,4,5,5,6,6],"right_children":[2,4,6,8,10,12,14,-1,-1,-1,-1,-1,-1,-1,-1],"split_conditions":[4.7E-1,1.05E2,1.16E2,9.8E1,1.12E2,1.09E2,1.22E2,-4.2831106E-3,7.1314387E-3,-8.240788E-3,-6.9156324E-4,2.072777E-3,8.3447425E-3,-7.89289E-3,3.8655677E-3],"split_indices":[16,13,13,26,26,26,26,0,0,0,0,0,0,0,0],"split_type":[0,0,0,0,0,0,0,0,0,0,0,0,0,0,0],"sum_hessian":[1.0267189E4,5.734299E3,4.5328906E3,2.3384243E3,3.3958748E3,3.0396382E3,1.4932526E3,1.1731118E3,1.1653125E3,2.4479382E3,9.479365E2,8.550627E2,2.1845754E3,7.300717E2,7.631808E2],"tree_param":{"num_deleted":"0","num_feature":"27","num_nodes":"15","size_leaf_vector":"1"}},{"base_weights":[3.4337156E-3,3.0597875E-1,-3.7928164E-1,-1.4057456E-1,6.134295E-1,-6.581675E-1,1.8847394E-1,4.2831106E-3,-7.1314387E-3,8.240788E-3,6.915634E-4,-2.072777E-3,-8.3447425E-3,7.89289E-3,-3.8655673E-3],"categories":[],"categories_nodes":[],"categories_segments":[],"categories_sizes":[],"default_left":[0,0,0,0,0,0,0,0,0,0,0,0,0,0,0],"id":31,"left_children":[1,3,5,7,9,11,13,-1,-1,-1,-1,-1,-1,-1,-1],"loss_changes":[1.1890557E3,7.8750336E2,7.180156E2,7.6231775E2,3.8939734E2,2.4154236E2,5.165501E2,0E0,0E0,0E0,0E0,0E0,0E0,0E0,0E0],"parents":[2147483647,0,0,1,1,2,2,3,3,4,4,5,5,6,6],"right_children":[2,4,6,8,10,12,14,-1,-1,-1,-1,-1,-1,-1,-1],"split_conditions":[4.7E-1,1.05E2,1.16E2,9.8E1,1.12E2,1.09E2,1.22E2,4.2831106E-3,-7.1314387E-3,8.240788E-3,6.915634E-4,-2.072777E-3,-8.3447425E-3,7.89289E-3,-3.8655673E-3],"split_indices":[16,13,13,26,26,26,26,0,0,0,0,0,0,0,0],"split_type":[0,0,0,0,0,0,0,0,0,0,0,0,0,0,0],"sum_hessian":[1.0267189E4,5.734299E3,4.5328906E3,2.3384243E3,3.3958748E3,3.0396382E3,1.4932524E3,1.1731118E3,1.1653125E3,2.4479382E3,9.479365E2,8.550627E2,2.1845754E3,7.300717E2,7.631808E2],"tree_param":{"num_deleted":"0","num_feature":"27","num_nodes":"15","size_leaf_vector":"1"}},{"base_weights":[-3.4032809E-3,2.975397E-1,-3.8195115E-1,-1.5431158E-1,6.084325E-1,-6.5760267E-1,1.7880805E-1,3.2933697E-3,-8.0988975E-3,8.235481E-3,5.320853E-4,-2.0584168E-3,-8.342974E-3,7.87042E-3,-4.109094E-3],"categories":[],"categories_nodes":[],"categories_segments":[],"categories_sizes":[],"default_left":[0,0,0,0,0,0,0,0,0,0,0,0,0,0,0],"id":32,"left_children":[1,3,5,7,9,11,13,-1,-1,-1,-1,-1,-1,-1,-1],"loss_changes":[1.1685544E3,8.0285754E2,7.023501E2,7.390488E2,4.0431262E2,2.4297241E2,5.3763666E2,0E0,0E0,0E0,0E0,0E0,0E0,0E0,0E0],"parents":[2147483647,0,0,1,1,2,2,3,3,4,4,5,5,6,6],"right_children":[2,4,6,8,10,12,14,-1,-1,-1,-1,-1,-1,-1,-1],"split_conditions":[4.7E-1,1.05E2,1.16E2,1E2,1.12E2,1.09E2,1.22E2,3.2933697E-3,-8.0988975E-3,8.235481E-3,5.320853E-4,-2.0584168E-3,-8.342974E-3,7.87042E-3,-4.109094E-3],"split_indices":[3,26,26,13,13,13,13,0,0,0,0,0,0,0,0],"split_type":[0,0,0,0,0,0,0,0,0,0,0,0,0,0,0],"sum_hessian":[1.0255559E4,5.713544E3,4.5420146E3,2.3290327E3,3.384511E3,3.0450107E3,1.4970039E3,1.340549E3,9.884837E2,2.4390454E3,9.454657E2,8.5673486E2,2.188276E3,7.3676776E2,7.602361E2],"tree_param":{"num_deleted":"0","num_feature":"27","num_nodes":"15","size_leaf_vector":"1"}},{"base_weights":[3.4032692E-3,-2.975397E-1,3.8195112E-1,1.5431158E-1,-6.084325E-1,6.576026E-1,-1.7880806E-1,-3.29337E-3,8.0988975E-3,-8.235481E-3,-5.320855E-4,2.0584166E-3,8.342973E-3,-7.87042E-3,4.109094E-3],"categories":[],"categories_nodes":[],"categories_segments":[],"categories_sizes":[],"default_left":[0,0,0,0,0,0,0,0,0,0,0,0,0,0,0],"id":33,"left_children":[1,3,5,7,9,11,13,-1,-1,-1,-1,-1,-1,-1,-1],"loss_changes":[1.1685543E3,8.028575E2,7.023501E2,7.390488E2,4.043125E2,2.4297229E2,5.3763666E2,0E0,0E0,0E0,0E0,0E0,0E0,0E0,0E0],"parents":[2147483647,0,0,1,1,2,2,3,3,4,4,5,5,6,6],"right_children":[2,4,6,8,10,12,14,-1,-1,-1,-1,-1,-1,-1,-1],"split_conditions":[4.7E-1,1.05E2,1.16E2,1E2,1.12E2,1.09E2,1.22E2,-3.29337E-3,8.0988975E-3,-8.235481E-3,-5.320855E-4,2.0584166E-3,8.342973E-3,-7.87042E-3,4.109094E-3],"split_indices":[3,26,26,13,13,13,13,0,0,0,0,0,0,0,0],"split_type":[0,0,0,0,0,0,0,0,0,0,0,0,0,0,0],"sum_hessian":[1.0255559E4,5.7135435E3,4.5420146E3,2.3290327E3,3.384511E3,3.0450107E3,1.4970039E3,1.340549E3,9.884837E2,2.4390454E3,9.454657E2,8.567349E2,2.188276E3,7.3676776E2,7.6023615E2],"tree_param":{"num_deleted":"0","num_feature":"27","num_nodes":"15","size_leaf_vector":"1"}},{"base_weights":[-3.3734953E-3,-3.193158E-1,3.5309696E-1,2.7934784E-1,-5.3870213E-1,6.7055464E-1,-1.456851E-1,-4.1936007E-3,8.0499025E-3,-8.290685E-3,-1.7251908E-3,2.133017E-3,8.460364E-3,-8.270406E-3,3.3721132E-3],"categories":[],"categories_nodes":[],"categories_segments":[],"categories_sizes":[],"default_left":[0,0,0,0,0,0,0,0,0,0,0,0,0,0,0],"id":34,"left_children":[1,3,5,7,9,11,13,-1,-1,-1,-1,-1,-1,-1,-1],"loss_changes":[1.153921E3,7.13536E2,7.623761E2,5.3557196E2,4.22542E2,2.3588098E2,6.165948E2,0E0,0E0,0E0,0E0,0E0,0E0,0E0,0E0],"parents":[2147483647,0,0,1,1,2,2,3,3,4,4,5,5,6,6],"right_children":[2,4,6,8,10,12,14,-1,-1,-1,-1,-1,-1,-1,-1],"split_conditions":[4.66E-1,1E2,1.14E2,9.5E1,1.06E2,1.08E2,1.19E2,-4.1936007E-3,8.0499025E-3,-8.290685E-3,-1.7251908E-3,2.133017E-3,8.460364E-3,-8.270406E-3,3.3721132E-3],"split_indices":[16,13,13,26,26,26,26,0,0,0,0,0,0,0,0],"split_type":[0,0,0,0,0,0,0,0,0,0,0,0,0,0,0],"sum_hessian":[1.0243772E4,5.4306514E3,4.8131206E3,1.4563301E3,3.9743215E3,2.9409578E3,1.872163E3,6.253236E2,8.310065E2,2.2159277E3,1.7583937E3,8.1625574E2,2.124702E3,7.762208E2,1.0959421E3],"tree_param":{"num_deleted":"0","num_feature":"27","num_nodes":"15","size_leaf_vector":"1"}},{"base_weights":[3.3735028E-3,3.193158E-1,-3.5309696E-1,-2.7934784E-1,5.3870213E-1,-6.705546E-1,1.4568509E-1,4.193601E-3,-8.0499025E-3,8.290685E-3,1.7251908E-3,-2.133017E-3,-8.460363E-3,8.270406E-3,-3.3721132E-3],"categories":[],"categories_nodes":[],"categories_segments":[],"categories_sizes":[],"default_left":[0,0,0,0,0,0,0,0,0,0,0,0,0,0,0],"id":35,"left_children":[1,3,5,7,9,11,13,-1,-1,-1,-1,-1,-1,-1,-1],"loss_changes":[1.153921E3,7.13536E2,7.623759E2,5.35572E2,4.22542E2,2.3588098E2,6.165948E2,0E0,0E0,0E0,0E0,0E0,0E0,0E0,0E0],"parents":[2147483647,0,0,1,1,2,2,3,3,4,4,5,5,6,6],"right_children":[2,4,6,8,10,12,14,-1,-1,-1,-1,-1,-1,-1,-1],"split_conditions":[4.66E-1,1E2,1.14E2,9.5E1,1.06E2,1.08E2,1.19E2,4.193601E-3,-8.0499025E-3,8.290685E-3,1.7251908E-3,-2.133017E-3,-8.460363E-3,8.270406E-3,-3.3721132E-3],"split_indices":[16,13,13,26,26,26,26,0,0,0,0,0,0,0,0],"split_type":[0,0,0,0,0,0,0,0,0,0,0,0,0,0,0],"sum_hessian":[1.0243772E4,5.4306514E3,4.8131206E3,1.4563301E3,3.9743215E3,2.9409578E3,1.872163E3,6.2532355E2,8.310065E2,2.2159277E3,1.7583937E3,8.1625574E2,2.124702E3,7.762208E2,1.0959421E3],"tree_param":{"num_deleted":"0","num_feature":"27","num_nodes":"15","size_leaf_vector":"1"}},{"base_weights":[-3.3437698E-3,2.9357946E-1,-3.768892E-1,-3.1803074E-1,5.1741344E-1,-6.86423E-1,1.072986E-1,3.8591148E-3,-8.080803E-3,8.212838E-3,1.546485E-3,-2.3998274E-3,-8.46228E-3,8.185601E-3,-3.656374E-3],"categories":[],"categories_nodes":[],"categories_segments":[],"categories_sizes":[],"default_left":[0,0,0,0,0,0,0,0,0,0,0,0,0,0,0],"id":36,"left_children":[1,3,5,7,9,11,13,-1,-1,-1,-1,-1,-1,-1,-1],"loss_changes":[1.1350155E3,7.8067786E2,6.792795E2,5.274704E2,4.600133E2,1.970393E2,5.950892E2,0E0,0E0,0E0,0E0,0E0,0E0,0E0,0E0],"parents":[2147483647,0,0,1,1,2,2,3,3,4,4,5,5,6,6],"right_children":[2,4,6,8,10,12,14,-1,-1,-1,-1,-1,-1,-1,-1],"split_conditions":[4.7E-1,1E2,1.14E2,9.5E1,1.06E2,1.08E2,1.19E2,3.8591148E-3,-8.080803E-3,8.212838E-3,1.546485E-3,-2.3998274E-3,-8.46228E-3,8.185601E-3,-3.656374E-3],"split_indices":[3,26,26,13,13,13,13,0,0,0,0,0,0,0,0],"split_type":[0,0,0,0,0,0,0,0,0,0,0,0,0,0,0],"sum_hessian":[1.0231267E4,5.700375E3,4.5308916E3,1.5271438E3,4.1732314E3,2.7636897E3,1.767202E3,6.268722E2,9.0027155E2,2.2702717E3,1.9029595E3,7.291626E2,2.0345271E3,7.0548016E2,1.0617219E3],"tree_param":{"num_deleted":"0","num_feature":"27","num_nodes":"15","size_leaf_vector":"1"}},{"base_weights":[3.3437826E-3,-2.9357946E-1,3.768892E-1,3.1803074E-1,-5.1741344E-1,6.86423E-1,-1.0729858E-1,-3.859115E-3,8.080804E-3,-8.212838E-3,-1.5464848E-3,2.3998276E-3,8.46228E-3,-8.185601E-3,3.656374E-3],"categories":[],"categories_nodes":[],"categories_segments":[],"categories_sizes":[],"default_left":[0,0,0,0,0,0,0,0,0,0,0,0,0,0,0],"id":37,"left_children":[1,3,5,7,9,11,13,-1,-1,-1,-1,-1,-1,-1,-1],"loss_changes":[1.1350155E3,7.806779E2,6.792796E2,5.2747046E2,4.600133E2,1.9703918E2,5.950892E2,0E0,0E0,0E0,0E0,0E0,0E0,0E0,0E0],"parents":[2147483647,0,0,1,1,2,2,3,3,4,4,5,5,6,6],"right_children":[2,4,6,8,10,12,14,-1,-1,-1,-1,-1,-1,-1,-1],"split_conditions":[4.7E-1,1E2,1.14E2,9.5E1,1.06E2,1.08E2,1.19E2,-3.859115E-3,8.080804E-3,-8.212838E-3,-1.5464848E-3,2.3998276E-3,8.46228E-3,-8.185601E-3,3.656374E-3],"split_indices":[3,26,26,13,13,13,13,0,0,0,0,0,0,0,0],"split_type":[0,0,0,0,0,0,0,0,0,0,0,0,0,0,0],"sum_hessian":[1.0231267E4,5.700375E3,4.5308916E3,1.5271437E3,4.173231E3,2.7636897E3,1.767202E3,6.2687225E2,9.002715E2,2.2702717E3,1.9029595E3,7.291626E2,2.0345271E3,7.0548016E2,1.0617219E3],"tree_param":{"num_deleted":"0","num_feature":"27","num_nodes":"15","size_leaf_vector":"1"}},{"base_weights":[-3.3148036E-3,-2.977235E-1,3.6928096E-1,1.3608919E-1,-5.968896E-1,6.4037603E-1,-1.8113375E-1,-4.572554E-3,6.6126063E-3,-8.034591E-3,-6.6299405E-4,2.0068255E-3,8.132314E-3,-7.712214E-3,3.8095557E-3],"categories":[],"categories_nodes":[],"categories_segments":[],"categories_sizes":[],"default_left":[0,0,0,0,0,0,0,0,0,0,0,0,0,0,0],"id":38,"left_children":[1,3,5,7,9,11,13,-1,-1,-1,-1,-1,-1,-1,-1],"loss_changes":[1.1211241E3,7.4103064E2,6.732462E2,7.26667E2,3.7031506E2,2.2957288E2,4.9431485E2,0E0,0E0,0E0,0E0,0E0,0E0,0E0,0E0],"parents":[2147483647,0,0,1,1,2,2,3,3,4,4,5,5,6,6],"right_children":[2,4,6,8,10,12,14,-1,-1,-1,-1,-1,-1,-1,-1],"split_conditions":[4.7E-1,1.05E2,1.16E2,9.7E1,1.12E2,1.09E2,1.22E2,-4.572554E-3,6.6126063E-3,-8.034591E-3,-6.6299405E-4,2.0068255E-3,8.132314E-3,-7.712214E-3,3.8095557E-3],"split_indices":[16,13,13,26,26,26,26,0,0,0,0,0,0,0,0],"split_type":[0,0,0,0,0,0,0,0,0,0,0,0,0,0,0],"sum_hessian":[1.0218334E4,5.7081816E3,4.510152E3,2.3300232E3,3.3781584E3,3.0217097E3,1.4884421E3,1.0940653E3,1.2359579E3,2.431149E3,9.470096E2,8.533072E2,2.1684023E3,7.259548E2,7.624874E2],"tree_param":{"num_deleted":"0","num_feature":"27","num_nodes":"15","size_leaf_vector":"1"}},{"base_weights":[3.3148262E-3,2.9772353E-1,-3.6928093E-1,-1.3608919E-1,5.968897E-1,-6.40376E-1,1.8113378E-1,4.572554E-3,-6.6126063E-3,8.034592E-3,6.62994E-4,-2.0068255E-3,-8.132313E-3,7.712214E-3,-3.8095552E-3],"categories":[],"categories_nodes":[],"categories_segments":[],"categories_sizes":[],"default_left":[0,0,0,0,0,0,0,0,0,0,0,0,0,0,0],"id":39,"left_children":[1,3,5,7,9,11,13,-1,-1,-1,-1,-1,-1,-1,-1],"loss_changes":[1.1211243E3,7.4103064E2,6.7324615E2,7.26667E2,3.703152E2,2.2957288E2,4.9431485E2,0E0,0E0,0E0,0E0,0E0,0E0,0E0,0E0],"parents":[2147483647,0,0,1,1,2,2,3,3,4,4,5,5,6,6],"right_children":[2,4,6,8,10,12,14,-1,-1,-1,-1,-1,-1,-1,-1],"split_conditions":[4.7E-1,1.05E2,1.16E2,9.7E1,1.12E2,1.09E2,1.22E2,4.572554E-3,-6.6126063E-3,8.034592E-3,6.62994E-4,-2.0068255E-3,-8.132313E-3,7.712214E-3,-3.8095552E-3],"split_indices":[16,13,13,26,26,26,26,0,0,0,0,0,0,0,0],"split_type":[0,0,0,0,0,0,0,0,0,0,0,0,0,0,0],"sum_hessian":[1.0218334E4,5.7081816E3,4.510152E3,2.3300232E3,3.3781584E3,3.0217097E3,1.4884421E3,1.0940653E3,1.2359579E3,2.431149E3,9.470096E2,8.533072E2,2.1684026E3,7.259548E2,7.624874E2],"tree_param":{"num_deleted":"0","num_feature":"27","num_nodes":"15","size_leaf_vector":"1"}},{"base_weights":[-3.2863265E-3,2.8959247E-1,-3.7189063E-1,-1.4972651E-1,5.923553E-1,-6.399787E-1,1.7192997E-1,3.2225084E-3,-7.915841E-3,8.210924E-3,9.2274067E-4,-1.992917E-3,-8.132904E-3,7.694284E-3,-4.0462515E-3],"categories":[],"categories_nodes":[],"categories_segments":[],"categories_sizes":[],"default_left":[0,0,0,0,0,0,0,0,0,0,0,0,0,0,0],"id":40,"left_children":[1,3,5,7,9,11,13,-1,-1,-1,-1,-1,-1,-1,-1],"loss_changes":[1.1018499E3,7.5657104E2,6.5894415E2,7.034509E2,3.8508984E2,2.3103369E2,5.146156E2,0E0,0E0,0E0,0E0,0E0,0E0,0E0,0E0],"parents":[2147483647,0,0,1,1,2,2,3,3,4,4,5,5,6,6],"right_children":[2,4,6,8,10,12,14,-1,-1,-1,-1,-1,-1,-1,-1],"split_conditions":[4.7E-1,1.05E2,1.16E2,1E2,1.11E2,1.09E2,1.22E2,3.2225084E-3,-7.915841E-3,8.210924E-3,9.2274067E-4,-1.992917E-3,-8.132904E-3,7.694284E-3,-4.0462515E-3],"split_indices":[3,26,26,13,13,13,13,0,0,0,0,0,0,0,0],"split_type":[0,0,0,0,0,0,0,0,0,0,0,0,0,0,0],"sum_hessian":[1.02044375E4,5.686432E3,4.518006E3,2.3202205E3,3.3662117E3,3.026065E3,1.4919407E3,1.3373353E3,9.8288513E2,2.3092974E3,1.0569143E3,8.5476556E2,2.1712996E3,7.324991E2,7.594416E2],"tree_param":{"num_deleted":"0","num_feature":"27","num_nodes":"15","size_leaf_vector":"1"}},{"base_weights":[3.2863289E-3,-2.8959247E-1,3.7189063E-1,1.497265E-1,-5.923553E-1,6.399787E-1,-1.7193E-1,-3.2225086E-3,7.915841E-3,-8.210924E-3,-9.2274067E-4,1.9929167E-3,8.132904E-3,-7.694284E-3,4.0462506E-3],"categories":[],"categories_nodes":[],"categories_segments":[],"categories_sizes":[],"default_left":[0,0,0,0,0,0,0,0,0,0,0,0,0,0,0],"id":41,"left_children":[1,3,5,7,9,11,13,-1,-1,-1,-1,-1,-1,-1,-1],"loss_changes":[1.1018497E3,7.5657104E2,6.5894415E2,7.03451E2,3.8508997E2,2.3103357E2,5.1461554E2,0E0,0E0,0E0,0E0,0E0,0E0,0E0,0E0],"parents":[2147483647,0,0,1,1,2,2,3,3,4,4,5,5,6,6],"right_children":[2,4,6,8,10,12,14,-1,-1,-1,-1,-1,-1,-1,-1],"split_conditions":[4.7E-1,1.05E2,1.16E2,1E2,1.11E2,1.09E2,1.22E2,-3.2225086E-3,7.915841E-3,-8.210924E-3,-9.2274067E-4,1.9929167E-3,8.132904E-3,-7.694284E-3,4.0462506E-3],"split_indices":[3,26,26,13,13,13,13,0,0,0,0,0,0,0,0],"split_type":[0,0,0,0,0,0,0,0,0,0,0,0,0,0,0],"sum_hessian":[1.02044375E4,5.686432E3,4.518006E3,2.3202205E3,3.3662114E3,3.026065E3,1.4919407E3,1.3373353E3,9.8288513E2,2.309297E3,1.0569143E3,8.5476556E2,2.1712996E3,7.324991E2,7.594416E2],"tree_param":{"num_deleted":"0","num_feature":"27","num_nodes":"15","size_leaf_vector":"1"}},{"base_weights":[-3.2582525E-3,-3.1085345E-1,3.439334E-1,2.7036172E-1,-5.2421635E-1,6.5290195E-1,-1.4009221E-1,-4.128936E-3,7.868964E-3,-8.089759E-3,-1.6692459E-3,2.068701E-3,8.251818E-3,-8.087704E-3,3.31479E-3],"categories":[],"categories_nodes":[],"categories_segments":[],"categories_sizes":[],"default_left":[0,0,0,0,0,0,0,0,0,0,0,0,0,0,0],"id":42,"left_children":[1,3,5,7,9,11,13,-1,-1,-1,-1,-1,-1,-1,-1],"loss_changes":[1.0884883E3,6.703343E2,7.161318E2,5.1272125E2,4.0210278E2,2.2441394E2,5.8878E2,0E0,0E0,0E0,0E0,0E0,0E0,0E0,0E0],"parents":[2147483647,0,0,1,1,2,2,3,3,4,4,5,5,6,6],"right_children":[2,4,6,8,10,12,14,-1,-1,-1,-1,-1,-1,-1,-1],"split_conditions":[4.66E-1,1E2,1.14E2,9.5E1,1.06E2,1.08E2,1.19E2,-4.128936E-3,7.868964E-3,-8.089759E-3,-1.6692459E-3,2.068701E-3,8.251818E-3,-8.087704E-3,3.31479E-3],"split_indices":[16,13,13,26,26,26,26,0,0,0,0,0,0,0,0],"split_type":[0,0,0,0,0,0,0,0,0,0,0,0,0,0,0],"sum_hessian":[1.0190362E4,5.403354E3,4.7870083E3,1.4508558E3,3.952498E3,2.9216682E3,1.8653401E3,6.247102E2,8.261457E2,2.198801E3,1.7536971E3,8.14676E2,2.1069922E3,7.7115015E2,1.09419E3],"tree_param":{"num_deleted":"0","num_feature":"27","num_nodes":"15","size_leaf_vector":"1"}},{"base_weights":[3.258257E-3,3.1085345E-1,-3.439334E-1,-2.703617E-1,5.2421635E-1,-6.5290195E-1,1.4009222E-1,4.1289357E-3,-7.868964E-3,8.089759E-3,1.6692458E-3,-2.068701E-3,-8.251818E-3,8.087704E-3,-3.31479E-3],"categories":[],"categories_nodes":[],"categories_segments":[],"categories_sizes":[],"default_left":[0,0,0,0,0,0,0,0,0,0,0,0,0,0,0],"id":43,"left_children":[1,3,5,7,9,11,13,-1,-1,-1,-1,-1,-1,-1,-1],"loss_changes":[1.0884883E3,6.7033417E2,7.161317E2,5.127212E2,4.021029E2,2.2441394E2,5.8877997E2,0E0,0E0,0E0,0E0,0E0,0E0,0E0,0E0],"parents":[2147483647,0,0,1,1,2,2,3,3,4,4,5,5,6,6],"right_children":[2,4,6,8,10,12,14,-1,-1,-1,-1,-1,-1,-1,-1],"split_conditions":[4.66E-1,1E2,1.14E2,9.5E1,1.06E2,1.08E2,1.19E2,4.1289357E-3,-7.868964E-3,8.089759E-3,1.6692458E-3,-2.068701E-3,-8.251818E-3,8.087704E-3,-3.31479E-3],"split_indices":[16,13,13,26,26,26,26,0,0,0,0,0,0,0,0],"split_type":[0,0,0,0,0,0,0,0,0,0,0,0,0,0,0],"sum_hessian":[1.0190362E4,5.403354E3,4.7870083E3,1.450856E3,3.952498E3,2.9216682E3,1.8653402E3,6.247102E2,8.261457E2,2.198801E3,1.753697E3,8.14676E2,2.1069922E3,7.711502E2,1.09419E3],"tree_param":{"num_deleted":"0","num_feature":"27","num_nodes":"15","size_leaf_vector":"1"}},{"base_weights":[-3.230244E-3,2.8587362E-1,-3.6714056E-1,-3.0889985E-1,5.0386035E-1,-6.4904666E-1,1.3498062E-1,3.8069177E-3,-7.914081E-3,8.018442E-3,1.4994578E-3,-2.2581015E-3,-8.2010375E-3,7.1460293E-3,-4.3609543E-3],"categories":[],"categories_nodes":[],"categories_segments":[],"categories_sizes":[],"default_left":[0,0,0,0,0,0,0,0,0,0,0,0,0,0,0],"id":44,"left_children":[1,3,5,7,9,11,13,-1,-1,-1,-1,-1,-1,-1,-1],"loss_changes":[1.0707736E3,7.355212E2,6.379006E2,5.066654E2,4.376454E2,2.0874817E2,5.36867E2,0E0,0E0,0E0,0E0,0E0,0E0,0E0,0E0],"parents":[2147483647,0,0,1,1,2,2,3,3,4,4,5,5,6,6],"right_children":[2,4,6,8,10,12,14,-1,-1,-1,-1,-1,-1,-1,-1],"split_conditions":[4.7E-1,1E2,1.15E2,9.5E1,1.06E2,1.09E2,1.22E2,3.8069177E-3,-7.914081E-3,8.018442E-3,1.4994578E-3,-2.2581015E-3,-8.2010375E-3,7.1460293E-3,-4.3609543E-3],"split_indices":[3,26,26,13,13,13,13,0,0,0,0,0,0,0,0],"split_type":[0,0,0,0,0,0,0,0,0,0,0,0,0,0,0],"sum_hessian":[1.0175696E4,5.670809E3,4.504887E3,1.5208301E3,4.149979E3,2.8849153E3,1.6199719E3,6.2615393E2,8.9467615E2,2.2523296E3,1.8976497E3,8.310405E2,2.0538748E3,8.0384546E2,8.1612646E2],"tree_param":{"num_deleted":"0","num_feature":"27","num_nodes":"15","size_leaf_vector":"1"}},{"base_weights":[3.2302637E-3,-2.858736E-1,3.6714056E-1,3.0889985E-1,-5.038603E-1,6.490467E-1,-1.349806E-1,-3.8069172E-3,7.914081E-3,-8.0184415E-3,-1.4994578E-3,2.2581015E-3,8.201038E-3,-7.1460293E-3,4.3609543E-3],"categories":[],"categories_nodes":[],"categories_segments":[],"categories_sizes":[],"default_left":[0,0,0,0,0,0,0,0,0,0,0,0,0,0,0],"id":45,"left_children":[1,3,5,7,9,11,13,-1,-1,-1,-1,-1,-1,-1,-1],"loss_changes":[1.0707736E3,7.355211E2,6.3790063E2,5.066654E2,4.3764526E2,2.0874817E2,5.36867E2,0E0,0E0,0E0,0E0,0E0,0E0,0E0,0E0],"parents":[2147483647,0,0,1,1,2,2,3,3,4,4,5,5,6,6],"right_children":[2,4,6,8,10,12,14,-1,-1,-1,-1,-1,-1,-1,-1],"split_conditions":[4.7E-1,1E2,1.15E2,9.5E1,1.06E2,1.09E2,1.22E2,-3.8069172E-3,7.914081E-3,-8.0184415E-3,-1.4994578E-3,2.2581015E-3,8.201038E-3,-7.1460293E-3,4.3609543E-3],"split_indices":[3,26,26,13,13,13,13,0,0,0,0,0,0,0,0],"split_type":[0,0,0,0,0,0,0,0,0,0,0,0,0,0,0],"sum_hessian":[1.0175696E4,5.670809E3,4.504887E3,1.5208301E3,4.149979E3,2.8849153E3,1.6199719E3,6.2615393E2,8.9467615E2,2.2523296E3,1.8976497E3,8.310405E2,2.0538748E3,8.038454E2,8.1612646E2],"tree_param":{"num_deleted":"0","num_feature":"27","num_nodes":"15","size_leaf_vector":"1"}},{"base_weights":[-3.2031902E-3,-2.899765E-1,3.5992417E-1,2.2247733E-1,-5.3007835E-1,6.239729E-1,-1.7459032E-1,-4.7128517E-3,7.029047E-3,-7.987548E-3,-1.3016105E-3,1.9422475E-3,7.939775E-3,-7.544674E-3,3.747402E-3],"categories":[],"categories_nodes":[],"categories_segments":[],"categories_sizes":[],"default_left":[0,0,0,0,0,0,0,0,0,0,0,0,0,0,0],"id":46,"left_children":[1,3,5,7,9,11,13,-1,-1,-1,-1,-1,-1,-1,-1],"loss_changes":[1.0583049E3,6.987925E2,6.33029E2,6.0440356E2,4.153988E2,2.1915747E2,4.7286627E2,0E0,0E0,0E0,0E0,0E0,0E0,0E0,0E0],"parents":[2147483647,0,0,1,1,2,2,3,3,4,4,5,5,6,6],"right_children":[2,4,6,8,10,12,14,-1,-1,-1,-1,-1,-1,-1,-1],"split_conditions":[4.7E-1,1.02E2,1.16E2,9.5E1,1.08E2,1.09E2,1.22E2,-4.7128517E-3,7.029047E-3,-7.987548E-3,-1.3016105E-3,1.9422475E-3,7.939775E-3,-7.544674E-3,3.747402E-3],"split_indices":[16,13,13,26,26,26,26,0,0,0,0,0,0,0,0],"split_type":[0,0,0,0,0,0,0,0,0,0,0,0,0,0,0],"sum_hessian":[1.0160793E4,5.6773833E3,4.48341E3,1.8113846E3,3.8659985E3,3.0008372E3,1.4825728E3,7.411475E2,1.070237E3,2.3118384E3,1.5541602E3,8.512179E2,2.1496191E3,7.2105194E2,7.615209E2],"tree_param":{"num_deleted":"0","num_feature":"27","num_nodes":"15","size_leaf_vector":"1"}},{"base_weights":[3.2031874E-3,2.899765E-1,-3.5992417E-1,-2.224773E-1,5.3007835E-1,-6.239729E-1,1.7459032E-1,4.7128517E-3,-7.029047E-3,7.987548E-3,1.3016103E-3,-1.9422474E-3,-7.939775E-3,7.544674E-3,-3.747402E-3],"categories":[],"categories_nodes":[],"categories_segments":[],"categories_sizes":[],"default_left":[0,0,0,0,0,0,0,0,0,0,0,0,0,0,0],"id":47,"left_children":[1,3,5,7,9,11,13,-1,-1,-1,-1,-1,-1,-1,-1],"loss_changes":[1.058305E3,6.987925E2,6.3302905E2,6.044036E2,4.153988E2,2.1915735E2,4.7286627E2,0E0,0E0,0E0,0E0,0E0,0E0,0E0,0E0],"parents":[2147483647,0,0,1,1,2,2,3,3,4,4,5,5,6,6],"right_children":[2,4,6,8,10,12,14,-1,-1,-1,-1,-1,-1,-1,-1],"split_conditions":[4.7E-1,1.02E2,1.16E2,9.5E1,1.08E2,1.09E2,1.22E2,4.7128517E-3,-7.029047E-3,7.987548E-3,1.3016103E-3,-1.9422474E-3,-7.939775E-3,7.544674E-3,-3.747402E-3],"split_indices":[16,13,13,26,26,26,26,0,0,0,0,0,0,0,0],"split_type":[0,0,0,0,0,0,0,0,0,0,0,0,0,0,0],"sum_hessian":[1.0160793E4,5.6773833E3,4.48341E3,1.8113846E3,3.8659985E3,3.0008372E3,1.4825728E3,7.4114746E2,1.070237E3,2.3118384E3,1.5541602E3,8.512179E2,2.1496194E3,7.2105194E2,7.615209E2],"tree_param":{"num_deleted":"0","num_feature":"27","num_nodes":"15","size_leaf_vector":"1"}},{"base_weights":[-3.176309E-3,2.8223574E-1,-3.6255178E-1,-2.3455939E-1,5.2646387E-1,-6.6009444E-1,1.00542486E-1,4.5236E-3,-7.0128655E-3,7.938013E-3,1.2605294E-3,-2.291867E-3,-8.159359E-3,7.92849E-3,-3.5625007E-3],"categories":[],"categories_nodes":[],"categories_segments":[],"categories_sizes":[],"default_left":[0,0,0,0,0,0,0,0,0,0,0,0,0,0,0],"id":48,"left_children":[1,3,5,7,9,11,13,-1,-1,-1,-1,-1,-1,-1,-1],"loss_changes":[1.0407666E3,7.139275E2,6.189466E2,5.8241644E2,4.110365E2,1.8345337E2,5.561761E2,0E0,0E0,0E0,0E0,0E0,0E0,0E0,0E0],"parents":[2147483647,0,0,1,1,2,2,3,3,4,4,5,5,6,6],"right_children":[2,4,6,8,10,12,14,-1,-1,-1,-1,-1,-1,-1,-1],"split_conditions":[4.7E-1,1.02E2,1.14E2,9.5E1,1.08E2,1.08E2,1.19E2,4.5236E-3,-7.0128655E-3,7.938013E-3,1.2605294E-3,-2.291867E-3,-8.159359E-3,7.92849E-3,-3.5625007E-3],"split_indices":[3,26,26,13,13,13,13,0,0,0,0,0,0,0,0],"split_type":[0,0,0,0,0,0,0,0,0,0,0,0,0,0,0],"sum_hessian":[1.0144885E4,5.654421E3,4.4904644E3,1.8146334E3,3.8397874E3,2.7336448E3,1.7568195E3,7.34153E2,1.0804805E3,2.3019138E3,1.5378735E3,7.2671643E2,2.0069285E3,6.980826E2,1.0587369E3],"tree_param":{"num_deleted":"0","num_feature":"27","num_nodes":"15","size_leaf_vector":"1"}},{"base_weights":[3.176318E-3,-2.8223574E-1,3.6255178E-1,2.3455939E-1,-5.2646387E-1,6.6009444E-1,-1.0054246E-1,-4.5236E-3,7.012866E-3,-7.938013E-3,-1.2605297E-3,2.291867E-3,8.15936E-3,-7.92849E-3,3.562501E-3],"categories":[],"categories_nodes":[],"categories_segments":[],"categories_sizes":[],"default_left":[0,0,0,0,0,0,0,0,0,0,0,0,0,0,0],"id":49,"left_children":[1,3,5,7,9,11,13,-1,-1,-1,-1,-1,-1,-1,-1],"loss_changes":[1.0407666E3,7.139275E2,6.1894653E2,5.8241656E2,4.1103638E2,1.8345349E2,5.561761E2,0E0,0E0,0E0,0E0,0E0,0E0,0E0,0E0],"parents":[2147483647,0,0,1,1,2,2,3,3,4,4,5,5,6,6],"right_children":[2,4,6,8,10,12,14,-1,-1,-1,-1,-1,-1,-1,-1],"split_conditions":[4.7E-1,1.02E2,1.14E2,9.5E1,1.08E2,1.08E2,1.19E2,-4.5236E-3,7.012866E-3,-7.938013E-3,-1.2605297E-3,2.291867E-3,8.15936E-3,-7.92849E-3,3.562501E-3],"split_indices":[3,26,26,13,13,13,13,0,0,0,0,0,0,0,0],"split_type":[0,0,0,0,0,0,0,0,0,0,0,0,0,0,0],"sum_hessian":[1.0144885E4,5.654421E3,4.4904644E3,1.8146334E3,3.8397874E3,2.7336448E3,1.7568195E3,7.34153E2,1.0804803E3,2.3019138E3,1.5378735E3,7.2671643E2,2.0069283E3,6.980826E2,1.0587369E3],"tree_param":{"num_deleted":"0","num_feature":"27","num_nodes":"15","size_leaf_vector":"1"}},{"base_weights":[-3.1495586E-3,-2.8624946E-1,3.5540208E-1,1.3023838E-1,-5.7424754E-1,6.527172E-1,-1.0630832E-1,-3.6565016E-3,7.218468E-3,-7.935656E-3,-1.0231123E-3,2.1778548E-3,8.08858E-3,-7.912687E-3,3.3842986E-3],"categories":[],"categories_nodes":[],"categories_segments":[],"categories_sizes":[],"default_left":[0,0,0,0,0,0,0,0,0,0,0,0,0,0,0],"id":50,"left_children":[1,3,5,7,9,11,13,-1,-1,-1,-1,-1,-1,-1,-1],"loss_changes":[1.0283046E3,6.790817E2,6.136305E2,6.7942206E2,3.4633167E2,1.844718E2,5.3386664E2,0E0,0E0,0E0,0E0,0E0,0E0,0E0,0E0],"parents":[2147483647,0,0,1,1,2,2,3,3,4,4,5,5,6,6],"right_children":[2,4,6,8,10,12,14,-1,-1,-1,-1,-1,-1,-1,-1],"split_conditions":[4.7E-1,1.05E2,1.14E2,9.9E1,1.11E2,1.08E2,1.19E2,-3.6565016E-3,7.218468E-3,-7.935656E-3,-1.0231123E-3,2.1778548E-3,8.08858E-3,-7.912687E-3,3.3842986E-3],"split_indices":[16,13,13,26,26,26,26,0,0,0,0,0,0,0,0],"split_type":[0,0,0,0,0,0,0,0,0,0,0,0,0,0,0],"sum_hessian":[1.0128484E4,5.6598584E3,4.468626E3,2.314008E3,3.3458503E3,2.717985E3,1.7506406E3,1.2590496E3,1.0549585E3,2.2838289E3,1.0620217E3,7.186301E2,1.999355E3,6.8888306E2,1.0617576E3],"tree_param":{"num_deleted":"0","num_feature":"27","num_nodes":"15","size_leaf_vector":"1"}},{"base_weights":[3.149571E-3,2.862495E-1,-3.5540208E-1,-1.3023835E-1,5.7424754E-1,-6.527172E-1,1.0630833E-1,3.6565023E-3,-7.218468E-3,7.935655E-3,1.0231126E-3,-2.1778545E-3,-8.08858E-3,7.912687E-3,-3.3842984E-3],"categories":[],"categories_nodes":[],"categories_segments":[],"categories_sizes":[],"default_left":[0,0,0,0,0,0,0,0,0,0,0,0,0,0,0],"id":51,"left_children":[1,3,5,7,9,11,13,-1,-1,-1,-1,-1,-1,-1,-1],"loss_changes":[1.0283046E3,6.7908167E2,6.1363055E2,6.794221E2,3.4633167E2,1.8447192E2,5.3386664E2,0E0,0E0,0E0,0E0,0E0,0E0,0E0,0E0],"parents":[2147483647,0,0,1,1,2,2,3,3,4,4,5,5,6,6],"right_children":[2,4,6,8,10,12,14,-1,-1,-1,-1,-1,-1,-1,-1],"split_conditions":[4.7E-1,1.05E2,1.14E2,9.9E1,1.11E2,1.08E2,1.19E2,3.6565023E-3,-7.218468E-3,7.935655E-3,1.0231126E-3,-2.1778545E-3,-8.08858E-3,7.912687E-3,-3.3842984E-3],"split_indices":[16,13,13,26,26,26,26,0,0,0,0,0,0,0,0],"split_type":[0,0,0,0,0,0,0,0,0,0,0,0,0,0,0],"sum_hessian":[1.0128484E4,5.6598584E3,4.468626E3,2.3140078E3,3.3458506E3,2.717985E3,1.7506406E3,1.2590496E3,1.0549584E3,2.2838289E3,1.0620216E3,7.186301E2,1.999355E3,6.8888306E2,1.0617576E3],"tree_param":{"num_deleted":"0","num_feature":"27","num_nodes":"15","size_leaf_vector":"1"}},{"base_weights":[-3.1232585E-3,2.7857718E-1,-3.5794705E-1,-1.4335588E-1,5.7015514E-1,-6.1568415E-1,1.6210054E-1,3.1283535E-3,-7.675431E-3,7.7655E-3,4.6375254E-4,-2.2363712E-3,-7.997205E-3,7.44844E-3,-3.9540455E-3],"categories":[],"categories_nodes":[],"categories_segments":[],"categories_sizes":[],"default_left":[0,0,0,0,0,0,0,0,0,0,0,0,0,0,0],"id":52,"left_children":[1,3,5,7,9,11,13,-1,-1,-1,-1,-1,-1,-1,-1],"loss_changes":[1.01088416E3,6.936636E2,6.000198E2,6.56485E2,3.603899E2,2.1575903E2,4.824075E2,0E0,0E0,0E0,0E0,0E0,0E0,0E0,0E0],"parents":[2147483647,0,0,1,1,2,2,3,3,4,4,5,5,6,6],"right_children":[2,4,6,8,10,12,14,-1,-1,-1,-1,-1,-1,-1,-1],"split_conditions":[4.7E-1,1.05E2,1.16E2,1E2,1.12E2,1.1E2,1.22E2,3.1283535E-3,-7.675431E-3,7.7655E-3,4.6375254E-4,-2.2363712E-3,-7.997205E-3,7.44844E-3,-3.9540455E-3],"split_indices":[3,26,26,13,13,13,13,0,0,0,0,0,0,0,0],"split_type":[0,0,0,0,0,0,0,0,0,0,0,0,0,0,0],"sum_hessian":[1.0111494E4,5.636667E3,4.474827E3,2.303645E3,3.3330217E3,2.991866E3,1.4829614E3,1.3312161E3,9.72429E2,2.390547E3,9.424747E2,9.564928E2,2.0353732E3,7.249044E2,7.58057E2],"tree_param":{"num_deleted":"0","num_feature":"27","num_nodes":"15","size_leaf_vector":"1"}},{"base_weights":[3.1232706E-3,-2.7857715E-1,3.5794705E-1,1.433559E-1,-5.7015514E-1,6.1568415E-1,-1.6210054E-1,-3.1283535E-3,7.675431E-3,-7.7655E-3,-4.6375234E-4,2.236371E-3,7.997205E-3,-7.44844E-3,3.9540455E-3],"categories":[],"categories_nodes":[],"categories_segments":[],"categories_sizes":[],"default_left":[0,0,0,0,0,0,0,0,0,0,0,0,0,0,0],"id":53,"left_children":[1,3,5,7,9,11,13,-1,-1,-1,-1,-1,-1,-1,-1],"loss_changes":[1.01088416E3,6.936636E2,6.000198E2,6.56485E2,3.603899E2,2.1575903E2,4.8240756E2,0E0,0E0,0E0,0E0,0E0,0E0,0E0,0E0],"parents":[2147483647,0,0,1,1,2,2,3,3,4,4,5,5,6,6],"right_children":[2,4,6,8,10,12,14,-1,-1,-1,-1,-1,-1,-1,-1],"split_conditions":[4.7E-1,1.05E2,1.16E2,1E2,1.12E2,1.1E2,1.22E2,-3.1283535E-3,7.675431E-3,-7.7655E-3,-4.6375234E-4,2.236371E-3,7.997205E-3,-7.44844E-3,3.9540455E-3],"split_indices":[3,26,26,13,13,13,13,0,0,0,0,0,0,0,0],"split_type":[0,0,0,0,0,0,0,0,0,0,0,0,0,0,0],"sum_hessian":[1.0111494E4,5.636667E3,4.474827E3,2.3036453E3,3.3330217E3,2.991866E3,1.4829614E3,1.3312161E3,9.72429E2,2.3905469E3,9.4247473E2,9.564928E2,2.035373E3,7.249044E2,7.58057E2],"tree_param":{"num_deleted":"0","num_feature":"27","num_nodes":"15","size_leaf_vector":"1"}},{"base_weights":[-3.0976906E-3,-2.991213E-1,3.3125573E-1,1.4251837E-1,-5.604616E-1,5.92226E-1,-1.965034E-1,-3.8576825E-3,3.6280386E-3,-7.1683633E-3,-2.8937438E-3,1.7259137E-3,7.7314377E-3,-7.4604615E-3,3.6140643E-3],"categories":[],"categories_nodes":[],"categories_segments":[],"categories_sizes":[],"default_left":[0,0,0,0,0,0,0,0,0,0,0,0,0,0,0],"id":54,"left_children":[1,3,5,7,9,11,13,-1,-1,-1,-1,-1,-1,-1,-1],"loss_changes":[9.9932306E2,6.18172E2,6.531371E2,2.3191762E2,1.424209E2,2.4074316E2,4.8148178E2,0E0,0E0,0E0,0E0,0E0,0E0,0E0,0E0],"parents":[2147483647,0,0,1,1,2,2,3,3,4,4,5,5,6,6],"right_children":[2,4,6,8,10,12,14,-1,-1,-1,-1,-1,-1,-1,-1],"split_conditions":[4.66E-1,4.41E-1,1.16E2,9.5E1,1.07E2,1.09E2,1.22E2,-3.8576825E-3,3.6280386E-3,-7.1683633E-3,-2.8937438E-3,1.7259137E-3,7.7314377E-3,-7.4604615E-3,3.6140643E-3],"split_indices":[16,3,13,26,26,26,26,0,0,0,0,0,0,0,0],"split_type":[0,0,0,0,0,0,0,0,0,0,0,0,0,0,0],"sum_hessian":[1.0094567E4,5.3542373E3,4.7403296E3,1.9906641E3,3.3635735E3,3.1717947E3,1.568535E3,5.855801E2,1.405084E3,2.1320635E3,1.23151E3,9.5609875E2,2.2156958E3,7.9002295E2,7.78512E2],"tree_param":{"num_deleted":"0","num_feature":"27","num_nodes":"15","size_leaf_vector":"1"}},{"base_weights":[3.0976844E-3,2.991213E-1,-3.3125573E-1,-1.4251839E-1,5.604616E-1,-5.92226E-1,1.9650339E-1,3.8576825E-3,-3.6280386E-3,7.1683633E-3,2.8937438E-3,-1.7259138E-3,-7.7314377E-3,7.4604615E-3,-3.614065E-3],"categories":[],"categories_nodes":[],"categories_segments":[],"categories_sizes":[],"default_left":[0,0,0,0,0,0,0,0,0,0,0,0,0,0,0],"id":55,"left_children":[1,3,5,7,9,11,13,-1,-1,-1,-1,-1,-1,-1,-1],"loss_changes":[9.9932306E2,6.18172E2,6.531372E2,2.3191765E2,1.4242078E2,2.4074292E2,4.8148178E2,0E0,0E0,0E0,0E0,0E0,0E0,0E0,0E0],"parents":[2147483647,0,0,1,1,2,2,3,3,4,4,5,5,6,6],"right_children":[2,4,6,8,10,12,14,-1,-1,-1,-1,-1,-1,-1,-1],"split_conditions":[4.66E-1,4.41E-1,1.16E2,9.5E1,1.07E2,1.09E2,1.22E2,3.8576825E-3,-3.6280386E-3,7.1683633E-3,2.8937438E-3,-1.7259138E-3,-7.7314377E-3,7.4604615E-3,-3.614065E-3],"split_indices":[16,3,13,26,26,26,26,0,0,0,0,0,0,0,0],"split_type":[0,0,0,0,0,0,0,0,0,0,0,0,0,0,0],"sum_hessian":[1.0094567E4,5.3542373E3,4.7403296E3,1.9906641E3,3.3635735E3,3.1717944E3,1.5685349E3,5.855801E2,1.405084E3,2.1320635E3,1.23151E3,9.5609875E2,2.2156958E3,7.9002295E2,7.78512E2],"tree_param":{"num_deleted":"0","num_feature":"27","num_nodes":"15","size_leaf_vector":"1"}},{"base_weights":[-3.0717792E-3,2.7481133E-1,-3.533039E-1,-2.9567555E-1,4.8450127E-1,-6.434498E-1,9.650433E-2,3.7380354E-3,-7.6827416E-3,7.7587334E-3,1.4154708E-3,-2.21185E-3,-7.974407E-3,7.77053E-3,-3.4976688E-3],"categories":[],"categories_nodes":[],"categories_segments":[],"categories_sizes":[],"default_left":[0,0,0,0,0,0,0,0,0,0,0,0,0,0,0],"id":56,"left_children":[1,3,5,7,9,11,13,-1,-1,-1,-1,-1,-1,-1,-1],"loss_changes":[9.811554E2,6.725935E2,5.8214636E2,4.785091E2,4.1067432E2,1.7612903E2,5.3167926E2,0E0,0E0,0E0,0E0,0E0,0E0,0E0,0E0],"parents":[2147483647,0,0,1,1,2,2,3,3,4,4,5,5,6,6],"right_children":[2,4,6,8,10,12,14,-1,-1,-1,-1,-1,-1,-1,-1],"split_conditions":[4.7E-1,1E2,1.14E2,9.5E1,1.06E2,1.08E2,1.19E2,3.7380354E-3,-7.6827416E-3,7.7587334E-3,1.4154708E-3,-2.21185E-3,-7.974407E-3,7.77053E-3,-3.4976688E-3],"split_indices":[3,26,26,13,13,13,13,0,0,0,0,0,0,0,0],"split_type":[0,0,0,0,0,0,0,0,0,0,0,0,0,0,0],"sum_hessian":[1.0079376E4,5.620301E3,4.4590747E3,1.5104713E3,4.1098296E3,2.7103503E3,1.7487242E3,6.2512866E2,8.853427E2,2.2213337E3,1.8884957E3,7.249288E2,1.9854215E3,6.922797E2,1.0564446E3],"tree_param":{"num_deleted":"0","num_feature":"27","num_nodes":"15","size_leaf_vector":"1"}},{"base_weights":[3.071778E-3,-2.7481133E-1,3.533039E-1,2.9567552E-1,-4.845013E-1,6.434498E-1,-9.650429E-2,-3.7380361E-3,7.6827416E-3,-7.7587334E-3,-1.415471E-3,2.21185E-3,7.974407E-3,-7.77053E-3,3.497669E-3],"categories":[],"categories_nodes":[],"categories_segments":[],"categories_sizes":[],"default_left":[0,0,0,0,0,0,0,0,0,0,0,0,0,0,0],"id":57,"left_children":[1,3,5,7,9,11,13,-1,-1,-1,-1,-1,-1,-1,-1],"loss_changes":[9.8115546E2,6.7259344E2,5.8214636E2,4.7850906E2,4.106742E2,1.7612903E2,5.316793E2,0E0,0E0,0E0,0E0,0E0,0E0,0E0,0E0],"parents":[2147483647,0,0,1,1,2,2,3,3,4,4,5,5,6,6],"right_children":[2,4,6,8,10,12,14,-1,-1,-1,-1,-1,-1,-1,-1],"split_conditions":[4.7E-1,1E2,1.14E2,9.5E1,1.06E2,1.08E2,1.19E2,-3.7380361E-3,7.6827416E-3,-7.7587334E-3,-1.415471E-3,2.21185E-3,7.974407E-3,-7.77053E-3,3.497669E-3],"split_indices":[3,26,26,13,13,13,13,0,0,0,0,0,0,0,0],"split_type":[0,0,0,0,0,0,0,0,0,0,0,0,0,0,0],"sum_hessian":[1.0079375E4,5.620301E3,4.4590747E3,1.5104713E3,4.1098296E3,2.7103503E3,1.7487244E3,6.2512866E2,8.853427E2,2.2213337E3,1.8884957E3,7.249288E2,1.9854215E3,6.9227966E2,1.0564446E3],"tree_param":{"num_deleted":"0","num_feature":"27","num_nodes":"15","size_leaf_vector":"1"}},{"base_weights":[-3.0467294E-3,-2.790175E-1,3.4683463E-1,2.150213E-1,-5.112531E-1,6.367811E-1,-1.01592384E-1,-4.5874733E-3,6.8446384E-3,-7.741507E-3,-1.2400637E-3,2.1144233E-3,7.908204E-3,-7.754711E-3,3.330742E-3],"categories":[],"categories_nodes":[],"categories_segments":[],"categories_sizes":[],"default_left":[0,0,0,0,0,0,0,0,0,0,0,0,0,0,0],"id":58,"left_children":[1,3,5,7,9,11,13,-1,-1,-1,-1,-1,-1,-1,-1],"loss_changes":[9.717195E2,6.4560876E2,5.7704144E2,5.695559E2,3.8955334E2,1.7641748E2,5.109318E2,0E0,0E0,0E0,0E0,0E0,0E0,0E0,0E0],"parents":[2147483647,0,0,1,1,2,2,3,3,4,4,5,5,6,6],"right_children":[2,4,6,8,10,12,14,-1,-1,-1,-1,-1,-1,-1,-1],"split_conditions":[4.7E-1,1.02E2,1.14E2,9.5E1,1.08E2,1.08E2,1.19E2,-4.5874733E-3,6.8446384E-3,-7.741507E-3,-1.2400637E-3,2.1144233E-3,7.908204E-3,-7.754711E-3,3.330742E-3],"split_indices":[16,13,13,26,26,26,26,0,0,0,0,0,0,0,0],"split_type":[0,0,0,0,0,0,0,0,0,0,0,0,0,0,0],"sum_hessian":[1.0061682E4,5.625076E3,4.4366055E3,1.7987144E3,3.8263618E3,2.6941724E3,1.7424332E3,7.3862445E2,1.0600898E3,2.278508E3,1.5478536E3,7.169308E2,1.9772417E3,6.8291003E2,1.0595232E3],"tree_param":{"num_deleted":"0","num_feature":"27","num_nodes":"15","size_leaf_vector":"1"}},{"base_weights":[3.046734E-3,2.7901748E-1,-3.4683463E-1,-2.150213E-1,5.112531E-1,-6.367811E-1,1.0159239E-1,4.5874733E-3,-6.8446384E-3,7.741507E-3,1.2400637E-3,-2.114423E-3,-7.908204E-3,7.754711E-3,-3.3307418E-3],"categories":[],"categories_nodes":[],"categories_segments":[],"categories_sizes":[],"default_left":[0,0,0,0,0,0,0,0,0,0,0,0,0,0,0],"id":59,"left_children":[1,3,5,7,9,11,13,-1,-1,-1,-1,-1,-1,-1,-1],"loss_changes":[9.717195E2,6.4560876E2,5.7704144E2,5.695559E2,3.8955334E2,1.7641748E2,5.1093173E2,0E0,0E0,0E0,0E0,0E0,0E0,0E0,0E0],"parents":[2147483647,0,0,1,1,2,2,3,3,4,4,5,5,6,6],"right_children":[2,4,6,8,10,12,14,-1,-1,-1,-1,-1,-1,-1,-1],"split_conditions":[4.7E-1,1.02E2,1.14E2,9.5E1,1.08E2,1.08E2,1.19E2,4.5874733E-3,-6.8446384E-3,7.741507E-3,1.2400637E-3,-2.114423E-3,-7.908204E-3,7.754711E-3,-3.3307418E-3],"split_indices":[16,13,13,26,26,26,26,0,0,0,0,0,0,0,0],"split_type":[0,0,0,0,0,0,0,0,0,0,0,0,0,0,0],"sum_hessian":[1.0061682E4,5.625076E3,4.4366055E3,1.7987144E3,3.8263618E3,2.6941724E3,1.7424332E3,7.3862445E2,1.0600898E3,2.278508E3,1.5478536E3,7.169308E2,1.9772417E3,6.8291003E2,1.0595232E3],"tree_param":{"num_deleted":"0","num_feature":"27","num_nodes":"15","size_leaf_vector":"1"}},{"base_weights":[-3.0220326E-3,-2.9642949E-1,3.2079667E-1,1.3602556E-1,-5.5338943E-1,6.140021E-1,-1.346982E-1,-3.7811378E-3,3.5287344E-3,-7.047234E-3,-2.886893E-3,1.8720854E-3,7.837811E-3,-7.7357064E-3,3.1713706E-3],"categories":[],"categories_nodes":[],"categories_segments":[],"categories_sizes":[],"default_left":[0,0,0,0,0,0,0,0,0,0,0,0,0,0,0],"id":60,"left_children":[1,3,5,7,9,11,13,-1,-1,-1,-1,-1,-1,-1,-1],"loss_changes":[9.5439374E2,5.8569824E2,6.378134E2,2.1921707E2,1.3222711E2,2.103695E2,5.402911E2,0E0,0E0,0E0,0E0,0E0,0E0,0E0,0E0],"parents":[2147483647,0,0,1,1,2,2,3,3,4,4,5,5,6,6],"right_children":[2,4,6,8,10,12,14,-1,-1,-1,-1,-1,-1,-1,-1],"split_conditions":[4.65E-1,4.41E-1,1.14E2,9.5E1,1.07E2,1.08E2,1.19E2,-3.7811378E-3,3.5287344E-3,-7.047234E-3,-2.886893E-3,1.8720854E-3,7.837811E-3,-7.7357064E-3,3.1713706E-3],"split_indices":[16,3,13,26,26,26,26,0,0,0,0,0,0,0,0],"split_type":[0,0,0,0,0,0,0,0,0,0,0,0,0,0,0],"sum_hessian":[1.0043105E4,5.2690137E3,4.7740923E3,1.9640513E3,3.3049622E3,2.9042542E3,1.8698383E3,5.824166E2,1.3816346E3,2.101712E3,1.2032502E3,8.271218E2,2.0771323E3,7.7430194E2,1.0955364E3],"tree_param":{"num_deleted":"0","num_feature":"27","num_nodes":"15","size_leaf_vector":"1"}},{"base_weights":[3.0220125E-3,2.9642943E-1,-3.2079667E-1,-1.360256E-1,5.533894E-1,-6.140021E-1,1.3469817E-1,3.7811373E-3,-3.5287347E-3,7.0472336E-3,2.886893E-3,-1.8720852E-3,-7.837811E-3,7.7357064E-3,-3.1713706E-3],"categories":[],"categories_nodes":[],"categories_segments":[],"categories_sizes":[],"default_left":[0,0,0,0,0,0,0,0,0,0,0,0,0,0,0],"id":61,"left_children":[1,3,5,7,9,11,13,-1,-1,-1,-1,-1,-1,-1,-1],"loss_changes":[9.543936E2,5.8569824E2,6.378133E2,2.1921707E2,1.3222717E2,2.1036963E2,5.40291E2,0E0,0E0,0E0,0E0,0E0,0E0,0E0,0E0],"parents":[2147483647,0,0,1,1,2,2,3,3,4,4,5,5,6,6],"right_children":[2,4,6,8,10,12,14,-1,-1,-1,-1,-1,-1,-1,-1],"split_conditions":[4.65E-1,4.41E-1,1.14E2,9.5E1,1.07E2,1.08E2,1.19E2,3.7811373E-3,-3.5287347E-3,7.0472336E-3,2.886893E-3,-1.8720852E-3,-7.837811E-3,7.7357064E-3,-3.1713706E-3],"split_indices":[16,3,13,26,26,26,26,0,0,0,0,0,0,0,0],"split_type":[0,0,0,0,0,0,0,0,0,0,0,0,0,0,0],"sum_hessian":[1.0043105E4,5.2690137E3,4.7740923E3,1.9640513E3,3.3049622E3,2.9042542E3,1.8698383E3,5.824166E2,1.3816346E3,2.101712E3,1.2032502E3,8.271218E2,2.0771323E3,7.7430194E2,1.0955364E3],"tree_param":{"num_deleted":"0","num_feature":"27","num_nodes":"15","size_leaf_vector":"1"}},{"base_weights":[-2.9971884E-3,2.7004534E-1,-3.473779E-1,-1.3814525E-1,5.531369E-1,-5.9732574E-1,1.5443486E-1,3.4590194E-3,-7.051687E-3,7.7362624E-3,8.1092614E-4,-2.1279573E-3,-7.79325E-3,7.28107E-3,-3.8994653E-3],"categories":[],"categories_nodes":[],"categories_segments":[],"categories_sizes":[],"default_left":[0,0,0,0,0,0,0,0,0,0,0,0,0,0,0],"id":62,"left_children":[1,3,5,7,9,11,13,-1,-1,-1,-1,-1,-1,-1,-1],"loss_changes":[9.429906E2,6.464513E2,5.563503E2,6.291802E2,3.4373175E2,2.0702832E2,4.6102402E2,0E0,0E0,0E0,0E0,0E0,0E0,0E0,0E0],"parents":[2147483647,0,0,1,1,2,2,3,3,4,4,5,5,6,6],"right_children":[2,4,6,8,10,12,14,-1,-1,-1,-1,-1,-1,-1,-1],"split_conditions":[4.7E-1,1.05E2,1.16E2,9.9E1,1.11E2,1.1E2,1.22E2,3.4590194E-3,-7.051687E-3,7.7362624E-3,8.1092614E-4,-2.1279573E-3,-7.79325E-3,7.28107E-3,-3.8994653E-3],"split_indices":[3,26,26,13,13,13,13,0,0,0,0,0,0,0,0],"split_type":[0,0,0,0,0,0,0,0,0,0,0,0,0,0,0],"sum_hessian":[1.0026555E4,5.592641E3,4.433914E3,2.2904893E3,3.3021519E3,2.9595847E3,1.4743293E3,1.2358658E3,1.0546234E3,2.2503748E3,1.0517771E3,9.5147266E2,2.008112E3,7.1768805E2,7.5664124E2],"tree_param":{"num_deleted":"0","num_feature":"27","num_nodes":"15","size_leaf_vector":"1"}},{"base_weights":[2.9971986E-3,-2.700453E-1,3.473779E-1,1.3814527E-1,-5.531368E-1,5.9732574E-1,-1.5443487E-1,-3.459019E-3,7.051687E-3,-7.7362624E-3,-8.109264E-4,2.127957E-3,7.79325E-3,-7.2810706E-3,3.899465E-3],"categories":[],"categories_nodes":[],"categories_segments":[],"categories_sizes":[],"default_left":[0,0,0,0,0,0,0,0,0,0,0,0,0,0,0],"id":63,"left_children":[1,3,5,7,9,11,13,-1,-1,-1,-1,-1,-1,-1,-1],"loss_changes":[9.4299054E2,6.464513E2,5.563503E2,6.291802E2,3.437317E2,2.070282E2,4.6102402E2,0E0,0E0,0E0,0E0,0E0,0E0,0E0,0E0],"parents":[2147483647,0,0,1,1,2,2,3,3,4,4,5,5,6,6],"right_children":[2,4,6,8,10,12,14,-1,-1,-1,-1,-1,-1,-1,-1],"split_conditions":[4.7E-1,1.05E2,1.16E2,9.9E1,1.11E2,1.1E2,1.22E2,-3.459019E-3,7.051687E-3,-7.7362624E-3,-8.109264E-4,2.127957E-3,7.79325E-3,-7.2810706E-3,3.899465E-3],"split_indices":[3,26,26,13,13,13,13,0,0,0,0,0,0,0,0],"split_type":[0,0,0,0,0,0,0,0,0,0,0,0,0,0,0],"sum_hessian":[1.0026556E4,5.592641E3,4.433914E3,2.2904893E3,3.3021519E3,2.9595847E3,1.4743293E3,1.2358658E3,1.0546234E3,2.2503748E3,1.0517771E3,9.5147266E2,2.0081122E3,7.176881E2,7.5664124E2],"tree_param":{"num_deleted":"0","num_feature":"27","num_nodes":"15","size_leaf_vector":"1"}},{"base_weights":[-2.9729689E-3,-2.7317244E-1,3.4002432E-1,1.2712647E-1,-5.513366E-1,5.7524717E-1,-1.9230893E-1,-3.931611E-3,6.5763053E-3,-7.4904254E-3,-5.6074065E-4,2.3900326E-3,7.884958E-3,-7.688031E-3,3.2625992E-3],"categories":[],"categories_nodes":[],"categories_segments":[],"categories_sizes":[],"default_left":[0,0,0,0,0,0,0,0,0,0,0,0,0,0,0],"id":64,"left_children":[1,3,5,7,9,11,13,-1,-1,-1,-1,-1,-1,-1,-1],"loss_changes":[9.2767957E2,6.23516E2,5.524054E2,6.340903E2,3.2344086E2,2.1917169E2,4.0456534E2,0E0,0E0,0E0,0E0,0E0,0E0,0E0,0E0],"parents":[2147483647,0,0,1,1,2,2,3,3,4,4,5,5,6,6],"right_children":[2,4,6,8,10,12,14,-1,-1,-1,-1,-1,-1,-1,-1],"split_conditions":[4.7E-1,1.05E2,1.17E2,9.8E1,1.12E2,1.12E2,1.22E2,-3.931611E-3,6.5763053E-3,-7.4904254E-3,-5.6074065E-4,2.3900326E-3,7.884958E-3,-7.688031E-3,3.2625992E-3],"split_indices":[16,13,13,26,26,26,26,0,0,0,0,0,0,0,0],"split_type":[0,0,0,0,0,0,0,0,0,0,0,0,0,0,0],"sum_hessian":[1.0007737E4,5.5980347E3,4.409703E3,2.2953696E3,3.3026648E3,3.0582632E3,1.3514398E3,1.1589741E3,1.1363955E3,2.3600386E3,9.4262634E2,1.1876829E3,1.8705804E3,6.39748E2,7.1169183E2],"tree_param":{"num_deleted":"0","num_feature":"27","num_nodes":"15","size_leaf_vector":"1"}},{"base_weights":[2.9729703E-3,2.7317244E-1,-3.400243E-1,-1.2712649E-1,5.513366E-1,-5.7524717E-1,1.9230895E-1,3.931611E-3,-6.5763053E-3,7.4904254E-3,5.6074053E-4,-2.3900324E-3,-7.884959E-3,7.688031E-3,-3.2625992E-3],"categories":[],"categories_nodes":[],"categories_segments":[],"categories_sizes":[],"default_left":[0,0,0,0,0,0,0,0,0,0,0,0,0,0,0],"id":65,"left_children":[1,3,5,7,9,11,13,-1,-1,-1,-1,-1,-1,-1,-1],"loss_changes":[9.276795E2,6.23516E2,5.524054E2,6.340903E2,3.2344086E2,2.1917175E2,4.0456537E2,0E0,0E0,0E0,0E0,0E0,0E0,0E0,0E0],"parents":[2147483647,0,0,1,1,2,2,3,3,4,4,5,5,6,6],"right_children":[2,4,6,8,10,12,14,-1,-1,-1,-1,-1,-1,-1,-1],"split_conditions":[4.7E-1,1.05E2,1.17E2,9.8E1,1.12E2,1.12E2,1.22E2,3.931611E-3,-6.5763053E-3,7.4904254E-3,5.6074053E-4,-2.3900324E-3,-7.884959E-3,7.688031E-3,-3.2625992E-3],"split_indices":[16,13,13,26,26,26,26,0,0,0,0,0,0,0,0],"split_type":[0,0,0,0,0,0,0,0,0,0,0,0,0,0,0],"sum_hessian":[1.0007737E4,5.5980347E3,4.409703E3,2.2953696E3,3.302665E3,3.0582634E3,1.3514398E3,1.1589741E3,1.1363955E3,2.3600386E3,9.4262634E2,1.1876829E3,1.8705804E3,6.39748E2,7.1169183E2],"tree_param":{"num_deleted":"0","num_feature":"27","num_nodes":"15","size_leaf_vector":"1"}},{"base_weights":[-2.9490725E-3,2.6672155E-1,-3.4326413E-1,-1.550184E-1,5.342883E-1,-6.247891E-1,9.076362E-2,3.5779958E-3,-3.5261675E-3,6.579451E-3,1.6976395E-3,-2.1204248E-3,-7.7695088E-3,7.5925635E-3,-3.4381992E-3],"categories":[],"categories_nodes":[],"categories_segments":[],"categories_sizes":[],"default_left":[0,0,0,0,0,0,0,0,0,0,0,0,0,0,0],"id":66,"left_children":[1,3,5,7,9,11,13,-1,-1,-1,-1,-1,-1,-1,-1],"loss_changes":[9.168557E2,6.290456E2,5.39734E2,2.1944196E2,1.5361658E2,1.6809692E2,5.053446E2,0E0,0E0,0E0,0E0,0E0,0E0,0E0,0E0],"parents":[2147483647,0,0,1,1,2,2,3,3,4,4,5,5,6,6],"right_children":[2,4,6,8,10,12,14,-1,-1,-1,-1,-1,-1,-1,-1],"split_conditions":[4.7E-1,4.43E-1,1.14E2,9.5E1,1.11E2,1.08E2,1.19E2,3.5779958E-3,-3.5261675E-3,6.579451E-3,1.6976395E-3,-2.1204248E-3,-7.7695088E-3,7.5925635E-3,-3.4381992E-3],"split_indices":[3,16,26,13,13,13,13,0,0,0,0,0,0,0,0],"split_type":[0,0,0,0,0,0,0,0,0,0,0,0,0,0,0],"sum_hessian":[9.988478E3,5.5727583E3,4.4157188E3,2.163329E3,3.4094294E3,2.6781448E3,1.7375742E3,6.014925E2,1.5618367E3,2.545216E3,8.6421326E2,7.220204E2,1.9561244E3,6.8426495E2,1.0533092E3],"tree_param":{"num_deleted":"0","num_feature":"27","num_nodes":"15","size_leaf_vector":"1"}},{"base_weights":[2.9490953E-3,-2.6672155E-1,3.4326416E-1,1.550184E-1,-5.342882E-1,6.247892E-1,-9.076361E-2,-3.5779956E-3,3.5261675E-3,-6.5794503E-3,-1.6976392E-3,2.120425E-3,7.7695088E-3,-7.5925635E-3,3.4381992E-3],"categories":[],"categories_nodes":[],"categories_segments":[],"categories_sizes":[],"default_left":[0,0,0,0,0,0,0,0,0,0,0,0,0,0,0],"id":67,"left_children":[1,3,5,7,9,11,13,-1,-1,-1,-1,-1,-1,-1,-1],"loss_changes":[9.1685565E2,6.2904553E2,5.3973425E2,2.1944194E2,1.5361664E2,1.680968E2,5.0534454E2,0E0,0E0,0E0,0E0,0E0,0E0,0E0,0E0],"parents":[2147483647,0,0,1,1,2,2,3,3,4,4,5,5,6,6],"right_children":[2,4,6,8,10,12,14,-1,-1,-1,-1,-1,-1,-1,-1],"split_conditions":[4.7E-1,4.43E-1,1.14E2,9.5E1,1.11E2,1.08E2,1.19E2,-3.5779956E-3,3.5261675E-3,-6.5794503E-3,-1.6976392E-3,2.120425E-3,7.7695088E-3,-7.5925635E-3,3.4381992E-3],"split_indices":[3,16,26,13,13,13,13,0,0,0,0,0,0,0,0],"split_type":[0,0,0,0,0,0,0,0,0,0,0,0,0,0,0],"sum_hessian":[9.988478E3,5.5727583E3,4.415719E3,2.163329E3,3.4094294E3,2.6781448E3,1.7375742E3,6.014925E2,1.5618367E3,2.545216E3,8.6421326E2,7.220204E2,1.9561244E3,6.84265E2,1.0533093E3],"tree_param":{"num_deleted":"0","num_feature":"27","num_nodes":"15","size_leaf_vector":"1"}},{"base_weights":[-2.9245033E-3,2.6441297E-1,-3.405783E-1,-1.3695525E-1,5.4352313E-1,-5.859699E-1,1.5056986E-1,3.0324017E-3,-7.441462E-3,7.451692E-3,4.0322117E-4,-2.0746733E-3,-7.6638735E-3,7.1619004E-3,-3.830021E-3],"categories":[],"categories_nodes":[],"categories_segments":[],"categories_sizes":[],"default_left":[0,0,0,0,0,0,0,0,0,0,0,0,0,0,0],"id":68,"left_children":[1,3,5,7,9,11,13,-1,-1,-1,-1,-1,-1,-1,-1],"loss_changes":[9.002751E2,6.2364465E2,5.312495E2,6.106766E2,3.3313025E2,2.0054126E2,4.4364883E2,0E0,0E0,0E0,0E0,0E0,0E0,0E0,0E0],"parents":[2147483647,0,0,1,1,2,2,3,3,4,4,5,5,6,6],"right_children":[2,4,6,8,10,12,14,-1,-1,-1,-1,-1,-1,-1,-1],"split_conditions":[4.7E-1,1.05E2,1.16E2,1E2,1.12E2,1.1E2,1.22E2,3.0324017E-3,-7.441462E-3,7.451692E-3,4.0322117E-4,-2.0746733E-3,-7.6638735E-3,7.1619004E-3,-3.830021E-3],"split_indices":[3,26,26,13,13,13,13,0,0,0,0,0,0,0,0],"split_type":[0,0,0,0,0,0,0,0,0,0,0,0,0,0,0],"sum_hessian":[9.971413E3,5.5653013E3,4.406112E3,2.282915E3,3.2823862E3,2.9380068E3,1.4681051E3,1.323742E3,9.59173E2,2.343002E3,9.3938434E2,9.4907227E2,1.9889346E3,7.1248425E2,7.5562085E2],"tree_param":{"num_deleted":"0","num_feature":"27","num_nodes":"15","size_leaf_vector":"1"}},{"base_weights":[2.9245014E-3,-2.64413E-1,3.4057832E-1,1.3695525E-1,-5.435232E-1,5.859699E-1,-1.5056984E-1,-3.0324017E-3,7.441462E-3,-7.4516926E-3,-4.0322143E-4,2.074673E-3,7.6638735E-3,-7.1619004E-3,3.8300212E-3],"categories":[],"categories_nodes":[],"categories_segments":[],"categories_sizes":[],"default_left":[0,0,0,0,0,0,0,0,0,0,0,0,0,0,0],"id":69,"left_children":[1,3,5,7,9,11,13,-1,-1,-1,-1,-1,-1,-1,-1],"loss_changes":[9.0027515E2,6.236448E2,5.3124927E2,6.106766E2,3.3313025E2,2.0054138E2,4.436489E2,0E0,0E0,0E0,0E0,0E0,0E0,0E0,0E0],"parents":[2147483647,0,0,1,1,2,2,3,3,4,4,5,5,6,6],"right_children":[2,4,6,8,10,12,14,-1,-1,-1,-1,-1,-1,-1,-1],"split_conditions":[4.7E-1,1.05E2,1.16E2,1E2,1.12E2,1.1E2,1.22E2,-3.0324017E-3,7.441462E-3,-7.4516926E-3,-4.0322143E-4,2.074673E-3,7.6638735E-3,-7.1619004E-3,3.8300212E-3],"split_indices":[3,26,26,13,13,13,13,0,0,0,0,0,0,0,0],"split_type":[0,0,0,0,0,0,0,0,0,0,0,0,0,0,0],"sum_hessian":[9.971413E3,5.5653013E3,4.406112E3,2.282915E3,3.2823862E3,2.938007E3,1.4681051E3,1.323742E3,9.59173E2,2.343002E3,9.3938434E2,9.4907227E2,1.9889347E3,7.124842E2,7.5562085E2],"tree_param":{"num_deleted":"0","num_feature":"27","num_nodes":"15","size_leaf_vector":"1"}},{"base_weights":[-2.9015683E-3,-2.683361E-1,3.3435643E-1,2.076972E-1,-4.9324223E-1,5.9583044E-1,-1.2525548E-1,-4.496755E-3,6.6866516E-3,-7.517309E-3,-1.1685301E-3,1.7015636E-3,7.478544E-3,-6.6560186E-3,3.9189584E-3],"categories":[],"categories_nodes":[],"categories_segments":[],"categories_sizes":[],"default_left":[0,0,0,0,0,0,0,0,0,0,0,0,0,0,0],"id":70,"left_children":[1,3,5,7,9,11,13,-1,-1,-1,-1,-1,-1,-1,-1],"loss_changes":[8.910306E2,5.9642004E2,5.268854E2,5.420685E2,3.6796375E2,1.806966E2,4.446793E2,0E0,0E0,0E0,0E0,0E0,0E0,0E0,0E0],"parents":[2147483647,0,0,1,1,2,2,3,3,4,4,5,5,6,6],"right_children":[2,4,6,8,10,12,14,-1,-1,-1,-1,-1,-1,-1,-1],"split_conditions":[4.7E-1,1.02E2,1.15E2,9.5E1,1.08E2,1.08E2,1.22E2,-4.496755E-3,6.6866516E-3,-7.517309E-3,-1.1685301E-3,1.7015636E-3,7.478544E-3,-6.6560186E-3,3.9189584E-3],"split_indices":[16,13,13,26,26,26,26,0,0,0,0,0,0,0,0],"split_type":[0,0,0,0,0,0,0,0,0,0,0,0,0,0,0],"sum_hessian":[9.951433E3,5.568792E3,4.3826406E3,1.7868488E3,3.781943E3,2.793256E3,1.5893845E3,7.365299E2,1.0503188E3,2.2415447E3,1.5403983E3,7.3561646E2,2.0576396E3,7.7712115E2,8.1226337E2],"tree_param":{"num_deleted":"0","num_feature":"27","num_nodes":"15","size_leaf_vector":"1"}},{"base_weights":[2.901557E-3,2.683361E-1,-3.3435646E-1,-2.0769718E-1,4.9324223E-1,-5.9583044E-1,1.2525545E-1,4.4967555E-3,-6.6866516E-3,7.517309E-3,1.1685301E-3,-1.7015637E-3,-7.478544E-3,6.6560186E-3,-3.918959E-3],"categories":[],"categories_nodes":[],"categories_segments":[],"categories_sizes":[],"default_left":[0,0,0,0,0,0,0,0,0,0,0,0,0,0,0],"id":71,"left_children":[1,3,5,7,9,11,13,-1,-1,-1,-1,-1,-1,-1,-1],"loss_changes":[8.910307E2,5.9642E2,5.268854E2,5.4206854E2,3.6796362E2,1.806966E2,4.4467923E2,0E0,0E0,0E0,0E0,0E0,0E0,0E0,0E0],"parents":[2147483647,0,0,1,1,2,2,3,3,4,4,5,5,6,6],"right_children":[2,4,6,8,10,12,14,-1,-1,-1,-1,-1,-1,-1,-1],"split_conditions":[4.7E-1,1.02E2,1.15E2,9.5E1,1.08E2,1.08E2,1.22E2,4.4967555E-3,-6.6866516E-3,7.517309E-3,1.1685301E-3,-1.7015637E-3,-7.478544E-3,6.6560186E-3,-3.918959E-3],"split_indices":[16,13,13,26,26,26,26,0,0,0,0,0,0,0,0],"split_type":[0,0,0,0,0,0,0,0,0,0,0,0,0,0,0],"sum_hessian":[9.951433E3,5.5687915E3,4.3826406E3,1.7868488E3,3.7819429E3,2.7932563E3,1.5893844E3,7.365299E2,1.0503188E3,2.2415447E3,1.5403983E3,7.3561646E2,2.0576396E3,7.7712115E2,8.122633E2],"tree_param":{"num_deleted":"0","num_feature":"27","num_nodes":"15","size_leaf_vector":"1"}},{"base_weights":[-2.8784887E-3,2.613258E-1,-3.3668756E-1,-2.8348458E-1,4.6260238E-1,-6.1344993E-1,8.8461846E-2,4.7199703E-3,-6.818804E-3,7.47414E-3,1.3157529E-3,-2.0663138E-3,-7.646397E-3,7.4832994E-3,-3.3802907E-3],"categories":[],"categories_nodes":[],"categories_segments":[],"categories_sizes":[],"default_left":[0,0,0,0,0,0,0,0,0,0,0,0,0,0,0],"id":72,"left_children":[1,3,5,7,9,11,13,-1,-1,-1,-1,-1,-1,-1,-1],"loss_changes":[8.7601526E2,6.081261E2,5.1641223E2,4.5070673E2,3.8165186E2,1.6333734E2,4.8745932E2,0E0,0E0,0E0,0E0,0E0,0E0,0E0,0E0],"parents":[2147483647,0,0,1,1,2,2,3,3,4,4,5,5,6,6],"right_children":[2,4,6,8,10,12,14,-1,-1,-1,-1,-1,-1,-1,-1],"split_conditions":[4.7E-1,1E2,1.14E2,9.3E1,1.06E2,1.08E2,1.19E2,4.7199703E-3,-6.818804E-3,7.47414E-3,1.3157529E-3,-2.0663138E-3,-7.646397E-3,7.4832994E-3,-3.3802907E-3],"split_indices":[3,26,26,13,13,13,13,0,0,0,0,0,0,0,0],"split_type":[0,0,0,0,0,0,0,0,0,0,0,0,0,0,0],"sum_hessian":[9.930847E3,5.543487E3,4.38736E3,1.4953911E3,4.0480957E3,2.6571648E3,1.7301951E3,5.162454E2,9.791457E2,2.1752659E3,1.8728296E3,7.205878E2,1.9365769E3,6.7895667E2,1.0512384E3],"tree_param":{"num_deleted":"0","num_feature":"27","num_nodes":"15","size_leaf_vector":"1"}},{"base_weights":[2.878488E-3,-2.6132584E-1,3.366876E-1,2.8348458E-1,-4.626024E-1,6.1344993E-1,-8.846185E-2,-4.7199703E-3,6.818804E-3,-7.47414E-3,-1.315753E-3,2.0663138E-3,7.646397E-3,-7.4832994E-3,3.3802905E-3],"categories":[],"categories_nodes":[],"categories_segments":[],"categories_sizes":[],"default_left":[0,0,0,0,0,0,0,0,0,0,0,0,0,0,0],"id":73,"left_children":[1,3,5,7,9,11,13,-1,-1,-1,-1,-1,-1,-1,-1],"loss_changes":[8.7601526E2,6.081261E2,5.164122E2,4.5070673E2,3.816518E2,1.6333734E2,4.874593E2,0E0,0E0,0E0,0E0,0E0,0E0,0E0,0E0],"parents":[2147483647,0,0,1,1,2,2,3,3,4,4,5,5,6,6],"right_children":[2,4,6,8,10,12,14,-1,-1,-1,-1,-1,-1,-1,-1],"split_conditions":[4.7E-1,1E2,1.14E2,9.3E1,1.06E2,1.08E2,1.19E2,-4.7199703E-3,6.818804E-3,-7.47414E-3,-1.315753E-3,2.0663138E-3,7.646397E-3,-7.4832994E-3,3.3802905E-3],"split_indices":[3,26,26,13,13,13,13,0,0,0,0,0,0,0,0],"split_type":[0,0,0,0,0,0,0,0,0,0,0,0,0,0,0],"sum_hessian":[9.930847E3,5.543487E3,4.38736E3,1.4953911E3,4.0480957E3,2.6571648E3,1.7301951E3,5.162454E2,9.791456E2,2.175266E3,1.8728296E3,7.205878E2,1.9365769E3,6.789566E2,1.0512384E3],"tree_param":{"num_deleted":"0","num_feature":"27","num_nodes":"15","size_leaf_vector":"1"}},{"base_weights":[-2.8554695E-3,-2.84142E-1,3.0819282E-1,2.384554E-1,-4.807186E-1,5.897697E-1,-1.2592675E-1,-2.5586095E-3,4.4990587E-3,-6.626327E-3,-2.3920478E-3,1.7646276E-3,7.5688493E-3,-7.505309E-3,3.1020641E-3],"categories":[],"categories_nodes":[],"categories_segments":[],"categories_sizes":[],"default_left":[0,0,0,0,0,0,0,0,0,0,0,0,0,0,0],"id":74,"left_children":[1,3,5,7,9,11,13,-1,-1,-1,-1,-1,-1,-1,-1],"loss_changes":[8.672947E2,5.348627E2,5.754856E2,1.4890231E2,1.6604102E2,1.9709412E2,5.049608E2,0E0,0E0,0E0,0E0,0E0,0E0,0E0,0E0],"parents":[2147483647,0,0,1,1,2,2,3,3,4,4,5,5,6,6],"right_children":[2,4,6,8,10,12,14,-1,-1,-1,-1,-1,-1,-1,-1],"split_conditions":[4.65E-1,4.26E-1,1.14E2,9.5E1,1.05E2,1.08E2,1.19E2,-2.5586095E-3,4.4990587E-3,-6.626327E-3,-2.3920478E-3,1.7646276E-3,7.5688493E-3,-7.505309E-3,3.1020641E-3],"split_indices":[16,3,13,26,26,26,26,0,0,0,0,0,0,0,0],"split_type":[0,0,0,0,0,0,0,0,0,0,0,0,0,0,0],"sum_hessian":[9.910653E3,5.2043516E3,4.706302E3,1.4224818E3,3.7818696E3,2.854481E3,1.8518207E3,4.2611816E2,9.963637E2,2.1560994E3,1.6257701E3,8.224545E2,2.0320265E3,7.610989E2,1.0907218E3],"tree_param":{"num_deleted":"0","num_feature":"27","num_nodes":"15","size_leaf_vector":"1"}},{"base_weights":[2.8554625E-3,2.84142E-1,-3.081928E-1,-2.3845538E-1,4.807186E-1,-5.897697E-1,1.2592678E-1,2.5586095E-3,-4.4990587E-3,6.626327E-3,2.3920476E-3,-1.7646278E-3,-7.5688493E-3,7.505309E-3,-3.1020637E-3],"categories":[],"categories_nodes":[],"categories_segments":[],"categories_sizes":[],"default_left":[0,0,0,0,0,0,0,0,0,0,0,0,0,0,0],"id":75,"left_children":[1,3,5,7,9,11,13,-1,-1,-1,-1,-1,-1,-1,-1],"loss_changes":[8.6729456E2,5.3486255E2,5.754857E2,1.4890234E2,1.6604095E2,1.9709412E2,5.049608E2,0E0,0E0,0E0,0E0,0E0,0E0,0E0,0E0],"parents":[2147483647,0,0,1,1,2,2,3,3,4,4,5,5,6,6],"right_children":[2,4,6,8,10,12,14,-1,-1,-1,-1,-1,-1,-1,-1],"split_conditions":[4.65E-1,4.26E-1,1.14E2,9.5E1,1.05E2,1.08E2,1.19E2,2.5586095E-3,-4.4990587E-3,6.626327E-3,2.3920476E-3,-1.7646278E-3,-7.5688493E-3,7.505309E-3,-3.1020637E-3],"split_indices":[16,3,13,26,26,26,26,0,0,0,0,0,0,0,0],"split_type":[0,0,0,0,0,0,0,0,0,0,0,0,0,0,0],"sum_hessian":[9.910653E3,5.204351E3,4.706302E3,1.4224818E3,3.7818694E3,2.854481E3,1.8518206E3,4.2611816E2,9.9636365E2,2.1560994E3,1.6257701E3,8.224545E2,2.0320265E3,7.610989E2,1.0907217E3],"tree_param":{"num_deleted":"0","num_feature":"27","num_nodes":"15","size_leaf_vector":"1"}},{"base_weights":[-2.8320267E-3,2.581542E-1,-3.3281574E-1,-2.1510078E-1,4.8385662E-1,-5.887086E-1,1.15398236E-1,4.321946E-3,-6.6248397E-3,7.413515E-3,1.083381E-3,-1.9542435E-3,-7.530432E-3,6.6109854E-3,-4.09083E-3],"categories":[],"categories_nodes":[],"categories_segments":[],"categories_sizes":[],"default_left":[0,0,0,0,0,0,0,0,0,0,0,0,0,0,0],"id":76,"left_children":[1,3,5,7,9,11,13,-1,-1,-1,-1,-1,-1,-1,-1],"loss_changes":[8.521111E2,5.902305E2,5.012338E2,5.171189E2,3.6165753E2,1.796347E2,4.550179E2,0E0,0E0,0E0,0E0,0E0,0E0,0E0,0E0],"parents":[2147483647,0,0,1,1,2,2,3,3,4,4,5,5,6,6],"right_children":[2,4,6,8,10,12,14,-1,-1,-1,-1,-1,-1,-1,-1],"split_conditions":[4.7E-1,1.02E2,1.15E2,9.5E1,1.08E2,1.09E2,1.22E2,4.321946E-3,-6.6248397E-3,7.413515E-3,1.083381E-3,-1.9542435E-3,-7.530432E-3,6.6109854E-3,-4.09083E-3],"split_indices":[3,26,26,13,13,13,13,0,0,0,0,0,0,0,0],"split_type":[0,0,0,0,0,0,0,0,0,0,0,0,0,0,0],"sum_hessian":[9.892325E3,5.5237637E3,4.368562E3,1.7837101E3,3.7400535E3,2.7807004E3,1.5878617E3,7.2899677E2,1.0547133E3,2.21811E3,1.5219432E3,8.201396E2,1.9605609E3,7.7806146E2,8.098002E2],"tree_param":{"num_deleted":"0","num_feature":"27","num_nodes":"15","size_leaf_vector":"1"}},{"base_weights":[2.8320185E-3,-2.581542E-1,3.3281574E-1,2.1510078E-1,-4.8385662E-1,5.887086E-1,-1.15398236E-1,-4.321946E-3,6.6248397E-3,-7.413515E-3,-1.0833811E-3,1.9542435E-3,7.5304327E-3,-6.6109854E-3,4.09083E-3],"categories":[],"categories_nodes":[],"categories_segments":[],"categories_sizes":[],"default_left":[0,0,0,0,0,0,0,0,0,0,0,0,0,0,0],"id":77,"left_children":[1,3,5,7,9,11,13,-1,-1,-1,-1,-1,-1,-1,-1],"loss_changes":[8.521111E2,5.902305E2,5.012338E2,5.1711896E2,3.6165735E2,1.796347E2,4.550179E2,0E0,0E0,0E0,0E0,0E0,0E0,0E0,0E0],"parents":[2147483647,0,0,1,1,2,2,3,3,4,4,5,5,6,6],"right_children":[2,4,6,8,10,12,14,-1,-1,-1,-1,-1,-1,-1,-1],"split_conditions":[4.7E-1,1.02E2,1.15E2,9.5E1,1.08E2,1.09E2,1.22E2,-4.321946E-3,6.6248397E-3,-7.413515E-3,-1.0833811E-3,1.9542435E-3,7.5304327E-3,-6.6109854E-3,4.09083E-3],"split_indices":[3,26,26,