{"learner":{"attributes":{},"feature_names":[],"feature_types":[],"gradient_booster":{"model":{"gbtree_model_param":{"num_parallel_tree":"1","num_trees":"1500"},"iteration_indptr":[0,2,4,6,8,10,12,14,16,18,20,22,24,26,28,30,32,34,36,38,40,42,44,46,48,50,52,54,56,58,60,62,64,66,68,70,72,74,76,78,80,82,84,86,88,90,92,94,96,98,100,102,104,106,108,110,112,114,116,118,120,122,124,126,128,130,132,134,136,138,140,142,144,146,148,150,152,154,156,158,160,162,164,166,168,170,172,174,176,178,180,182,184,186,188,190,192,194,196,198,200,202,204,206,208,210,212,214,216,218,220,222,224,226,228,230,232,234,236,238,240,242,244,246,248,250,252,254,256,258,260,262,264,266,268,270,272,274,276,278,280,282,284,286,288,290,292,294,296,298,300,302,304,306,308,310,312,314,316,318,320,322,324,326,328,330,332,334,336,338,340,342,344,346,348,350,352,354,356,358,360,362,364,366,368,370,372,374,376,378,380,382,384,386,388,390,392,394,396,398,400,402,404,406,408,410,412,414,416,418,420,422,424,426,428,430,432,434,436,438,440,442,444,446,448,450,452,454,456,458,460,462,464,466,468,470,472,474,476,478,480,482,484,486,488,490,492,494,496,498,500,502,504,506,508,510,512,514,516,518,520,522,524,526,528,530,532,534,536,538,540,542,544,546,548,550,552,554,556,558,560,562,564,566,568,570,572,574,576,578,580,582,584,586,588,590,592,594,596,598,600,602,604,606,608,610,612,614,616,618,620,622,624,626,628,630,632,634,636,638,640,642,644,646,648,650,652,654,656,658,660,662,664,666,668,670,672,674,676,678,680,682,684,686,688,690,692,694,696,698,700,702,704,706,708,710,712,714,716,718,720,722,724,726,728,730,732,734,736,738,740,742,744,746,748,750,752,754,756,758,760,762,764,766,768,770,772,774,776,778,780,782,784,786,788,790,792,794,796,798,800,802,804,806,808,810,812,814,816,818,820,822,824,826,828,830,832,834,836,838,840,842,844,846,848,850,852,854,856,858,860,862,864,866,868,870,872,874,876,878,880,882,884,886,888,890,892,894,896,898,900,902,904,906,908,910,912,914,916,918,920,922,924,926,928,930,932,934,936,938,940,942,944,946,948,950,952,954,956,958,960,962,964,966,968,970,972,974,976,978,980,982,984,986,988,990,992,994,996,998,1000,1002,1004,1006,1008,1010,1012,1014,1016,1018,1020,1022,1024,1026,1028,1030,1032,1034,1036,1038,1040,1042,1044,1046,1048,1050,1052,1054,1056,1058,1060,1062,1064,1066,1068,1070,1072,1074,1076,1078,1080,1082,1084,1086,1088,1090,1092,1094,1096,1098,1100,1102,1104,1106,1108,1110,1112,1114,1116,1118,1120,1122,1124,1126,1128,1130,1132,1134,1136,1138,1140,1142,1144,1146,1148,1150,1152,1154,1156,1158,1160,1162,1164,1166,1168,1170,1172,1174,1176,1178,1180,1182,1184,1186,1188,1190,1192,1194,1196,1198,1200,1202,1204,1206,1208,1210,1212,1214,1216,1218,1220,1222,1224,1226,1228,1230,1232,1234,1236,1238,1240,1242,1244,1246,1248,1250,1252,1254,1256,1258,1260,1262,1264,1266,1268,1270,1272,1274,1276,1278,1280,1282,1284,1286,1288,1290,1292,1294,1296,1298,1300,1302,1304,1306,1308,1310,1312,1314,1316,1318,1320,1322,1324,1326,1328,1330,1332,1334,1336,1338,1340,1342,1344,1346,1348,1350,1352,1354,1356,1358,1360,1362,1364,1366,1368,1370,1372,1374,1376,1378,1380,1382,1384,1386,1388,1390,1392,1394,1396,1398,1400,1402,1404,1406,1408,1410,1412,1414,1416,1418,1420,1422,1424,1426,1428,1430,1432,1434,1436,1438,1440,1442,1444,1446,1448,1450,1452,1454,1456,1458,1460,1462,1464,1466,1468,1470,1472,1474,1476,1478,1480,1482,1484,1486,1488,1490,1492,1494,1496,1498,1500],"tree_info":[0,1,0,1,0,1,0,1,0,1,0,1,0,1,0,1,0,1,0,1,0,1,0,1,0,1,0,1,0,1,0,1,0,1,0,1,0,1,0,1,0,1,0,1,0,1,0,1,0,1,0,1,0,1,0,1,0,1,0,1,0,1,0,1,0,1,0,1,0,1,0,1,0,1,0,1,0,1,0,1,0,1,0,1,0,1,0,1,0,1,0,1,0,1,0,1,0,1,0,1,0,1,0,1,0,1,0,1,0,1,0,1,0,1,0,1,0,1,0,1,0,1,0,1,0,1,0,1,0,1,0,1,0,1,0,1,0,1,0,1,0,1,0,1,0,1,0,1,0,1,0,1,0,1,0,1,0,1,0,1,0,1,0,1,0,1,0,1,0,1,0,1,0,1,0,1,0,1,0,1,0,1,0,1,0,1,0,1,0,1,0,1,0,1,0,1,0,1,0,1,0,1,0,1,0,1,0,1,0,1,0,1,0,1,0,1,0,1,0,1,0,1,0,1,0,1,0,1,0,1,0,1,0,1,0,1,0,1,0,1,0,1,0,1,0,1,0,1,0,1,0,1,0,1,0,1,0,1,0,1,0,1,0,1,0,1,0,1,0,1,0,1,0,1,0,1,0,1,0,1,0,1,0,1,0,1,0,1,0,1,0,1,0,1,0,1,0,1,0,1,0,1,0,1,0,1,0,1,0,1,0,1,0,1,0,1,0,1,0,1,0,1,0,1,0,1,0,1,0,1,0,1,0,1,0,1,0,1,0,1,0,1,0,1,0,1,0,1,0,1,0,1,0,1,0,1,0,1,0,1,0,1,0,1,0,1,0,1,0,1,0,1,0,1,0,1,0,1,0,1,0,1,0,1,0,1,0,1,0,1,0,1,0,1,0,1,0,1,0,1,0,1,0,1,0,1,0,1,0,1,0,1,0,1,0,1,0,1,0,1,0,1,0,1,0,1,0,1,0,1,0,1,0,1,0,1,0,1,0,1,0,1,0,1,0,1,0,1,0,1,0,1,0,1,0,1,0,1,0,1,0,1,0,1,0,1,0,1,0,1,0,1,0,1,0,1,0,1,0,1,0,1,0,1,0,1,0,1,0,1,0,1,0,1,0,1,0,1,0,1,0,1,0,1,0,1,0,1,0,1,0,1,0,1,0,1,0,1,0,1,0,1,0,1,0,1,0,1,0,1,0,1,0,1,0,1,0,1,0,1,0,1,0,1,0,1,0,1,0,1,0,1,0,1,0,1,0,1,0,1,0,1,0,1,0,1,0,1,0,1,0,1,0,1,0,1,0,1,0,1,0,1,0,1,0,1,0,1,0,1,0,1,0,1,0,1,0,1,0,1,0,1,0,1,0,1,0,1,0,1,0,1,0,1,0,1,0,1,0,1,0,1,0,1,0,1,0,1,0,1,0,1,0,1,0,1,0,1,0,1,0,1,0,1,0,1,0,1,0,1,0,1,0,1,0,1,0,1,0,1,0,1,0,1,0,1,0,1,0,1,0,1,0,1,0,1,0,1,0,1,0,1,0,1,0,1,0,1,0,1,0,1,0,1,0,1,0,1,0,1,0,1,0,1,0,1,0,1,0,1,0,1,0,1,0,1,0,1,0,1,0,1,0,1,0,1,0,1,0,1,0,1,0,1,0,1,0,1,0,1,0,1,0,1,0,1,0,1,0,1,0,1,0,1,0,1,0,1,0,1,0,1,0,1,0,1,0,1,0,1,0,1,0,1,0,1,0,1,0,1,0,1,0,1,0,1,0,1,0,1,0,1,0,1,0,1,0,1,0,1,0,1,0,1,0,1,0,1,0,1,0,1,0,1,0,1,0,1,0,1,0,1,0,1,0,1,0,1,0,1,0,1,0,1,0,1,0,1,0,1,0,1,0,1,0,1,0,1,0,1,0,1,0,1,0,1,0,1,0,1,0,1,0,1,0,1,0,1,0,1,0,1,0,1,0,1,0,1,0,1,0,1,0,1,0,1,0,1,0,1,0,1,0,1,0,1,0,1,0,1,0,1,0,1,0,1,0,1,0,1,0,1,0,1,0,1,0,1,0,1,0,1,0,1,0,1,0,1,0,1,0,1,0,1,0,1,0,1,0,1,0,1,0,1,0,1,0,1,0,1,0,1,0,1,0,1,0,1,0,1,0,1,0,1,0,1,0,1,0,1,0,1,0,1,0,1,0,1,0,1,0,1,0,1,0,1,0,1,0,1,0,1,0,1,0,1,0,1,0,1,0,1,0,1,0,1,0,1,0,1,0,1,0,1,0,1,0,1,0,1,0,1,0,1,0,1,0,1,0,1,0,1,0,1,0,1,0,1,0,1,0,1,0,1,0,1,0,1,0,1,0,1,0,1,0,1,0,1,0,1,0,1,0,1,0,1,0,1,0,1,0,1,0,1,0,1,0,1,0,1,0,1,0,1,0,1,0,1,0,1,0,1,0,1,0,1,0,1,0,1,0,1,0,1,0,1,0,1,0,1,0,1,0,1,0,1,0,1,0,1,0,1,0,1,0,1,0,1,0,1,0,1,0,1,0,1,0,1,0,1,0,1,0,1,0,1,0,1,0,1,0,1,0,1,0,1,0,1,0,1,0,1,0,1,0,1,0,1,0,1,0,1,0,1,0,1,0,1,0,1,0,1,0,1,0,1,0,1,0,1,0,1,0,1,0,1,0,1,0,1,0,1,0,1,0,1,0,1,0,1,0,1,0,1,0,1,0,1,0,1,0,1,0,1,0,1,0,1,0,1,0,1,0,1,0,1,0,1,0,1,0,1,0,1,0,1,0,1,0,1,0,1,0,1,0,1,0,1,0,1,0,1,0,1,0,1,0,1,0,1,0,1,0,1,0,1,0,1,0,1,0,1,0,1,0,1,0,1,0,1,0,1,0,1,0,1,0,1,0,1,0,1,0,1,0,1,0,1,0,1,0,1,0,1,0,1,0,1,0,1,0,1,0,1,0,1,0,1,0,1,0,1,0,1,0,1,0,1,0,1,0,1,0,1,0,1,0,1,0,1,0,1,0,1,0,1,0,1,0,1,0,1,0,1,0,1,0,1,0,1,0,1,0,1,0,1,0,1,0,1,0,1,0,1,0,1,0,1,0,1,0,1,0,1,0,1,0,1,0,1,0,1,0,1,0,1,0,1,0,1,0,1,0,1,0,1,0,1,0,1,0,1,0,1,0,1,0,1,0,1,0,1,0,1,0,1,0,1,0,1,0,1,0,1,0,1,0,1,0,1,0,1,0,1,0,1,0,1,0,1,0,1,0,1,0,1,0,1,0,1,0,1,0,1,0,1,0,1,0,1,0,1,0,1,0,1,0,1,0,1,0,1,0,1,0,1,0,1,0,1],"trees":[{"base_weights":[-4.8267207E-4,3.3708644E-1,-4.2533246E-1,-2.724333E-1,6.2562203E-1,-7.386216E-1,2.1230158E-1,4.575045E-3,-8.617332E-3,9.337665E-3,1.4602346E-3,-2.2595597E-3,-9.38121E-3,8.718473E-3,-4.0859524E-3],"categories":[],"categories_nodes":[],"categories_segments":[],"categories_sizes":[],"default_left":[0,0,0,0,0,0,0,0,0,0,0,0,0,0,0],"id":0,"left_children":[1,3,5,7,9,11,13,-1,-1,-1,-1,-1,-1,-1,-1],"loss_changes":[1.4857914E3,1.0154573E3,9.164734E2,7.985419E2,5.789617E2,3.1439062E2,6.195351E2,0E0,0E0,0E0,0E0,0E0,0E0,0E0,0E0],"parents":[2147483647,0,0,1,1,2,2,3,3,4,4,5,5,6,6],"right_children":[2,4,6,8,10,12,14,-1,-1,-1,-1,-1,-1,-1,-1],"split_conditions":[4.7E-1,1.02E2,1.16E2,9.6E1,1.08E2,1.09E2,1.22E2,4.575045E-3,-8.617332E-3,9.337665E-3,1.4602346E-3,-2.2595597E-3,-9.38121E-3,8.718473E-3,-4.0859524E-3],"split_indices":[3,26,26,13,13,13,13,0,0,0,0,0,0,0,0],"split_type":[0,0,0,0,0,0,0,0,0,0,0,0,0,0,0],"sum_hessian":[1.0358E4,5.772E3,4.586E3,1.8545E3,3.9175E3,3.075E3,1.511E3,8.285E2,1.026E3,2.3845E3,1.533E3,8.62E2,2.213E3,7.325E2,7.785E2],"tree_param":{"num_deleted":"0","num_feature":"27","num_nodes":"15","size_leaf_vector":"1"}},{"base_weights":[4.8267207E-4,-3.3708644E-1,4.2533246E-1,2.724333E-1,-6.2562203E-1,7.386216E-1,-2.1230158E-1,-4.575045E-3,8.617332E-3,-9.337665E-3,-1.4602346E-3,2.2595597E-3,9.38121E-3,-8.718473E-3,4.0859524E-3],"categories":[],"categories_nodes":[],"categories_segments":[],"categories_sizes":[],"default_left":[0,0,0,0,0,0,0,0,0,0,0,0,0,0,0],"id":1,"left_children":[1,3,5,7,9,11,13,-1,-1,-1,-1,-1,-1,-1,-1],"loss_changes":[1.4857914E3,1.0154573E3,9.164734E2,7.985419E2,5.789617E2,3.1439062E2,6.195351E2,0E0,0E0,0E0,0E0,0E0,0E0,0E0,0E0],"parents":[2147483647,0,0,1,1,2,2,3,3,4,4,5,5,6,6],"right_children":[2,4,6,8,10,12,14,-1,-1,-1,-1,-1,-1,-1,-1],"split_conditions":[4.7E-1,1.02E2,1.16E2,9.6E1,1.08E2,1.09E2,1.22E2,-4.575045E-3,8.617332E-3,-9.337665E-3,-1.4602346E-3,2.2595597E-3,9.38121E-3,-8.718473E-3,4.0859524E-3],"split_indices":[3,26,26,13,13,13,13,0,0,0,0,0,0,0,0],"split_type":[0,0,0,0,0,0,0,0,0,0,0,0,0,0,0],"sum_hessian":[1.0358E4,5.772E3,4.586E3,1.8545E3,3.9175E3,3.075E3,1.511E3,8.285E2,1.026E3,2.3845E3,1.533E3,8.62E2,2.213E3,7.325E2,7.785E2],"tree_param":{"num_deleted":"0","num_feature":"27","num_nodes":"15","size_leaf_vector":"1"}},{"base_weights":[-4.779018E-4,3.3373445E-1,-4.2110536E-1,-2.6972482E-1,6.194021E-1,-7.312867E-1,2.1019126E-1,4.529445E-3,-8.531877E-3,9.245136E-3,1.4456454E-3,-2.2370024E-3,-9.28826E-3,8.632064E-3,-4.0452136E-3],"categories":[],"categories_nodes":[],"categories_segments":[],"categories_sizes":[],"default_left":[0,0,0,0,0,0,0,0,0,0,0,0,0,0,0],"id":2,"left_children":[1,3,5,7,9,11,13,-1,-1,-1,-1,-1,-1,-1,-1],"loss_changes":[1.4563168E3,9.953151E2,8.9831146E2,7.8272E2,5.675419E2,3.0819727E2,6.072637E2,0E0,0E0,0E0,0E0,0E0,0E0,0E0,0E0],"parents":[2147483647,0,0,1,1,2,2,3,3,4,4,5,5,6,6],"right_children":[2,4,6,8,10,12,14,-1,-1,-1,-1,-1,-1,-1,-1],"split_conditions":[4.7E-1,1.02E2,1.16E2,9.6E1,1.08E2,1.09E2,1.22E2,4.529445E-3,-8.531877E-3,9.245136E-3,1.4456454E-3,-2.2370024E-3,-9.28826E-3,8.632064E-3,-4.0452136E-3],"split_indices":[3,26,26,13,13,13,13,0,0,0,0,0,0,0,0],"split_type":[0,0,0,0,0,0,0,0,0,0,0,0,0,0,0],"sum_hessian":[1.0357428E4,5.7716953E3,4.5857324E3,1.8544065E3,3.9172888E3,3.0748008E3,1.5109314E3,8.2848267E2,1.0259238E3,2.384292E3,1.5329967E3,8.619956E2,2.2128054E3,7.3244434E2,7.78487E2],"tree_param":{"num_deleted":"0","num_feature":"27","num_nodes":"15","size_leaf_vector":"1"}},{"base_weights":[4.7789467E-4,-3.3373442E-1,4.2110536E-1,2.6972485E-1,-6.194021E-1,7.3128664E-1,-2.1019126E-1,-4.5294445E-3,8.531877E-3,-9.245136E-3,-1.4456443E-3,2.2370012E-3,9.28826E-3,-8.632064E-3,4.0452136E-3],"categories":[],"categories_nodes":[],"categories_segments":[],"categories_sizes":[],"default_left":[0,0,0,0,0,0,0,0,0,0,0,0,0,0,0],"id":3,"left_children":[1,3,5,7,9,11,13,-1,-1,-1,-1,-1,-1,-1,-1],"loss_changes":[1.4563168E3,9.953151E2,8.983113E2,7.827199E2,5.6754175E2,3.081975E2,6.072637E2,0E0,0E0,0E0,0E0,0E0,0E0,0E0,0E0],"parents":[2147483647,0,0,1,1,2,2,3,3,4,4,5,5,6,6],"right_children":[2,4,6,8,10,12,14,-1,-1,-1,-1,-1,-1,-1,-1],"split_conditions":[4.7E-1,1.02E2,1.16E2,9.6E1,1.08E2,1.09E2,1.22E2,-4.5294445E-3,8.531877E-3,-9.245136E-3,-1.4456443E-3,2.2370012E-3,9.28826E-3,-8.632064E-3,4.0452136E-3],"split_indices":[3,26,26,13,13,13,13,0,0,0,0,0,0,0,0],"split_type":[0,0,0,0,0,0,0,0,0,0,0,0,0,0,0],"sum_hessian":[1.0357428E4,5.7716953E3,4.5857324E3,1.8544064E3,3.917289E3,3.0748008E3,1.5109314E3,8.284826E2,1.0259238E3,2.3842922E3,1.5329968E3,8.619956E2,2.2128054E3,7.3244434E2,7.78487E2],"tree_param":{"num_deleted":"0","num_feature":"27","num_nodes":"15","size_leaf_vector":"1"}},{"base_weights":[-4.7324336E-4,-3.5062757E-1,3.948693E-1,2.4986906E-1,-6.3588023E-1,7.26806E-1,-1.9971721E-1,-5.1839612E-3,7.9727275E-3,-9.258687E-3,-1.5613466E-3,2.0298965E-3,9.2451E-3,-8.549093E-3,4.043883E-3],"categories":[],"categories_nodes":[],"categories_segments":[],"categories_sizes":[],"default_left":[0,0,0,0,0,0,0,0,0,0,0,0,0,0,0],"id":4,"left_children":[1,3,5,7,9,11,13,-1,-1,-1,-1,-1,-1,-1,-1],"loss_changes":[1.4338303E3,9.410357E2,9.6031647E2,7.446422E2,5.17959E2,3.2315405E2,6.905129E2,0E0,0E0,0E0,0E0,0E0,0E0,0E0,0E0],"parents":[2147483647,0,0,1,1,2,2,3,3,4,4,5,5,6,6],"right_children":[2,4,6,8,10,12,14,-1,-1,-1,-1,-1,-1,-1,-1],"split_conditions":[4.66E-1,1.02E2,1.15E2,9.5E1,1.08E2,1.08E2,1.21E2,-5.1839612E-3,7.9727275E-3,-9.258687E-3,-1.5613466E-3,2.0298965E-3,9.2451E-3,-8.549093E-3,4.043883E-3],"split_indices":[16,13,13,26,26,26,26,0,0,0,0,0,0,0,0],"split_type":[0,0,0,0,0,0,0,0,0,0,0,0,0,0,0],"sum_hessian":[1.0355733E4,5.491782E3,4.8639507E3,1.7686506E3,3.7231316E3,3.1212463E3,1.7427042E3,7.3589557E2,1.032755E3,2.3199053E3,1.4032266E3,8.5580927E2,2.265437E3,8.358043E2,9.068999E2],"tree_param":{"num_deleted":"0","num_feature":"27","num_nodes":"15","size_leaf_vector":"1"}},{"base_weights":[4.7320686E-4,3.506275E-1,-3.9486933E-1,-2.4986908E-1,6.358802E-1,-7.26806E-1,1.9971716E-1,5.1839612E-3,-7.9727275E-3,9.258686E-3,1.561346E-3,-2.0298967E-3,-9.245101E-3,8.549093E-3,-4.0438836E-3],"categories":[],"categories_nodes":[],"categories_segments":[],"categories_sizes":[],"default_left":[0,0,0,0,0,0,0,0,0,0,0,0,0,0,0],"id":5,"left_children":[1,3,5,7,9,11,13,-1,-1,-1,-1,-1,-1,-1,-1],"loss_changes":[1.4338302E3,9.4103546E2,9.603164E2,7.44642E2,5.179591E2,3.231543E2,6.905129E2,0E0,0E0,0E0,0E0,0E0,0E0,0E0,0E0],"parents":[2147483647,0,0,1,1,2,2,3,3,4,4,5,5,6,6],"right_children":[2,4,6,8,10,12,14,-1,-1,-1,-1,-1,-1,-1,-1],"split_conditions":[4.66E-1,1.02E2,1.15E2,9.5E1,1.08E2,1.08E2,1.21E2,5.1839612E-3,-7.9727275E-3,9.258686E-3,1.561346E-3,-2.0298967E-3,-9.245101E-3,8.549093E-3,-4.0438836E-3],"split_indices":[16,13,13,26,26,26,26,0,0,0,0,0,0,0,0],"split_type":[0,0,0,0,0,0,0,0,0,0,0,0,0,0,0],"sum_hessian":[1.0355733E4,5.491782E3,4.8639507E3,1.7686506E3,3.7231318E3,3.1212463E3,1.7427042E3,7.358956E2,1.0327551E3,2.3199053E3,1.4032266E3,8.5580927E2,2.265437E3,8.358043E2,9.0689984E2],"tree_param":{"num_deleted":"0","num_feature":"27","num_nodes":"15","size_leaf_vector":"1"}},{"base_weights":[-4.6870924E-4,3.2853407E-1,-4.145497E-1,-2.645981E-1,6.09328E-1,-7.19374E-1,2.0573586E-1,4.477021E-3,-8.398899E-3,9.096219E-3,1.4221639E-3,-2.1988435E-3,-9.138531E-3,8.503393E-3,-4.0083313E-3],"categories":[],"categories_nodes":[],"categories_segments":[],"categories_sizes":[],"default_left":[0,0,0,0,0,0,0,0,0,0,0,0,0,0,0],"id":6,"left_children":[1,3,5,7,9,11,13,-1,-1,-1,-1,-1,-1,-1,-1],"loss_changes":[1.4108082E3,9.6126404E2,8.6708246E2,7.6045416E2,5.4929565E2,2.984569E2,5.913545E2,0E0,0E0,0E0,0E0,0E0,0E0,0E0,0E0],"parents":[2147483647,0,0,1,1,2,2,3,3,4,4,5,5,6,6],"right_children":[2,4,6,8,10,12,14,-1,-1,-1,-1,-1,-1,-1,-1],"split_conditions":[4.7E-1,1.02E2,1.16E2,9.6E1,1.08E2,1.09E2,1.22E2,4.477021E-3,-8.398899E-3,9.096219E-3,1.4221639E-3,-2.1988435E-3,-9.138531E-3,8.503393E-3,-4.0083313E-3],"split_indices":[3,26,26,13,13,13,13,0,0,0,0,0,0,0,0],"split_type":[0,0,0,0,0,0,0,0,0,0,0,0,0,0,0],"sum_hessian":[1.0353788E4,5.7697295E3,4.5840586E3,1.8538423E3,3.9158872E3,3.073501E3,1.5105575E3,8.2838965E2,1.0254526E3,2.3829822E3,1.5329049E3,8.619208E2,2.2115803E3,7.3212415E2,7.7843335E2],"tree_param":{"num_deleted":"0","num_feature":"27","num_nodes":"15","size_leaf_vector":"1"}},{"base_weights":[4.6872604E-4,-3.2853404E-1,4.145497E-1,2.6459813E-1,-6.09328E-1,7.1937406E-1,-2.0573589E-1,-4.47702E-3,8.398899E-3,-9.096218E-3,-1.4221641E-3,2.1988435E-3,9.138532E-3,-8.503393E-3,4.0083304E-3],"categories":[],"categories_nodes":[],"categories_segments":[],"categories_sizes":[],"default_left":[0,0,0,0,0,0,0,0,0,0,0,0,0,0,0],"id":7,"left_children":[1,3,5,7,9,11,13,-1,-1,-1,-1,-1,-1,-1,-1],"loss_changes":[1.410808E3,9.6126416E2,8.670826E2,7.604541E2,5.492953E2,2.9845703E2,5.913544E2,0E0,0E0,0E0,0E0,0E0,0E0,0E0,0E0],"parents":[2147483647,0,0,1,1,2,2,3,3,4,4,5,5,6,6],"right_children":[2,4,6,8,10,12,14,-1,-1,-1,-1,-1,-1,-1,-1],"split_conditions":[4.7E-1,1.02E2,1.16E2,9.6E1,1.08E2,1.09E2,1.22E2,-4.47702E-3,8.398899E-3,-9.096218E-3,-1.4221641E-3,2.1988435E-3,9.138532E-3,-8.503393E-3,4.0083304E-3],"split_indices":[3,26,26,13,13,13,13,0,0,0,0,0,0,0,0],"split_type":[0,0,0,0,0,0,0,0,0,0,0,0,0,0,0],"sum_hessian":[1.0353788E4,5.7697295E3,4.5840586E3,1.8538423E3,3.9158872E3,3.073501E3,1.5105575E3,8.283896E2,1.0254526E3,2.3829824E3,1.5329049E3,8.619208E2,2.21158E3,7.3212415E2,7.7843335E2],"tree_param":{"num_deleted":"0","num_feature":"27","num_nodes":"15","size_leaf_vector":"1"}},{"base_weights":[-4.642204E-4,-3.452474E-1,3.888188E-1,3.233066E-1,-5.9324545E-1,7.375923E-1,-1.5868732E-1,-4.3097977E-3,8.717438E-3,-8.619176E-3,-1.1865608E-3,2.397887E-3,9.295699E-3,-8.931442E-3,3.5999387E-3],"categories":[],"categories_nodes":[],"categories_segments":[],"categories_sizes":[],"default_left":[0,0,0,0,0,0,0,0,0,0,0,0,0,0,0],"id":8,"left_children":[1,3,5,7,9,11,13,-1,-1,-1,-1,-1,-1,-1,-1],"loss_changes":[1.3894741E3,9.1042725E2,9.2861786E2,6.151455E2,5.105525E2,2.836538E2,7.21438E2,0E0,0E0,0E0,0E0,0E0,0E0,0E0,0E0],"parents":[2147483647,0,0,1,1,2,2,3,3,4,4,5,5,6,6],"right_children":[2,4,6,8,10,12,14,-1,-1,-1,-1,-1,-1,-1,-1],"split_conditions":[4.66E-1,1E2,1.14E2,9.5E1,1.08E2,1.08E2,1.19E2,-4.3097977E-3,8.717438E-3,-8.619176E-3,-1.1865608E-3,2.397887E-3,9.295699E-3,-8.931442E-3,3.5999387E-3],"split_indices":[16,13,13,26,26,26,26,0,0,0,0,0,0,0,0],"split_type":[0,0,0,0,0,0,0,0,0,0,0,0,0,0,0],"sum_hessian":[1.0350349E4,5.4889585E3,4.86139E3,1.4851046E3,4.003854E3,2.9694424E3,1.8919476E3,6.253085E2,8.5979614E2,2.5560305E3,1.4478234E3,8.270712E2,2.142371E3,7.827894E2,1.1091582E3],"tree_param":{"num_deleted":"0","num_feature":"27","num_nodes":"15","size_leaf_vector":"1"}},{"base_weights":[4.6422277E-4,3.452474E-1,-3.8881874E-1,-3.233066E-1,5.9324545E-1,-7.375923E-1,1.5868735E-1,4.309797E-3,-8.717438E-3,8.619176E-3,1.1865601E-3,-2.3978874E-3,-9.295697E-3,8.931442E-3,-3.599938E-3],"categories":[],"categories_nodes":[],"categories_segments":[],"categories_sizes":[],"default_left":[0,0,0,0,0,0,0,0,0,0,0,0,0,0,0],"id":9,"left_children":[1,3,5,7,9,11,13,-1,-1,-1,-1,-1,-1,-1,-1],"loss_changes":[1.3894739E3,9.1042737E2,9.2861786E2,6.151456E2,5.105525E2,2.8365356E2,7.2143787E2,0E0,0E0,0E0,0E0,0E0,0E0,0E0,0E0],"parents":[2147483647,0,0,1,1,2,2,3,3,4,4,5,5,6,6],"right_children":[2,4,6,8,10,12,14,-1,-1,-1,-1,-1,-1,-1,-1],"split_conditions":[4.66E-1,1E2,1.14E2,9.5E1,1.08E2,1.08E2,1.19E2,4.309797E-3,-8.717438E-3,8.619176E-3,1.1865601E-3,-2.3978874E-3,-9.295697E-3,8.931442E-3,-3.599938E-3],"split_indices":[16,13,13,26,26,26,26,0,0,0,0,0,0,0,0],"split_type":[0,0,0,0,0,0,0,0,0,0,0,0,0,0,0],"sum_hessian":[1.0350349E4,5.4889585E3,4.86139E3,1.4851046E3,4.003854E3,2.9694424E3,1.8919478E3,6.253085E2,8.5979614E2,2.5560305E3,1.4478234E3,8.270712E2,2.1423713E3,7.827894E2,1.1091583E3],"tree_param":{"num_deleted":"0","num_feature":"27","num_nodes":"15","size_leaf_vector":"1"}},{"base_weights":[-4.5960024E-4,3.2358027E-1,-4.0830576E-1,-2.597063E-1,5.9973466E-1,-7.0783836E-1,2.0098427E-1,4.418359E-3,-8.266723E-3,8.955979E-3,1.3992462E-3,-2.1590798E-3,-8.9953495E-3,8.380143E-3,-3.980292E-3],"categories":[],"categories_nodes":[],"categories_segments":[],"categories_sizes":[],"default_left":[0,0,0,0,0,0,0,0,0,0,0,0,0,0,0],"id":10,"left_children":[1,3,5,7,9,11,13,-1,-1,-1,-1,-1,-1,-1,-1],"loss_changes":[1.367676E3,9.2906934E2,8.3634467E2,7.3767786E2,5.323633E2,2.8949866E2,5.768725E2,0E0,0E0,0E0,0E0,0E0,0E0,0E0,0E0],"parents":[2147483647,0,0,1,1,2,2,3,3,4,4,5,5,6,6],"right_children":[2,4,6,8,10,12,14,-1,-1,-1,-1,-1,-1,-1,-1],"split_conditions":[4.7E-1,1.02E2,1.16E2,9.6E1,1.08E2,1.09E2,1.22E2,4.418359E-3,-8.266723E-3,8.955979E-3,1.3992462E-3,-2.1590798E-3,-8.9953495E-3,8.380143E-3,-3.980292E-3],"split_indices":[3,26,26,13,13,13,13,0,0,0,0,0,0,0,0],"split_type":[0,0,0,0,0,0,0,0,0,0,0,0,0,0,0],"sum_hessian":[1.0346763E4,5.765886E3,4.580876E3,1.8527059E3,3.9131804E3,3.0709883E3,1.5098876E3,8.2817474E2,1.0245312E3,2.380505E3,1.5326755E3,8.6173566E2,2.2092527E3,7.315309E2,7.783567E2],"tree_param":{"num_deleted":"0","num_feature":"27","num_nodes":"15","size_leaf_vector":"1"}},{"base_weights":[4.5962346E-4,-3.2358024E-1,4.083058E-1,2.597063E-1,-5.997346E-1,7.0783836E-1,-2.0098424E-1,-4.41836E-3,8.266724E-3,-8.955978E-3,-1.3992459E-3,2.1590795E-3,8.9953495E-3,-8.380143E-3,3.980292E-3],"categories":[],"categories_nodes":[],"categories_segments":[],"categories_sizes":[],"default_left":[0,0,0,0,0,0,0,0,0,0,0,0,0,0,0],"id":11,"left_children":[1,3,5,7,9,11,13,-1,-1,-1,-1,-1,-1,-1,-1],"loss_changes":[1.367676E3,9.2906934E2,8.3634467E2,7.376781E2,5.323633E2,2.8949866E2,5.768725E2,0E0,0E0,0E0,0E0,0E0,0E0,0E0,0E0],"parents":[2147483647,0,0,1,1,2,2,3,3,4,4,5,5,6,6],"right_children":[2,4,6,8,10,12,14,-1,-1,-1,-1,-1,-1,-1,-1],"split_conditions":[4.7E-1,1.02E2,1.16E2,9.6E1,1.08E2,1.09E2,1.22E2,-4.41836E-3,8.266724E-3,-8.955978E-3,-1.3992459E-3,2.1590795E-3,8.9953495E-3,-8.380143E-3,3.980292E-3],"split_indices":[3,26,26,13,13,13,13,0,0,0,0,0,0,0,0],"split_type":[0,0,0,0,0,0,0,0,0,0,0,0,0,0,0],"sum_hessian":[1.0346763E4,5.765886E3,4.580876E3,1.8527059E3,3.9131804E3,3.0709883E3,1.5098877E3,8.281747E2,1.0245312E3,2.380505E3,1.5326755E3,8.6173566E2,2.2092527E3,7.315309E2,7.7835675E2],"tree_param":{"num_deleted":"0","num_feature":"27","num_nodes":"15","size_leaf_vector":"1"}},{"base_weights":[-4.5527852E-4,-3.400563E-1,3.8299656E-1,2.4126598E-1,-6.1628294E-1,6.856286E-1,-2.2876833E-1,-4.4169314E-3,8.265151E-3,-8.977682E-3,-1.5122459E-3,2.0503209E-3,8.9113135E-3,-8.361939E-3,4.031081E-3],"categories":[],"categories_nodes":[],"categories_segments":[],"categories_sizes":[],"default_left":[0,0,0,0,0,0,0,0,0,0,0,0,0,0,0],"id":12,"left_children":[1,3,5,7,9,11,13,-1,-1,-1,-1,-1,-1,-1,-1],"loss_changes":[1.3469583E3,8.8099E2,8.995981E2,7.0690027E2,4.8668518E2,3.2085413E2,6.177579E2,0E0,0E0,0E0,0E0,0E0,0E0,0E0,0E0],"parents":[2147483647,0,0,1,1,2,2,3,3,4,4,5,5,6,6],"right_children":[2,4,6,8,10,12,14,-1,-1,-1,-1,-1,-1,-1,-1],"split_conditions":[4.66E-1,1.02E2,1.16E2,9.6E1,1.08E2,1.09E2,1.22E2,-4.4169314E-3,8.265151E-3,-8.977682E-3,-1.5122459E-3,2.0503209E-3,8.9113135E-3,-8.361939E-3,4.031081E-3],"split_indices":[16,13,13,26,26,26,26,0,0,0,0,0,0,0,0],"split_type":[0,0,0,0,0,0,0,0,0,0,0,0,0,0,0],"sum_hessian":[1.0341663E4,5.484486E3,4.8571772E3,1.7666583E3,3.7178271E3,3.2495479E3,1.6076292E3,8.153856E2,9.5127277E2,2.3154358E3,1.4023915E3,9.739139E2,2.275634E3,8.1950854E2,7.881206E2],"tree_param":{"num_deleted":"0","num_feature":"27","num_nodes":"15","size_leaf_vector":"1"}},{"base_weights":[4.5527454E-4,3.4005627E-1,-3.8299656E-1,-2.4126595E-1,6.162829E-1,-6.856286E-1,2.2876835E-1,4.416932E-3,-8.265151E-3,8.977682E-3,1.5122452E-3,-2.050321E-3,-8.911313E-3,8.36194E-3,-4.031081E-3],"categories":[],"categories_nodes":[],"categories_segments":[],"categories_sizes":[],"default_left":[0,0,0,0,0,0,0,0,0,0,0,0,0,0,0],"id":13,"left_children":[1,3,5,7,9,11,13,-1,-1,-1,-1,-1,-1,-1,-1],"loss_changes":[1.3469583E3,8.809897E2,8.9959796E2,7.069003E2,4.8668518E2,3.2085425E2,6.177578E2,0E0,0E0,0E0,0E0,0E0,0E0,0E0,0E0],"parents":[2147483647,0,0,1,1,2,2,3,3,4,4,5,5,6,6],"right_children":[2,4,6,8,10,12,14,-1,-1,-1,-1,-1,-1,-1,-1],"split_conditions":[4.66E-1,1.02E2,1.16E2,9.6E1,1.08E2,1.09E2,1.22E2,4.416932E-3,-8.265151E-3,8.977682E-3,1.5122452E-3,-2.050321E-3,-8.911313E-3,8.36194E-3,-4.031081E-3],"split_indices":[16,13,13,26,26,26,26,0,0,0,0,0,0,0,0],"split_type":[0,0,0,0,0,0,0,0,0,0,0,0,0,0,0],"sum_hessian":[1.0341663E4,5.484486E3,4.8571772E3,1.7666584E3,3.7178274E3,3.249548E3,1.6076292E3,8.153857E2,9.5127277E2,2.3154358E3,1.4023915E3,9.739139E2,2.275634E3,8.1950854E2,7.881206E2],"tree_param":{"num_deleted":"0","num_feature":"27","num_nodes":"15","size_leaf_vector":"1"}},{"base_weights":[-4.509567E-4,3.1875598E-1,-4.0223688E-1,-2.547734E-1,5.903331E-1,-7.1604276E-1,1.607124E-1,4.3701185E-3,-8.143893E-3,8.821083E-3,1.3744995E-3,-2.0554336E-3,-8.905451E-3,7.7548367E-3,-4.314494E-3],"categories":[],"categories_nodes":[],"categories_segments":[],"categories_sizes":[],"default_left":[0,0,0,0,0,0,0,0,0,0,0,0,0,0,0],"id":14,"left_children":[1,3,5,7,9,11,13,-1,-1,-1,-1,-1,-1,-1,-1],"loss_changes":[1.3259454E3,8.9751984E2,8.0870874E2,7.173727E2,5.165742E2,2.616438E2,5.970305E2,0E0,0E0,0E0,0E0,0E0,0E0,0E0,0E0],"parents":[2147483647,0,0,1,1,2,2,3,3,4,4,5,5,6,6],"right_children":[2,4,6,8,10,12,14,-1,-1,-1,-1,-1,-1,-1,-1],"split_conditions":[4.7E-1,1.02E2,1.15E2,9.6E1,1.08E2,1.08E2,1.22E2,4.3701185E-3,-8.143893E-3,8.821083E-3,1.3744995E-3,-2.0554336E-3,-8.905451E-3,7.7548367E-3,-4.314494E-3],"split_indices":[3,26,26,13,13,13,13,0,0,0,0,0,0,0,0],"split_type":[0,0,0,0,0,0,0,0,0,0,0,0,0,0,0],"sum_hessian":[1.0336525E4,5.760325E3,4.5762E3,1.8511149E3,3.9092102E3,2.938124E3,1.638076E3,8.2790076E2,1.0232141E3,2.3769104E3,1.5322999E3,7.490338E2,2.1890903E3,8.0354315E2,8.3453296E2],"tree_param":{"num_deleted":"0","num_feature":"27","num_nodes":"15","size_leaf_vector":"1"}},{"base_weights":[4.5098428E-4,-3.1875595E-1,4.0223688E-1,2.5477335E-1,-5.9033304E-1,7.160428E-1,-1.607124E-1,-4.370119E-3,8.1438925E-3,-8.821082E-3,-1.3744988E-3,2.0554336E-3,8.905451E-3,-7.7548367E-3,4.314494E-3],"categories":[],"categories_nodes":[],"categories_segments":[],"categories_sizes":[],"default_left":[0,0,0,0,0,0,0,0,0,0,0,0,0,0,0],"id":15,"left_children":[1,3,5,7,9,11,13,-1,-1,-1,-1,-1,-1,-1,-1],"loss_changes":[1.3259454E3,8.9751935E2,8.0870874E2,7.173727E2,5.165742E2,2.616438E2,5.970305E2,0E0,0E0,0E0,0E0,0E0,0E0,0E0,0E0],"parents":[2147483647,0,0,1,1,2,2,3,3,4,4,5,5,6,6],"right_children":[2,4,6,8,10,12,14,-1,-1,-1,-1,-1,-1,-1,-1],"split_conditions":[4.7E-1,1.02E2,1.15E2,9.6E1,1.08E2,1.08E2,1.22E2,-4.370119E-3,8.1438925E-3,-8.821082E-3,-1.3744988E-3,2.0554336E-3,8.905451E-3,-7.7548367E-3,4.314494E-3],"split_indices":[3,26,26,13,13,13,13,0,0,0,0,0,0,0,0],"split_type":[0,0,0,0,0,0,0,0,0,0,0,0,0,0,0],"sum_hessian":[1.0336525E4,5.760325E3,4.5762E3,1.8511149E3,3.9092104E3,2.938124E3,1.6380762E3,8.2790076E2,1.0232142E3,2.3769104E3,1.5323E3,7.490339E2,2.1890903E3,8.0354315E2,8.34533E2],"tree_param":{"num_deleted":"0","num_feature":"27","num_nodes":"15","size_leaf_vector":"1"}},{"base_weights":[-4.4692136E-4,-3.3503518E-1,3.773485E-1,3.1220868E-1,-5.752264E-1,6.751139E-1,-2.2428258E-1,-4.232743E-3,8.479255E-3,-8.36341E-3,-1.1488992E-3,2.0137818E-3,8.778914E-3,-8.244694E-3,3.994375E-3],"categories":[],"categories_nodes":[],"categories_segments":[],"categories_sizes":[],"default_left":[0,0,0,0,0,0,0,0,0,0,0,0,0,0,0],"id":16,"left_children":[1,3,5,7,9,11,13,-1,-1,-1,-1,-1,-1,-1,-1],"loss_changes":[1.3060167E3,8.520022E2,8.694775E2,5.849368E2,4.8030078E2,3.1167358E2,6.0202966E2,0E0,0E0,0E0,0E0,0E0,0E0,0E0,0E0],"parents":[2147483647,0,0,1,1,2,2,3,3,4,4,5,5,6,6],"right_children":[2,4,6,8,10,12,14,-1,-1,-1,-1,-1,-1,-1,-1],"split_conditions":[4.66E-1,1E2,1.16E2,9.5E1,1.08E2,1.09E2,1.22E2,-4.232743E-3,8.479255E-3,-8.36341E-3,-1.1488992E-3,2.0137818E-3,8.778914E-3,-8.244694E-3,3.994375E-3],"split_indices":[16,13,13,26,26,26,26,0,0,0,0,0,0,0,0],"split_type":[0,0,0,0,0,0,0,0,0,0,0,0,0,0,0],"sum_hessian":[1.0329929E4,5.4782876E3,4.851641E3,1.4826602E3,3.9956272E3,3.2453145E3,1.6063265E3,6.249202E2,8.5773987E2,2.5489697E3,1.4466576E3,9.733449E2,2.2719697E3,8.184424E2,7.878841E2],"tree_param":{"num_deleted":"0","num_feature":"27","num_nodes":"15","size_leaf_vector":"1"}},{"base_weights":[4.469107E-4,3.3503518E-1,-3.7734854E-1,-3.1220868E-1,5.752264E-1,-6.75114E-1,2.2428256E-1,4.232743E-3,-8.479256E-3,8.36341E-3,1.1488994E-3,-2.0137818E-3,-8.778914E-3,8.244693E-3,-3.994375E-3],"categories":[],"categories_nodes":[],"categories_segments":[],"categories_sizes":[],"default_left":[0,0,0,0,0,0,0,0,0,0,0,0,0,0,0],"id":17,"left_children":[1,3,5,7,9,11,13,-1,-1,-1,-1,-1,-1,-1,-1],"loss_changes":[1.306017E3,8.520022E2,8.694775E2,5.849368E2,4.8030078E2,3.1167383E2,6.020297E2,0E0,0E0,0E0,0E0,0E0,0E0,0E0,0E0],"parents":[2147483647,0,0,1,1,2,2,3,3,4,4,5,5,6,6],"right_children":[2,4,6,8,10,12,14,-1,-1,-1,-1,-1,-1,-1,-1],"split_conditions":[4.66E-1,1E2,1.16E2,9.5E1,1.08E2,1.09E2,1.22E2,4.232743E-3,-8.479256E-3,8.36341E-3,1.1488994E-3,-2.0137818E-3,-8.778914E-3,8.244693E-3,-3.994375E-3],"split_indices":[16,13,13,26,26,26,26,0,0,0,0,0,0,0,0],"split_type":[0,0,0,0,0,0,0,0,0,0,0,0,0,0,0],"sum_hessian":[1.0329929E4,5.4782876E3,4.851641E3,1.4826602E3,3.9956272E3,3.2453145E3,1.6063265E3,6.249202E2,8.5773987E2,2.5489697E3,1.4466576E3,9.733449E2,2.2719695E3,8.184424E2,7.878841E2],"tree_param":{"num_deleted":"0","num_feature":"27","num_nodes":"15","size_leaf_vector":"1"}},{"base_weights":[-4.4253116E-4,3.1418416E-1,-3.964806E-1,-2.501623E-1,5.814479E-1,-6.867164E-1,1.9325574E-1,4.314719E-3,-8.022307E-3,8.696194E-3,1.3486211E-3,-2.0776377E-3,-8.738353E-3,8.14652E-3,-3.897417E-3],"categories":[],"categories_nodes":[],"categories_segments":[],"categories_sizes":[],"default_left":[0,0,0,0,0,0,0,0,0,0,0,0,0,0,0],"id":18,"left_children":[1,3,5,7,9,11,13,-1,-1,-1,-1,-1,-1,-1,-1],"loss_changes":[1.2865848E3,8.680342E2,7.825627E2,6.9650256E2,5.0244934E2,2.7439734E2,5.468032E2,0E0,0E0,0E0,0E0,0E0,0E0,0E0,0E0],"parents":[2147483647,0,0,1,1,2,2,3,3,4,4,5,5,6,6],"right_children":[2,4,6,8,10,12,14,-1,-1,-1,-1,-1,-1,-1,-1],"split_conditions":[4.7E-1,1.02E2,1.16E2,9.6E1,1.08E2,1.09E2,1.22E2,4.314719E-3,-8.022307E-3,8.696194E-3,1.3486211E-3,-2.0776377E-3,-8.738353E-3,8.14652E-3,-3.897417E-3],"split_indices":[3,26,26,13,13,13,13,0,0,0,0,0,0,0,0],"split_type":[0,0,0,0,0,0,0,0,0,0,0,0,0,0,0],"sum_hessian":[1.0323379E4,5.7531104E3,4.570268E3,1.8489612E3,3.9041492E3,3.0627747E3,1.5074935E3,8.274876E2,1.0214736E3,2.3723677E3,1.5317815E3,8.6101556E2,2.201759E3,7.2952325E2,7.779703E2],"tree_param":{"num_deleted":"0","num_feature":"27","num_nodes":"15","size_leaf_vector":"1"}},{"base_weights":[4.425342E-4,-3.1418416E-1,3.964806E-1,2.501623E-1,-5.814479E-1,6.867164E-1,-1.9325578E-1,-4.3147192E-3,8.022307E-3,-8.696194E-3,-1.3486213E-3,2.0776377E-3,8.738353E-3,-8.146521E-3,3.8974173E-3],"categories":[],"categories_nodes":[],"categories_segments":[],"categories_sizes":[],"default_left":[0,0,0,0,0,0,0,0,0,0,0,0,0,0,0],"id":19,"left_children":[1,3,5,7,9,11,13,-1,-1,-1,-1,-1,-1,-1,-1],"loss_changes":[1.2865848E3,8.680341E2,7.8256287E2,6.965027E2,5.0244934E2,2.7439734E2,5.468032E2,0E0,0E0,0E0,0E0,0E0,0E0,0E0,0E0],"parents":[2147483647,0,0,1,1,2,2,3,3,4,4,5,5,6,6],"right_children":[2,4,6,8,10,12,14,-1,-1,-1,-1,-1,-1,-1,-1],"split_conditions":[4.7E-1,1.02E2,1.16E2,9.6E1,1.08E2,1.09E2,1.22E2,-4.3147192E-3,8.022307E-3,-8.696194E-3,-1.3486213E-3,2.0776377E-3,8.738353E-3,-8.146521E-3,3.8974173E-3],"split_indices":[3,26,26,13,13,13,13,0,0,0,0,0,0,0,0],"split_type":[0,0,0,0,0,0,0,0,0,0,0,0,0,0,0],"sum_hessian":[1.0323379E4,5.7531104E3,4.570268E3,1.8489612E3,3.9041492E3,3.0627747E3,1.5074935E3,8.274876E2,1.0214735E3,2.3723677E3,1.5317815E3,8.6101556E2,2.201759E3,7.2952325E2,7.779703E2],"tree_param":{"num_deleted":"0","num_feature":"27","num_nodes":"15","size_leaf_vector":"1"}},{"base_weights":[-4.385154E-4,-3.301971E-1,3.7192598E-1,2.3315707E-1,-5.9803444E-1,7.05014E-1,-1.5011807E-1,-4.9739303E-3,7.551112E-3,-8.71976E-3,-1.467216E-3,2.2773487E-3,8.897036E-3,-8.595945E-3,3.4941426E-3],"categories":[],"categories_nodes":[],"categories_segments":[],"categories_sizes":[],"default_left":[0,0,0,0,0,0,0,0,0,0,0,0,0,0,0],"id":20,"left_children":[1,3,5,7,9,11,13,-1,-1,-1,-1,-1,-1,-1,-1],"loss_changes":[1.2668589E3,8.2574274E2,8.4268915E2,6.7296246E2,4.584021E2,2.6056958E2,6.695125E2,0E0,0E0,0E0,0E0,0E0,0E0,0E0,0E0],"parents":[2147483647,0,0,1,1,2,2,3,3,4,4,5,5,6,6],"right_children":[2,4,6,8,10,12,14,-1,-1,-1,-1,-1,-1,-1,-1],"split_conditions":[4.66E-1,1.02E2,1.14E2,9.5E1,1.08E2,1.08E2,1.19E2,-4.9739303E-3,7.551112E-3,-8.71976E-3,-1.467216E-3,2.2773487E-3,8.897036E-3,-8.595945E-3,3.4941426E-3],"split_indices":[16,13,13,26,26,26,26,0,0,0,0,0,0,0,0],"split_type":[0,0,0,0,0,0,0,0,0,0,0,0,0,0,0],"sum_hessian":[1.0315246E4,5.470656E3,4.8445903E3,1.7628678E3,3.7077883E3,2.9573289E3,1.8872616E3,7.3465674E2,1.028211E3,2.3067102E3,1.4010779E3,8.2571936E2,2.1316096E3,7.794717E2,1.1077899E3],"tree_param":{"num_deleted":"0","num_feature":"27","num_nodes":"15","size_leaf_vector":"1"}},{"base_weights":[4.3850727E-4,3.301971E-1,-3.71926E-1,-2.3315704E-1,5.9803444E-1,-7.05014E-1,1.5011808E-1,4.9739303E-3,-7.551112E-3,8.719759E-3,1.467216E-3,-2.2773491E-3,-8.897036E-3,8.595945E-3,-3.4941423E-3],"categories":[],"categories_nodes":[],"categories_segments":[],"categories_sizes":[],"default_left":[0,0,0,0,0,0,0,0,0,0,0,0,0,0,0],"id":21,"left_children":[1,3,5,7,9,11,13,-1,-1,-1,-1,-1,-1,-1,-1],"loss_changes":[1.2668589E3,8.257427E2,8.426892E2,6.7296234E2,4.5840173E2,2.605697E2,6.695125E2,0E0,0E0,0E0,0E0,0E0,0E0,0E0,0E0],"parents":[2147483647,0,0,1,1,2,2,3,3,4,4,5,5,6,6],"right_children":[2,4,6,8,10,12,14,-1,-1,-1,-1,-1,-1,-1,-1],"split_conditions":[4.66E-1,1.02E2,1.14E2,9.5E1,1.08E2,1.08E2,1.19E2,4.9739303E-3,-7.551112E-3,8.719759E-3,1.467216E-3,-2.2773491E-3,-8.897036E-3,8.595945E-3,-3.4941423E-3],"split_indices":[16,13,13,26,26,26,26,0,0,0,0,0,0,0,0],"split_type":[0,0,0,0,0,0,0,0,0,0,0,0,0,0,0],"sum_hessian":[1.0315246E4,5.470656E3,4.8445903E3,1.7628677E3,3.7077883E3,2.9573289E3,1.8872616E3,7.3465674E2,1.0282109E3,2.3067104E3,1.4010779E3,8.2571936E2,2.1316096E3,7.794716E2,1.1077899E3],"tree_param":{"num_deleted":"0","num_feature":"27","num_nodes":"15","size_leaf_vector":"1"}},{"base_weights":[-4.3469502E-4,3.096501E-1,-3.9078313E-1,-2.4565761E-1,5.726955E-1,-6.9489884E-1,1.5393285E-1,4.26664E-3,-7.909802E-3,8.570732E-3,1.3287496E-3,-1.983122E-3,-8.65214E-3,7.548337E-3,-4.234585E-3],"categories":[],"categories_nodes":[],"categories_segments":[],"categories_sizes":[],"default_left":[0,0,0,0,0,0,0,0,0,0,0,0,0,0,0],"id":22,"left_children":[1,3,5,7,9,11,13,-1,-1,-1,-1,-1,-1,-1,-1],"loss_changes":[1.2478187E3,8.393469E2,7.5614087E2,6.7765063E2,4.8752893E2,2.4754565E2,5.679166E2,0E0,0E0,0E0,0E0,0E0,0E0,0E0,0E0],"parents":[2147483647,0,0,1,1,2,2,3,3,4,4,5,5,6,6],"right_children":[2,4,6,8,10,12,14,-1,-1,-1,-1,-1,-1,-1,-1],"split_conditions":[4.7E-1,1.02E2,1.15E2,9.6E1,1.08E2,1.08E2,1.22E2,4.26664E-3,-7.909802E-3,8.570732E-3,1.3287496E-3,-1.983122E-3,-8.65214E-3,7.548337E-3,-4.234585E-3],"split_indices":[3,26,26,13,13,13,13,0,0,0,0,0,0,0,0],"split_type":[0,0,0,0,0,0,0,0,0,0,0,0,0,0,0],"sum_hessian":[1.0307049E4,5.7441895E3,4.56286E3,1.8463912E3,3.8977983E3,2.9279211E3,1.6349385E3,8.2700476E2,1.01938654E3,2.3666372E3,1.5311611E3,7.482932E2,2.179628E3,8.0100836E2,8.339301E2],"tree_param":{"num_deleted":"0","num_feature":"27","num_nodes":"15","size_leaf_vector":"1"}},{"base_weights":[4.346955E-4,-3.096501E-1,3.9078313E-1,2.4565761E-1,-5.726955E-1,6.9489884E-1,-1.5393284E-1,-4.2666397E-3,7.909802E-3,-8.570731E-3,-1.3287499E-3,1.983122E-3,8.65214E-3,-7.548337E-3,4.234585E-3],"categories":[],"categories_nodes":[],"categories_segments":[],"categories_sizes":[],"default_left":[0,0,0,0,0,0,0,0,0,0,0,0,0,0,0],"id":23,"left_children":[1,3,5,7,9,11,13,-1,-1,-1,-1,-1,-1,-1,-1],"loss_changes":[1.2478187E3,8.3934705E2,7.5614087E2,6.7765063E2,4.875288E2,2.4754565E2,5.6791656E2,0E0,0E0,0E0,0E0,0E0,0E0,0E0,0E0],"parents":[2147483647,0,0,1,1,2,2,3,3,4,4,5,5,6,6],"right_children":[2,4,6,8,10,12,14,-1,-1,-1,-1,-1,-1,-1,-1],"split_conditions":[4.7E-1,1.02E2,1.15E2,9.6E1,1.08E2,1.08E2,1.22E2,-4.2666397E-3,7.909802E-3,-8.570731E-3,-1.3287499E-3,1.983122E-3,8.65214E-3,-7.548337E-3,4.234585E-3],"split_indices":[3,26,26,13,13,13,13,0,0,0,0,0,0,0,0],"split_type":[0,0,0,0,0,0,0,0,0,0,0,0,0,0,0],"sum_hessian":[1.030705E4,5.7441895E3,4.56286E3,1.8463914E3,3.8977983E3,2.9279211E3,1.6349386E3,8.2700476E2,1.01938654E3,2.3666372E3,1.5311611E3,7.482932E2,2.179628E3,8.0100836E2,8.339302E2],"tree_param":{"num_deleted":"0","num_feature":"27","num_nodes":"15","size_leaf_vector":"1"}},{"base_weights":[-4.3093128E-4,-3.2551417E-1,3.666732E-1,2.2882503E-1,-5.8917457E-1,6.556685E-1,-2.164259E-1,-4.9221534E-3,7.4460697E-3,-8.596424E-3,-1.4447168E-3,1.9395615E-3,8.538623E-3,-8.04022E-3,3.924623E-3],"categories":[],"categories_nodes":[],"categories_segments":[],"categories_sizes":[],"default_left":[0,0,0,0,0,0,0,0,0,0,0,0,0,0,0],"id":24,"left_children":[1,3,5,7,9,11,13,-1,-1,-1,-1,-1,-1,-1,-1],"loss_changes":[1.2291426E3,7.9850543E2,8.1526373E2,6.5542365E2,4.4514722E2,2.9581506E2,5.740841E2,0E0,0E0,0E0,0E0,0E0,0E0,0E0,0E0],"parents":[2147483647,0,0,1,1,2,2,3,3,4,4,5,5,6,6],"right_children":[2,4,6,8,10,12,14,-1,-1,-1,-1,-1,-1,-1,-1],"split_conditions":[4.66E-1,1.02E2,1.16E2,9.5E1,1.08E2,1.09E2,1.22E2,-4.9221534E-3,7.4460697E-3,-8.596424E-3,-1.4447168E-3,1.9395615E-3,8.538623E-3,-8.04022E-3,3.924623E-3],"split_indices":[16,13,13,26,26,26,26,0,0,0,0,0,0,0,0],"split_type":[0,0,0,0,0,0,0,0,0,0,0,0,0,0,0],"sum_hessian":[1.0297555E4,5.4614062E3,4.836148E3,1.7603816E3,3.7010244E3,3.2334585E3,1.6026896E3,7.3413666E2,1.0262449E3,2.3007673E3,1.4002572E3,9.717197E2,2.2617388E3,8.1544214E2,7.8724744E2],"tree_param":{"num_deleted":"0","num_feature":"27","num_nodes":"15","size_leaf_vector":"1"}},{"base_weights":[4.3094496E-4,3.2551417E-1,-3.6667317E-1,-2.2882502E-1,5.8917457E-1,-6.5566844E-1,2.164259E-1,4.9221534E-3,-7.4460697E-3,8.596423E-3,1.4447168E-3,-1.9395612E-3,-8.538623E-3,8.04022E-3,-3.924623E-3],"categories":[],"categories_nodes":[],"categories_segments":[],"categories_sizes":[],"default_left":[0,0,0,0,0,0,0,0,0,0,0,0,0,0,0],"id":25,"left_children":[1,3,5,7,9,11,13,-1,-1,-1,-1,-1,-1,-1,-1],"loss_changes":[1.2291423E3,7.985054E2,8.152635E2,6.5542365E2,4.4514722E2,2.958152E2,5.740841E2,0E0,0E0,0E0,0E0,0E0,0E0,0E0,0E0],"parents":[2147483647,0,0,1,1,2,2,3,3,4,4,5,5,6,6],"right_children":[2,4,6,8,10,12,14,-1,-1,-1,-1,-1,-1,-1,-1],"split_conditions":[4.66E-1,1.02E2,1.16E2,9.5E1,1.08E2,1.09E2,1.22E2,4.9221534E-3,-7.4460697E-3,8.596423E-3,1.4447168E-3,-1.9395612E-3,-8.538623E-3,8.04022E-3,-3.924623E-3],"split_indices":[16,13,13,26,26,26,26,0,0,0,0,0,0,0,0],"split_type":[0,0,0,0,0,0,0,0,0,0,0,0,0,0,0],"sum_hessian":[1.0297555E4,5.4614062E3,4.836148E3,1.7603815E3,3.7010247E3,3.2334585E3,1.6026896E3,7.3413666E2,1.0262449E3,2.3007673E3,1.4002572E3,9.717197E2,2.2617388E3,8.1544214E2,7.8724744E2],"tree_param":{"num_deleted":"0","num_feature":"27","num_nodes":"15","size_leaf_vector":"1"}},{"base_weights":[-4.2724016E-4,3.0530438E-1,-3.8533014E-1,-1.453971E-1,6.1979336E-1,-6.6677994E-1,1.8551435E-1,3.8295435E-3,-7.6753674E-3,8.546746E-3,9.820764E-4,-2.0054025E-3,-8.496352E-3,7.933475E-3,-3.8284601E-3],"categories":[],"categories_nodes":[],"categories_segments":[],"categories_sizes":[],"default_left":[0,0,0,0,0,0,0,0,0,0,0,0,0,0,0],"id":26,"left_children":[1,3,5,7,9,11,13,-1,-1,-1,-1,-1,-1,-1,-1],"loss_changes":[1.2109066E3,8.129515E2,7.3198706E2,7.7532306E2,4.1376343E2,2.5995752E2,5.202477E2,0E0,0E0,0E0,0E0,0E0,0E0,0E0,0E0],"parents":[2147483647,0,0,1,1,2,2,3,3,4,4,5,5,6,6],"right_children":[2,4,6,8,10,12,14,-1,-1,-1,-1,-1,-1,-1,-1],"split_conditions":[4.7E-1,1.05E2,1.16E2,9.9E1,1.11E2,1.09E2,1.22E2,3.8295435E-3,-7.6753674E-3,8.546746E-3,9.820764E-4,-2.0054025E-3,-8.496352E-3,7.933475E-3,-3.8284601E-3],"split_indices":[3,26,26,13,13,13,13,0,0,0,0,0,0,0,0],"split_type":[0,0,0,0,0,0,0,0,0,0,0,0,0,0,0],"sum_hessian":[1.0288089E4,5.73385E3,4.554239E3,2.3568013E3,3.3770488E3,3.0501975E3,1.504041E3,1.2746719E3,1.0821293E3,2.3280425E3,1.0490063E3,8.598558E2,2.1903418E3,7.2659155E2,7.7744946E2],"tree_param":{"num_deleted":"0","num_feature":"27","num_nodes":"15","size_leaf_vector":"1"}},{"base_weights":[4.272293E-4,-3.053044E-1,3.8533014E-1,1.4539708E-1,-6.197934E-1,6.6677994E-1,-1.8551432E-1,-3.8295432E-3,7.675367E-3,-8.546746E-3,-9.820762E-4,2.0054025E-3,8.496352E-3,-7.933475E-3,3.8284608E-3],"categories":[],"categories_nodes":[],"categories_segments":[],"categories_sizes":[],"default_left":[0,0,0,0,0,0,0,0,0,0,0,0,0,0,0],"id":27,"left_children":[1,3,5,7,9,11,13,-1,-1,-1,-1,-1,-1,-1,-1],"loss_changes":[1.2109066E3,8.129516E2,7.319869E2,7.753228E2,4.137633E2,2.5995752E2,5.202478E2,0E0,0E0,0E0,0E0,0E0,0E0,0E0,0E0],"parents":[2147483647,0,0,1,1,2,2,3,3,4,4,5,5,6,6],"right_children":[2,4,6,8,10,12,14,-1,-1,-1,-1,-1,-1,-1,-1],"split_conditions":[4.7E-1,1.05E2,1.16E2,9.9E1,1.11E2,1.09E2,1.22E2,-3.8295432E-3,7.675367E-3,-8.546746E-3,-9.820762E-4,2.0054025E-3,8.496352E-3,-7.933475E-3,3.8284608E-3],"split_indices":[3,26,26,13,13,13,13,0,0,0,0,0,0,0,0],"split_type":[0,0,0,0,0,0,0,0,0,0,0,0,0,0,0],"sum_hessian":[1.0288089E4,5.73385E3,4.554239E3,2.3568013E3,3.3770486E3,3.0501975E3,1.504041E3,1.2746719E3,1.0821293E3,2.3280425E3,1.0490062E3,8.598558E2,2.1903418E3,7.2659155E2,7.7744946E2],"tree_param":{"num_deleted":"0","num_feature":"27","num_nodes":"15","size_leaf_vector":"1"}},{"base_weights":[-4.2349743E-4,-3.2089892E-1,3.615324E-1,2.9630896E-1,-5.5025643E-1,6.849433E-1,-1.444316E-1,-4.128853E-3,8.153358E-3,-8.014389E-3,-1.0977872E-3,2.2120543E-3,8.651522E-3,-8.386698E-3,3.4270925E-3],"categories":[],"categories_nodes":[],"categories_segments":[],"categories_sizes":[],"default_left":[0,0,0,0,0,0,0,0,0,0,0,0,0,0,0],"id":28,"left_children":[1,3,5,7,9,11,13,-1,-1,-1,-1,-1,-1,-1,-1],"loss_changes":[1.1924238E3,7.719926E2,7.900324E2,5.443073E2,4.3975684E2,2.4593579E2,6.3719073E2,0E0,0E0,0E0,0E0,0E0,0E0,0E0,0E0],"parents":[2147483647,0,0,1,1,2,2,3,3,4,4,5,5,6,6],"right_children":[2,4,6,8,10,12,14,-1,-1,-1,-1,-1,-1,-1,-1],"split_conditions":[4.66E-1,1E2,1.14E2,9.5E1,1.08E2,1.08E2,1.19E2,-4.128853E-3,8.153358E-3,-8.014389E-3,-1.0977872E-3,2.2120543E-3,8.651522E-3,-8.386698E-3,3.4270925E-3],"split_indices":[16,13,13,26,26,26,26,0,0,0,0,0,0,0,0],"split_type":[0,0,0,0,0,0,0,0,0,0,0,0,0,0,0],"sum_hessian":[1.0277697E4,5.451265E3,4.826432E3,1.4768165E3,3.9744487E3,2.9441711E3,1.8822609E3,6.241657E2,8.5265076E2,2.5305708E3,1.4438779E3,8.245514E2,2.1196196E3,7.7585144E2,1.1064094E3],"tree_param":{"num_deleted":"0","num_feature":"27","num_nodes":"15","size_leaf_vector":"1"}},{"base_weights":[4.2349214E-4,3.2089892E-1,-3.615324E-1,-2.9630893E-1,5.5025643E-1,-6.849434E-1,1.444316E-1,4.128853E-3,-8.153357E-3,8.014389E-3,1.0977868E-3,-2.2120548E-3,-8.651522E-3,8.386698E-3,-3.427092E-3],"categories":[],"categories_nodes":[],"categories_segments":[],"categories_sizes":[],"default_left":[0,0,0,0,0,0,0,0,0,0,0,0,0,0,0],"id":29,"left_children":[1,3,5,7,9,11,13,-1,-1,-1,-1,-1,-1,-1,-1],"loss_changes":[1.192424E3,7.719927E2,7.9003253E2,5.4430725E2,4.3975684E2,2.4593555E2,6.3719073E2,0E0,0E0,0E0,0E0,0E0,0E0,0E0,0E0],"parents":[2147483647,0,0,1,1,2,2,3,3,4,4,5,5,6,6],"right_children":[2,4,6,8,10,12,14,-1,-1,-1,-1,-1,-1,-1,-1],"split_conditions":[4.66E-1,1E2,1.14E2,9.5E1,1.08E2,1.08E2,1.19E2,4.128853E-3,-8.153357E-3,8.014389E-3,1.0977868E-3,-2.2120548E-3,-8.651522E-3,8.386698E-3,-3.427092E-3],"split_indices":[16,13,13,26,26,26,26,0,0,0,0,0,0,0,0],"split_type":[0,0,0,0,0,0,0,0,0,0,0,0,0,0,0],"sum_hessian":[1.0277697E4,5.451265E3,4.826432E3,1.4768165E3,3.9744485E3,2.9441711E3,1.8822609E3,6.241657E2,8.526508E2,2.5305708E3,1.4438778E3,8.245514E2,2.1196199E3,7.7585144E2,1.1064094E3],"tree_param":{"num_deleted":"0","num_feature":"27","num_nodes":"15","size_leaf_vector":"1"}},{"base_weights":[-4.1949507E-4,3.011186E-1,-3.8009718E-1,-3.1059057E-1,5.265386E-1,-6.952652E-1,1.14535175E-1,4.002403E-3,-8.057519E-3,8.359954E-3,1.5562639E-3,-2.2554582E-3,-8.613896E-3,8.3261235E-3,-3.4210377E-3],"categories":[],"categories_nodes":[],"categories_segments":[],"categories_sizes":[],"default_left":[0,0,0,0,0,0,0,0,0,0,0,0,0,0,0],"id":30,"left_children":[1,3,5,7,9,11,13,-1,-1,-1,-1,-1,-1,-1,-1],"loss_changes":[1.1756656E3,7.893767E2,7.086917E2,5.430066E2,4.799563E2,2.1646777E2,5.806521E2,0E0,0E0,0E0,0E0,0E0,0E0,0E0,0E0],"parents":[2147483647,0,0,1,1,2,2,3,3,4,4,5,5,6,6],"right_children":[2,4,6,8,10,12,14,-1,-1,-1,-1,-1,-1,-1,-1],"split_conditions":[4.7E-1,1E2,1.14E2,9.5E1,1.06E2,1.08E2,1.19E2,4.002403E-3,-8.057519E-3,8.359954E-3,1.5562639E-3,-2.2554582E-3,-8.613896E-3,8.3261235E-3,-3.4210377E-3],"split_indices":[3,26,26,13,13,13,13,0,0,0,0,0,0,0,0],"split_type":[0,0,0,0,0,0,0,0,0,0,0,0,0,0,0],"sum_hessian":[1.0266963E4,5.722438E3,4.544525E3,1.5408215E3,4.1816167E3,2.7755835E3,1.7689414E3,6.3271564E2,9.0810596E2,2.27898E3,1.9026365E3,7.25782E2,2.0498015E3,6.873078E2,1.0816335E3],"tree_param":{"num_deleted":"0","num_feature":"27","num_nodes":"15","size_leaf_vector":"1"}},{"base_weights":[4.1950273E-4,-3.011186E-1,3.8009718E-1,3.105906E-1,-5.2653855E-1,6.952651E-1,-1.1453516E-1,-4.0024025E-3,8.057519E-3,-8.359954E-3,-1.556264E-3,2.2554584E-3,8.613896E-3,-8.3261235E-3,3.421038E-3],"categories":[],"categories_nodes":[],"categories_segments":[],"categories_sizes":[],"default_left":[0,0,0,0,0,0,0,0,0,0,0,0,0,0,0],"id":31,"left_children":[1,3,5,7,9,11,13,-1,-1,-1,-1,-1,-1,-1,-1],"loss_changes":[1.1756656E3,7.893768E2,7.086917E2,5.4300665E2,4.7995618E2,2.1646765E2,5.806522E2,0E0,0E0,0E0,0E0,0E0,0E0,0E0,0E0],"parents":[2147483647,0,0,1,1,2,2,3,3,4,4,5,5,6,6],"right_children":[2,4,6,8,10,12,14,-1,-1,-1,-1,-1,-1,-1,-1],"split_conditions":[4.7E-1,1E2,1.14E2,9.5E1,1.06E2,1.08E2,1.19E2,-4.0024025E-3,8.057519E-3,-8.359954E-3,-1.556264E-3,2.2554584E-3,8.613896E-3,-8.3261235E-3,3.421038E-3],"split_indices":[3,26,26,13,13,13,13,0,0,0,0,0,0,0,0],"split_type":[0,0,0,0,0,0,0,0,0,0,0,0,0,0,0],"sum_hessian":[1.0266963E4,5.722438E3,4.544525E3,1.5408217E3,4.1816167E3,2.7755835E3,1.7689413E3,6.327157E2,9.081059E2,2.27898E3,1.9026366E3,7.25782E2,2.0498015E3,6.873078E2,1.0816335E3],"tree_param":{"num_deleted":"0","num_feature":"27","num_nodes":"15","size_leaf_vector":"1"}},{"base_weights":[-4.1597948E-4,-3.165547E-1,3.5666674E-1,2.209941E-1,-5.725264E-1,6.373353E-1,-2.0851558E-1,-4.219032E-3,7.754637E-3,-8.365334E-3,-1.4054286E-3,1.8750107E-3,8.312457E-3,-7.850011E-3,3.864835E-3],"categories":[],"categories_nodes":[],"categories_segments":[],"categories_sizes":[],"default_left":[0,0,0,0,0,0,0,0,0,0,0,0,0,0,0],"id":32,"left_children":[1,3,5,7,9,11,13,-1,-1,-1,-1,-1,-1,-1,-1],"loss_changes":[1.1579762E3,7.487681E2,7.642418E2,6.2621387E2,4.2025952E2,2.806167E2,5.4881055E2,0E0,0E0,0E0,0E0,0E0,0E0,0E0,0E0],"parents":[2147483647,0,0,1,1,2,2,3,3,4,4,5,5,6,6],"right_children":[2,4,6,8,10,12,14,-1,-1,-1,-1,-1,-1,-1,-1],"split_conditions":[4.66E-1,1.02E2,1.16E2,9.6E1,1.08E2,1.09E2,1.22E2,-4.219032E-3,7.754637E-3,-8.365334E-3,-1.4054286E-3,1.8750107E-3,8.312457E-3,-7.850011E-3,3.864835E-3],"split_indices":[16,13,13,26,26,26,26,0,0,0,0,0,0,0,0],"split_type":[0,0,0,0,0,0,0,0,0,0,0,0,0,0,0],"sum_hessian":[1.0255774E4,5.439816E3,4.815959E3,1.7548053E3,3.6850105E3,3.2178518E3,1.5981072E3,8.1271564E2,9.4208966E2,2.2866106E3,1.3983999E3,9.698821E2,2.2479697E3,8.115193E2,7.865879E2],"tree_param":{"num_deleted":"0","num_feature":"27","num_nodes":"15","size_leaf_vector":"1"}},{"base_weights":[4.1597863E-4,3.165547E-1,-3.5666677E-1,-2.2099407E-1,5.7252645E-1,-6.373353E-1,2.085156E-1,4.219032E-3,-7.7546365E-3,8.365334E-3,1.4054291E-3,-1.875011E-3,-8.312457E-3,7.850011E-3,-3.8648348E-3],"categories":[],"categories_nodes":[],"categories_segments":[],"categories_sizes":[],"default_left":[0,0,0,0,0,0,0,0,0,0,0,0,0,0,0],"id":33,"left_children":[1,3,5,7,9,11,13,-1,-1,-1,-1,-1,-1,-1,-1],"loss_changes":[1.1579764E3,7.4876807E2,7.64242E2,6.262138E2,4.2025952E2,2.8061658E2,5.4881055E2,0E0,0E0,0E0,0E0,0E0,0E0,0E0,0E0],"parents":[2147483647,0,0,1,1,2,2,3,3,4,4,5,5,6,6],"right_children":[2,4,6,8,10,12,14,-1,-1,-1,-1,-1,-1,-1,-1],"split_conditions":[4.66E-1,1.02E2,1.16E2,9.6E1,1.08E2,1.09E2,1.22E2,4.219032E-3,-7.7546365E-3,8.365334E-3,1.4054291E-3,-1.875011E-3,-8.312457E-3,7.850011E-3,-3.8648348E-3],"split_indices":[16,13,13,26,26,26,26,0,0,0,0,0,0,0,0],"split_type":[0,0,0,0,0,0,0,0,0,0,0,0,0,0,0],"sum_hessian":[1.0255774E4,5.439816E3,4.815959E3,1.7548054E3,3.6850103E3,3.2178518E3,1.5981072E3,8.1271564E2,9.420897E2,2.2866106E3,1.3983999E3,9.69882E2,2.2479697E3,8.115193E2,7.865878E2],"tree_param":{"num_deleted":"0","num_feature":"27","num_nodes":"15","size_leaf_vector":"1"}},{"base_weights":[-4.1234557E-4,3.1452438E-1,-3.542256E-1,-2.8472626E-1,5.369979E-1,-6.2986344E-1,2.0749775E-1,4.04648E-3,-7.937769E-3,8.275465E-3,1.675952E-3,-1.7256349E-3,-8.2587255E-3,7.827156E-3,-3.6977236E-3],"categories":[],"categories_nodes":[],"categories_segments":[],"categories_sizes":[],"default_left":[0,0,0,0,0,0,0,0,0,0,0,0,0,0,0],"id":34,"left_children":[1,3,5,7,9,11,13,-1,-1,-1,-1,-1,-1,-1,-1],"loss_changes":[1.1416765E3,7.228278E2,7.472096E2,5.1557104E2,4.2418323E2,2.900094E2,5.2794226E2,0E0,0E0,0E0,0E0,0E0,0E0,0E0,0E0],"parents":[2147483647,0,0,1,1,2,2,3,3,4,4,5,5,6,6],"right_children":[2,4,6,8,10,12,14,-1,-1,-1,-1,-1,-1,-1,-1],"split_conditions":[4.66E-1,1E2,1.16E2,9.5E1,1.06E2,1.09E2,1.22E2,4.04648E-3,-7.937769E-3,8.275465E-3,1.675952E-3,-1.7256349E-3,-8.2587255E-3,7.827156E-3,-3.6977236E-3],"split_indices":[3,26,26,13,13,13,13,0,0,0,0,0,0,0,0],"split_type":[0,0,0,0,0,0,0,0,0,0,0,0,0,0,0],"sum_hessian":[1.0243796E4,5.4197085E3,4.8240874E3,1.4672559E3,3.952453E3,3.23604E3,1.5880474E3,6.233282E2,8.439277E2,2.2116611E3,1.7407917E3,9.714573E2,2.2645828E3,7.9525934E2,7.9278796E2],"tree_param":{"num_deleted":"0","num_feature":"27","num_nodes":"15","size_leaf_vector":"1"}},{"base_weights":[4.1234467E-4,-3.1452438E-1,3.542256E-1,2.8472626E-1,-5.369979E-1,6.2986344E-1,-2.0749775E-1,-4.04648E-3,7.937769E-3,-8.275465E-3,-1.6759519E-3,1.7256349E-3,8.2587255E-3,-7.827156E-3,3.6977236E-3],"categories":[],"categories_nodes":[],"categories_segments":[],"categories_sizes":[],"default_left":[0,0,0,0,0,0,0,0,0,0,0,0,0,0,0],"id":35,"left_children":[1,3,5,7,9,11,13,-1,-1,-1,-1,-1,-1,-1,-1],"loss_changes":[1.1416766E3,7.228278E2,7.4720953E2,5.1557104E2,4.2418335E2,2.900094E2,5.2794226E2,0E0,0E0,0E0,0E0,0E0,0E0,0E0,0E0],"parents":[2147483647,0,0,1,1,2,2,3,3,4,4,5,5,6,6],"right_children":[2,4,6,8,10,12,14,-1,-1,-1,-1,-1,-1,-1,-1],"split_conditions":[4.66E-1,1E2,1.16E2,9.5E1,1.06E2,1.09E2,1.22E2,-4.04648E-3,7.937769E-3,-8.275465E-3,-1.6759519E-3,1.7256349E-3,8.2587255E-3,-7.827156E-3,3.6977236E-3],"split_indices":[3,26,26,13,13,13,13,0,0,0,0,0,0,0,0],"split_type":[0,0,0,0,0,0,0,0,0,0,0,0,0,0,0],"sum_hessian":[1.0243796E4,5.419709E3,4.8240874E3,1.4672559E3,3.952453E3,3.23604E3,1.5880474E3,6.233282E2,8.439277E2,2.2116611E3,1.7407917E3,9.714573E2,2.2645828E3,7.9525934E2,7.9278796E2],"tree_param":{"num_deleted":"0","num_feature":"27","num_nodes":"15","size_leaf_vector":"1"}},{"base_weights":[-4.088458E-4,-3.1239182E-1,3.5200378E-1,2.5140506E-1,-5.491925E-1,6.665247E-1,-1.3896364E-1,-4.406579E-3,7.511784E-3,-8.020381E-3,-1.21264E-3,2.130862E-3,8.4361555E-3,-8.194095E-3,3.3639073E-3],"categories":[],"categories_nodes":[],"categories_segments":[],"categories_sizes":[],"default_left":[0,0,0,0,0,0,0,0,0,0,0,0,0,0,0],"id":36,"left_children":[1,3,5,7,9,11,13,-1,-1,-1,-1,-1,-1,-1,-1],"loss_changes":[1.1251177E3,7.2481726E2,7.421236E2,5.5586816E2,4.1353198E2,2.3502869E2,6.0744904E2,0E0,0E0,0E0,0E0,0E0,0E0,0E0,0E0],"parents":[2147483647,0,0,1,1,2,2,3,3,4,4,5,5,6,6],"right_children":[2,4,6,8,10,12,14,-1,-1,-1,-1,-1,-1,-1,-1],"split_conditions":[4.66E-1,1.01E2,1.14E2,9.5E1,1.08E2,1.08E2,1.19E2,-4.406579E-3,7.511784E-3,-8.020381E-3,-1.21264E-3,2.130862E-3,8.4361555E-3,-8.194095E-3,3.3639073E-3],"split_indices":[16,13,13,26,26,26,26,0,0,0,0,0,0,0,0],"split_type":[0,0,0,0,0,0,0,0,0,0,0,0,0,0,0],"sum_hessian":[1.0231297E4,5.4270054E3,4.804292E3,1.6051809E3,3.8218242E3,2.9281309E3,1.8761611E3,6.7315094E2,9.3202997E2,2.4018147E3,1.4200098E3,8.230151E2,2.1051157E3,7.7132465E2,1.1048364E3],"tree_param":{"num_deleted":"0","num_feature":"27","num_nodes":"15","size_leaf_vector":"1"}},{"base_weights":[4.0885145E-4,3.1239182E-1,-3.5200378E-1,-2.514051E-1,5.491925E-1,-6.665247E-1,1.3896364E-1,4.4065784E-3,-7.511784E-3,8.020381E-3,1.2126402E-3,-2.1308623E-3,-8.4361555E-3,8.194096E-3,-3.3639073E-3],"categories":[],"categories_nodes":[],"categories_segments":[],"categories_sizes":[],"default_left":[0,0,0,0,0,0,0,0,0,0,0,0,0,0,0],"id":37,"left_children":[1,3,5,7,9,11,13,-1,-1,-1,-1,-1,-1,-1,-1],"loss_changes":[1.1251177E3,7.248176E2,7.421236E2,5.558682E2,4.1353174E2,2.3502893E2,6.0744904E2,0E0,0E0,0E0,0E0,0E0,0E0,0E0,0E0],"parents":[2147483647,0,0,1,1,2,2,3,3,4,4,5,5,6,6],"right_children":[2,4,6,8,10,12,14,-1,-1,-1,-1,-1,-1,-1,-1],"split_conditions":[4.66E-1,1.01E2,1.14E2,9.5E1,1.08E2,1.08E2,1.19E2,4.4065784E-3,-7.511784E-3,8.020381E-3,1.2126402E-3,-2.1308623E-3,-8.4361555E-3,8.194096E-3,-3.3639073E-3],"split_indices":[16,13,13,26,26,26,26,0,0,0,0,0,0,0,0],"split_type":[0,0,0,0,0,0,0,0,0,0,0,0,0,0,0],"sum_hessian":[1.0231297E4,5.4270054E3,4.804292E3,1.6051809E3,3.8218242E3,2.9281306E3,1.8761611E3,6.7315094E2,9.3202997E2,2.4018145E3,1.4200096E3,8.230151E2,2.1051155E3,7.7132465E2,1.1048364E3],"tree_param":{"num_deleted":"0","num_feature":"27","num_nodes":"15","size_leaf_vector":"1"}},{"base_weights":[-4.0531327E-4,2.9309198E-1,-3.7012097E-1,-1.3971917E-1,5.955892E-1,-6.7670226E-1,1.0965172E-1,3.6983218E-3,-7.4197776E-3,8.242309E-3,9.198924E-4,-2.1852178E-3,-8.397003E-3,8.135886E-3,-3.360558E-3],"categories":[],"categories_nodes":[],"categories_segments":[],"categories_sizes":[],"default_left":[0,0,0,0,0,0,0,0,0,0,0,0,0,0,0],"id":38,"left_children":[1,3,5,7,9,11,13,-1,-1,-1,-1,-1,-1,-1,-1],"loss_changes":[1.1089901E3,7.460001E2,6.6532886E2,7.1979553E2,3.8608264E2,2.059104E2,5.5378906E2,0E0,0E0,0E0,0E0,0E0,0E0,0E0,0E0],"parents":[2147483647,0,0,1,1,2,2,3,3,4,4,5,5,6,6],"right_children":[2,4,6,8,10,12,14,-1,-1,-1,-1,-1,-1,-1,-1],"split_conditions":[4.7E-1,1.05E2,1.14E2,9.9E1,1.11E2,1.08E2,1.19E2,3.6983218E-3,-7.4197776E-3,8.242309E-3,9.198924E-4,-2.1852178E-3,-8.397003E-3,8.135886E-3,-3.360558E-3],"split_indices":[3,26,26,13,13,13,13,0,0,0,0,0,0,0,0],"split_type":[0,0,0,0,0,0,0,0,0,0,0,0,0,0,0],"sum_hessian":[1.0218114E4,5.6963203E3,4.5217935E3,2.3436208E3,3.3526997E3,2.7586E3,1.7631934E3,1.2697297E3,1.073891E3,2.3053845E3,1.0473151E3,7.244744E2,2.0341257E3,6.832554E2,1.079938E3],"tree_param":{"num_deleted":"0","num_feature":"27","num_nodes":"15","size_leaf_vector":"1"}},{"base_weights":[4.0531243E-4,-2.9309195E-1,3.7012097E-1,1.3971917E-1,-5.955892E-1,6.767022E-1,-1.0965172E-1,-3.698322E-3,7.419778E-3,-8.242309E-3,-9.198924E-4,2.1852176E-3,8.397003E-3,-8.135886E-3,3.360558E-3],"categories":[],"categories_nodes":[],"categories_segments":[],"categories_sizes":[],"default_left":[0,0,0,0,0,0,0,0,0,0,0,0,0,0,0],"id":39,"left_children":[1,3,5,7,9,11,13,-1,-1,-1,-1,-1,-1,-1,-1],"loss_changes":[1.10899E3,7.460001E2,6.653288E2,7.1979565E2,3.8608252E2,2.059104E2,5.53789E2,0E0,0E0,0E0,0E0,0E0,0E0,0E0,0E0],"parents":[2147483647,0,0,1,1,2,2,3,3,4,4,5,5,6,6],"right_children":[2,4,6,8,10,12,14,-1,-1,-1,-1,-1,-1,-1,-1],"split_conditions":[4.7E-1,1.05E2,1.14E2,9.9E1,1.11E2,1.08E2,1.19E2,-3.698322E-3,7.419778E-3,-8.242309E-3,-9.198924E-4,2.1852176E-3,8.397003E-3,-8.135886E-3,3.360558E-3],"split_indices":[3,26,26,13,13,13,13,0,0,0,0,0,0,0,0],"split_type":[0,0,0,0,0,0,0,0,0,0,0,0,0,0,0],"sum_hessian":[1.0218114E4,5.6963203E3,4.5217935E3,2.3436208E3,3.3526997E3,2.7586E3,1.7631934E3,1.2697297E3,1.0738911E3,2.3053845E3,1.0473151E3,7.244744E2,2.0341257E3,6.832554E2,1.079938E3],"tree_param":{"num_deleted":"0","num_feature":"27","num_nodes":"15","size_leaf_vector":"1"}},{"base_weights":[-4.0189712E-4,-3.0813724E-1,3.472834E-1,1.5052274E-1,-5.910331E-1,6.3740784E-1,-1.6868754E-1,-4.7525894E-3,6.669287E-3,-8.190824E-3,-1.1534542E-3,1.7372585E-3,8.151841E-3,-7.2423737E-3,4.150358E-3],"categories":[],"categories_nodes":[],"categories_segments":[],"categories_sizes":[],"default_left":[0,0,0,0,0,0,0,0,0,0,0,0,0,0,0],"id":40,"left_children":[1,3,5,7,9,11,13,-1,-1,-1,-1,-1,-1,-1,-1],"loss_changes":[1.0920374E3,7.0260693E2,7.174733E2,6.6805225E2,3.6320422E2,2.5272632E2,5.598754E2,0E0,0E0,0E0,0E0,0E0,0E0,0E0,0E0],"parents":[2147483647,0,0,1,1,2,2,3,3,4,4,5,5,6,6],"right_children":[2,4,6,8,10,12,14,-1,-1,-1,-1,-1,-1,-1,-1],"split_conditions":[4.66E-1,1.04E2,1.15E2,9.6E1,1.1E2,1.08E2,1.22E2,-4.7525894E-3,6.669287E-3,-8.190824E-3,-1.1534542E-3,1.7372585E-3,8.151841E-3,-7.2423737E-3,4.150358E-3],"split_indices":[16,13,13,26,26,26,26,0,0,0,0,0,0,0,0],"split_type":[0,0,0,0,0,0,0,0,0,0,0,0,0,0,0],"sum_hessian":[1.0204429E4,5.4132705E3,4.791158E3,2.065285E3,3.3479856E3,3.0666062E3,1.7245521E3,9.3379285E2,1.1314922E3,2.2625671E3,1.0854183E3,8.5043933E2,2.2161667E3,8.834763E2,8.4107587E2],"tree_param":{"num_deleted":"0","num_feature":"27","num_nodes":"15","size_leaf_vector":"1"}},{"base_weights":[4.0188103E-4,3.0813724E-1,-3.472834E-1,-1.5052277E-1,5.910331E-1,-6.374078E-1,1.6868751E-1,4.7525894E-3,-6.669287E-3,8.190824E-3,1.1534537E-3,-1.7372585E-3,-8.15184E-3,7.242373E-3,-4.1503585E-3],"categories":[],"categories_nodes":[],"categories_segments":[],"categories_sizes":[],"default_left":[0,0,0,0,0,0,0,0,0,0,0,0,0,0,0],"id":41,"left_children":[1,3,5,7,9,11,13,-1,-1,-1,-1,-1,-1,-1,-1],"loss_changes":[1.0920374E3,7.026068E2,7.174733E2,6.6805225E2,3.6320435E2,2.527262E2,5.5987537E2,0E0,0E0,0E0,0E0,0E0,0E0,0E0,0E0],"parents":[2147483647,0,0,1,1,2,2,3,3,4,4,5,5,6,6],"right_children":[2,4,6,8,10,12,14,-1,-1,-1,-1,-1,-1,-1,-1],"split_conditions":[4.66E-1,1.04E2,1.15E2,9.6E1,1.1E2,1.08E2,1.22E2,4.7525894E-3,-6.669287E-3,8.190824E-3,1.1534537E-3,-1.7372585E-3,-8.15184E-3,7.242373E-3,-4.1503585E-3],"split_indices":[16,13,13,26,26,26,26,0,0,0,0,0,0,0,0],"split_type":[0,0,0,0,0,0,0,0,0,0,0,0,0,0,0],"sum_hessian":[1.0204429E4,5.4132705E3,4.791158E3,2.0652852E3,3.3479856E3,3.0666062E3,1.7245521E3,9.3379285E2,1.1314922E3,2.2625671E3,1.0854183E3,8.5043933E2,2.2161667E3,8.834763E2,8.4107587E2],"tree_param":{"num_deleted":"0","num_feature":"27","num_nodes":"15","size_leaf_vector":"1"}},{"base_weights":[-3.9855047E-4,3.061975E-1,-3.4496665E-1,-2.768608E-1,5.229455E-1,-6.498127E-1,1.3482238E-1,5.0719073E-3,-7.093817E-3,7.664602E-3,1.0027074E-3,-1.9282737E-3,-8.27628E-3,8.046462E-3,-3.2261752E-3],"categories":[],"categories_nodes":[],"categories_segments":[],"categories_sizes":[],"default_left":[0,0,0,0,0,0,0,0,0,0,0,0,0,0,0],"id":42,"left_children":[1,3,5,7,9,11,13,-1,-1,-1,-1,-1,-1,-1,-1],"loss_changes":[1.0767628E3,6.817457E2,7.0200397E2,4.9624295E2,4.0464807E2,2.3831055E2,5.7181036E2,0E0,0E0,0E0,0E0,0E0,0E0,0E0,0E0],"parents":[2147483647,0,0,1,1,2,2,3,3,4,4,5,5,6,6],"right_children":[2,4,6,8,10,12,14,-1,-1,-1,-1,-1,-1,-1,-1],"split_conditions":[4.66E-1,1E2,1.14E2,9.3E1,1.08E2,1.08E2,1.19E2,5.0719073E-3,-7.093817E-3,7.664602E-3,1.0027074E-3,-1.9282737E-3,-8.27628E-3,8.046462E-3,-3.2261752E-3],"split_indices":[3,26,26,13,13,13,13,0,0,0,0,0,0,0,0],"split_type":[0,0,0,0,0,0,0,0,0,0,0,0,0,0,0],"sum_hessian":[1.0190447E4,5.392406E3,4.7980415E3,1.4612701E3,3.9311357E3,2.933692E3,1.8643494E3,5.1945544E2,9.4181464E2,2.493657E3,1.4374786E3,8.223465E2,2.1113455E3,7.5623883E2,1.1081106E3],"tree_param":{"num_deleted":"0","num_feature":"27","num_nodes":"15","size_leaf_vector":"1"}},{"base_weights":[3.9854893E-4,-3.061975E-1,3.4496665E-1,2.768608E-1,-5.229455E-1,6.498127E-1,-1.3482238E-1,-5.0719073E-3,7.0938175E-3,-7.664602E-3,-1.0027074E-3,1.9282738E-3,8.276281E-3,-8.046462E-3,3.2261752E-3],"categories":[],"categories_nodes":[],"categories_segments":[],"categories_sizes":[],"default_left":[0,0,0,0,0,0,0,0,0,0,0,0,0,0,0],"id":43,"left_children":[1,3,5,7,9,11,13,-1,-1,-1,-1,-1,-1,-1,-1],"loss_changes":[1.076763E3,6.817457E2,7.02004E2,4.9624298E2,4.0464807E2,2.3831055E2,5.718104E2,0E0,0E0,0E0,0E0,0E0,0E0,0E0,0E0],"parents":[2147483647,0,0,1,1,2,2,3,3,4,4,5,5,6,6],"right_children":[2,4,6,8,10,12,14,-1,-1,-1,-1,-1,-1,-1,-1],"split_conditions":[4.66E-1,1E2,1.14E2,9.3E1,1.08E2,1.08E2,1.19E2,-5.0719073E-3,7.0938175E-3,-7.664602E-3,-1.0027074E-3,1.9282738E-3,8.276281E-3,-8.046462E-3,3.2261752E-3],"split_indices":[3,26,26,13,13,13,13,0,0,0,0,0,0,0,0],"split_type":[0,0,0,0,0,0,0,0,0,0,0,0,0,0,0],"sum_hessian":[1.0190447E4,5.392406E3,4.798041E3,1.4612701E3,3.9311357E3,2.9336917E3,1.8643494E3,5.194555E2,9.4181464E2,2.493657E3,1.4374786E3,8.223465E2,2.1113452E3,7.562388E2,1.1081106E3],"tree_param":{"num_deleted":"0","num_feature":"27","num_nodes":"15","size_leaf_vector":"1"}},{"base_weights":[-3.9508782E-4,-2.872494E-1,3.6317703E-1,1.4390759E-1,-5.8808255E-1,6.487558E-1,-1.3986215E-1,-3.5920187E-3,7.355471E-3,-7.94354E-3,-4.989196E-4,1.9203587E-3,8.097738E-3,-7.113365E-3,4.1791457E-3],"categories":[],"categories_nodes":[],"categories_segments":[],"categories_sizes":[],"default_left":[0,0,0,0,0,0,0,0,0,0,0,0,0,0,0],"id":44,"left_children":[1,3,5,7,9,11,13,-1,-1,-1,-1,-1,-1,-1,-1],"loss_changes":[1.0614984E3,7.3802435E2,6.449402E2,6.964883E2,3.720011E2,2.1042444E2,5.186994E2,0E0,0E0,0E0,0E0,0E0,0E0,0E0,0E0],"parents":[2147483647,0,0,1,1,2,2,3,3,4,4,5,5,6,6],"right_children":[2,4,6,8,10,12,14,-1,-1,-1,-1,-1,-1,-1,-1],"split_conditions":[4.7E-1,1.05E2,1.15E2,9.9E1,1.12E2,1.08E2,1.22E2,-3.5920187E-3,7.355471E-3,-7.94354E-3,-4.989196E-4,1.9203587E-3,8.097738E-3,-7.113365E-3,4.1791457E-3],"split_indices":[16,13,13,26,26,26,26,0,0,0,0,0,0,0,0],"split_type":[0,0,0,0,0,0,0,0,0,0,0,0,0,0,0],"sum_hessian":[1.0176115E4,5.6883115E3,4.4878037E3,2.3379956E3,3.350316E3,2.8624702E3,1.6253335E3,1.2637445E3,1.074251E3,2.4216848E3,9.2863116E2,7.466958E2,2.1157744E3,8.026733E2,8.226602E2],"tree_param":{"num_deleted":"0","num_feature":"27","num_nodes":"15","size_leaf_vector":"1"}},{"base_weights":[3.9507615E-4,2.8724936E-1,-3.6317703E-1,-1.439076E-1,5.8808255E-1,-6.487558E-1,1.3986215E-1,3.5920185E-3,-7.3554716E-3,7.94354E-3,4.9891917E-4,-1.9203587E-3,-8.097738E-3,7.113365E-3,-4.1791457E-3],"categories":[],"categories_nodes":[],"categories_segments":[],"categories_sizes":[],"default_left":[0,0,0,0,0,0,0,0,0,0,0,0,0,0,0],"id":45,"left_children":[1,3,5,7,9,11,13,-1,-1,-1,-1,-1,-1,-1,-1],"loss_changes":[1.0614983E3,7.380243E2,6.449402E2,6.9648834E2,3.7200122E2,2.1042444E2,5.186994E2,0E0,0E0,0E0,0E0,0E0,0E0,0E0,0E0],"parents":[2147483647,0,0,1,1,2,2,3,3,4,4,5,5,6,6],"right_children":[2,4,6,8,10,12,14,-1,-1,-1,-1,-1,-1,-1,-1],"split_conditions":[4.7E-1,1.05E2,1.15E2,9.9E1,1.12E2,1.08E2,1.22E2,3.5920185E-3,-7.3554716E-3,7.94354E-3,4.9891917E-4,-1.9203587E-3,-8.097738E-3,7.113365E-3,-4.1791457E-3],"split_indices":[16,13,13,26,26,26,26,0,0,0,0,0,0,0,0],"split_type":[0,0,0,0,0,0,0,0,0,0,0,0,0,0,0],"sum_hessian":[1.0176115E4,5.6883115E3,4.4878037E3,2.3379956E3,3.350316E3,2.8624702E3,1.6253335E3,1.2637445E3,1.074251E3,2.4216848E3,9.2863116E2,7.466958E2,2.1157744E3,8.026733E2,8.226602E2],"tree_param":{"num_deleted":"0","num_feature":"27","num_nodes":"15","size_leaf_vector":"1"}},{"base_weights":[-3.91336E-4,2.8528237E-1,-3.6049992E-1,-1.583107E-1,5.658099E-1,-6.2328315E-1,1.6861024E-1,3.9031517E-3,-3.726537E-3,6.8018036E-3,1.5116873E-3,-1.8490407E-3,-7.9771E-3,7.5074523E-3,-3.691469E-3],"categories":[],"categories_nodes":[],"categories_segments":[],"categories_sizes":[],"default_left":[0,0,0,0,0,0,0,0,0,0,0,0,0,0,0],"id":46,"left_children":[1,3,5,7,9,11,13,-1,-1,-1,-1,-1,-1,-1,-1],"loss_changes":[1.0455381E3,7.053407E2,6.2522595E2,2.5842398E2,1.6455078E2,2.2956982E2,4.6757104E2,0E0,0E0,0E0,0E0,0E0,0E0,0E0,0E0],"parents":[2147483647,0,0,1,1,2,2,3,3,4,4,5,5,6,6],"right_children":[2,4,6,8,10,12,14,-1,-1,-1,-1,-1,-1,-1,-1],"split_conditions":[4.7E-1,4.43E-1,1.16E2,9.5E1,1.12E2,1.09E2,1.22E2,3.9031517E-3,-3.726537E-3,6.8018036E-3,1.5116873E-3,-1.8490407E-3,-7.9771E-3,7.5074523E-3,-3.691469E-3],"split_indices":[3,16,26,13,13,13,13,0,0,0,0,0,0,0,0],"split_type":[0,0,0,0,0,0,0,0,0,0,0,0,0,0,0],"sum_hessian":[1.0161333E4,5.666396E3,4.494937E3,2.1953557E3,3.47104E3,3.0032107E3,1.4917263E3,6.165169E2,1.5788389E3,2.7201113E3,7.509288E2,8.554098E2,2.147801E3,7.161167E2,7.7560956E2],"tree_param":{"num_deleted":"0","num_feature":"27","num_nodes":"15","size_leaf_vector":"1"}},{"base_weights":[3.9131683E-4,-2.8528237E-1,3.604999E-1,1.5831068E-1,-5.658099E-1,6.232831E-1,-1.6861026E-1,-3.9031517E-3,3.726537E-3,-6.8018036E-3,-1.5116873E-3,1.8490405E-3,7.9771E-3,-7.5074523E-3,3.6914689E-3],"categories":[],"categories_nodes":[],"categories_segments":[],"categories_sizes":[],"default_left":[0,0,0,0,0,0,0,0,0,0,0,0,0,0,0],"id":47,"left_children":[1,3,5,7,9,11,13,-1,-1,-1,-1,-1,-1,-1,-1],"loss_changes":[1.045538E3,7.053407E2,6.252259E2,2.58424E2,1.6455078E2,2.295697E2,4.6757098E2,0E0,0E0,0E0,0E0,0E0,0E0,0E0,0E0],"parents":[2147483647,0,0,1,1,2,2,3,3,4,4,5,5,6,6],"right_children":[2,4,6,8,10,12,14,-1,-1,-1,-1,-1,-1,-1,-1],"split_conditions":[4.7E-1,4.43E-1,1.16E2,9.5E1,1.12E2,1.09E2,1.22E2,-3.9031517E-3,3.726537E-3,-6.8018036E-3,-1.5116873E-3,1.8490405E-3,7.9771E-3,-7.5074523E-3,3.6914689E-3],"split_indices":[3,16,26,13,13,13,13,0,0,0,0,0,0,0,0],"split_type":[0,0,0,0,0,0,0,0,0,0,0,0,0,0,0],"sum_hessian":[1.0161333E4,5.666396E3,4.494937E3,2.1953557E3,3.47104E3,3.0032107E3,1.4917263E3,6.165169E2,1.5788389E3,2.7201113E3,7.509288E2,8.554097E2,2.147801E3,7.1611676E2,7.7560956E2],"tree_param":{"num_deleted":"0","num_feature":"27","num_nodes":"15","size_leaf_vector":"1"}},{"base_weights":[-3.8783372E-4,-2.8317556E-1,3.5824805E-1,2.3260735E-1,-5.2834475E-1,6.398797E-1,-1.3705151E-1,-3.9965324E-3,7.467479E-3,-7.97541E-3,-1.1834058E-3,1.8716383E-3,8.0005E-3,-7.027775E-3,4.1374797E-3],"categories":[],"categories_nodes":[],"categories_segments":[],"categories_sizes":[],"default_left":[0,0,0,0,0,0,0,0,0,0,0,0,0,0,0],"id":48,"left_children":[1,3,5,7,9,11,13,-1,-1,-1,-1,-1,-1,-1,-1],"loss_changes":[1.0293606E3,7.177436E2,6.242801E2,5.948828E2,4.2448938E2,2.0671619E2,5.0598502E2,0E0,0E0,0E0,0E0,0E0,0E0,0E0,0E0],"parents":[2147483647,0,0,1,1,2,2,3,3,4,4,5,5,6,6],"right_children":[2,4,6,8,10,12,14,-1,-1,-1,-1,-1,-1,-1,-1],"split_conditions":[4.7E-1,1.02E2,1.15E2,9.6E1,1.08E2,1.08E2,1.22E2,-3.9965324E-3,7.467479E-3,-7.97541E-3,-1.1834058E-3,1.8716383E-3,8.0005E-3,-7.027775E-3,4.1374797E-3],"split_indices":[16,13,13,26,26,26,26,0,0,0,0,0,0,0,0],"split_type":[0,0,0,0,0,0,0,0,0,0,0,0,0,0,0],"sum_hessian":[1.0147702E4,5.67395E3,4.473752E3,1.8280919E3,3.8458582E3,2.8518647E3,1.6218871E3,8.199666E2,1.0081253E3,2.3210093E3,1.524849E3,7.458665E2,2.105998E3,7.999661E2,8.219209E2],"tree_param":{"num_deleted":"0","num_feature":"27","num_nodes":"15","size_leaf_vector":"1"}},{"base_weights":[3.878618E-4,2.8317556E-1,-3.5824803E-1,-2.3260736E-1,5.283448E-1,-6.398797E-1,1.3705157E-1,3.9965324E-3,-7.467479E-3,7.97541E-3,1.1834059E-3,-1.8716382E-3,-8.0005E-3,7.027775E-3,-4.1374792E-3],"categories":[],"categories_nodes":[],"categories_segments":[],"categories_sizes":[],"default_left":[0,0,0,0,0,0,0,0,0,0,0,0,0,0,0],"id":49,"left_children":[1,3,5,7,9,11,13,-1,-1,-1,-1,-1,-1,-1,-1],"loss_changes":[1.0293607E3,7.1774365E2,6.2427997E2,5.948828E2,4.2448938E2,2.0671606E2,5.05985E2,0E0,0E0,0E0,0E0,0E0,0E0,0E0,0E0],"parents":[2147483647,0,0,1,1,2,2,3,3,4,4,5,5,6,6],"right_children":[2,4,6,8,10,12,14,-1,-1,-1,-1,-1,-1,-1,-1],"split_conditions":[4.7E-1,1.02E2,1.15E2,9.6E1,1.08E2,1.08E2,1.22E2,3.9965324E-3,-7.467479E-3,7.97541E-3,1.1834059E-3,-1.8716382E-3,-8.0005E-3,7.027775E-3,-4.1374792E-3],"split_indices":[16,13,13,26,26,26,26,0,0,0,0,0,0,0,0],"split_type":[0,0,0,0,0,0,0,0,0,0,0,0,0,0,0],"sum_hessian":[1.0147702E4,5.67395E3,4.4737515E3,1.8280919E3,3.8458582E3,2.8518645E3,1.621887E3,8.199666E2,1.00812537E3,2.3210093E3,1.524849E3,7.458665E2,2.105998E3,7.999661E2,8.2192084E2],"tree_param":{"num_deleted":"0","num_feature":"27","num_nodes":"15","size_leaf_vector":"1"}},{"base_weights":[-3.8433765E-4,2.9822162E-1,-3.3626562E-1,-2.3532814E-1,5.239349E-1,-5.977353E-1,1.933801E-1,4.2985654E-3,-7.1937134E-3,7.6912534E-3,1.136263E-3,-1.6203636E-3,-7.868424E-3,7.4983668E-3,-3.5904914E-3],"categories":[],"categories_nodes":[],"categories_segments":[],"categories_sizes":[],"default_left":[0,0,0,0,0,0,0,0,0,0,0,0,0,0,0],"id":50,"left_children":[1,3,5,7,9,11,13,-1,-1,-1,-1,-1,-1,-1,-1],"loss_changes":[1.01635785E3,6.4616016E2,6.6057263E2,5.1400323E2,3.7919092E2,2.6296667E2,4.8503882E2,0E0,0E0,0E0,0E0,0E0,0E0,0E0,0E0],"parents":[2147483647,0,0,1,1,2,2,3,3,4,4,5,5,6,6],"right_children":[2,4,6,8,10,12,14,-1,-1,-1,-1,-1,-1,-1,-1],"split_conditions":[4.66E-1,1.01E2,1.16E2,9.5E1,1.08E2,1.09E2,1.22E2,4.2985654E-3,-7.1937134E-3,7.6912534E-3,1.136263E-3,-1.6203636E-3,-7.868424E-3,7.4983668E-3,-3.5904914E-3],"split_indices":[3,26,26,13,13,13,13,0,0,0,0,0,0,0,0],"split_type":[0,0,0,0,0,0,0,0,0,0,0,0,0,0,0],"sum_hessian":[1.0131567E4,5.3634517E3,4.7681157E3,1.5944313E3,3.7690205E3,3.1921313E3,1.5759846E3,6.716055E2,9.2282574E2,2.358665E3,1.4103553E3,9.667095E2,2.2254219E3,7.849524E2,7.910322E2],"tree_param":{"num_deleted":"0","num_feature":"27","num_nodes":"15","size_leaf_vector":"1"}},{"base_weights":[3.8435054E-4,-2.9822162E-1,3.3626565E-1,2.3532815E-1,-5.239349E-1,5.977353E-1,-1.9338013E-1,-4.2985654E-3,7.1937134E-3,-7.6912534E-3,-1.1362634E-3,1.6203636E-3,7.868424E-3,-7.498367E-3,3.5904911E-3],"categories":[],"categories_nodes":[],"categories_segments":[],"categories_sizes":[],"default_left":[0,0,0,0,0,0,0,0,0,0,0,0,0,0,0],"id":51,"left_children":[1,3,5,7,9,11,13,-1,-1,-1,-1,-1,-1,-1,-1],"loss_changes":[1.01635785E3,6.461603E2,6.605728E2,5.1400323E2,3.791908E2,2.6296667E2,4.8503888E2,0E0,0E0,0E0,0E0,0E0,0E0,0E0,0E0],"parents":[2147483647,0,0,1,1,2,2,3,3,4,4,5,5,6,6],"right_children":[2,4,6,8,10,12,14,-1,-1,-1,-1,-1,-1,-1,-1],"split_conditions":[4.66E-1,1.01E2,1.16E2,9.5E1,1.08E2,1.09E2,1.22E2,-4.2985654E-3,7.1937134E-3,-7.6912534E-3,-1.1362634E-3,1.6203636E-3,7.868424E-3,-7.498367E-3,3.5904911E-3],"split_indices":[3,26,26,13,13,13,13,0,0,0,0,0,0,0,0],"split_type":[0,0,0,0,0,0,0,0,0,0,0,0,0,0,0],"sum_hessian":[1.0131567E4,5.3634517E3,4.768116E3,1.5944313E3,3.7690205E3,3.1921313E3,1.5759846E3,6.716055E2,9.2282574E2,2.358665E3,1.4103555E3,9.667095E2,2.2254219E3,7.849524E2,7.910322E2],"tree_param":{"num_deleted":"0","num_feature":"27","num_nodes":"15","size_leaf_vector":"1"}},{"base_weights":[-3.811368E-4,-2.7964568E-1,3.538786E-1,1.39614E-1,-5.728717E-1,6.1554056E-1,-1.6503099E-1,-3.9625145E-3,6.740238E-3,-7.7626556E-3,-4.590918E-4,2.224238E-3,8.016846E-3,-7.367024E-3,3.7663458E-3],"categories":[],"categories_nodes":[],"categories_segments":[],"categories_sizes":[],"default_left":[0,0,0,0,0,0,0,0,0,0,0,0,0,0,0],"id":52,"left_children":[1,3,5,7,9,11,13,-1,-1,-1,-1,-1,-1,-1,-1],"loss_changes":[1.00089417E3,6.955759E2,6.056313E2,6.672512E2,3.5679248E2,2.1678381E2,4.6344473E2,0E0,0E0,0E0,0E0,0E0,0E0,0E0,0E0],"parents":[2147483647,0,0,1,1,2,2,3,3,4,4,5,5,6,6],"right_children":[2,4,6,8,10,12,14,-1,-1,-1,-1,-1,-1,-1,-1],"split_conditions":[4.7E-1,1.05E2,1.16E2,9.8E1,1.12E2,1.1E2,1.22E2,-3.9625145E-3,6.740238E-3,-7.7626556E-3,-4.590918E-4,2.224238E-3,8.016846E-3,-7.367024E-3,3.7663458E-3],"split_indices":[16,13,13,26,26,26,26,0,0,0,0,0,0,0,0],"split_type":[0,0,0,0,0,0,0,0,0,0,0,0,0,0,0],"sum_hessian":[1.0114973E4,5.656298E3,4.458675E3,2.3280847E3,3.328213E3,2.963921E3,1.4947537E3,1.1625883E3,1.1654965E3,2.4010115E3,9.272014E2,9.531543E2,2.0107666E3,7.270589E2,7.676948E2],"tree_param":{"num_deleted":"0","num_feature":"27","num_nodes":"15","size_leaf_vector":"1"}},{"base_weights":[3.8114807E-4,2.796457E-1,-3.5387856E-1,-1.3961399E-1,5.728717E-1,-6.155405E-1,1.6503099E-1,3.962515E-3,-6.740238E-3,7.7626556E-3,4.5909177E-4,-2.224238E-3,-8.016846E-3,7.3670247E-3,-3.7663463E-3],"categories":[],"categories_nodes":[],"categories_segments":[],"categories_sizes":[],"default_left":[0,0,0,0,0,0,0,0,0,0,0,0,0,0,0],"id":53,"left_children":[1,3,5,7,9,11,13,-1,-1,-1,-1,-1,-1,-1,-1],"loss_changes":[1.00089417E3,6.955759E2,6.0563135E2,6.672513E2,3.5679248E2,2.1678369E2,4.634448E2,0E0,0E0,0E0,0E0,0E0,0E0,0E0,0E0],"parents":[2147483647,0,0,1,1,2,2,3,3,4,4,5,5,6,6],"right_children":[2,4,6,8,10,12,14,-1,-1,-1,-1,-1,-1,-1,-1],"split_conditions":[4.7E-1,1.05E2,1.16E2,9.8E1,1.12E2,1.1E2,1.22E2,3.962515E-3,-6.740238E-3,7.7626556E-3,4.5909177E-4,-2.224238E-3,-8.016846E-3,7.3670247E-3,-3.7663463E-3],"split_indices":[16,13,13,26,26,26,26,0,0,0,0,0,0,0,0],"split_type":[0,0,0,0,0,0,0,0,0,0,0,0,0,0,0],"sum_hessian":[1.0114973E4,5.656298E3,4.458675E3,2.3280847E3,3.328213E3,2.963921E3,1.4947538E3,1.1625883E3,1.1654965E3,2.4010115E3,9.272014E2,9.531543E2,2.0107667E3,7.270589E2,7.676948E2],"tree_param":{"num_deleted":"0","num_feature":"27","num_nodes":"15","size_leaf_vector":"1"}},{"base_weights":[-3.7787846E-4,2.9434446E-1,-3.3201987E-1,-1.5682125E-1,5.540176E-1,-6.255151E-1,1.2756279E-1,3.6977606E-3,-3.7627858E-3,6.602058E-3,1.4537821E-3,-1.8560846E-3,-7.987598E-3,7.8077344E-3,-3.1482023E-3],"categories":[],"categories_nodes":[],"categories_segments":[],"categories_sizes":[],"default_left":[0,0,0,0,0,0,0,0,0,0,0,0,0,0,0],"id":54,"left_children":[1,3,5,7,9,11,13,-1,-1,-1,-1,-1,-1,-1,-1],"loss_changes":[9.872409E2,6.266233E2,6.4112885E2,2.2600009E2,1.4720068E2,2.2090466E2,5.357146E2,0E0,0E0,0E0,0E0,0E0,0E0,0E0,0E0],"parents":[2147483647,0,0,1,1,2,2,3,3,4,4,5,5,6,6],"right_children":[2,4,6,8,10,12,14,-1,-1,-1,-1,-1,-1,-1,-1],"split_conditions":[4.66E-1,4.4E-1,1.14E2,9.5E1,1.12E2,1.08E2,1.19E2,3.6977606E-3,-3.7627858E-3,6.602058E-3,1.4537821E-3,-1.8560846E-3,-7.987598E-3,7.8077344E-3,-3.1482023E-3],"split_indices":[3,16,26,13,13,13,13,0,0,0,0,0,0,0,0],"split_type":[0,0,0,0,0,0,0,0,0,0,0,0,0,0,0],"sum_hessian":[1.0098447E4,5.346899E3,4.751549E3,1.9533949E3,3.393504E3,2.8995188E3,1.85203E3,5.744036E2,1.3789912E3,2.6930718E3,7.0043195E2,8.198386E2,2.0796802E3,7.475109E2,1.1045192E3],"tree_param":{"num_deleted":"0","num_feature":"27","num_nodes":"15","size_leaf_vector":"1"}},{"base_weights":[3.7790247E-4,-2.9434443E-1,3.320199E-1,1.5682127E-1,-5.540176E-1,6.2551516E-1,-1.2756276E-1,-3.6977604E-3,3.7627858E-3,-6.602058E-3,-1.4537821E-3,1.8560849E-3,7.987598E-3,-7.807735E-3,3.1482026E-3],"categories":[],"categories_nodes":[],"categories_segments":[],"categories_sizes":[],"default_left":[0,0,0,0,0,0,0,0,0,0,0,0,0,0,0],"id":55,"left_children":[1,3,5,7,9,11,13,-1,-1,-1,-1,-1,-1,-1,-1],"loss_changes":[9.87241E2,6.266233E2,6.4112885E2,2.2600002E2,1.4720068E2,2.2090466E2,5.357147E2,0E0,0E0,0E0,0E0,0E0,0E0,0E0,0E0],"parents":[2147483647,0,0,1,1,2,2,3,3,4,4,5,5,6,6],"right_children":[2,4,6,8,10,12,14,-1,-1,-1,-1,-1,-1,-1,-1],"split_conditions":[4.66E-1,4.4E-1,1.14E2,9.5E1,1.12E2,1.08E2,1.19E2,-3.6977604E-3,3.7627858E-3,-6.602058E-3,-1.4537821E-3,1.8560849E-3,7.987598E-3,-7.807735E-3,3.1482026E-3],"split_indices":[3,16,26,13,13,13,13,0,0,0,0,0,0,0,0],"split_type":[0,0,0,0,0,0,0,0,0,0,0,0,0,0,0],"sum_hessian":[1.0098447E4,5.3468984E3,4.751549E3,1.9533949E3,3.3935037E3,2.8995188E3,1.85203E3,5.744037E2,1.3789913E3,2.6930718E3,7.004319E2,8.198386E2,2.0796802E3,7.4751086E2,1.1045192E3],"tree_param":{"num_deleted":"0","num_feature":"27","num_nodes":"15","size_leaf_vector":"1"}},{"base_weights":[-3.7461787E-4,-2.7582195E-1,3.4923983E-1,2.2613662E-1,-5.149075E-1,6.4270544E-1,-1.0098881E-1,-4.5125E-3,6.877974E-3,-7.80896E-3,-1.1253064E-3,2.1510406E-3,7.987874E-3,-7.796684E-3,3.3313152E-3],"categories":[],"categories_nodes":[],"categories_segments":[],"categories_sizes":[],"default_left":[0,0,0,0,0,0,0,0,0,0,0,0,0,0,0],"id":56,"left_children":[1,3,5,7,9,11,13,-1,-1,-1,-1,-1,-1,-1,-1],"loss_changes":[9.7121515E2,6.770952E2,5.8727496E2,5.696724E2,4.088979E2,1.7940698E2,5.172172E2,0E0,0E0,0E0,0E0,0E0,0E0,0E0,0E0],"parents":[2147483647,0,0,1,1,2,2,3,3,4,4,5,5,6,6],"right_children":[2,4,6,8,10,12,14,-1,-1,-1,-1,-1,-1,-1,-1],"split_conditions":[4.7E-1,1.02E2,1.14E2,9.5E1,1.08E2,1.08E2,1.19E2,-4.5125E-3,6.877974E-3,-7.80896E-3,-1.1253064E-3,2.1510406E-3,7.987874E-3,-7.796684E-3,3.3313152E-3],"split_indices":[16,13,13,26,26,26,26,0,0,0,0,0,0,0,0],"split_type":[0,0,0,0,0,0,0,0,0,0,0,0,0,0,0],"sum_hessian":[1.0083269E4,5.6399707E3,4.443298E3,1.81966E3,3.8203108E3,2.6896907E3,1.7536073E3,7.3752515E2,1.0821349E3,2.2993801E3,1.5209308E3,7.1988214E2,1.9698085E3,6.8379865E2,1.0698087E3],"tree_param":{"num_deleted":"0","num_feature":"27","num_nodes":"15","size_leaf_vector":"1"}},{"base_weights":[3.74634E-4,2.7582195E-1,-3.4923983E-1,-2.2613662E-1,5.149075E-1,-6.4270544E-1,1.0098885E-1,4.5125E-3,-6.877974E-3,7.8089605E-3,1.1253061E-3,-2.1510406E-3,-7.987874E-3,7.7966843E-3,-3.3313152E-3],"categories":[],"categories_nodes":[],"categories_segments":[],"categories_sizes":[],"default_left":[0,0,0,0,0,0,0,0,0,0,0,0,0,0,0],"id":57,"left_children":[1,3,5,7,9,11,13,-1,-1,-1,-1,-1,-1,-1,-1],"loss_changes":[9.7121515E2,6.770952E2,5.8727496E2,5.696724E2,4.0889807E2,1.7940723E2,5.172173E2,0E0,0E0,0E0,0E0,0E0,0E0,0E0,0E0],"parents":[2147483647,0,0,1,1,2,2,3,3,4,4,5,5,6,6],"right_children":[2,4,6,8,10,12,14,-1,-1,-1,-1,-1,-1,-1,-1],"split_conditions":[4.7E-1,1.02E2,1.14E2,9.5E1,1.08E2,1.08E2,1.19E2,4.5125E-3,-6.877974E-3,7.8089605E-3,1.1253061E-3,-2.1510406E-3,-7.987874E-3,7.7966843E-3,-3.3313152E-3],"split_indices":[16,13,13,26,26,26,26,0,0,0,0,0,0,0,0],"split_type":[0,0,0,0,0,0,0,0,0,0,0,0,0,0,0],"sum_hessian":[1.0083269E4,5.639971E3,4.443298E3,1.81966E3,3.820311E3,2.6896907E3,1.7536073E3,7.3752515E2,1.0821349E3,2.2993801E3,1.5209308E3,7.1988214E2,1.9698083E3,6.8379865E2,1.0698087E3],"tree_param":{"num_deleted":"0","num_feature":"27","num_nodes":"15","size_leaf_vector":"1"}},{"base_weights":[-3.7171363E-4,2.7437478E-1,-3.47332E-1,-1.3430595E-1,5.616722E-1,-6.166575E-1,1.2816314E-1,3.5356735E-3,-7.146749E-3,7.817036E-3,8.55165E-4,-2.0533828E-3,-7.863257E-3,6.8305274E-3,-3.939507E-3],"categories":[],"categories_nodes":[],"categories_segments":[],"categories_sizes":[],"default_left":[0,0,0,0,0,0,0,0,0,0,0,0,0,0,0],"id":58,"left_children":[1,3,5,7,9,11,13,-1,-1,-1,-1,-1,-1,-1,-1],"loss_changes":[9.5967865E2,6.5974146E2,5.698286E2,6.571639E2,3.455984E2,1.9806458E2,4.6658636E2,0E0,0E0,0E0,0E0,0E0,0E0,0E0,0E0],"parents":[2147483647,0,0,1,1,2,2,3,3,4,4,5,5,6,6],"right_children":[2,4,6,8,10,12,14,-1,-1,-1,-1,-1,-1,-1,-1],"split_conditions":[4.7E-1,1.05E2,1.15E2,9.9E1,1.11E2,1.09E2,1.22E2,3.5356735E-3,-7.146749E-3,7.817036E-3,8.55165E-4,-2.0533828E-3,-7.863257E-3,6.8305274E-3,-3.939507E-3],"split_indices":[3,26,26,13,13,13,13,0,0,0,0,0,0,0,0],"split_type":[0,0,0,0,0,0,0,0,0,0,0,0,0,0,0],"sum_hessian":[1.0065322E4,5.6173423E3,4.44798E3,2.3190396E3,3.2983025E3,2.839411E3,1.6085693E3,1.2601312E3,1.0589084E3,2.2554285E3,1.0428739E3,8.298505E2,2.0095603E3,7.7965894E2,8.289104E2],"tree_param":{"num_deleted":"0","num_feature":"27","num_nodes":"15","size_leaf_vector":"1"}},{"base_weights":[3.7170784E-4,-2.7437475E-1,3.4733197E-1,1.3430595E-1,-5.616722E-1,6.1665744E-1,-1.2816317E-1,-3.5356735E-3,7.146749E-3,-7.817035E-3,-8.551649E-4,2.0533826E-3,7.863256E-3,-6.8305274E-3,3.939507E-3],"categories":[],"categories_nodes":[],"categories_segments":[],"categories_sizes":[],"default_left":[0,0,0,0,0,0,0,0,0,0,0,0,0,0,0],"id":59,"left_children":[1,3,5,7,9,11,13,-1,-1,-1,-1,-1,-1,-1,-1],"loss_changes":[9.5967865E2,6.5974133E2,5.6982855E2,6.571639E2,3.455984E2,1.9806458E2,4.6658633E2,0E0,0E0,0E0,0E0,0E0,0E0,0E0,0E0],"parents":[2147483647,0,0,1,1,2,2,3,3,4,4,5,5,6,6],"right_children":[2,4,6,8,10,12,14,-1,-1,-1,-1,-1,-1,-1,-1],"split_conditions":[4.7E-1,1.05E2,1.15E2,9.9E1,1.11E2,1.09E2,1.22E2,-3.5356735E-3,7.146749E-3,-7.817035E-3,-8.551649E-4,2.0533826E-3,7.863256E-3,-6.8305274E-3,3.939507E-3],"split_indices":[3,26,26,13,13,13,13,0,0,0,0,0,0,0,0],"split_type":[0,0,0,0,0,0,0,0,0,0,0,0,0,0,0],"sum_hessian":[1.0065322E4,5.617342E3,4.44798E3,2.3190396E3,3.2983025E3,2.839411E3,1.6085692E3,1.2601312E3,1.0589084E3,2.2554285E3,1.042874E3,8.298505E2,2.0095603E3,7.7965894E2,8.2891034E2],"tree_param":{"num_deleted":"0","num_feature":"27","num_nodes":"15","size_leaf_vector":"1"}},{"base_weights":[-3.6901826E-4,-2.8849193E-1,3.2571384E-1,2.6471266E-1,-4.9927655E-1,5.6671965E-1,-2.1638842E-1,-2.4673392E-3,4.753848E-3,-6.7498693E-3,-2.266418E-3,2.2178541E-3,8.0329E-3,-7.3573887E-3,3.7571937E-3],"categories":[],"categories_nodes":[],"categories_segments":[],"categories_sizes":[],"default_left":[0,0,0,0,0,0,0,0,0,0,0,0,0,0,0],"id":60,"left_children":[1,3,5,7,9,11,13,-1,-1,-1,-1,-1,-1,-1,-1],"loss_changes":[9.441299E2,6.2223865E2,6.1600635E2,1.5878625E2,1.8492566E2,2.661289E2,4.4662448E2,0E0,0E0,0E0,0E0,0E0,0E0,0E0,0E0],"parents":[2147483647,0,0,1,1,2,2,3,3,4,4,5,5,6,6],"right_children":[2,4,6,8,10,12,14,-1,-1,-1,-1,-1,-1,-1,-1],"split_conditions":[4.66E-1,4.26E-1,1.17E2,9.5E1,1.06E2,1.12E2,1.23E2,-2.4673392E-3,4.753848E-3,-6.7498693E-3,-2.266418E-3,2.2178541E-3,8.0329E-3,-7.3573887E-3,3.7571937E-3],"split_indices":[16,3,13,26,26,26,26,0,0,0,0,0,0,0,0],"split_type":[0,0,0,0,0,0,0,0,0,0,0,0,0,0,0],"sum_hessian":[1.0047072E4,5.334069E3,4.713004E3,1.471599E3,3.8624697E3,3.2625195E3,1.4504841E3,4.2927692E2,1.042322E3,2.3478367E3,1.514633E3,1.3280615E3,1.9344581E3,7.72588E2,6.778961E2],"tree_param":{"num_deleted":"0","num_feature":"27","num_nodes":"15","size_leaf_vector":"1"}},{"base_weights":[3.690151E-4,2.8849193E-1,-3.2571387E-1,-2.6471266E-1,4.9927655E-1,-5.6671965E-1,2.1638842E-1,2.4673392E-3,-4.7538485E-3,6.7498693E-3,2.2664177E-3,-2.217854E-3,-8.0329E-3,7.3573887E-3,-3.757194E-3],"categories":[],"categories_nodes":[],"categories_segments":[],"categories_sizes":[],"default_left":[0,0,0,0,0,0,0,0,0,0,0,0,0,0,0],"id":61,"left_children":[1,3,5,7,9,11,13,-1,-1,-1,-1,-1,-1,-1,-1],"loss_changes":[9.441299E2,6.2223865E2,6.1600635E2,1.5878627E2,1.8492566E2,2.6612903E2,4.4662448E2,0E0,0E0,0E0,0E0,0E0,0E0,0E0,0E0],"parents":[2147483647,0,0,1,1,2,2,3,3,4,4,5,5,6,6],"right_children":[2,4,6,8,10,12,14,-1,-1,-1,-1,-1,-1,-1,-1],"split_conditions":[4.66E-1,4.26E-1,1.17E2,9.5E1,1.06E2,1.12E2,1.23E2,2.4673392E-3,-4.7538485E-3,6.7498693E-3,2.2664177E-3,-2.217854E-3,-8.0329E-3,7.3573887E-3,-3.757194E-3],"split_indices":[16,3,13,26,26,26,26,0,0,0,0,0,0,0,0],"split_type":[0,0,0,0,0,0,0,0,0,0,0,0,0,0,0],"sum_hessian":[1.0047072E4,5.334069E3,4.713004E3,1.471599E3,3.8624697E3,3.2625195E3,1.4504841E3,4.2927692E2,1.042322E3,2.3478367E3,1.514633E3,1.3280615E3,1.934458E3,7.72588E2,6.778961E2],"tree_param":{"num_deleted":"0","num_feature":"27","num_nodes":"15","size_leaf_vector":"1"}},{"base_weights":[-3.65548E-4,2.7092555E-1,-3.431677E-1,-1.3152318E-1,5.543186E-1,-6.271916E-1,9.621828E-2,4.2757825E-3,-6.2858025E-3,7.7314856E-3,8.2789815E-4,-1.9946343E-3,-7.831918E-3,7.636515E-3,-3.1883956E-3],"categories":[],"categories_nodes":[],"categories_segments":[],"categories_sizes":[],"default_left":[0,0,0,0,0,0,0,0,0,0,0,0,0,0,0],"id":62,"left_children":[1,3,5,7,9,11,13,-1,-1,-1,-1,-1,-1,-1,-1],"loss_changes":[9.3312994E2,6.3888336E2,5.532389E2,6.4367615E2,3.3909192E2,1.7949939E2,4.8259918E2,0E0,0E0,0E0,0E0,0E0,0E0,0E0,0E0],"parents":[2147483647,0,0,1,1,2,2,3,3,4,4,5,5,6,6],"right_children":[2,4,6,8,10,12,14,-1,-1,-1,-1,-1,-1,-1,-1],"split_conditions":[4.7E-1,1.05E2,1.14E2,9.7E1,1.11E2,1.08E2,1.19E2,4.2757825E-3,-6.2858025E-3,7.7314856E-3,8.2789815E-4,-1.9946343E-3,-7.831918E-3,7.636515E-3,-3.1883956E-3],"split_indices":[3,26,26,13,13,13,13,0,0,0,0,0,0,0,0],"split_type":[0,0,0,0,0,0,0,0,0,0,0,0,0,0,0],"sum_hessian":[1.0031745E4,5.600087E3,4.431658E3,2.3142036E3,3.2858833E3,2.6914487E3,1.7402094E3,1.0891934E3,1.2250103E3,2.2438867E3,1.0419965E3,7.198934E2,1.9715554E3,6.6692377E2,1.0732856E3],"tree_param":{"num_deleted":"0","num_feature":"27","num_nodes":"15","size_leaf_vector":"1"}},{"base_weights":[3.6553427E-4,-2.7092558E-1,3.431677E-1,1.3152318E-1,-5.543186E-1,6.271916E-1,-9.621828E-2,-4.2757825E-3,6.2858025E-3,-7.7314856E-3,-8.27898E-4,1.9946345E-3,7.831918E-3,-7.636514E-3,3.1883954E-3],"categories":[],"categories_nodes":[],"categories_segments":[],"categories_sizes":[],"default_left":[0,0,0,0,0,0,0,0,0,0,0,0,0,0,0],"id":63,"left_children":[1,3,5,7,9,11,13,-1,-1,-1,-1,-1,-1,-1,-1],"loss_changes":[9.331299E2,6.388834E2,5.5323883E2,6.436762E2,3.390918E2,1.7949951E2,4.8259915E2,0E0,0E0,0E0,0E0,0E0,0E0,0E0,0E0],"parents":[2147483647,0,0,1,1,2,2,3,3,4,4,5,5,6,6],"right_children":[2,4,6,8,10,12,14,-1,-1,-1,-1,-1,-1,-1,-1],"split_conditions":[4.7E-1,1.05E2,1.14E2,9.7E1,1.11E2,1.08E2,1.19E2,-4.2757825E-3,6.2858025E-3,-7.7314856E-3,-8.27898E-4,1.9946345E-3,7.831918E-3,-7.636514E-3,3.1883954E-3],"split_indices":[3,26,26,13,13,13,13,0,0,0,0,0,0,0,0],"split_type":[0,0,0,0,0,0,0,0,0,0,0,0,0,0,0],"sum_hessian":[1.0031745E4,5.600087E3,4.431658E3,2.3142036E3,3.2858833E3,2.6914487E3,1.7402094E3,1.0891934E3,1.2250103E3,2.243887E3,1.0419965E3,7.198934E2,1.9715553E3,6.6692377E2,1.0732856E3],"tree_param":{"num_deleted":"0","num_feature":"27","num_nodes":"15","size_leaf_vector":"1"}},{"base_weights":[-3.622856E-4,-2.6882893E-1,3.4080666E-1,1.3543716E-1,-5.529428E-1,6.2732184E-1,-9.670993E-2,-3.0906135E-3,7.535196E-3,-7.5214044E-3,-4.3094138E-4,2.0993606E-3,7.811462E-3,-7.6537053E-3,3.2812979E-3],"categories":[],"categories_nodes":[],"categories_segments":[],"categories_sizes":[],"default_left":[0,0,0,0,0,0,0,0,0,0,0,0,0,0,0],"id":64,"left_children":[1,3,5,7,9,11,13,-1,-1,-1,-1,-1,-1,-1,-1],"loss_changes":[9.172788E2,6.4379987E2,5.5290607E2,6.359624E2,3.3426367E2,1.7094897E2,4.9626984E2,0E0,0E0,0E0,0E0,0E0,0E0,0E0,0E0],"parents":[2147483647,0,0,1,1,2,2,3,3,4,4,5,5,6,6],"right_children":[2,4,6,8,10,12,14,-1,-1,-1,-1,-1,-1,-1,-1],"split_conditions":[4.7E-1,1.05E2,1.14E2,1E2,1.12E2,1.08E2,1.19E2,-3.0906135E-3,7.535196E-3,-7.5214044E-3,-4.3094138E-4,2.0993606E-3,7.811462E-3,-7.6537053E-3,3.2812979E-3],"split_indices":[16,13,13,26,26,26,26,0,0,0,0,0,0,0,0],"split_type":[0,0,0,0,0,0,0,0,0,0,0,0,0,0,0],"sum_hessian":[1.0012782E4,5.603549E3,4.4092334E3,2.3129592E3,3.2905898E3,2.6641414E3,1.7450922E3,1.3456936E3,9.672655E2,2.365798E3,9.247916E2,7.180784E2,1.946063E3,6.776806E2,1.0674116E3],"tree_param":{"num_deleted":"0","num_feature":"27","num_nodes":"15","size_leaf_vector":"1"}},{"base_weights":[3.622901E-4,2.6882893E-1,-3.4080663E-1,-1.3543716E-1,5.529428E-1,-6.2732184E-1,9.670993E-2,3.0906135E-3,-7.535195E-3,7.5214044E-3,4.30941E-4,-2.0993603E-3,-7.811462E-3,7.6537053E-3,-3.2812979E-3],"categories":[],"categories_nodes":[],"categories_segments":[],"categories_sizes":[],"default_left":[0,0,0,0,0,0,0,0,0,0,0,0,0,0,0],"id":65,"left_children":[1,3,5,7,9,11,13,-1,-1,-1,-1,-1,-1,-1,-1],"loss_changes":[9.172787E2,6.437999E2,5.529061E2,6.359624E2,3.3426367E2,1.7094897E2,4.9626984E2,0E0,0E0,0E0,0E0,0E0,0E0,0E0,0E0],"parents":[2147483647,0,0,1,1,2,2,3,3,4,4,5,5,6,6],"right_children":[2,4,6,8,10,12,14,-1,-1,-1,-1,-1,-1,-1,-1],"split_conditions":[4.7E-1,1.05E2,1.14E2,1E2,1.12E2,1.08E2,1.19E2,3.0906135E-3,-7.535195E-3,7.5214044E-3,4.30941E-4,-2.0993603E-3,-7.811462E-3,7.6537053E-3,-3.2812979E-3],"split_indices":[16,13,13,26,26,26,26,0,0,0,0,0,0,0,0],"split_type":[0,0,0,0,0,0,0,0,0,0,0,0,0,0,0],"sum_hessian":[1.0012782E4,5.603549E3,4.4092334E3,2.3129592E3,3.2905898E3,2.6641414E3,1.7450923E3,1.3456936E3,9.672655E2,2.365798E3,9.247916E2,7.180784E2,1.946063E3,6.776806E2,1.0674116E3],"tree_param":{"num_deleted":"0","num_feature":"27","num_nodes":"15","size_leaf_vector":"1"}},{"base_weights":[-3.5900917E-4,2.8337294E-1,-3.2013696E-1,-2.5797445E-1,4.8622808E-1,-5.69141E-1,1.804746E-1,4.906835E-3,-6.7631393E-3,7.595828E-3,1.4635326E-3,-1.510178E-3,-7.5356304E-3,7.206698E-3,-3.4833641E-3],"categories":[],"categories_nodes":[],"categories_segments":[],"categories_sizes":[],"default_left":[0,0,0,0,0,0,0,0,0,0,0,0,0,0,0],"id":66,"left_children":[1,3,5,7,9,11,13,-1,-1,-1,-1,-1,-1,-1,-1],"loss_changes":[9.069134E2,5.817401E2,5.8589014E2,4.5268436E2,3.5785577E2,2.4190314E2,4.463827E2,0E0,0E0,0E0,0E0,0E0,0E0,0E0,0E0],"parents":[2147483647,0,0,1,1,2,2,3,3,4,4,5,5,6,6],"right_children":[2,4,6,8,10,12,14,-1,-1,-1,-1,-1,-1,-1,-1],"split_conditions":[4.66E-1,1E2,1.16E2,9.3E1,1.06E2,1.09E2,1.22E2,4.906835E-3,-6.7631393E-3,7.595828E-3,1.4635326E-3,-1.510178E-3,-7.5356304E-3,7.206698E-3,-3.4833641E-3],"split_indices":[3,26,26,13,13,13,13,0,0,0,0,0,0,0,0],"split_type":[0,0,0,0,0,0,0,0,0,0,0,0,0,0,0],"sum_hessian":[9.993605E3,5.2953086E3,4.698297E3,1.4433242E3,3.8519841E3,3.1375457E3,1.5607511E3,5.173338E2,9.259904E2,2.1342297E3,1.7177545E3,9.608708E2,2.1766748E3,7.718856E2,7.888655E2],"tree_param":{"num_deleted":"0","num_feature":"27","num_nodes":"15","size_leaf_vector":"1"}},{"base_weights":[3.5900084E-4,-2.8337294E-1,3.2013693E-1,2.5797445E-1,-4.862281E-1,5.69141E-1,-1.8047461E-1,-4.906834E-3,6.7631393E-3,-7.595828E-3,-1.4635327E-3,1.5101779E-3,7.5356304E-3,-7.206698E-3,3.483364E-3],"categories":[],"categories_nodes":[],"categories_segments":[],"categories_sizes":[],"default_left":[0,0,0,0,0,0,0,0,0,0,0,0,0,0,0],"id":67,"left_children":[1,3,5,7,9,11,13,-1,-1,-1,-1,-1,-1,-1,-1],"loss_changes":[9.069134E2,5.8174023E2,5.8589026E2,4.526843E2,3.578557E2,2.419029E2,4.4638263E2,0E0,0E0,0E0,0E0,0E0,0E0,0E0,0E0],"parents":[2147483647,0,0,1,1,2,2,3,3,4,4,5,5,6,6],"right_children":[2,4,6,8,10,12,14,-1,-1,-1,-1,-1,-1,-1,-1],"split_conditions":[4.66E-1,1E2,1.16E2,9.3E1,1.06E2,1.09E2,1.22E2,-4.906834E-3,6.7631393E-3,-7.595828E-3,-1.4635327E-3,1.5101779E-3,7.5356304E-3,-7.206698E-3,3.483364E-3],"split_indices":[3,26,26,13,13,13,13,0,0,0,0,0,0,0,0],"split_type":[0,0,0,0,0,0,0,0,0,0,0,0,0,0,0],"sum_hessian":[9.993605E3,5.2953086E3,4.698297E3,1.4433242E3,3.8519841E3,3.1375457E3,1.5607511E3,5.173338E2,9.259904E2,2.1342297E3,1.7177545E3,9.608708E2,2.176675E3,7.718856E2,7.888655E2],"tree_param":{"num_deleted":"0","num_feature":"27","num_nodes":"15","size_leaf_vector":"1"}},{"base_weights":[-3.559045E-4,-2.8141597E-1,3.180786E-1,2.57748E-1,-4.8739246E-1,5.535088E-1,-2.0944159E-1,-2.4240194E-3,4.6447557E-3,-6.603835E-3,-2.202967E-3,2.1508706E-3,7.871883E-3,-7.222558E-3,3.7102976E-3],"categories":[],"categories_nodes":[],"categories_segments":[],"categories_sizes":[],"default_left":[0,0,0,0,0,0,0,0,0,0,0,0,0,0,0],"id":68,"left_children":[1,3,5,7,9,11,13,-1,-1,-1,-1,-1,-1,-1,-1],"loss_changes":[8.928858E2,5.886305E2,5.810033E2,1.5163733E2,1.7703839E2,2.5560034E2,4.301167E2,0E0,0E0,0E0,0E0,0E0,0E0,0E0,0E0],"parents":[2147483647,0,0,1,1,2,2,3,3,4,4,5,5,6,6],"right_children":[2,4,6,8,10,12,14,-1,-1,-1,-1,-1,-1,-1,-1],"split_conditions":[4.66E-1,4.26E-1,1.17E2,9.5E1,1.06E2,1.12E2,1.23E2,-2.4240194E-3,4.6447557E-3,-6.603835E-3,-2.202967E-3,2.1508706E-3,7.871883E-3,-7.222558E-3,3.7102976E-3],"split_indices":[16,3,13,26,26,26,26,0,0,0,0,0,0,0,0],"split_type":[0,0,0,0,0,0,0,0,0,0,0,0,0,0,0],"sum_hessian":[9.974465E3,5.298215E3,4.6762505E3,1.4644968E3,3.8337178E3,3.2332253E3,1.4430251E3,4.282442E2,1.0362527E3,2.325851E3,1.5078668E3,1.3214221E3,1.9118032E3,7.6603314E2,6.76992E2],"tree_param":{"num_deleted":"0","num_feature":"27","num_nodes":"15","size_leaf_vector":"1"}},{"base_weights":[3.5591263E-4,2.8141597E-1,-3.1807858E-1,-2.57748E-1,4.8739246E-1,-5.535088E-1,2.0944159E-1,2.4240196E-3,-4.6447557E-3,6.603835E-3,2.2029672E-3,-2.1508706E-3,-7.871883E-3,7.222558E-3,-3.7102976E-3],"categories":[],"categories_nodes":[],"categories_segments":[],"categories_sizes":[],"default_left":[0,0,0,0,0,0,0,0,0,0,0,0,0,0,0],"id":69,"left_children":[1,3,5,7,9,11,13,-1,-1,-1,-1,-1,-1,-1,-1],"loss_changes":[8.928858E2,5.886305E2,5.810032E2,1.5163733E2,1.7703833E2,2.5560046E2,4.3011667E2,0E0,0E0,0E0,0E0,0E0,0E0,0E0,0E0],"parents":[2147483647,0,0,1,1,2,2,3,3,4,4,5,5,6,6],"right_children":[2,4,6,8,10,12,14,-1,-1,-1,-1,-1,-1,-1,-1],"split_conditions":[4.66E-1,4.26E-1,1.17E2,9.5E1,1.06E2,1.12E2,1.23E2,2.4240196E-3,-4.6447557E-3,6.603835E-3,2.2029672E-3,-2.1508706E-3,-7.871883E-3,7.222558E-3,-3.7102976E-3],"split_indices":[16,3,13,26,26,26,26,0,0,0,0,0,0,0,0],"split_type":[0,0,0,0,0,0,0,0,0,0,0,0,0,0,0],"sum_hessian":[9.974465E3,5.298215E3,4.6762505E3,1.4644968E3,3.833718E3,3.2332253E3,1.4430251E3,4.2824417E2,1.0362527E3,2.325851E3,1.5078667E3,1.3214221E3,1.9118031E3,7.6603314E2,6.76992E2],"tree_param":{"num_deleted":"0","num_feature":"27","num_nodes":"15","size_leaf_vector":"1"}},{"base_weights":[-3.5256246E-4,2.642585E-1,-3.3513126E-1,-1.275733E-1,5.411082E-1,-5.530572E-1,2.0901716E-1,3.4696609E-3,-6.956237E-3,7.575889E-3,7.8913674E-4,-2.098729E-3,-7.68574E-3,7.4287024E-3,-3.24301E-3],"categories":[],"categories_nodes":[],"categories_segments":[],"categories_sizes":[],"default_left":[0,0,0,0,0,0,0,0,0,0,0,0,0,0,0],"id":70,"left_children":[1,3,5,7,9,11,13,-1,-1,-1,-1,-1,-1,-1,-1],"loss_changes":[8.8230664E2,6.035255E2,5.2152466E2,6.213087E2,3.2611627E2,2.3206903E2,3.5843845E2,0E0,0E0,0E0,0E0,0E0,0E0,0E0,0E0],"parents":[2147483647,0,0,1,1,2,2,3,3,4,4,5,5,6,6],"right_children":[2,4,6,8,10,12,14,-1,-1,-1,-1,-1,-1,-1,-1],"split_conditions":[4.7E-1,1.05E2,1.18E2,9.9E1,1.11E2,1.12E2,1.23E2,3.4696609E-3,-6.956237E-3,7.575889E-3,7.8913674E-4,-2.098729E-3,-7.68574E-3,7.4287024E-3,-3.24301E-3],"split_indices":[3,26,26,13,13,13,13,0,0,0,0,0,0,0,0],"split_type":[0,0,0,0,0,0,0,0,0,0,0,0,0,0,0],"sum_hessian":[9.95787E3,5.5619126E3,4.395958E3,2.3029844E3,3.2589282E3,3.13886E3,1.257098E3,1.2549828E3,1.0480015E3,2.218975E3,1.0399532E3,1.2115645E3,1.9272955E3,6.280376E2,6.290604E2],"tree_param":{"num_deleted":"0","num_feature":"27","num_nodes":"15","size_leaf_vector":"1"}},{"base_weights":[3.5256735E-4,-2.642585E-1,3.351313E-1,1.2757331E-1,-5.411082E-1,5.530572E-1,-2.0901714E-1,-3.4696609E-3,6.956237E-3,-7.575889E-3,-7.891365E-4,2.098729E-3,7.68574E-3,-7.428702E-3,3.24301E-3],"categories":[],"categories_nodes":[],"categories_segments":[],"categories_sizes":[],"default_left":[0,0,0,0,0,0,0,0,0,0,0,0,0,0,0],"id":71,"left_children":[1,3,5,7,9,11,13,-1,-1,-1,-1,-1,-1,-1,-1],"loss_changes":[8.8230664E2,6.0352563E2,5.2152466E2,6.2130865E2,3.2611615E2,2.3206909E2,3.5843848E2,0E0,0E0,0E0,0E0,0E0,0E0,0E0,0E0],"parents":[2147483647,0,0,1,1,2,2,3,3,4,4,5,5,6,6],"right_children":[2,4,6,8,10,12,14,-1,-1,-1,-1,-1,-1,-1,-1],"split_conditions":[4.7E-1,1.05E2,1.18E2,9.9E1,1.11E2,1.12E2,1.23E2,-3.4696609E-3,6.956237E-3,-7.575889E-3,-7.891365E-4,2.098729E-3,7.68574E-3,-7.428702E-3,3.24301E-3],"split_indices":[3,26,26,13,13,13,13,0,0,0,0,0,0,0,0],"split_type":[0,0,0,0,0,0,0,0,0,0,0,0,0,0,0],"sum_hessian":[9.95787E3,5.5619126E3,4.395958E3,2.3029844E3,3.2589282E3,3.13886E3,1.257098E3,1.2549828E3,1.0480015E3,2.218975E3,1.0399532E3,1.2115645E3,1.9272955E3,6.280376E2,6.290605E2],"tree_param":{"num_deleted":"0","num_feature":"27","num_nodes":"15","size_leaf_vector":"1"}},{"base_weights":[-3.497026E-4,-2.6235828E-1,3.330687E-1,2.1783473E-1,-4.9243945E-1,6.13328E-1,-9.312077E-2,-3.8167387E-3,7.1207755E-3,-7.5189066E-3,-1.0563488E-3,2.031339E-3,7.6595875E-3,-6.6018975E-3,3.882734E-3],"categories":[],"categories_nodes":[],"categories_segments":[],"categories_sizes":[],"default_left":[0,0,0,0,0,0,0,0,0,0,0,0,0,0,0],"id":72,"left_children":[1,3,5,7,9,11,13,-1,-1,-1,-1,-1,-1,-1,-1],"loss_changes":[8.6835803E2,6.15074E2,5.225056E2,5.347285E2,3.7760358E2,1.6506189E2,4.7418622E2,0E0,0E0,0E0,0E0,0E0,0E0,0E0,0E0],"parents":[2147483647,0,0,1,1,2,2,3,3,4,4,5,5,6,6],"right_children":[2,4,6,8,10,12,14,-1,-1,-1,-1,-1,-1,-1,-1],"split_conditions":[4.7E-1,1.02E2,1.14E2,9.6E1,1.08E2,1.08E2,1.21E2,-3.8167387E-3,7.1207755E-3,-7.5189066E-3,-1.0563488E-3,2.031339E-3,7.6595875E-3,-6.6018975E-3,3.882734E-3],"split_indices":[16,13,13,26,26,26,26,0,0,0,0,0,0,0,0],"split_type":[0,0,0,0,0,0,0,0,0,0,0,0,0,0,0],"sum_hessian":[9.938168E3,5.565148E3,4.37302E3,1.8027517E3,3.7623962E3,2.6379097E3,1.7351104E3,8.147278E2,9.880239E2,2.2513484E3,1.5110477E3,7.15999E2,1.9219108E3,7.964927E2,9.386177E2],"tree_param":{"num_deleted":"0","num_feature":"27","num_nodes":"15","size_leaf_vector":"1"}},{"base_weights":[3.4971378E-4,2.623583E-1,-3.3306873E-1,-2.1783473E-1,4.9243948E-1,-6.13328E-1,9.312076E-2,3.8167387E-3,-7.1207755E-3,7.5189066E-3,1.056349E-3,-2.031339E-3,-7.6595885E-3,6.6018975E-3,-3.8827343E-3],"categories":[],"categories_nodes":[],"categories_segments":[],"categories_sizes":[],"default_left":[0,0,0,0,0,0,0,0,0,0,0,0,0,0,0],"id":73,"left_children":[1,3,5,7,9,11,13,-1,-1,-1,-1,-1,-1,-1,-1],"loss_changes":[8.6835815E2,6.150741E2,5.225056E2,5.347285E2,3.7760327E2,1.6506195E2,4.7418622E2,0E0,0E0,0E0,0E0,0E0,0E0,0E0,0E0],"parents":[2147483647,0,0,1,1,2,2,3,3,4,4,5,5,6,6],"right_children":[2,4,6,8,10,12,14,-1,-1,-1,-1,-1,-1,-1,-1],"split_conditions":[4.7E-1,1.02E2,1.14E2,9.6E1,1.08E2,1.08E2,1.21E2,3.8167387E-3,-7.1207755E-3,7.5189066E-3,1.056349E-3,-2.031339E-3,-7.6595885E-3,6.6018975E-3,-3.8827343E-3],"split_indices":[16,13,13,26,26,26,26,0,0,0,0,0,0,0,0],"split_type":[0,0,0,0,0,0,0,0,0,0,0,0,0,0,0],"sum_hessian":[9.938168E3,5.565148E3,4.37302E3,1.8027517E3,3.7623962E3,2.6379097E3,1.7351104E3,8.147278E2,9.880239E2,2.2513486E3,1.5110477E3,7.15999E2,1.9219106E3,7.964927E2,9.386177E2],"tree_param":{"num_deleted":"0","num_feature":"27","num_nodes":"15","size_leaf_vector":"1"}},{"base_weights":[-3.4656137E-4,2.6113167E-1,-3.312148E-1,-2.0907615E-1,4.8666003E-1,-6.0594356E-1,9.090517E-2,3.8342355E-3,-7.0311534E-3,7.4483403E-3,1.0368405E-3,-1.8956038E-3,-7.600944E-3,7.4456376E-3,-3.1139005E-3],"categories":[],"categories_nodes":[],"categories_segments":[],"categories_sizes":[],"default_left":[0,0,0,0,0,0,0,0,0,0,0,0,0,0,0],"id":74,"left_children":[1,3,5,7,9,11,13,-1,-1,-1,-1,-1,-1,-1,-1],"loss_changes":[8.581825E2,5.8767145E2,5.0785043E2,5.2621857E2,3.7020477E2,1.7011365E2,4.5441287E2,0E0,0E0,0E0,0E0,0E0,0E0,0E0,0E0],"parents":[2147483647,0,0,1,1,2,2,3,3,4,4,5,5,6,6],"right_children":[2,4,6,8,10,12,14,-1,-1,-1,-1,-1,-1,-1,-1],"split_conditions":[4.7E-1,1.02E2,1.14E2,9.6E1,1.08E2,1.08E2,1.19E2,3.8342355E-3,-7.0311534E-3,7.4483403E-3,1.0368405E-3,-1.8956038E-3,-7.600944E-3,7.4456376E-3,-3.1139005E-3],"split_indices":[3,26,26,13,13,13,13,0,0,0,0,0,0,0,0],"split_type":[0,0,0,0,0,0,0,0,0,0,0,0,0,0,0],"sum_hessian":[9.917483E3,5.5397476E3,4.377736E3,1.7957764E3,3.743971E3,2.6515737E3,1.726162E3,8.166247E2,9.791516E2,2.2358093E3,1.5081616E3,7.17023E2,1.9345507E3,6.573057E2,1.0688563E3],"tree_param":{"num_deleted":"0","num_feature":"27","num_nodes":"15","size_leaf_vector":"1"}},{"base_weights":[3.4655238E-4,-2.6113167E-1,3.312148E-1,2.0907615E-1,-4.8666003E-1,6.0594356E-1,-9.090517E-2,-3.8342355E-3,7.0311534E-3,-7.4483403E-3,-1.0368404E-3,1.8956038E-3,7.600944E-3,-7.4456367E-3,3.1139005E-3],"categories":[],"categories_nodes":[],"categories_segments":[],"categories_sizes":[],"default_left":[0,0,0,0,0,0,0,0,0,0,0,0,0,0,0],"id":75,"left_children":[1,3,5,7,9,11,13,-1,-1,-1,-1,-1,-1,-1,-1],"loss_changes":[8.581824E2,5.8767145E2,5.078505E2,5.2621857E2,3.7020477E2,1.7011353E2,4.544128E2,0E0,0E0,0E0,0E0,0E0,0E0,0E0,0E0],"parents":[2147483647,0,0,1,1,2,2,3,3,4,4,5,5,6,6],"right_children":[2,4,6,8,10,12,14,-1,-1,-1,-1,-1,-1,-1,-1],"split_conditions":[4.7E-1,1.02E2,1.14E2,9.6E1,1.08E2,1.08E2,1.19E2,-3.8342355E-3,7.0311534E-3,-7.4483403E-3,-1.0368404E-3,1.8956038E-3,7.600944E-3,-7.4456367E-3,3.1139005E-3],"split_indices":[3,26,26,13,13,13,13,0,0,0,0,0,0,0,0],"split_type":[0,0,0,0,0,0,0,0,0,0,0,0,0,0,0],"sum_hessian":[9.917483E3,5.5397476E3,4.377736E3,1.7957764E3,3.743971E3,2.6515737E3,1.726162E3,8.166247E2,9.791516E2,2.2358093E3,1.5081617E3,7.17023E2,1.9345507E3,6.573058E2,1.0688563E3],"tree_param":{"num_deleted":"0","num_feature":"27","num_nodes":"15","size_leaf_vector":"1"}},{"base_weights":[-3.4389517E-4,2.441414E-1,-3.4949437E-1,-2.3254542E-1,7.1261024E-1,-7.490027E-1,2.7393916E-1,3.9194133E-3,-6.4863903E-3,3.7931004E-3,7.885249E-3,-8.102122E-3,-4.856713E-3,7.6749395E-3,-2.7552813E-3],"categories":[],"categories_nodes":[],"categories_segments":[],"categories_sizes":[],"default_left":[0,0,0,0,0,0,0,0,0,0,0,0,0,0,0],"id":76,"left_children":[1,3,5,7,9,11,13,-1,-1,-1,-1,-1,-1,-1,-1],"loss_changes":[8.449346E2,1.300228E3,1.0155331E3,7.5024414E2,7.3999146E1,3.9656006E1,4.3217E2,0E0,0E0,0E0,0E0,0E0,0E0,0E0,0E0],"parents":[2147483647,0,0,1,1,2,2,3,3,4,4,5,5,6,6],"right_children":[2,4,6,8,10,12,14,-1,-1,-1,-1,-1,-1,-1,-1],"split_conditions":[1.12E2,1.05E2,1.18E2,9.7E1,1.08E2,1.14E2,1.23E2,3.9194133E-3,-6.4863903E-3,3.7931004E-3,7.885249E-3,-8.102122E-3,-4.856713E-3,7.6749395E-3,-2.7552813E-3],"split_indices":[13,26,26,13,26,26,13,0,0,0,0,0,0,0,0],"split_type":[0,0,0,0,0,0,0,0,0,0,0,0,0,0,0],"sum_hessian":[9.896233E3,5.820707E3,4.075527E3,2.885298E3,2.935409E3,2.4837136E3,1.5918132E3,1.1537582E3,1.7315398E3,5.4566907E2,2.3897397E3,2.0135918E3,4.7012195E2,8.3836316E2,7.5345013E2],"tree_param":{"num_deleted":"0","num_feature":"27","num_nodes":"15","size_leaf_vector":"1"}},{"base_weights":[3.4389106E-4,-2.4414138E-1,3.4949437E-1,2.3254544E-1,-7.1261024E-1,7.4900264E-1,-2.7393916E-1,-3.9194133E-3,6.4863903E-3,-3.7931004E-3,-7.885249E-3,8.102121E-3,4.856713E-3,-7.6749395E-3,2.755281E-3],"categories":[],"categories_nodes":[],"categories_segments":[],"categories_sizes":[],"default_left":[0,0,0,0,0,0,0,0,0,0,0,0,0,0,0],"id":77,"left_children":[1,3,5,7,9,11,13,-1,-1,-1,-1,-1,-1,-1,-1],"loss_changes":[8.449345E2,1.300228E3,1.01553296E3,7.502441E2,7.3999146E1,3.9656128E1,4.3217E2,0E0,0E0,0E0,0E0,0E0,0E0,0E0,0E0],"parents":[2147483647,0,0,1,1,2,2,3,3,4,4,5,5,6,6],"right_children":[2,4,6,8,10,12,14,-1,-1,-1,-1,-1,-1,-1,-1],"split_conditions":[1.12E2,1.05E2,1.18E2,9.7E1,1.08E2,1.14E2,1.23E2,-3.9194133E-3,6.4863903E-3,-3.7931004E-3,-7.885249E-3,8.102121E-3,4.856713E-3,-7.6749395E-3,