{"learner":{"attributes":{},"feature_names":[],"feature_types":[],"gradient_booster":{"model":{"gbtree_model_param":{"num_parallel_tree":"1","num_trees":"1500"},"iteration_indptr":[0,2,4,6,8,10,12,14,16,18,20,22,24,26,28,30,32,34,36,38,40,42,44,46,48,50,52,54,56,58,60,62,64,66,68,70,72,74,76,78,80,82,84,86,88,90,92,94,96,98,100,102,104,106,108,110,112,114,116,118,120,122,124,126,128,130,132,134,136,138,140,142,144,146,148,150,152,154,156,158,160,162,164,166,168,170,172,174,176,178,180,182,184,186,188,190,192,194,196,198,200,202,204,206,208,210,212,214,216,218,220,222,224,226,228,230,232,234,236,238,240,242,244,246,248,250,252,254,256,258,260,262,264,266,268,270,272,274,276,278,280,282,284,286,288,290,292,294,296,298,300,302,304,306,308,310,312,314,316,318,320,322,324,326,328,330,332,334,336,338,340,342,344,346,348,350,352,354,356,358,360,362,364,366,368,370,372,374,376,378,380,382,384,386,388,390,392,394,396,398,400,402,404,406,408,410,412,414,416,418,420,422,424,426,428,430,432,434,436,438,440,442,444,446,448,450,452,454,456,458,460,462,464,466,468,470,472,474,476,478,480,482,484,486,488,490,492,494,496,498,500,502,504,506,508,510,512,514,516,518,520,522,524,526,528,530,532,534,536,538,540,542,544,546,548,550,552,554,556,558,560,562,564,566,568,570,572,574,576,578,580,582,584,586,588,590,592,594,596,598,600,602,604,606,608,610,612,614,616,618,620,622,624,626,628,630,632,634,636,638,640,642,644,646,648,650,652,654,656,658,660,662,664,666,668,670,672,674,676,678,680,682,684,686,688,690,692,694,696,698,700,702,704,706,708,710,712,714,716,718,720,722,724,726,728,730,732,734,736,738,740,742,744,746,748,750,752,754,756,758,760,762,764,766,768,770,772,774,776,778,780,782,784,786,788,790,792,794,796,798,800,802,804,806,808,810,812,814,816,818,820,822,824,826,828,830,832,834,836,838,840,842,844,846,848,850,852,854,856,858,860,862,864,866,868,870,872,874,876,878,880,882,884,886,888,890,892,894,896,898,900,902,904,906,908,910,912,914,916,918,920,922,924,926,928,930,932,934,936,938,940,942,944,946,948,950,952,954,956,958,960,962,964,966,968,970,972,974,976,978,980,982,984,986,988,990,992,994,996,998,1000,1002,1004,1006,1008,1010,1012,1014,1016,1018,1020,1022,1024,1026,1028,1030,1032,1034,1036,1038,1040,1042,1044,1046,1048,1050,1052,1054,1056,1058,1060,1062,1064,1066,1068,1070,1072,1074,1076,1078,1080,1082,1084,1086,1088,1090,1092,1094,1096,1098,1100,1102,1104,1106,1108,1110,1112,1114,1116,1118,1120,1122,1124,1126,1128,1130,1132,1134,1136,1138,1140,1142,1144,1146,1148,1150,1152,1154,1156,1158,1160,1162,1164,1166,1168,1170,1172,1174,1176,1178,1180,1182,1184,1186,1188,1190,1192,1194,1196,1198,1200,1202,1204,1206,1208,1210,1212,1214,1216,1218,1220,1222,1224,1226,1228,1230,1232,1234,1236,1238,1240,1242,1244,1246,1248,1250,1252,1254,1256,1258,1260,1262,1264,1266,1268,1270,1272,1274,1276,1278,1280,1282,1284,1286,1288,1290,1292,1294,1296,1298,1300,1302,1304,1306,1308,1310,1312,1314,1316,1318,1320,1322,1324,1326,1328,1330,1332,1334,1336,1338,1340,1342,1344,1346,1348,1350,1352,1354,1356,1358,1360,1362,1364,1366,1368,1370,1372,1374,1376,1378,1380,1382,1384,1386,1388,1390,1392,1394,1396,1398,1400,1402,1404,1406,1408,1410,1412,1414,1416,1418,1420,1422,1424,1426,1428,1430,1432,1434,1436,1438,1440,1442,1444,1446,1448,1450,1452,1454,1456,1458,1460,1462,1464,1466,1468,1470,1472,1474,1476,1478,1480,1482,1484,1486,1488,1490,1492,1494,1496,1498,1500],"tree_info":[0,1,0,1,0,1,0,1,0,1,0,1,0,1,0,1,0,1,0,1,0,1,0,1,0,1,0,1,0,1,0,1,0,1,0,1,0,1,0,1,0,1,0,1,0,1,0,1,0,1,0,1,0,1,0,1,0,1,0,1,0,1,0,1,0,1,0,1,0,1,0,1,0,1,0,1,0,1,0,1,0,1,0,1,0,1,0,1,0,1,0,1,0,1,0,1,0,1,0,1,0,1,0,1,0,1,0,1,0,1,0,1,0,1,0,1,0,1,0,1,0,1,0,1,0,1,0,1,0,1,0,1,0,1,0,1,0,1,0,1,0,1,0,1,0,1,0,1,0,1,0,1,0,1,0,1,0,1,0,1,0,1,0,1,0,1,0,1,0,1,0,1,0,1,0,1,0,1,0,1,0,1,0,1,0,1,0,1,0,1,0,1,0,1,0,1,0,1,0,1,0,1,0,1,0,1,0,1,0,1,0,1,0,1,0,1,0,1,0,1,0,1,0,1,0,1,0,1,0,1,0,1,0,1,0,1,0,1,0,1,0,1,0,1,0,1,0,1,0,1,0,1,0,1,0,1,0,1,0,1,0,1,0,1,0,1,0,1,0,1,0,1,0,1,0,1,0,1,0,1,0,1,0,1,0,1,0,1,0,1,0,1,0,1,0,1,0,1,0,1,0,1,0,1,0,1,0,1,0,1,0,1,0,1,0,1,0,1,0,1,0,1,0,1,0,1,0,1,0,1,0,1,0,1,0,1,0,1,0,1,0,1,0,1,0,1,0,1,0,1,0,1,0,1,0,1,0,1,0,1,0,1,0,1,0,1,0,1,0,1,0,1,0,1,0,1,0,1,0,1,0,1,0,1,0,1,0,1,0,1,0,1,0,1,0,1,0,1,0,1,0,1,0,1,0,1,0,1,0,1,0,1,0,1,0,1,0,1,0,1,0,1,0,1,0,1,0,1,0,1,0,1,0,1,0,1,0,1,0,1,0,1,0,1,0,1,0,1,0,1,0,1,0,1,0,1,0,1,0,1,0,1,0,1,0,1,0,1,0,1,0,1,0,1,0,1,0,1,0,1,0,1,0,1,0,1,0,1,0,1,0,1,0,1,0,1,0,1,0,1,0,1,0,1,0,1,0,1,0,1,0,1,0,1,0,1,0,1,0,1,0,1,0,1,0,1,0,1,0,1,0,1,0,1,0,1,0,1,0,1,0,1,0,1,0,1,0,1,0,1,0,1,0,1,0,1,0,1,0,1,0,1,0,1,0,1,0,1,0,1,0,1,0,1,0,1,0,1,0,1,0,1,0,1,0,1,0,1,0,1,0,1,0,1,0,1,0,1,0,1,0,1,0,1,0,1,0,1,0,1,0,1,0,1,0,1,0,1,0,1,0,1,0,1,0,1,0,1,0,1,0,1,0,1,0,1,0,1,0,1,0,1,0,1,0,1,0,1,0,1,0,1,0,1,0,1,0,1,0,1,0,1,0,1,0,1,0,1,0,1,0,1,0,1,0,1,0,1,0,1,0,1,0,1,0,1,0,1,0,1,0,1,0,1,0,1,0,1,0,1,0,1,0,1,0,1,0,1,0,1,0,1,0,1,0,1,0,1,0,1,0,1,0,1,0,1,0,1,0,1,0,1,0,1,0,1,0,1,0,1,0,1,0,1,0,1,0,1,0,1,0,1,0,1,0,1,0,1,0,1,0,1,0,1,0,1,0,1,0,1,0,1,0,1,0,1,0,1,0,1,0,1,0,1,0,1,0,1,0,1,0,1,0,1,0,1,0,1,0,1,0,1,0,1,0,1,0,1,0,1,0,1,0,1,0,1,0,1,0,1,0,1,0,1,0,1,0,1,0,1,0,1,0,1,0,1,0,1,0,1,0,1,0,1,0,1,0,1,0,1,0,1,0,1,0,1,0,1,0,1,0,1,0,1,0,1,0,1,0,1,0,1,0,1,0,1,0,1,0,1,0,1,0,1,0,1,0,1,0,1,0,1,0,1,0,1,0,1,0,1,0,1,0,1,0,1,0,1,0,1,0,1,0,1,0,1,0,1,0,1,0,1,0,1,0,1,0,1,0,1,0,1,0,1,0,1,0,1,0,1,0,1,0,1,0,1,0,1,0,1,0,1,0,1,0,1,0,1,0,1,0,1,0,1,0,1,0,1,0,1,0,1,0,1,0,1,0,1,0,1,0,1,0,1,0,1,0,1,0,1,0,1,0,1,0,1,0,1,0,1,0,1,0,1,0,1,0,1,0,1,0,1,0,1,0,1,0,1,0,1,0,1,0,1,0,1,0,1,0,1,0,1,0,1,0,1,0,1,0,1,0,1,0,1,0,1,0,1,0,1,0,1,0,1,0,1,0,1,0,1,0,1,0,1,0,1,0,1,0,1,0,1,0,1,0,1,0,1,0,1,0,1,0,1,0,1,0,1,0,1,0,1,0,1,0,1,0,1,0,1,0,1,0,1,0,1,0,1,0,1,0,1,0,1,0,1,0,1,0,1,0,1,0,1,0,1,0,1,0,1,0,1,0,1,0,1,0,1,0,1,0,1,0,1,0,1,0,1,0,1,0,1,0,1,0,1,0,1,0,1,0,1,0,1,0,1,0,1,0,1,0,1,0,1,0,1,0,1,0,1,0,1,0,1,0,1,0,1,0,1,0,1,0,1,0,1,0,1,0,1,0,1,0,1,0,1,0,1,0,1,0,1,0,1,0,1,0,1,0,1,0,1,0,1,0,1,0,1,0,1,0,1,0,1,0,1,0,1,0,1,0,1,0,1,0,1,0,1,0,1,0,1,0,1,0,1,0,1,0,1,0,1,0,1,0,1,0,1,0,1,0,1,0,1,0,1,0,1,0,1,0,1,0,1,0,1,0,1,0,1,0,1,0,1,0,1,0,1,0,1,0,1,0,1,0,1,0,1,0,1,0,1,0,1,0,1,0,1,0,1,0,1,0,1,0,1,0,1,0,1,0,1,0,1,0,1,0,1,0,1,0,1,0,1,0,1,0,1,0,1,0,1,0,1,0,1,0,1,0,1,0,1,0,1,0,1,0,1,0,1,0,1,0,1,0,1,0,1,0,1,0,1,0,1,0,1,0,1,0,1,0,1,0,1,0,1,0,1,0,1,0,1,0,1,0,1,0,1,0,1,0,1,0,1,0,1,0,1,0,1,0,1,0,1,0,1,0,1,0,1,0,1,0,1,0,1,0,1,0,1,0,1,0,1,0,1,0,1,0,1,0,1,0,1,0,1,0,1,0,1,0,1,0,1,0,1,0,1,0,1,0,1,0,1,0,1,0,1,0,1,0,1,0,1,0,1,0,1,0,1,0,1,0,1,0,1,0,1,0,1],"trees":[{"base_weights":[-7.29927E-3,4.0331492E-1,-4.6604937E-1,-3.4343433E-1,6.818182E-1,-7.763158E-1,2.6804122E-1,4.3820227E-3,-9.639639E-3,9.538905E-3,1.5846994E-3,-3.8157895E-3,-9.673202E-3,9.56044E-3,-3.3333334E-3],"categories":[],"categories_nodes":[],"categories_segments":[],"categories_sizes":[],"default_left":[0,0,0,0,0,0,0,0,0,0,0,0,0,0,0],"id":0,"left_children":[1,3,5,7,9,11,13,-1,-1,-1,-1,-1,-1,-1,-1],"loss_changes":[1.2922095E2,7.552006E1,7.400351E1,4.8440247E1,3.743943E1,1.682129E1,4.045217E1,0E0,0E0,0E0,0E0,0E0,0E0,0E0,0E0],"parents":[2147483647,0,0,1,1,2,2,3,3,4,4,5,5,6,6],"right_children":[2,4,6,8,10,12,14,-1,-1,-1,-1,-1,-1,-1,-1],"split_conditions":[4.81E-1,1.08E2,1.23E2,1.05E2,1.14E2,1.18E2,1.27E2,4.3820227E-3,-9.639639E-3,9.538905E-3,1.5846994E-3,-3.8157895E-3,-9.673202E-3,9.56044E-3,-3.3333334E-3],"split_indices":[3,26,26,13,13,13,13,0,0,0,0,0,0,0,0],"split_type":[0,0,0,0,0,0,0,0,0,0,0,0,0,0,0],"sum_hessian":[6.84E2,3.61E2,3.23E2,9.8E1,2.63E2,2.27E2,9.6E1,4.35E1,5.45E1,1.725E2,9.05E1,7.5E1,1.52E2,4.45E1,5.15E1],"tree_param":{"num_deleted":"0","num_feature":"27","num_nodes":"15","size_leaf_vector":"1"}},{"base_weights":[7.29927E-3,-4.0331492E-1,4.6604937E-1,3.4343433E-1,-6.818182E-1,7.763158E-1,-2.6804122E-1,-4.3820227E-3,9.639639E-3,-9.538905E-3,-1.5846994E-3,3.8157895E-3,9.673202E-3,-9.56044E-3,3.3333334E-3],"categories":[],"categories_nodes":[],"categories_segments":[],"categories_sizes":[],"default_left":[0,0,0,0,0,0,0,0,0,0,0,0,0,0,0],"id":1,"left_children":[1,3,5,7,9,11,13,-1,-1,-1,-1,-1,-1,-1,-1],"loss_changes":[1.2922095E2,7.552006E1,7.400351E1,4.8440247E1,3.743943E1,1.682129E1,4.045217E1,0E0,0E0,0E0,0E0,0E0,0E0,0E0,0E0],"parents":[2147483647,0,0,1,1,2,2,3,3,4,4,5,5,6,6],"right_children":[2,4,6,8,10,12,14,-1,-1,-1,-1,-1,-1,-1,-1],"split_conditions":[4.81E-1,1.08E2,1.23E2,1.05E2,1.14E2,1.18E2,1.27E2,-4.3820227E-3,9.639639E-3,-9.538905E-3,-1.5846994E-3,3.8157895E-3,9.673202E-3,-9.56044E-3,3.3333334E-3],"split_indices":[3,26,26,13,13,13,13,0,0,0,0,0,0,0,0],"split_type":[0,0,0,0,0,0,0,0,0,0,0,0,0,0,0],"sum_hessian":[6.84E2,3.61E2,3.23E2,9.8E1,2.63E2,2.27E2,9.6E1,4.35E1,5.45E1,1.725E2,9.05E1,7.5E1,1.52E2,4.45E1,5.15E1],"tree_param":{"num_deleted":"0","num_feature":"27","num_nodes":"15","size_leaf_vector":"1"}},{"base_weights":[-7.228778E-3,-4.1672927E-1,4.4500214E-1,3.5361657E-1,-7.021971E-1,7.7019703E-1,-3.0298877E-1,-3.9303405E-3,9.568005E-3,-9.530806E-3,-2.093583E-3,2.666013E-3,9.142022E-3,-8.869215E-3,4.386257E-3],"categories":[],"categories_nodes":[],"categories_segments":[],"categories_sizes":[],"default_left":[0,0,0,0,0,0,0,0,0,0,0,0,0,0,0],"id":2,"left_children":[1,3,5,7,9,11,13,-1,-1,-1,-1,-1,-1,-1,-1],"loss_changes":[1.2703204E2,7.9410675E1,7.95257E1,4.450977E1,3.231703E1,1.6253555E1,4.347591E1,0E0,0E0,0E0,0E0,0E0,0E0,0E0,0E0],"parents":[2147483647,0,0,1,1,2,2,3,3,4,4,5,5,6,6],"right_children":[2,4,6,8,10,12,14,-1,-1,-1,-1,-1,-1,-1,-1],"split_conditions":[4.81E-1,1.08E2,1.23E2,1.05E2,1.14E2,1.15E2,1.29E2,-3.9303405E-3,9.568005E-3,-9.530806E-3,-2.093583E-3,2.666013E-3,9.142022E-3,-8.869215E-3,4.386257E-3],"split_indices":[16,13,13,26,26,26,26,0,0,0,0,0,0,0,0],"split_type":[0,0,0,0,0,0,0,0,0,0,0,0,0,0,0],"sum_hessian":[6.8395825E2,3.5897794E2,3.249803E2,9.699486E1,2.6198306E2,2.2648465E2,9.849565E1,4.3498585E1,5.3496273E1,1.7298819E2,8.899489E1,5.0996788E1,1.7548787E2,5.4996525E1,4.3499123E1],"tree_param":{"num_deleted":"0","num_feature":"27","num_nodes":"15","size_leaf_vector":"1"}},{"base_weights":[7.228767E-3,4.1672927E-1,-4.4500217E-1,-3.5361657E-1,7.021971E-1,-7.7019703E-1,3.0298877E-1,3.9303405E-3,-9.568005E-3,9.530806E-3,2.093583E-3,-2.666013E-3,-9.142022E-3,8.869215E-3,-4.386257E-3],"categories":[],"categories_nodes":[],"categories_segments":[],"categories_sizes":[],"default_left":[0,0,0,0,0,0,0,0,0,0,0,0,0,0,0],"id":3,"left_children":[1,3,5,7,9,11,13,-1,-1,-1,-1,-1,-1,-1,-1],"loss_changes":[1.2703204E2,7.9410675E1,7.95257E1,4.450977E1,3.231703E1,1.6253555E1,4.347591E1,0E0,0E0,0E0,0E0,0E0,0E0,0E0,0E0],"parents":[2147483647,0,0,1,1,2,2,3,3,4,4,5,5,6,6],"right_children":[2,4,6,8,10,12,14,-1,-1,-1,-1,-1,-1,-1,-1],"split_conditions":[4.81E-1,1.08E2,1.23E2,1.05E2,1.14E2,1.15E2,1.29E2,3.9303405E-3,-9.568005E-3,9.530806E-3,2.093583E-3,-2.666013E-3,-9.142022E-3,8.869215E-3,-4.386257E-3],"split_indices":[16,13,13,26,26,26,26,0,0,0,0,0,0,0,0],"split_type":[0,0,0,0,0,0,0,0,0,0,0,0,0,0,0],"sum_hessian":[6.8395825E2,3.5897794E2,3.2498032E2,9.699486E1,2.6198306E2,2.2648466E2,9.849565E1,4.3498585E1,5.3496277E1,1.7298819E2,8.899489E1,5.0996788E1,1.7548787E2,5.499653E1,4.3499123E1],"tree_param":{"num_deleted":"0","num_feature":"27","num_nodes":"15","size_leaf_vector":"1"}},{"base_weights":[-7.1555697E-3,3.9682865E-1,-4.5849904E-1,-3.3635816E-1,6.702768E-1,-7.6329577E-1,2.626041E-1,4.336444E-3,-9.478361E-3,9.378844E-3,1.5563472E-3,-3.7484958E-3,-9.512948E-3,9.4054025E-3,-3.2980486E-3],"categories":[],"categories_nodes":[],"categories_segments":[],"categories_sizes":[],"default_left":[0,0,0,0,0,0,0,0,0,0,0,0,0,0,0],"id":4,"left_children":[1,3,5,7,9,11,13,-1,-1,-1,-1,-1,-1,-1,-1],"loss_changes":[1.2505611E2,7.278741E1,7.139767E1,4.701541E1,3.6204987E1,1.6289902E1,3.9260937E1,0E0,0E0,0E0,0E0,0E0,0E0,0E0,0E0],"parents":[2147483647,0,0,1,1,2,2,3,3,4,4,5,5,6,6],"right_children":[2,4,6,8,10,12,14,-1,-1,-1,-1,-1,-1,-1,-1],"split_conditions":[4.81E-1,1.08E2,1.23E2,1.05E2,1.14E2,1.18E2,1.27E2,4.336444E-3,-9.478361E-3,9.378844E-3,1.5563472E-3,-3.7484958E-3,-9.512948E-3,9.4054025E-3,-3.2980486E-3],"split_indices":[3,26,26,13,13,13,13,0,0,0,0,0,0,0,0],"split_type":[0,0,0,0,0,0,0,0,0,0,0,0,0,0,0],"sum_hessian":[6.8385876E2,3.6092566E2,3.229331E2,9.7981445E1,2.629442E2,2.2694795E2,9.598515E1,4.3497772E1,5.448367E1,1.7244995E2,9.0494255E1,7.499211E1,1.5195584E2,4.448738E1,5.1497772E1],"tree_param":{"num_deleted":"0","num_feature":"27","num_nodes":"15","size_leaf_vector":"1"}},{"base_weights":[7.1555683E-3,-3.9682868E-1,4.5849907E-1,3.3635816E-1,-6.702768E-1,7.632958E-1,-2.626041E-1,-4.336444E-3,9.478361E-3,-9.378844E-3,-1.5563475E-3,3.7484963E-3,9.512949E-3,-9.405404E-3,3.2980496E-3],"categories":[],"categories_nodes":[],"categories_segments":[],"categories_sizes":[],"default_left":[0,0,0,0,0,0,0,0,0,0,0,0,0,0,0],"id":5,"left_children":[1,3,5,7,9,11,13,-1,-1,-1,-1,-1,-1,-1,-1],"loss_changes":[1.2505612E2,7.2787415E1,7.1397675E1,4.7015408E1,3.6204994E1,1.6289886E1,3.926094E1,0E0,0E0,0E0,0E0,0E0,0E0,0E0,0E0],"parents":[2147483647,0,0,1,1,2,2,3,3,4,4,5,5,6,6],"right_children":[2,4,6,8,10,12,14,-1,-1,-1,-1,-1,-1,-1,-1],"split_conditions":[4.81E-1,1.08E2,1.23E2,1.05E2,1.14E2,1.18E2,1.27E2,-4.336444E-3,9.478361E-3,-9.378844E-3,-1.5563475E-3,3.7484963E-3,9.512949E-3,-9.405404E-3,3.2980496E-3],"split_indices":[3,26,26,13,13,13,13,0,0,0,0,0,0,0,0],"split_type":[0,0,0,0,0,0,0,0,0,0,0,0,0,0,0],"sum_hessian":[6.8385876E2,3.6092566E2,3.229331E2,9.798144E1,2.629442E2,2.2694795E2,9.598515E1,4.3497772E1,5.448367E1,1.7244995E2,9.0494255E1,7.499211E1,1.5195584E2,4.4487385E1,5.149777E1],"tree_param":{"num_deleted":"0","num_feature":"27","num_nodes":"15","size_leaf_vector":"1"}},{"base_weights":[-7.0878556E-3,-4.100533E-1,4.3792695E-1,3.4676614E-1,-6.9052607E-1,7.573086E-1,-2.9658702E-1,-3.8901968E-3,9.414577E-3,-9.374778E-3,-2.055883E-3,2.6143726E-3,8.991535E-3,-8.727281E-3,4.34789E-3],"categories":[],"categories_nodes":[],"categories_segments":[],"categories_sizes":[],"default_left":[0,0,0,0,0,0,0,0,0,0,0,0,0,0,0],"id":6,"left_children":[1,3,5,7,9,11,13,-1,-1,-1,-1,-1,-1,-1,-1],"loss_changes":[1.2296016E2,7.662002E1,7.6665276E1,4.3230385E1,3.1287796E1,1.5758194E1,4.2292118E1,0E0,0E0,0E0,0E0,0E0,0E0,0E0,0E0],"parents":[2147483647,0,0,1,1,2,2,3,3,4,4,5,5,6,6],"right_children":[2,4,6,8,10,12,14,-1,-1,-1,-1,-1,-1,-1,-1],"split_conditions":[4.81E-1,1.08E2,1.23E2,1.05E2,1.14E2,1.15E2,1.29E2,-3.8901968E-3,9.414577E-3,-9.374778E-3,-2.055883E-3,2.6143726E-3,8.991535E-3,-8.727281E-3,4.34789E-3],"split_indices":[16,13,13,26,26,26,26,0,0,0,0,0,0,0,0],"split_type":[0,0,0,0,0,0,0,0,0,0,0,0,0,0,0],"sum_hessian":[6.836796E2,3.5883206E2,3.2484753E2,9.696046E1,2.618716E2,2.263813E2,9.846624E1,4.349359E1,5.3466866E1,1.7289343E2,8.897817E1,5.0985546E1,1.7539577E2,5.4970215E1,4.3496025E1],"tree_param":{"num_deleted":"0","num_feature":"27","num_nodes":"15","size_leaf_vector":"1"}},{"base_weights":[7.0878514E-3,4.100533E-1,-4.3792698E-1,-3.467661E-1,6.9052607E-1,-7.5730866E-1,2.9658705E-1,3.8901973E-3,-9.414577E-3,9.374778E-3,2.0558832E-3,-2.6143729E-3,-8.991535E-3,8.727281E-3,-4.34789E-3],"categories":[],"categories_nodes":[],"categories_segments":[],"categories_sizes":[],"default_left":[0,0,0,0,0,0,0,0,0,0,0,0,0,0,0],"id":7,"left_children":[1,3,5,7,9,11,13,-1,-1,-1,-1,-1,-1,-1,-1],"loss_changes":[1.2296017E2,7.6619995E1,7.666528E1,4.3230377E1,3.128778E1,1.5758194E1,4.2292118E1,0E0,0E0,0E0,0E0,0E0,0E0,0E0,0E0],"parents":[2147483647,0,0,1,1,2,2,3,3,4,4,5,5,6,6],"right_children":[2,4,6,8,10,12,14,-1,-1,-1,-1,-1,-1,-1,-1],"split_conditions":[4.81E-1,1.08E2,1.23E2,1.05E2,1.14E2,1.15E2,1.29E2,3.8901973E-3,-9.414577E-3,9.374778E-3,2.0558832E-3,-2.6143729E-3,-8.991535E-3,8.727281E-3,-4.34789E-3],"split_indices":[16,13,13,26,26,26,26,0,0,0,0,0,0,0,0],"split_type":[0,0,0,0,0,0,0,0,0,0,0,0,0,0,0],"sum_hessian":[6.836796E2,3.5883206E2,3.2484753E2,9.696046E1,2.618716E2,2.263813E2,9.846623E1,4.349359E1,5.346687E1,1.7289345E2,8.897817E1,5.0985546E1,1.7539575E2,5.497021E1,4.349602E1],"tree_param":{"num_deleted":"0","num_feature":"27","num_nodes":"15","size_leaf_vector":"1"}},{"base_weights":[-7.017479E-3,3.906066E-1,-4.512567E-1,-3.295254E-1,6.592006E-1,-7.508264E-1,2.5733346E-1,4.291932E-3,-9.325076E-3,9.226645E-3,1.5286391E-3,-2.6561704E-3,-8.9635365E-3,8.256941E-3,-4.312229E-3],"categories":[],"categories_nodes":[],"categories_segments":[],"categories_sizes":[],"default_left":[0,0,0,0,0,0,0,0,0,0,0,0,0,0,0],"id":8,"left_children":[1,3,5,7,9,11,13,-1,-1,-1,-1,-1,-1,-1,-1],"loss_changes":[1.21076706E2,7.017984E1,6.891354E1,4.565871E1,3.5047676E1,1.5846817E1,3.829398E1,0E0,0E0,0E0,0E0,0E0,0E0,0E0,0E0],"parents":[2147483647,0,0,1,1,2,2,3,3,4,4,5,5,6,6],"right_children":[2,4,6,8,10,12,14,-1,-1,-1,-1,-1,-1,-1,-1],"split_conditions":[4.81E-1,1.08E2,1.23E2,1.05E2,1.14E2,1.15E2,1.29E2,4.291932E-3,-9.325076E-3,9.226645E-3,1.5286391E-3,-2.6561704E-3,-8.9635365E-3,8.256941E-3,-4.312229E-3],"split_indices":[3,26,26,13,13,13,13,0,0,0,0,0,0,0,0],"split_type":[0,0,0,0,0,0,0,0,0,0,0,0,0,0,0],"sum_hessian":[6.834446E2,3.607076E2,3.2273694E2,9.7926994E1,2.6278064E2,2.2679536E2,9.594158E1,4.3491215E1,5.443578E1,1.7230324E2,9.0477394E1,5.29794E1,1.7381596E2,5.2449005E1,4.3492577E1],"tree_param":{"num_deleted":"0","num_feature":"27","num_nodes":"15","size_leaf_vector":"1"}},{"base_weights":[7.0174844E-3,-3.906066E-1,4.512567E-1,3.2952544E-1,-6.592006E-1,7.508264E-1,-2.5733346E-1,-4.291932E-3,9.325077E-3,-9.226645E-3,-1.5286395E-3,2.6561706E-3,8.9635365E-3,-8.256941E-3,4.3122284E-3],"categories":[],"categories_nodes":[],"categories_segments":[],"categories_sizes":[],"default_left":[0,0,0,0,0,0,0,0,0,0,0,0,0,0,0],"id":9,"left_children":[1,3,5,7,9,11,13,-1,-1,-1,-1,-1,-1,-1,-1],"loss_changes":[1.21076706E2,7.017984E1,6.891356E1,4.5658714E1,3.5047684E1,1.5846817E1,3.829398E1,0E0,0E0,0E0,0E0,0E0,0E0,0E0,0E0],"parents":[2147483647,0,0,1,1,2,2,3,3,4,4,5,5,6,6],"right_children":[2,4,6,8,10,12,14,-1,-1,-1,-1,-1,-1,-1,-1],"split_conditions":[4.81E-1,1.08E2,1.23E2,1.05E2,1.14E2,1.15E2,1.29E2,-4.291932E-3,9.325077E-3,-9.226645E-3,-1.5286395E-3,2.6561706E-3,8.9635365E-3,-8.256941E-3,4.3122284E-3],"split_indices":[3,26,26,13,13,13,13,0,0,0,0,0,0,0,0],"split_type":[0,0,0,0,0,0,0,0,0,0,0,0,0,0,0],"sum_hessian":[6.834446E2,3.607076E2,3.2273694E2,9.7926994E1,2.6278064E2,2.2679536E2,9.594158E1,4.3491215E1,5.4435776E1,1.7230324E2,9.04774E1,5.29794E1,1.7381596E2,5.2449005E1,4.3492577E1],"tree_param":{"num_deleted":"0","num_feature":"27","num_nodes":"15","size_leaf_vector":"1"}},{"base_weights":[-6.9532814E-3,-4.036649E-1,4.311528E-1,3.3997774E-1,-6.792882E-1,7.4517626E-1,-2.9082903E-1,-3.853273E-3,9.267487E-3,-9.225223E-3,-2.0202757E-3,3.6065343E-3,9.246569E-3,-8.5955E-3,4.3053683E-3],"categories":[],"categories_nodes":[],"categories_segments":[],"categories_sizes":[],"default_left":[0,0,0,0,0,0,0,0,0,0,0,0,0,0,0],"id":10,"left_children":[1,3,5,7,9,11,13,-1,-1,-1,-1,-1,-1,-1,-1],"loss_changes":[1.1907879E2,7.392579E1,7.403468E1,4.2019222E1,3.0304207E1,1.5345398E1,4.1153374E1,0E0,0E0,0E0,0E0,0E0,0E0,0E0,0E0],"parents":[2147483647,0,0,1,1,2,2,3,3,4,4,5,5,6,6],"right_children":[2,4,6,8,10,12,14,-1,-1,-1,-1,-1,-1,-1,-1],"split_conditions":[4.81E-1,1.08E2,1.23E2,1.05E2,1.14E2,1.18E2,1.29E2,-3.853273E-3,9.267487E-3,-9.225223E-3,-2.0202757E-3,3.6065343E-3,9.246569E-3,-8.5955E-3,4.3053683E-3],"split_indices":[16,13,13,26,26,26,26,0,0,0,0,0,0,0,0],"split_type":[0,0,0,0,0,0,0,0,0,0,0,0,0,0,0],"sum_hessian":[6.8313995E2,3.58548E2,3.2459198E2,9.6893105E1,2.616549E2,2.2618256E2,9.8409424E1,4.3484905E1,5.3408195E1,1.72704E2,8.895091E1,7.29349E1,1.5324765E2,5.4919567E1,4.3489857E1],"tree_param":{"num_deleted":"0","num_feature":"27","num_nodes":"15","size_leaf_vector":"1"}},{"base_weights":[6.9532716E-3,4.036649E-1,-4.3115282E-1,-3.399777E-1,6.792882E-1,-7.4517626E-1,2.9082903E-1,3.8532733E-3,-9.267486E-3,9.225223E-3,2.0202752E-3,-3.6065346E-3,-9.24657E-3,8.5955E-3,-4.305368E-3],"categories":[],"categories_nodes":[],"categories_segments":[],"categories_sizes":[],"default_left":[0,0,0,0,0,0,0,0,0,0,0,0,0,0,0],"id":11,"left_children":[1,3,5,7,9,11,13,-1,-1,-1,-1,-1,-1,-1,-1],"loss_changes":[1.1907879E2,7.392579E1,7.403468E1,4.2019226E1,3.0304207E1,1.5345383E1,4.1153374E1,0E0,0E0,0E0,0E0,0E0,0E0,0E0,0E0],"parents":[2147483647,0,0,1,1,2,2,3,3,4,4,5,5,6,6],"right_children":[2,4,6,8,10,12,14,-1,-1,-1,-1,-1,-1,-1,-1],"split_conditions":[4.81E-1,1.08E2,1.23E2,1.05E2,1.14E2,1.18E2,1.29E2,3.8532733E-3,-9.267486E-3,9.225223E-3,2.0202752E-3,-3.6065346E-3,-9.24657E-3,8.5955E-3,-4.305368E-3],"split_indices":[16,13,13,26,26,26,26,0,0,0,0,0,0,0,0],"split_type":[0,0,0,0,0,0,0,0,0,0,0,0,0,0,0],"sum_hessian":[6.8313995E2,3.58548E2,3.2459198E2,9.6893105E1,2.616549E2,2.2618254E2,9.8409424E1,4.3484905E1,5.3408195E1,1.72704E2,8.895091E1,7.29349E1,1.5324765E2,5.4919567E1,4.3489857E1],"tree_param":{"num_deleted":"0","num_feature":"27","num_nodes":"15","size_leaf_vector":"1"}},{"base_weights":[-6.883417E-3,3.8461468E-1,-4.4427687E-1,-3.2307994E-1,6.485928E-1,-7.387741E-1,2.520651E-1,4.246272E-3,-9.180238E-3,9.082724E-3,1.5005894E-3,-3.6106359E-3,-9.2184E-3,8.129812E-3,-4.268497E-3],"categories":[],"categories_nodes":[],"categories_segments":[],"categories_sizes":[],"default_left":[0,0,0,0,0,0,0,0,0,0,0,0,0,0,0],"id":12,"left_children":[1,3,5,7,9,11,13,-1,-1,-1,-1,-1,-1,-1,-1],"loss_changes":[1.172601E2,6.7716446E1,6.651079E1,4.435741E1,3.3978355E1,1.5401253E1,3.7237762E1,0E0,0E0,0E0,0E0,0E0,0E0,0E0,0E0],"parents":[2147483647,0,0,1,1,2,2,3,3,4,4,5,5,6,6],"right_children":[2,4,6,8,10,12,14,-1,-1,-1,-1,-1,-1,-1,-1],"split_conditions":[4.81E-1,1.08E2,1.23E2,1.05E2,1.14E2,1.18E2,1.29E2,4.246272E-3,-9.180238E-3,9.082724E-3,1.5005894E-3,-3.6106359E-3,-9.2184E-3,8.129812E-3,-4.268497E-3],"split_indices":[3,26,26,13,13,13,13,0,0,0,0,0,0,0,0],"split_type":[0,0,0,0,0,0,0,0,0,0,0,0,0,0,0],"sum_hessian":[6.827779E2,3.6035516E2,3.2242273E2,9.783828E1,2.625169E2,2.265494E2,9.587332E1,4.34801E1,5.4358185E1,1.7206741E2,9.0449486E1,7.4927536E1,1.5162187E2,5.2390816E1,4.3482502E1],"tree_param":{"num_deleted":"0","num_feature":"27","num_nodes":"15","size_leaf_vector":"1"}},{"base_weights":[6.8834135E-3,-3.8461465E-1,4.442768E-1,3.2308E-1,-6.4859277E-1,7.3877406E-1,-2.5206512E-1,-4.246272E-3,9.1802385E-3,-9.082723E-3,-1.500589E-3,3.6106356E-3,9.218399E-3,-8.129812E-3,4.268497E-3],"categories":[],"categories_nodes":[],"categories_segments":[],"categories_sizes":[],"default_left":[0,0,0,0,0,0,0,0,0,0,0,0,0,0,0],"id":13,"left_children":[1,3,5,7,9,11,13,-1,-1,-1,-1,-1,-1,-1,-1],"loss_changes":[1.17260086E2,6.7716446E1,6.651077E1,4.4357414E1,3.3978363E1,1.5401268E1,3.7237762E1,0E0,0E0,0E0,0E0,0E0,0E0,0E0,0E0],"parents":[2147483647,0,0,1,1,2,2,3,3,4,4,5,5,6,6],"right_children":[2,4,6,8,10,12,14,-1,-1,-1,-1,-1,-1,-1,-1],"split_conditions":[4.81E-1,1.08E2,1.23E2,1.05E2,1.14E2,1.18E2,1.29E2,-4.246272E-3,9.1802385E-3,-9.082723E-3,-1.500589E-3,3.6106356E-3,9.218399E-3,-8.129812E-3,4.268497E-3],"split_indices":[3,26,26,13,13,13,13,0,0,0,0,0,0,0,0],"split_type":[0,0,0,0,0,0,0,0,0,0,0,0,0,0,0],"sum_hessian":[6.827779E2,3.6035516E2,3.2242273E2,9.783828E1,2.625169E2,2.2654941E2,9.587332E1,4.3480095E1,5.4358185E1,1.7206741E2,9.0449486E1,7.4927536E1,1.5162187E2,5.239082E1,4.3482506E1],"tree_param":{"num_deleted":"0","num_feature":"27","num_nodes":"15","size_leaf_vector":"1"}},{"base_weights":[-6.823793E-3,-3.975125E-1,4.2462838E-1,3.3358103E-1,-6.6853327E-1,7.334512E-1,-2.851201E-1,-3.8149517E-3,9.128568E-3,-9.083905E-3,-1.9845264E-3,2.5068526E-3,8.717816E-3,-8.467284E-3,4.263777E-3],"categories":[],"categories_nodes":[],"categories_segments":[],"categories_sizes":[],"default_left":[0,0,0,0,0,0,0,0,0,0,0,0,0,0,0],"id":14,"left_children":[1,3,5,7,9,11,13,-1,-1,-1,-1,-1,-1,-1,-1],"loss_changes":[1.15356514E2,7.138196E1,7.1492325E1,4.0857098E1,2.9398941E1,1.4933693E1,4.0048958E1,0E0,0E0,0E0,0E0,0E0,0E0,0E0,0E0],"parents":[2147483647,0,0,1,1,2,2,3,3,4,4,5,5,6,6],"right_children":[2,4,6,8,10,12,14,-1,-1,-1,-1,-1,-1,-1,-1],"split_conditions":[4.81E-1,1.08E2,1.23E2,1.05E2,1.14E2,1.15E2,1.29E2,-3.8149517E-3,9.128568E-3,-9.083905E-3,-1.9845264E-3,2.5068526E-3,8.717816E-3,-8.467284E-3,4.263777E-3],"split_indices":[16,13,13,26,26,26,26,0,0,0,0,0,0,0,0],"split_type":[0,0,0,0,0,0,0,0,0,0,0,0,0,0,0],"sum_hessian":[6.823491E2,3.58132E2,3.2421713E2,9.679399E1,2.61338E2,2.2589378E2,9.832336E1,4.3472095E1,5.332189E1,1.724258E2,8.891221E1,5.093736E1,1.7495642E2,5.484352E1,4.3479836E1],"tree_param":{"num_deleted":"0","num_feature":"27","num_nodes":"15","size_leaf_vector":"1"}},{"base_weights":[6.8237735E-3,3.9751247E-1,-4.2462838E-1,-3.335811E-1,6.685332E-1,-7.334511E-1,2.851201E-1,3.8149517E-3,-9.12857E-3,9.083905E-3,1.984526E-3,-2.5068517E-3,-8.717815E-3,8.467284E-3,-4.263777E-3],"categories":[],"categories_nodes":[],"categories_segments":[],"categories_sizes":[],"default_left":[0,0,0,0,0,0,0,0,0,0,0,0,0,0,0],"id":15,"left_children":[1,3,5,7,9,11,13,-1,-1,-1,-1,-1,-1,-1,-1],"loss_changes":[1.153565E2,7.138196E1,7.1492325E1,4.0857098E1,2.9398941E1,1.4933685E1,4.0048958E1,0E0,0E0,0E0,0E0,0E0,0E0,0E0,0E0],"parents":[2147483647,0,0,1,1,2,2,3,3,4,4,5,5,6,6],"right_children":[2,4,6,8,10,12,14,-1,-1,-1,-1,-1,-1,-1,-1],"split_conditions":[4.81E-1,1.08E2,1.23E2,1.05E2,1.14E2,1.15E2,1.29E2,3.8149517E-3,-9.12857E-3,9.083905E-3,1.984526E-3,-2.5068517E-3,-8.717815E-3,8.467284E-3,-4.263777E-3],"split_indices":[16,13,13,26,26,26,26,0,0,0,0,0,0,0,0],"split_type":[0,0,0,0,0,0,0,0,0,0,0,0,0,0,0],"sum_hessian":[6.823491E2,3.58132E2,3.2421713E2,9.679398E1,2.61338E2,2.2589378E2,9.832336E1,4.3472095E1,5.332189E1,1.724258E2,8.891221E1,5.093736E1,1.7495644E2,5.4843517E1,4.3479836E1],"tree_param":{"num_deleted":"0","num_feature":"27","num_nodes":"15","size_leaf_vector":"1"}},{"base_weights":[-6.7585446E-3,3.788716E-1,-4.375931E-1,-3.1668893E-1,6.3835764E-1,-7.273004E-1,2.4707165E-1,4.2038313E-3,-9.041321E-3,8.555621E-3,6.013118E-4,-2.5483458E-3,-8.693046E-3,8.00994E-3,-4.2257584E-3],"categories":[],"categories_nodes":[],"categories_segments":[],"categories_sizes":[],"default_left":[0,0,0,0,0,0,0,0,0,0,0,0,0,0,0],"id":16,"left_children":[1,3,5,7,9,11,13,-1,-1,-1,-1,-1,-1,-1,-1],"loss_changes":[1.1361893E2,6.533537E1,6.424611E1,4.3123528E1,3.2999077E1,1.5022606E1,3.6237724E1,0E0,0E0,0E0,0E0,0E0,0E0,0E0,0E0],"parents":[2147483647,0,0,1,1,2,2,3,3,4,4,5,5,6,6],"right_children":[2,4,6,8,10,12,14,-1,-1,-1,-1,-1,-1,-1,-1],"split_conditions":[4.81E-1,1.08E2,1.23E2,1.05E2,1.16E2,1.15E2,1.29E2,4.2038313E-3,-9.041321E-3,8.555621E-3,6.013118E-4,-2.5483458E-3,-8.693046E-3,8.00994E-3,-4.2257584E-3],"split_indices":[3,26,26,13,13,13,13,0,0,0,0,0,0,0,0],"split_type":[0,0,0,0,0,0,0,0,0,0,0,0,0,0,0],"sum_hessian":[6.8186523E2,3.5987234E2,3.219929E2,9.7717384E1,2.6215497E2,2.2621188E2,9.5781E1,4.3465317E1,5.4252068E1,1.9022092E2,7.193405E1,5.292346E1,1.7328842E2,5.2312626E1,4.3468372E1],"tree_param":{"num_deleted":"0","num_feature":"27","num_nodes":"15","size_leaf_vector":"1"}},{"base_weights":[6.758542E-3,-3.7887162E-1,4.3759313E-1,3.1668893E-1,-6.383577E-1,7.2730047E-1,-2.4707162E-1,-4.2038313E-3,9.041321E-3,-8.555621E-3,-6.0131215E-4,2.5483458E-3,8.693046E-3,-8.00994E-3,4.2257584E-3],"categories":[],"categories_nodes":[],"categories_segments":[],"categories_sizes":[],"default_left":[0,0,0,0,0,0,0,0,0,0,0,0,0,0,0],"id":17,"left_children":[1,3,5,7,9,11,13,-1,-1,-1,-1,-1,-1,-1,-1],"loss_changes":[1.1361895E2,6.533538E1,6.42461E1,4.3123524E1,3.2999077E1,1.5022614E1,3.6237724E1,0E0,0E0,0E0,0E0,0E0,0E0,0E0,0E0],"parents":[2147483647,0,0,1,1,2,2,3,3,4,4,5,5,6,6],"right_children":[2,4,6,8,10,12,14,-1,-1,-1,-1,-1,-1,-1,-1],"split_conditions":[4.81E-1,1.08E2,1.23E2,1.05E2,1.16E2,1.15E2,1.29E2,-4.2038313E-3,9.041321E-3,-8.555621E-3,-6.0131215E-4,2.5483458E-3,8.693046E-3,-8.00994E-3,4.2257584E-3],"split_indices":[3,26,26,13,13,13,13,0,0,0,0,0,0,0,0],"split_type":[0,0,0,0,0,0,0,0,0,0,0,0,0,0,0],"sum_hessian":[6.8186523E2,3.5987234E2,3.219929E2,9.7717384E1,2.6215497E2,2.2621188E2,9.5781E1,4.3465313E1,5.4252068E1,1.9022092E2,7.193405E1,5.292346E1,1.7328842E2,5.2312626E1,4.346837E1],"tree_param":{"num_deleted":"0","num_feature":"27","num_nodes":"15","size_leaf_vector":"1"}},{"base_weights":[-6.7009623E-3,-3.915825E-1,4.183359E-1,3.273559E-1,-6.5816706E-1,7.221561E-1,-2.7955514E-1,-3.7796956E-3,8.997209E-3,-8.948394E-3,-1.9505675E-3,3.4751075E-3,8.973873E-3,-8.345459E-3,4.2249965E-3],"categories":[],"categories_nodes":[],"categories_segments":[],"categories_sizes":[],"default_left":[0,0,0,0,0,0,0,0,0,0,0,0,0,0,0],"id":18,"left_children":[1,3,5,7,9,11,13,-1,-1,-1,-1,-1,-1,-1,-1],"loss_changes":[1.1178458E2,6.8942764E1,6.905577E1,3.9768856E1,2.8533989E1,1.4559044E1,3.900909E1,0E0,0E0,0E0,0E0,0E0,0E0,0E0,0E0],"parents":[2147483647,0,0,1,1,2,2,3,3,4,4,5,5,6,6],"right_children":[2,4,6,8,10,12,14,-1,-1,-1,-1,-1,-1,-1,-1],"split_conditions":[4.81E-1,1.08E2,1.23E2,1.05E2,1.14E2,1.18E2,1.29E2,-3.7796956E-3,8.997209E-3,-8.948394E-3,-1.9505675E-3,3.4751075E-3,8.973873E-3,-8.345459E-3,4.2249965E-3],"split_indices":[16,13,13,26,26,26,26,0,0,0,0,0,0,0,0],"split_type":[0,0,0,0,0,0,0,0,0,0,0,0,0,0,0],"sum_hessian":[6.813251E2,3.5759372E2,3.2373135E2,9.6667656E1,2.6092606E2,2.2551904E2,9.8212326E1,4.3456207E1,5.321145E1,1.7206172E2,8.8864334E1,7.2817665E1,1.5270137E2,5.4745785E1,4.3466545E1],"tree_param":{"num_deleted":"0","num_feature":"27","num_nodes":"15","size_leaf_vector":"1"}},{"base_weights":[6.70096E-3,3.9158252E-1,-4.183359E-1,-3.2735583E-1,6.5816706E-1,-7.221561E-1,2.7955514E-1,3.7796956E-3,-8.997208E-3,8.948394E-3,1.9505674E-3,-3.4751077E-3,-8.973873E-3,8.345459E-3,-4.2249965E-3],"categories":[],"categories_nodes":[],"categories_segments":[],"categories_sizes":[],"default_left":[0,0,0,0,0,0,0,0,0,0,0,0,0,0,0],"id":19,"left_children":[1,3,5,7,9,11,13,-1,-1,-1,-1,-1,-1,-1,-1],"loss_changes":[1.1178459E2,6.8942764E1,6.905577E1,3.9768852E1,2.8533989E1,1.4559036E1,3.9009083E1,0E0,0E0,0E0,0E0,0E0,0E0,0E0,0E0],"parents":[2147483647,0,0,1,1,2,2,3,3,4,4,5,5,6,6],"right_children":[2,4,6,8,10,12,14,-1,-1,-1,-1,-1,-1,-1,-1],"split_conditions":[4.81E-1,1.08E2,1.23E2,1.05E2,1.14E2,1.18E2,1.29E2,3.7796956E-3,-8.997208E-3,8.948394E-3,1.9505674E-3,-3.4751077E-3,-8.973873E-3,8.345459E-3,-4.2249965E-3],"split_indices":[16,13,13,26,26,26,26,0,0,0,0,0,0,0,0],"split_type":[0,0,0,0,0,0,0,0,0,0,0,0,0,0,0],"sum_hessian":[6.813251E2,3.5759372E2,3.2373135E2,9.6667656E1,2.6092606E2,2.2551904E2,9.8212326E1,4.3456207E1,5.321145E1,1.7206172E2,8.8864334E1,7.2817665E1,1.5270137E2,5.4745785E1,4.3466545E1],"tree_param":{"num_deleted":"0","num_feature":"27","num_nodes":"15","size_leaf_vector":"1"}},{"base_weights":[-6.6359485E-3,3.733222E-1,-4.3113744E-1,-3.1065637E-1,6.285237E-1,-7.161833E-1,2.4209929E-1,4.1602403E-3,-8.909855E-3,8.817101E-3,1.4399133E-3,-3.4801855E-3,-8.950904E-3,8.875944E-3,-3.1912746E-3],"categories":[],"categories_nodes":[],"categories_segments":[],"categories_sizes":[],"default_left":[0,0,0,0,0,0,0,0,0,0,0,0,0,0,0],"id":20,"left_children":[1,3,5,7,9,11,13,-1,-1,-1,-1,-1,-1,-1,-1],"loss_changes":[1.1011858E2,6.3081787E1,6.205334E1,4.1937115E1,3.210121E1,1.4626579E1,3.53012E1,0E0,0E0,0E0,0E0,0E0,0E0,0E0,0E0],"parents":[2147483647,0,0,1,1,2,2,3,3,4,4,5,5,6,6],"right_children":[2,4,6,8,10,12,14,-1,-1,-1,-1,-1,-1,-1,-1],"split_conditions":[4.81E-1,1.08E2,1.23E2,1.05E2,1.14E2,1.18E2,1.27E2,4.1602403E-3,-8.909855E-3,8.817101E-3,1.4399133E-3,-3.4801855E-3,-8.950904E-3,8.875944E-3,-3.1912746E-3],"split_indices":[3,26,26,13,13,13,13,0,0,0,0,0,0,0,0],"split_type":[0,0,0,0,0,0,0,0,0,0,0,0,0,0,0],"sum_hessian":[6.807268E2,3.5927313E2,3.214537E2,9.756552E1,2.617076E2,2.257909E2,9.5662796E1,4.3446064E1,5.4119457E1,1.7135071E2,9.035692E1,7.4802826E1,1.5098807E2,4.4220757E1,5.144204E1],"tree_param":{"num_deleted":"0","num_feature":"27","num_nodes":"15","size_leaf_vector":"1"}},{"base_weights":[6.6359527E-3,-3.7332216E-1,4.3113744E-1,3.106564E-1,-6.2852365E-1,7.161833E-1,-2.420993E-1,-4.1602403E-3,8.909855E-3,-8.8171E-3,-1.4399135E-3,3.4801855E-3,8.950904E-3,-8.875944E-3,3.1912744E-3],"categories":[],"categories_nodes":[],"categories_segments":[],"categories_sizes":[],"default_left":[0,0,0,0,0,0,0,0,0,0,0,0,0,0,0],"id":21,"left_children":[1,3,5,7,9,11,13,-1,-1,-1,-1,-1,-1,-1,-1],"loss_changes":[1.1011857E2,6.3081783E1,6.205333E1,4.193711E1,3.2101234E1,1.4626595E1,3.53012E1,0E0,0E0,0E0,0E0,0E0,0E0,0E0,0E0],"parents":[2147483647,0,0,1,1,2,2,3,3,4,4,5,5,6,6],"right_children":[2,4,6,8,10,12,14,-1,-1,-1,-1,-1,-1,-1,-1],"split_conditions":[4.81E-1,1.08E2,1.23E2,1.05E2,1.14E2,1.18E2,1.27E2,-4.1602403E-3,8.909855E-3,-8.8171E-3,-1.4399135E-3,3.4801855E-3,8.950904E-3,-8.875944E-3,3.1912744E-3],"split_indices":[3,26,26,13,13,13,13,0,0,0,0,0,0,0,0],"split_type":[0,0,0,0,0,0,0,0,0,0,0,0,0,0,0],"sum_hessian":[6.8072687E2,3.5927316E2,3.214537E2,9.756552E1,2.6170764E2,2.257909E2,9.5662796E1,4.3446064E1,5.411946E1,1.7135071E2,9.035692E1,7.4802826E1,1.5098807E2,4.4220757E1,5.1442043E1],"tree_param":{"num_deleted":"0","num_feature":"27","num_nodes":"15","size_leaf_vector":"1"}},{"base_weights":[-6.5777753E-3,-3.8588178E-1,4.1230118E-1,3.2134953E-1,-6.482003E-1,7.112095E-1,-2.7385435E-1,-3.7430562E-3,8.870697E-3,-8.81989E-3,-1.9160947E-3,2.403583E-3,8.465215E-3,-8.225941E-3,4.189577E-3],"categories":[],"categories_nodes":[],"categories_segments":[],"categories_sizes":[],"default_left":[0,0,0,0,0,0,0,0,0,0,0,0,0,0,0],"id":22,"left_children":[1,3,5,7,9,11,13,-1,-1,-1,-1,-1,-1,-1,-1],"loss_changes":[1.08369255E2,6.661253E1,6.6673965E1,3.870697E1,2.773706E1,1.4199028E1,3.801129E1,0E0,0E0,0E0,0E0,0E0,0E0,0E0,0E0],"parents":[2147483647,0,0,1,1,2,2,3,3,4,4,5,5,6,6],"right_children":[2,4,6,8,10,12,14,-1,-1,-1,-1,-1,-1,-1,-1],"split_conditions":[4.81E-1,1.08E2,1.23E2,1.05E2,1.14E2,1.15E2,1.29E2,-3.7430562E-3,8.870697E-3,-8.81989E-3,-1.9160947E-3,2.403583E-3,8.465215E-3,-8.225941E-3,4.189577E-3],"split_indices":[16,13,13,26,26,26,26,0,0,0,0,0,0,0,0],"split_type":[0,0,0,0,0,0,0,0,0,0,0,0,0,0,0],"sum_hessian":[6.8007043E2,3.5693597E2,3.231345E2,9.651064E1,2.6042532E2,2.2505696E2,9.807754E1,4.343626E1,5.3074383E1,1.7161923E2,8.880608E1,5.0858555E1,1.7419841E2,5.4624798E1,4.345274E1],"tree_param":{"num_deleted":"0","num_feature":"27","num_nodes":"15","size_leaf_vector":"1"}},{"base_weights":[6.5777292E-3,3.8588172E-1,-4.1230124E-1,-3.213496E-1,6.482002E-1,-7.1120954E-1,2.7385432E-1,3.7430562E-3,-8.870697E-3,8.819889E-3,1.9160948E-3,-2.4035834E-3,-8.465216E-3,8.225942E-3,-4.1895774E-3],"categories":[],"categories_nodes":[],"categories_segments":[],"categories_sizes":[],"default_left":[0,0,0,0,0,0,0,0,0,0,0,0,0,0,0],"id":23,"left_children":[1,3,5,7,9,11,13,-1,-1,-1,-1,-1,-1,-1,-1],"loss_changes":[1.08369255E2,6.6612526E1,6.667397E1,3.8706978E1,2.773706E1,1.4199028E1,3.8011295E1,0E0,0E0,0E0,0E0,0E0,0E0,0E0,0E0],"parents":[2147483647,0,0,1,1,2,2,3,3,4,4,5,5,6,6],"right_children":[2,4,6,8,10,12,14,-1,-1,-1,-1,-1,-1,-1,-1],"split_conditions":[4.81E-1,1.08E2,1.23E2,1.05E2,1.14E2,1.15E2,1.29E2,3.7430562E-3,-8.870697E-3,8.819889E-3,1.9160948E-3,-2.4035834E-3,-8.465216E-3,8.225942E-3,-4.1895774E-3],"split_indices":[16,13,13,26,26,26,26,0,0,0,0,0,0,0,0],"split_type":[0,0,0,0,0,0,0,0,0,0,0,0,0,0,0],"sum_hessian":[6.8007043E2,3.5693597E2,3.231345E2,9.651064E1,2.6042532E2,2.2505696E2,9.807754E1,4.343626E1,5.3074383E1,1.7161923E2,8.880608E1,5.0858555E1,1.7419841E2,5.4624794E1,4.3452744E1],"tree_param":{"num_deleted":"0","num_feature":"27","num_nodes":"15","size_leaf_vector":"1"}},{"base_weights":[-6.5170303E-3,3.6800227E-1,-4.2494285E-1,-3.0465773E-1,6.1903006E-1,-7.0558625E-1,2.3740695E-1,4.1197105E-3,-8.783482E-3,8.69118E-3,1.4146359E-3,-2.4456445E-3,-8.446089E-3,7.7914447E-3,-4.1526584E-3],"categories":[],"categories_nodes":[],"categories_segments":[],"categories_sizes":[],"default_left":[0,0,0,0,0,0,0,0,0,0,0,0,0,0,0],"id":24,"left_children":[1,3,5,7,9,11,13,-1,-1,-1,-1,-1,-1,-1,-1],"loss_changes":[1.0677502E2,6.0901497E1,5.9986717E1,4.081018E1,3.118879E1,1.4296776E1,3.4451397E1,0E0,0E0,0E0,0E0,0E0,0E0,0E0,0E0],"parents":[2147483647,0,0,1,1,2,2,3,3,4,4,5,5,6,6],"right_children":[2,4,6,8,10,12,14,-1,-1,-1,-1,-1,-1,-1,-1],"split_conditions":[4.81E-1,1.08E2,1.23E2,1.05E2,1.14E2,1.15E2,1.29E2,4.1197105E-3,-8.783482E-3,8.69118E-3,1.4146359E-3,-2.4456445E-3,-8.446089E-3,7.7914447E-3,-4.1526584E-3],"split_indices":[3,26,26,13,13,13,13,0,0,0,0,0,0,0,0],"split_type":[0,0,0,0,0,0,0,0,0,0,0,0,0,0,0],"sum_hessian":[6.793627E2,3.585536E2,3.208091E2,9.738494E1,2.6116864E2,2.2528752E2,9.5521576E1,4.3423775E1,5.3961166E1,1.7086935E2,9.0299286E1,5.2835526E1,1.72452E2,5.2090862E1,4.343071E1],"tree_param":{"num_deleted":"0","num_feature":"27","num_nodes":"15","size_leaf_vector":"1"}},{"base_weights":[6.517042E-3,-3.6800224E-1,4.2494285E-1,3.0465776E-1,-6.1903E-1,7.0558625E-1,-2.3740695E-1,-4.119711E-3,8.783483E-3,-8.691179E-3,-1.4146358E-3,2.4456447E-3,8.446089E-3,-7.7914447E-3,4.152659E-3],"categories":[],"categories_nodes":[],"categories_segments":[],"categories_sizes":[],"default_left":[0,0,0,0,0,0,0,0,0,0,0,0,0,0,0],"id":25,"left_children":[1,3,5,7,9,11,13,-1,-1,-1,-1,-1,-1,-1,-1],"loss_changes":[1.06775024E2,6.090149E1,5.998671E1,4.081019E1,3.1188782E1,1.4296768E1,3.4451397E1,0E0,0E0,0E0,0E0,0E0,0E0,0E0,0E0],"parents":[2147483647,0,0,1,1,2,2,3,3,4,4,5,5,6,6],"right_children":[2,4,6,8,10,12,14,-1,-1,-1,-1,-1,-1,-1,-1],"split_conditions":[4.81E-1,1.08E2,1.23E2,1.05E2,1.14E2,1.15E2,1.29E2,-4.119711E-3,8.783483E-3,-8.691179E-3,-1.4146358E-3,2.4456447E-3,8.446089E-3,-7.7914447E-3,4.152659E-3],"split_indices":[3,26,26,13,13,13,13,0,0,0,0,0,0,0,0],"split_type":[0,0,0,0,0,0,0,0,0,0,0,0,0,0,0],"sum_hessian":[6.793627E2,3.5855356E2,3.2080908E2,9.738493E1,2.6116864E2,2.2528752E2,9.5521576E1,4.3423775E1,5.3961163E1,1.7086934E2,9.0299286E1,5.2835526E1,1.72452E2,5.2090862E1,4.343071E1],"tree_param":{"num_deleted":"0","num_feature":"27","num_nodes":"15","size_leaf_vector":"1"}},{"base_weights":[-6.4617787E-3,-3.8041133E-1,4.064983E-1,3.1536445E-1,-6.3857E-1,7.008712E-1,-2.6874432E-1,-4.4609974E-3,8.196499E-3,-8.696215E-3,-1.883525E-3,3.3511908E-3,8.724859E-3,-8.114835E-3,4.1504414E-3],"categories":[],"categories_nodes":[],"categories_segments":[],"categories_sizes":[],"default_left":[0,0,0,0,0,0,0,0,0,0,0,0,0,0,0],"id":26,"left_children":[1,3,5,7,9,11,13,-1,-1,-1,-1,-1,-1,-1,-1],"loss_changes":[1.0510366E2,6.43556E1,6.447974E1,3.7738873E1,2.696946E1,1.3863281E1,3.70474E1,0E0,0E0,0E0,0E0,0E0,0E0,0E0,0E0],"parents":[2147483647,0,0,1,1,2,2,3,3,4,4,5,5,6,6],"right_children":[2,4,6,8,10,12,14,-1,-1,-1,-1,-1,-1,-1,-1],"split_conditions":[4.81E-1,1.08E2,1.23E2,1.04E2,1.14E2,1.18E2,1.29E2,-4.4609974E-3,8.196499E-3,-8.696215E-3,-1.883525E-3,3.3511908E-3,8.724859E-3,-8.114835E-3,4.1504414E-3],"split_indices":[16,13,13,26,26,26,26,0,0,0,0,0,0,0,0],"split_type":[0,0,0,0,0,0,0,0,0,0,0,0,0,0,0],"sum_hessian":[6.7860614E2,3.5616516E2,3.2244098E2,9.632729E1,2.5983786E2,2.2452225E2,9.7918724E1,3.8423584E1,5.790371E1,1.7109856E2,8.87393E1,7.264693E1,1.5187532E2,5.4485523E1,4.3433205E1],"tree_param":{"num_deleted":"0","num_feature":"27","num_nodes":"15","size_leaf_vector":"1"}},{"base_weights":[6.461782E-3,3.8041136E-1,-4.064983E-1,-3.1536436E-1,6.3857E-1,-7.008712E-1,2.6874432E-1,4.4609983E-3,-8.196498E-3,8.696215E-3,1.8835254E-3,-3.3511913E-3,-8.724859E-3,8.114835E-3,-4.1504414E-3],"categories":[],"categories_nodes":[],"categories_segments":[],"categories_sizes":[],"default_left":[0,0,0,0,0,0,0,0,0,0,0,0,0,0,0],"id":27,"left_children":[1,3,5,7,9,11,13,-1,-1,-1,-1,-1,-1,-1,-1],"loss_changes":[1.0510366E2,6.435558E1,6.447974E1,3.7738876E1,2.6969452E1,1.3863281E1,3.70474E1,0E0,0E0,0E0,0E0,0E0,0E0,0E0,0E0],"parents":[2147483647,0,0,1,1,2,2,3,3,4,4,5,5,6,6],"right_children":[2,4,6,8,10,12,14,-1,-1,-1,-1,-1,-1,-1,-1],"split_conditions":[4.81E-1,1.08E2,1.23E2,1.04E2,1.14E2,1.18E2,1.29E2,4.4609983E-3,-8.196498E-3,8.696215E-3,1.8835254E-3,-3.3511913E-3,-8.724859E-3,8.114835E-3,-4.1504414E-3],"split_indices":[16,13,13,26,26,26,26,0,0,0,0,0,0,0,0],"split_type":[0,0,0,0,0,0,0,0,0,0,0,0,0,0,0],"sum_hessian":[6.7860614E2,3.5616516E2,3.2244098E2,9.632729E1,2.5983786E2,2.2452225E2,9.7918724E1,3.8423584E1,5.790371E1,1.7109856E2,8.873931E1,7.264693E1,1.5187532E2,5.4485523E1,4.3433205E1],"tree_param":{"num_deleted":"0","num_feature":"27","num_nodes":"15","size_leaf_vector":"1"}},{"base_weights":[-6.403025E-3,3.628515E-1,-4.1895434E-1,-2.991915E-1,6.099693E-1,-6.95299E-1,2.3270194E-1,4.0747924E-3,-8.664604E-3,8.197012E-3,5.499625E-4,-3.356603E-3,-8.707109E-3,7.6832357E-3,-4.1125864E-3],"categories":[],"categories_nodes":[],"categories_segments":[],"categories_sizes":[],"default_left":[0,0,0,0,0,0,0,0,0,0,0,0,0,0,0],"id":28,"left_children":[1,3,5,7,9,11,13,-1,-1,-1,-1,-1,-1,-1,-1],"loss_changes":[1.0355845E2,5.8872253E1,5.7980545E1,3.970984E1,3.0398865E1,1.3946655E1,3.3552013E1,0E0,0E0,0E0,0E0,0E0,0E0,0E0,0E0],"parents":[2147483647,0,0,1,1,2,2,3,3,4,4,5,5,6,6],"right_children":[2,4,6,8,10,12,14,-1,-1,-1,-1,-1,-1,-1,-1],"split_conditions":[4.81E-1,1.08E2,1.23E2,1.05E2,1.16E2,1.18E2,1.29E2,4.0747924E-3,-8.664604E-3,8.197012E-3,5.499625E-4,-3.356603E-3,-8.707109E-3,7.6832357E-3,-4.1125864E-3],"split_indices":[3,26,26,13,13,13,13,0,0,0,0,0,0,0,0],"split_type":[0,0,0,0,0,0,0,0,0,0,0,0,0,0,0],"sum_hessian":[6.7780304E2,3.577336E2,3.200694E2,9.7177826E1,2.605558E2,2.2471053E2,9.535887E1,4.3397465E1,5.3780357E1,1.8874821E2,7.180756E1,7.462464E1,1.5008589E2,5.1953133E1,4.340574E1],"tree_param":{"num_deleted":"0","num_feature":"27","num_nodes":"15","size_leaf_vector":"1"}},{"base_weights":[6.403027E-3,-3.628515E-1,4.1895434E-1,2.9919145E-1,-6.0996926E-1,6.952991E-1,-2.3270194E-1,-4.074793E-3,8.664604E-3,-8.197011E-3,-5.499627E-4,3.3566032E-3,8.707109E-3,-7.6832357E-3,4.112586E-3],"categories":[],"categories_nodes":[],"categories_segments":[],"categories_sizes":[],"default_left":[0,0,0,0,0,0,0,0,0,0,0,0,0,0,0],"id":29,"left_children":[1,3,5,7,9,11,13,-1,-1,-1,-1,-1,-1,-1,-1],"loss_changes":[1.0355846E2,5.887224E1,5.798055E1,3.9709843E1,3.0398857E1,1.3946648E1,3.3552002E1,0E0,0E0,0E0,0E0,0E0,0E0,0E0,0E0],"parents":[2147483647,0,0,1,1,2,2,3,3,4,4,5,5,6,6],"right_children":[2,4,6,8,10,12,14,-1,-1,-1,-1,-1,-1,-1,-1],"split_conditions":[4.81E-1,1.08E2,1.23E2,1.05E2,1.16E2,1.18E2,1.29E2,-4.074793E-3,8.664604E-3,-8.197011E-3,-5.499627E-4,3.3566032E-3,8.707109E-3,-7.6832357E-3,4.112586E-3],"split_indices":[3,26,26,13,13,13,13,0,0,0,0,0,0,0,0],"split_type":[0,0,0,0,0,0,0,0,0,0,0,0,0,0,0],"sum_hessian":[6.7780304E2,3.577336E2,3.200694E2,9.717782E1,2.605558E2,2.2471053E2,9.535887E1,4.339746E1,5.3780357E1,1.8874821E2,7.180757E1,7.462463E1,1.5008589E2,5.1953133E1,4.340574E1],"tree_param":{"num_deleted":"0","num_feature":"27","num_nodes":"15","size_leaf_vector":"1"}},{"base_weights":[-6.3535785E-3,-3.750883E-1,4.0085915E-1,3.098094E-1,-6.293369E-1,6.907275E-1,-2.6351568E-1,-3.6810567E-3,8.63978E-3,-8.579173E-3,-1.8508096E-3,2.3050217E-3,8.235154E-3,-8.005392E-3,4.113936E-3],"categories":[],"categories_nodes":[],"categories_segments":[],"categories_sizes":[],"default_left":[0,0,0,0,0,0,0,0,0,0,0,0,0,0,0],"id":30,"left_children":[1,3,5,7,9,11,13,-1,-1,-1,-1,-1,-1,-1,-1],"loss_changes":[1.0194704E2,6.2239246E1,6.2318264E1,3.6807426E1,2.6261238E1,1.3555283E1,3.611484E1,0E0,0E0,0E0,0E0,0E0,0E0,0E0,0E0],"parents":[2147483647,0,0,1,1,2,2,3,3,4,4,5,5,6,6],"right_children":[2,4,6,8,10,12,14,-1,-1,-1,-1,-1,-1,-1,-1],"split_conditions":[4.81E-1,1.08E2,1.23E2,1.05E2,1.14E2,1.15E2,1.29E2,-3.6810567E-3,8.63978E-3,-8.579173E-3,-1.8508096E-3,2.3050217E-3,8.235154E-3,-8.005392E-3,4.113936E-3],"split_indices":[16,13,13,26,26,26,26,0,0,0,0,0,0,0,0],"split_type":[0,0,0,0,0,0,0,0,0,0,0,0,0,0,0],"sum_hessian":[6.7695087E2,3.553013E2,3.2164957E2,9.612911E1,2.5917218E2,2.2391518E2,9.77344E1,4.3388123E1,5.2740986E1,1.7050967E2,8.8662506E1,5.075183E1,1.7316333E2,5.4323326E1,4.341107E1],"tree_param":{"num_deleted":"0","num_feature":"27","num_nodes":"15","size_leaf_vector":"1"}},{"base_weights":[6.3535846E-3,3.7508833E-1,-4.0085918E-1,-3.0980936E-1,6.293369E-1,-6.907275E-1,2.6351562E-1,3.6810567E-3,-8.63978E-3,8.579173E-3,1.8508097E-3,-2.305022E-3,-8.235154E-3,8.005391E-3,-4.113936E-3],"categories":[],"categories_nodes":[],"categories_segments":[],"categories_sizes":[],"default_left":[0,0,0,0,0,0,0,0,0,0,0,0,0,0,0],"id":31,"left_children":[1,3,5,7,9,11,13,-1,-1,-1,-1,-1,-1,-1,-1],"loss_changes":[1.01947044E2,6.223925E1,6.2318256E1,3.680742E1,2.626123E1,1.3555275E1,3.611484E1,0E0,0E0,0E0,0E0,0E0,0E0,0E0,0E0],"parents":[2147483647,0,0,1,1,2,2,3,3,4,4,5,5,6,6],"right_children":[2,4,6,8,10,12,14,-1,-1,-1,-1,-1,-1,-1,-1],"split_conditions":[4.81E-1,1.08E2,1.23E2,1.05E2,1.14E2,1.15E2,1.29E2,3.6810567E-3,-8.63978E-3,8.579173E-3,1.8508097E-3,-2.305022E-3,-8.235154E-3,8.005391E-3,-4.113936E-3],"split_indices":[16,13,13,26,26,26,26,0,0,0,0,0,0,0,0],"split_type":[0,0,0,0,0,0,0,0,0,0,0,0,0,0,0],"sum_hessian":[6.7695087E2,3.553013E2,3.2164957E2,9.6129105E1,2.5917218E2,2.2391516E2,9.77344E1,4.3388123E1,5.2740986E1,1.7050967E2,8.8662506E1,5.075183E1,1.7316333E2,5.4323326E1,4.3411068E1],"tree_param":{"num_deleted":"0","num_feature":"27","num_nodes":"15","size_leaf_vector":"1"}},{"base_weights":[-6.2968507E-3,3.5789907E-1,-4.1319928E-1,-2.9353872E-1,6.011176E-1,-6.854764E-1,2.2823054E-1,4.0360815E-3,-8.549205E-3,8.460408E-3,1.3577802E-3,-2.347881E-3,-8.219817E-3,8.536353E-3,-3.11545E-3],"categories":[],"categories_nodes":[],"categories_segments":[],"categories_sizes":[],"default_left":[0,0,0,0,0,0,0,0,0,0,0,0,0,0,0],"id":32,"left_children":[1,3,5,7,9,11,13,-1,-1,-1,-1,-1,-1,-1,-1],"loss_changes":[1.0048051E2,5.686794E1,5.608485E1,3.8677E1,2.9616264E1,1.3652946E1,3.2733654E1,0E0,0E0,0E0,0E0,0E0,0E0,0E0,0E0],"parents":[2147483647,0,0,1,1,2,2,3,3,4,4,5,5,6,6],"right_children":[2,4,6,8,10,12,14,-1,-1,-1,-1,-1,-1,-1,-1],"split_conditions":[4.81E-1,1.08E2,1.23E2,1.05E2,1.14E2,1.15E2,1.27E2,4.0360815E-3,-8.549205E-3,8.460408E-3,1.3577802E-3,-2.347881E-3,-8.219817E-3,8.536353E-3,-3.11545E-3],"split_indices":[3,26,26,13,13,13,13,0,0,0,0,0,0,0,0],"split_type":[0,0,0,0,0,0,0,0,0,0,0,0,0,0,0],"sum_hessian":[6.7604395E2,3.5680652E2,3.1923743E2,9.6944084E1,2.5986246E2,2.240591E2,9.517833E1,4.336844E1,5.3575645E1,1.6971687E2,9.014557E1,5.2719494E1,1.713396E2,4.3822468E1,5.1355865E1],"tree_param":{"num_deleted":"0","num_feature":"27","num_nodes":"15","size_leaf_vector":"1"}},{"base_weights":[6.2968507E-3,-3.5789907E-1,4.1319928E-1,2.9353875E-1,-6.011176E-1,6.854764E-1,-2.2823055E-1,-4.0360815E-3,8.549206E-3,-8.460408E-3,-1.3577807E-3,2.347881E-3,8.219818E-3,-8.536353E-3,3.1154496E-3],"categories":[],"categories_nodes":[],"categories_segments":[],"categories_sizes":[],"default_left":[0,0,0,0,0,0,0,0,0,0,0,0,0,0,0],"id":33,"left_children":[1,3,5,7,9,11,13,-1,-1,-1,-1,-1,-1,-1,-1],"loss_changes":[1.00480515E2,5.686794E1,5.6084858E1,3.8677002E1,2.9616257E1,1.3652939E1,3.273365E1,0E0,0E0,0E0,0E0,0E0,0E0,0E0,0E0],"parents":[2147483647,0,0,1,1,2,2,3,3,4,4,5,5,6,6],"right_children":[2,4,6,8,10,12,14,-1,-1,-1,-1,-1,-1,-1,-1],"split_conditions":[4.81E-1,1.08E2,1.23E2,1.05E2,1.14E2,1.15E2,1.27E2,-4.0360815E-3,8.549206E-3,-8.460408E-3,-1.3577807E-3,2.347881E-3,8.219818E-3,-8.536353E-3,3.1154496E-3],"split_indices":[3,26,26,13,13,13,13,0,0,0,0,0,0,0,0],"split_type":[0,0,0,0,0,0,0,0,0,0,0,0,0,0,0],"sum_hessian":[6.7604395E2,3.5680652E2,3.1923743E2,9.6944084E1,2.5986246E2,2.2405908E2,9.517833E1,4.3368435E1,5.357565E1,1.6971687E2,9.014557E1,5.2719494E1,1.713396E2,4.3822468E1,5.1355865E1],"tree_param":{"num_deleted":"0","num_feature":"27","num_nodes":"15","size_leaf_vector":"1"}},{"base_weights":[-6.2423483E-3,-3.699937E-1,3.9546624E-1,3.0415487E-1,-6.203639E-1,6.810265E-1,-2.5836658E-1,-4.3871654E-3,7.987336E-3,-8.466101E-3,-1.819324E-3,3.2326316E-3,8.495974E-3,-7.9010865E-3,4.080456E-3],"categories":[],"categories_nodes":[],"categories_segments":[],"categories_sizes":[],"default_left":[0,0,0,0,0,0,0,0,0,0,0,0,0,0,0],"id":34,"left_children":[1,3,5,7,9,11,13,-1,-1,-1,-1,-1,-1,-1,-1],"loss_changes":[9.893867E1,6.016317E1,6.0252796E1,3.5951412E1,2.5579674E1,1.3248375E1,3.523998E1,0E0,0E0,0E0,0E0,0E0,0E0,0E0,0E0],"parents":[2147483647,0,0,1,1,2,2,3,3,4,4,5,5,6,6],"right_children":[2,4,6,8,10,12,14,-1,-1,-1,-1,-1,-1,-1,-1],"split_conditions":[4.81E-1,1.08E2,1.23E2,1.04E2,1.14E2,1.18E2,1.29E2,-4.3871654E-3,7.987336E-3,-8.466101E-3,-1.819324E-3,3.2326316E-3,8.495974E-3,-7.9010865E-3,4.080456E-3],"split_indices":[16,13,13,26,26,26,26,0,0,0,0,0,0,0,0],"split_type":[0,0,0,0,0,0,0,0,0,0,0,0,0,0,0],"sum_hessian":[6.750948E2,3.5432697E2,3.2076782E2,9.58976E1,2.5842935E2,2.2323067E2,9.753718E1,3.837308E1,5.7524517E1,1.6984981E2,8.857955E1,7.242932E1,1.5080135E2,5.414684E1,4.3390335E1],"tree_param":{"num_deleted":"0","num_feature":"27","num_nodes":"15","size_leaf_vector":"1"}},{"base_weights":[6.2423735E-3,3.6999372E-1,-3.954662E-1,-3.041549E-1,6.2036395E-1,-6.810265E-1,2.5836658E-1,4.3871654E-3,-7.987337E-3,8.466101E-3,1.8193246E-3,-3.2326316E-3,-8.495974E-3,7.9010865E-3,-4.0804567E-3],"categories":[],"categories_nodes":[],"categories_segments":[],"categories_sizes":[],"default_left":[0,0,0,0,0,0,0,0,0,0,0,0,0,0,0],"id":35,"left_children":[1,3,5,7,9,11,13,-1,-1,-1,-1,-1,-1,-1,-1],"loss_changes":[9.8938675E1,6.0163174E1,6.0252804E1,3.5951416E1,2.5579681E1,1.3248375E1,3.523998E1,0E0,0E0,0E0,0E0,0E0,0E0,0E0,0E0],"parents":[2147483647,0,0,1,1,2,2,3,3,4,4,5,5,6,6],"right_children":[2,4,6,8,10,12,14,-1,-1,-1,-1,-1,-1,-1,-1],"split_conditions":[4.81E-1,1.08E2,1.23E2,1.04E2,1.14E2,1.18E2,1.29E2,4.3871654E-3,-7.987337E-3,8.466101E-3,1.8193246E-3,-3.2326316E-3,-8.495974E-3,7.9010865E-3,-4.0804567E-3],"split_indices":[16,13,13,26,26,26,26,0,0,0,0,0,0,0,0],"split_type":[0,0,0,0,0,0,0,0,0,0,0,0,0,0,0],"sum_hessian":[6.750948E2,3.5432697E2,3.2076782E2,9.58976E1,2.5842935E2,2.2323065E2,9.753718E1,3.837308E1,5.7524517E1,1.6984981E2,8.857955E1,7.242932E1,1.5080133E2,5.4146843E1,4.3390335E1],"tree_param":{"num_deleted":"0","num_feature":"27","num_nodes":"15","size_leaf_vector":"1"}},{"base_weights":[-6.1873877E-3,3.5310116E-1,-4.07621E-1,-2.8839418E-1,5.926684E-1,-6.7591965E-1,2.2379239E-1,3.993129E-3,-8.4405765E-3,8.351704E-3,1.3332358E-3,-3.2390691E-3,-8.484173E-3,7.489572E-3,-4.044114E-3],"categories":[],"categories_nodes":[],"categories_segments":[],"categories_sizes":[],"default_left":[0,0,0,0,0,0,0,0,0,0,0,0,0,0,0],"id":36,"left_children":[1,3,5,7,9,11,13,-1,-1,-1,-1,-1,-1,-1,-1],"loss_changes":[9.751445E1,5.500262E1,5.4245583E1,3.766617E1,2.8862E1,1.3347572E1,3.1965265E1,0E0,0E0,0E0,0E0,0E0,0E0,0E0,0E0],"parents":[2147483647,0,0,1,1,2,2,3,3,4,4,5,5,6,6],"right_children":[2,4,6,8,10,12,14,-1,-1,-1,-1,-1,-1,-1,-1],"split_conditions":[4.81E-1,1.08E2,1.23E2,1.05E2,1.14E2,1.18E2,1.29E2,3.993129E-3,-8.4405765E-3,8.351704E-3,1.3332358E-3,-3.2390691E-3,-8.484173E-3,7.489572E-3,-4.044114E-3],"split_indices":[3,26,26,13,13,13,13,0,0,0,0,0,0,0,0],"split_type":[0,0,0,0,0,0,0,0,0,0,0,0,0,0,0],"sum_hessian":[6.741035E2,3.5578842E2,3.1831506E2,9.668602E1,2.5910242E2,2.2334245E2,9.497262E1,4.333482E1,5.3351196E1,1.6904189E2,9.006051E1,7.439785E1,1.489446E2,5.162392E1,4.33487E1],"tree_param":{"num_deleted":"0","num_feature":"27","num_nodes":"15","size_leaf_vector":"1"}},{"base_weights":[6.187383E-3,-3.531012E-1,4.0762103E-1,2.8839412E-1,-5.926685E-1,6.759197E-1,-2.2379237E-1,-3.99313E-3,8.440576E-3,-8.351705E-3,-1.3332356E-3,3.239069E-3,8.484174E-3,-7.489572E-3,4.0441146E-3],"categories":[],"categories_nodes":[],"categories_segments":[],"categories_sizes":[],"default_left":[0,0,0,0,0,0,0,0,0,0,0,0,0,0,0],"id":37,"left_children":[1,3,5,7,9,11,13,-1,-1,-1,-1,-1,-1,-1,-1],"loss_changes":[9.7514465E1,5.500261E1,5.4245594E1,3.7666164E1,2.8862007E1,1.3347572E1,3.1965267E1,0E0,0E0,0E0,0E0,0E0,0E0,0E0,0E0],"parents":[2147483647,0,0,1,1,2,2,3,3,4,4,5,5,6,6],"right_children":[2,4,6,8,10,12,14,-1,-1,-1,-1,-1,-1,-1,-1],"split_conditions":[4.81E-1,1.08E2,1.23E2,1.05E2,1.14E2,1.18E2,1.29E2,-3.99313E-3,8.440576E-3,-8.351705E-3,-1.3332356E-3,3.239069E-3,8.484174E-3,-7.489572E-3,4.0441146E-3],"split_indices":[3,26,26,13,13,13,13,0,0,0,0,0,0,0,0],"split_type":[0,0,0,0,0,0,0,0,0,0,0,0,0,0,0],"sum_hessian":[6.741035E2,3.5578842E2,3.1831506E2,9.668601E1,2.5910242E2,2.2334245E2,9.497262E1,4.333482E1,5.3351192E1,1.6904189E2,9.006051E1,7.439786E1,1.489446E2,5.162392E1,4.33487E1],"tree_param":{"num_deleted":"0","num_feature":"27","num_nodes":"15","size_leaf_vector":"1"}},{"base_weights":[-6.1395727E-3,-3.65059E-1,3.9024198E-1,2.9878688E-1,-6.117412E-1,6.7169493E-1,-2.535481E-1,-4.34693E-3,7.885577E-3,-8.358731E-3,-1.787867E-3,2.211576E-3,8.023414E-3,-7.8008175E-3,4.0435386E-3],"categories":[],"categories_nodes":[],"categories_segments":[],"categories_sizes":[],"default_left":[0,0,0,0,0,0,0,0,0,0,0,0,0,0,0],"id":38,"left_children":[1,3,5,7,9,11,13,-1,-1,-1,-1,-1,-1,-1,-1],"loss_changes":[9.604149E1,5.8197227E1,5.8298344E1,3.5063293E1,2.4946426E1,1.2977386E1,3.4371284E1,0E0,0E0,0E0,0E0,0E0,0E0,0E0,0E0],"parents":[2147483647,0,0,1,1,2,2,3,3,4,4,5,5,6,6],"right_children":[2,4,6,8,10,12,14,-1,-1,-1,-1,-1,-1,-1,-1],"split_conditions":[4.81E-1,1.08E2,1.23E2,1.04E2,1.14E2,1.15E2,1.29E2,-4.34693E-3,7.885577E-3,-8.358731E-3,-1.787867E-3,2.211576E-3,8.023414E-3,-7.8008175E-3,4.0435386E-3],"split_indices":[16,13,13,26,26,26,26,0,0,0,0,0,0,0,0],"split_type":[0,0,0,0,0,0,0,0,0,0,0,0,0,0,0],"sum_hessian":[6.730682E2,3.532673E2,3.198009E2,9.56507E1,2.576166E2,2.2248936E2,9.731153E1,3.8342102E1,5.73086E1,1.691305E2,8.8486115E1,5.0619545E1,1.7186983E2,5.3949123E1,4.3362404E1],"tree_param":{"num_deleted":"0","num_feature":"27","num_nodes":"15","size_leaf_vector":"1"}},{"base_weights":[6.139571E-3,3.65059E-1,-3.9024195E-1,-2.9878688E-1,6.117412E-1,-6.7169493E-1,2.5354812E-1,4.3469295E-3,-7.885576E-3,8.358731E-3,1.7878669E-3,-2.2115759E-3,-8.023414E-3,7.8008175E-3,-4.0435386E-3],"categories":[],"categories_nodes":[],"categories_segments":[],"categories_sizes":[],"default_left":[0,0,0,0,0,0,0,0,0,0,0,0,0,0,0],"id":39,"left_children":[1,3,5,7,9,11,13,-1,-1,-1,-1,-1,-1,-1,-1],"loss_changes":[9.604149E1,5.819722E1,5.829835E1,3.5063286E1,2.4946434E1,1.2977386E1,3.437128E1,0E0,0E0,0E0,0E0,0E0,0E0,0E0,0E0],"parents":[2147483647,0,0,1,1,2,2,3,3,4,4,5,5,6,6],"right_children":[2,4,6,8,10,12,14,-1,-1,-1,-1,-1,-1,-1,-1],"split_conditions":[4.81E-1,1.08E2,1.23E2,1.04E2,1.14E2,1.15E2,1.29E2,4.3469295E-3,-7.885576E-3,8.358731E-3,1.7878669E-3,-2.2115759E-3,-8.023414E-3,7.8008175E-3,-4.0435386E-3],"split_indices":[16,13,13,26,26,26,26,0,0,0,0,0,0,0,0],"split_type":[0,0,0,0,0,0,0,0,0,0,0,0,0,0,0],"sum_hessian":[6.7306824E2,3.532673E2,3.198009E2,9.56507E1,2.576166E2,2.2248936E2,9.731153E1,3.83421E1,5.73086E1,1.691305E2,8.8486115E1,5.0619545E1,1.7186983E2,5.3949127E1,4.3362404E1],"tree_param":{"num_deleted":"0","num_feature":"27","num_nodes":"15","size_leaf_vector":"1"}},{"base_weights":[-6.088361E-3,3.484835E-1,-4.0225822E-1,-2.83249E-1,5.8447295E-1,-6.667902E-1,2.1954733E-1,3.953096E-3,-8.335747E-3,7.881196E-3,5.0259026E-4,-2.25466E-3,-8.011813E-3,7.39444E-3,-4.00644E-3],"categories":[],"categories_nodes":[],"categories_segments":[],"categories_sizes":[],"default_left":[0,0,0,0,0,0,0,0,0,0,0,0,0,0,0],"id":40,"left_children":[1,3,5,7,9,11,13,-1,-1,-1,-1,-1,-1,-1,-1],"loss_changes":[9.4675644E1,5.319054E1,5.2505157E1,3.6703224E1,2.8166756E1,1.3078682E1,3.1171032E1,0E0,0E0,0E0,0E0,0E0,0E0,0E0,0E0],"parents":[2147483647,0,0,1,1,2,2,3,3,4,4,5,5,6,6],"right_children":[2,4,6,8,10,12,14,-1,-1,-1,-1,-1,-1,-1,-1],"split_conditions":[4.81E-1,1.08E2,1.23E2,1.05E2,1.16E2,1.15E2,1.29E2,3.953096E-3,-8.335747E-3,7.881196E-3,5.0259026E-4,-2.25466E-3,-8.011813E-3,7.39444E-3,-4.00644E-3],"split_indices":[3,26,26,13,13,13,13,0,0,0,0,0,0,0,0],"split_type":[0,0,0,0,0,0,0,0,0,0,0,0,0,0,0],"sum_hessian":[6.719907E2,3.5467612E2,3.1731464E2,9.640481E1,2.582713E2,2.225597E2,9.475493E1,4.3298676E1,5.3106133E1,1.8664531E2,7.1626E1,5.2577908E1,1.699818E2,5.1440704E1,4.331422E1],"tree_param":{"num_deleted":"0","num_feature":"27","num_nodes":"15","size_leaf_vector":"1"}},{"base_weights":[6.0883476E-3,-3.4848353E-1,4.0225822E-1,2.83249E-1,-5.84473E-1,6.667902E-1,-2.1954736E-1,-3.9530965E-3,8.335747E-3,-7.881196E-3,-5.0259073E-4,2.2546602E-3,8.011813E-3,-7.39444E-3,4.00644E-3],"categories":[],"categories_nodes":[],"categories_segments":[],"categories_sizes":[],"default_left":[0,0,0,0,0,0,0,0,0,0,0,0,0,0,0],"id":41,"left_children":[1,3,5,7,9,11,13,-1,-1,-1,-1,-1,-1,-1,-1],"loss_changes":[9.467566E1,5.319054E1,5.2505157E1,3.670323E1,2.8166748E1,1.3078682E1,3.1171036E1,0E0,0E0,0E0,0E0,0E0,0E0,0E0,0E0],"parents":[2147483647,0,0,1,1,2,2,3,3,4,4,5,5,6,6],"right_children":[2,4,6,8,10,12,14,-1,-1,-1,-1,-1,-1,-1,-1],"split_conditions":[4.81E-1,1.08E2,1.23E2,1.05E2,1.16E2,1.15E2,1.29E2,-3.9530965E-3,8.335747E-3,-7.881196E-3,-5.0259073E-4,2.2546602E-3,8.011813E-3,-7.39444E-3,4.00644E-3],"split_indices":[3,26,26,13,13,13,13,0,0,0,0,0,0,0,0],"split_type":[0,0,0,0,0,0,0,0,0,0,0,0,0,0,0],"sum_hessian":[6.719907E2,3.5467612E2,3.1731464E2,9.64048E1,2.582713E2,2.225597E2,9.475493E1,4.329867E1,5.3106133E1,1.8664531E2,7.162599E1,5.2577908E1,1.699818E2,5.1440704E1,4.331422E1],"tree_param":{"num_deleted":"0","num_feature":"27","num_nodes":"15","size_leaf_vector":"1"}},{"base_weights":[-6.0419366E-3,-3.602776E-1,3.8517636E-1,2.9352504E-1,-6.033903E-1,6.626594E-1,-2.4882448E-1,-3.5972686E-3,8.329391E-3,-8.255245E-3,-1.7579641E-3,3.119668E-3,8.287349E-3,-7.7049844E-3,4.00908E-3],"categories":[],"categories_nodes":[],"categories_segments":[],"categories_sizes":[],"default_left":[0,0,0,0,0,0,0,0,0,0,0,0,0,0,0],"id":42,"left_children":[1,3,5,7,9,11,13,-1,-1,-1,-1,-1,-1,-1,-1],"loss_changes":[9.3250114E1,5.6305138E1,5.641792E1,3.426422E1,2.4335335E1,1.2711014E1,3.3549763E1,0E0,0E0,0E0,0E0,0E0,0E0,0E0,0E0],"parents":[2147483647,0,0,1,1,2,2,3,3,4,4,5,5,6,6],"right_children":[2,4,6,8,10,12,14,-1,-1,-1,-1,-1,-1,-1,-1],"split_conditions":[4.81E-1,1.08E2,1.23E2,1.05E2,1.14E2,1.18E2,1.29E2,-3.5972686E-3,8.329391E-3,-8.255245E-3,-1.7579641E-3,3.119668E-3,8.287349E-3,-7.7049844E-3,4.00908E-3],"split_indices":[16,13,13,26,26,26,26,0,0,0,0,0,0,0,0],"split_type":[0,0,0,0,0,0,0,0,0,0,0,0,0,0,0],"sum_hessian":[6.708792E2,3.521226E2,3.1875665E2,9.538811E1,2.5673447E2,2.2168611E2,9.707053E1,4.32924E1,5.2095707E1,1.6834756E2,8.83869E1,7.216907E1,1.4951706E2,5.3738064E1,4.3332474E1],"tree_param":{"num_deleted":"0","num_feature":"27","num_nodes":"15","size_leaf_vector":"1"}},{"base_weights":[6.0419524E-3,3.602776E-1,-3.851763E-1,-2.9352504E-1,6.0339034E-1,-6.6265935E-1,2.4882449E-1,3.597269E-3,-8.3293915E-3,8.255246E-3,1.7579645E-3,-3.119668E-3,-8.287348E-3,7.7049844E-3,-4.00908E-3],"categories":[],"categories_nodes":[],"categories_segments":[],"categories_sizes":[],"default_left":[0,0,0,0,0,0,0,0,0,0,0,0,0,0,0],"id":43,"left_children":[1,3,5,7,9,11,13,-1,-1,-1,-1,-1,-1,-1,-1],"loss_changes":[9.3250114E1,5.6305134E1,5.6417904E1,3.426423E1,2.433535E1,1.2711021E1,3.3549767E1,0E0,0E0,0E0,0E0,0E0,0E0,0E0,0E0],"parents":[2147483647,0,0,1,1,2,2,3,3,4,4,5,5,6,6],"right_children":[2,4,6,8,10,12,14,-1,-1,-1,-1,-1,-1,-1,-1],"split_conditions":[4.81E-1,1.08E2,1.23E2,1.05E2,1.14E2,1.18E2,1.29E2,3.597269E-3,-8.3293915E-3,8.255246E-3,1.7579645E-3,-3.119668E-3,-8.287348E-3,7.7049844E-3,-4.00908E-3],"split_indices":[16,13,13,26,26,26,26,0,0,0,0,0,0,0,0],"split_type":[0,0,0,0,0,0,0,0,0,0,0,0,0,0,0],"sum_hessian":[6.708792E2,3.5212256E2,3.1875665E2,9.5388115E1,2.5673447E2,2.2168613E2,9.707053E1,4.3292404E1,5.209571E1,1.6834755E2,8.83869E1,7.216907E1,1.4951706E2,5.3738064E1,4.333247E1],"tree_param":{"num_deleted":"0","num_feature":"27","num_nodes":"15","size_leaf_vector":"1"}},{"base_weights":[-5.9883837E-3,3.4399986E-1,-3.970477E-1,-2.0554864E-1,6.0770196E-1,-6.5787715E-1,2.15297E-1,4.003863E-3,-8.077028E-3,8.091788E-3,9.809518E-4,-3.1270462E-3,-8.279681E-3,8.23593E-3,-3.0445573E-3],"categories":[],"categories_nodes":[],"categories_segments":[],"categories_sizes":[],"default_left":[0,0,0,0,0,0,0,0,0,0,0,0,0,0,0],"id":44,"left_children":[1,3,5,7,9,11,13,-1,-1,-1,-1,-1,-1,-1,-1],"loss_changes":[9.193461E1,5.1495014E1,5.0809574E1,4.253461E1,2.4540764E1,1.2817078E1,3.0449394E1,0E0,0E0,0E0,0E0,0E0,0E0,0E0,0E0],"parents":[2147483647,0,0,1,1,2,2,3,3,4,4,5,5,6,6],"right_children":[2,4,6,8,10,12,14,-1,-1,-1,-1,-1,-1,-1,-1],"split_conditions":[4.81E-1,1.1E2,1.23E2,1.06E2,1.16E2,1.18E2,1.27E2,4.003863E-3,-8.077028E-3,8.091788E-3,9.809518E-4,-3.1270462E-3,-8.279681E-3,8.23593E-3,-3.0445573E-3],"split_indices":[3,26,26,13,13,13,13,0,0,0,0,0,0,0,0],"split_type":[0,0,0,0,0,0,0,0,0,0,0,0,0,0,0],"sum_hessian":[6.6971387E2,3.5347922E2,3.1623465E2,1.14689575E2,2.3878963E2,2.2171875E2,9.451591E1,5.733234E1,5.7357235E1,1.7071022E2,6.807941E1,7.412742E1,1.4759132E2,4.327921E1,5.12367E1],"tree_param":{"num_deleted":"0","num_feature":"27","num_nodes":"15","size_leaf_vector":"1"}},{"base_weights":[5.988387E-3,-3.4399986E-1,3.9704773E-1,2.0554864E-1,-6.07702E-1,6.578772E-1,-2.1529698E-1,-4.003863E-3,8.077028E-3,-8.091788E-3,-9.809519E-4,3.1270464E-3,8.279681E-3,-8.23593E-3,3.0445575E-3],"categories":[],"categories_nodes":[],"categories_segments":[],"categories_sizes":[],"default_left":[0,0,0,0,0,0,0,0,0,0,0,0,0,0,0],"id":45,"left_children":[1,3,5,7,9,11,13,-1,-1,-1,-1,-1,-1,-1,-1],"loss_changes":[9.193462E1,5.1495014E1,5.0809574E1,4.253461E1,2.4540787E1,1.2817078E1,3.0449398E1,0E0,0E0,0E0,0E0,0E0,0E0,0E0,0E0],"parents":[2147483647,0,0,1,1,2,2,3,3,4,4,5,5,6,6],"right_children":[2,4,6,8,10,12,14,-1,-1,-1,-1,-1,-1,-1,-1],"split_conditions":[4.81E-1,1.1E2,1.23E2,1.06E2,1.16E2,1.18E2,1.27E2,-4.003863E-3,8.077028E-3,-8.091788E-3,-9.809519E-4,3.1270464E-3,8.279681E-3,-8.23593E-3,3.0445575E-3],"split_indices":[3,26,26,13,13,13,13,0,0,0,0,0,0,0,0],"split_type":[0,0,0,0,0,0,0,0,0,0,0,0,0,0,0],"sum_hessian":[6.6971387E2,3.5347922E2,3.1623465E2,1.14689575E2,2.3878964E2,2.2171875E2,9.4515915E1,5.733234E1,5.7357235E1,1.7071022E2,6.807941E1,7.4127426E1,1.4759132E2,4.3279213E1,5.12367E1],"tree_param":{"num_deleted":"0","num_feature":"27","num_nodes":"15","size_leaf_vector":"1"}},{"base_weights":[-5.9408285E-3,-3.5548294E-1,3.8014647E-1,2.8837535E-1,-5.951133E-1,6.536299E-1,-2.43886E-1,-4.287611E-3,7.7053383E-3,-8.1527075E-3,-1.7291108E-3,2.12168E-3,7.824265E-3,-7.6099318E-3,3.9780056E-3],"categories":[],"categories_nodes":[],"categories_segments":[],"categories_sizes":[],"default_left":[0,0,0,0,0,0,0,0,0,0,0,0,0,0,0],"id":46,"left_children":[1,3,5,7,9,11,13,-1,-1,-1,-1,-1,-1,-1,-1],"loss_changes":[9.049047E1,5.446732E1,5.453533E1,3.356723E1,2.3727753E1,1.2445396E1,3.2759567E1,0E0,0E0,0E0,0E0,0E0,0E0,0E0,0E0],"parents":[2147483647,0,0,1,1,2,2,3,3,4,4,5,5,6,6],"right_children":[2,4,6,8,10,12,14,-1,-1,-1,-1,-1,-1,-1,-1],"split_conditions":[4.81E-1,1.08E2,1.23E2,1.04E2,1.14E2,1.15E2,1.29E2,-4.287611E-3,7.7053383E-3,-8.1527075E-3,-1.7291108E-3,2.12168E-3,7.824265E-3,-7.6099318E-3,3.9780056E-3],"split_indices":[16,13,13,26,26,26,26,0,0,0,0,0,0,0,0],"split_type":[0,0,0,0,0,0,0,0,0,0,0,0,0,0,0],"sum_hessian":[6.68528E2,3.5091147E2,3.1761658E2,9.512322E1,2.5578824E2,2.2080217E2,9.681441E1,3.8287384E1,5.6835835E1,1.6750938E2,8.8278854E1,5.0467537E1,1.7033464E2,5.3508396E1,4.3306007E1],"tree_param":{"num_deleted":"0","num_feature":"27","num_nodes":"15","size_leaf_vector":"1"}},{"base_weights":[5.940848E-3,3.5548297E-1,-3.8014647E-1,-2.8837535E-1,5.951133E-1,-6.536299E-1,2.4388598E-1,4.287611E-3,-7.7053383E-3,8.1527075E-3,1.7291113E-3,-2.12168E-3,-7.824265E-3,7.609932E-3,-3.978006E-3],"categories":[],"categories_nodes":[],"categories_segments":[],"categories_sizes":[],"default_left":[0,0,0,0,0,0,0,0,0,0,0,0,0,0,0],"id":47,"left_children":[1,3,5,7,9,11,13,-1,-1,-1,-1,-1,-1,-1,-1],"loss_changes":[9.049047E1,5.446732E1,5.4535328E1,3.356723E1,2.3727753E1,1.2445389E1,3.2759575E1,0E0,0E0,0E0,0E0,0E0,0E0,0E0,0E0],"parents":[2147483647,0,0,1,1,2,2,3,3,4,4,5,5,6,6],"right_children":[2,4,6,8,10,12,14,-1,-1,-1,-1,-1,-1,-1,-1],"split_conditions":[4.81E-1,1.08E2,1.23E2,1.04E2,1.14E2,1.15E2,1.29E2,4.287611E-3,-7.7053383E-3,8.1527075E-3,1.7291113E-3,-2.12168E-3,-7.824265E-3,7.609932E-3,-3.978006E-3],"split_indices":[16,13,13,26,26,26,26,0,0,0,0,0,0,0,0],"split_type":[0,0,0,0,0,0,0,0,0,0,0,0,0,0,0],"sum_hessian":[6.68528E2,3.5091147E2,3.1761658E2,9.5123215E1,2.5578824E2,2.2080217E2,9.68144E1,3.8287384E1,5.6835835E1,1.6750938E2,8.827885E1,5.0467537E1,1.7033464E2,5.3508392E1,4.3306007E1],"tree_param":{"num_deleted":"0","num_feature":"27","num_nodes":"15","size_leaf_vector":"1"}},{"base_weights":[-5.892787E-3,3.3967075E-1,-3.920312E-1,-2.7383617E-1,5.690373E-1,-6.493614E-1,2.1128385E-1,3.875847E-3,-8.146013E-3,8.057482E-3,1.2518701E-3,-2.1651255E-3,-7.820014E-3,7.221481E-3,-3.9421213E-3],"categories":[],"categories_nodes":[],"categories_segments":[],"categories_sizes":[],"default_left":[0,0,0,0,0,0,0,0,0,0,0,0,0,0,0],"id":48,"left_children":[1,3,5,7,9,11,13,-1,-1,-1,-1,-1,-1,-1,-1],"loss_changes":[8.930703E1,4.9859028E1,4.920918E1,3.4935867E1,2.6944641E1,1.2566032E1,2.9751652E1,0E0,0E0,0E0,0E0,0E0,0E0,0E0,0E0],"parents":[2147483647,0,0,1,1,2,2,3,3,4,4,5,5,6,6],"right_children":[2,4,6,8,10,12,14,-1,-1,-1,-1,-1,-1,-1,-1],"split_conditions":[4.81E-1,1.08E2,1.23E2,1.05E2,1.14E2,1.15E2,1.29E2,3.875847E-3,-8.146013E-3,8.057482E-3,1.2518701E-3,-2.1651255E-3,-7.820014E-3,7.221481E-3,-3.9421213E-3],"split_indices":[3,26,26,13,13,13,13,0,0,0,0,0,0,0,0],"split_type":[0,0,0,0,0,0,0,0,0,0,0,0,0,0,0],"sum_hessian":[6.6729266E2,3.5221146E2,3.1508124E2,9.579262E1,2.5641882E2,2.2081946E2,9.426178E1,4.321668E1,5.257594E1,1.6670018E2,8.9718636E1,5.241246E1,1.68407E2,5.102159E1,4.324019E1],"tree_param":{"num_deleted":"0","num_feature":"27","num_nodes":"15","size_leaf_vector":"1"}},{"base_weights":[5.892795E-3,-3.3967075E-1,3.920312E-1,2.738362E-1,-5.690373E-1,6.493613E-1,-2.1128385E-1,-3.8758465E-3,8.146013E-3,-8.057482E-3,-1.25187E-3,2.1651255E-3,7.820014E-3,-7.2214818E-3,3.9421218E-3],"categories":[],"categories_nodes":[],"categories_segments":[],"categories_sizes":[],"default_left":[0,0,0,0,0,0,0,0,0,0,0,0,0,0,0],"id":49,"left_children":[1,3,5,7,9,11,13,-1,-1,-1,-1,-1,-1,-1,-1],"loss_changes":[8.930702E1,4.9859024E1,4.920918E1,3.493586E1,2.6944626E1,1.2566025E1,2.9751656E1,0E0,0E0,0E0,0E0,0E0,0E0,0E0,0E0],"parents":[2147483647,0,0,1,1,2,2,3,3,4,4,5,5,6,6],"right_children":[2,4,6,8,10,12,14,-1,-1,-1,-1,-1,-1,-1,-1],"split_conditions":[4.81E-1,1.08E2,1.23E2,1.05E2,1.14E2,1.15E2,1.29E2,-3.8758465E-3,8.146013E-3,-8.057482E-3,-1.25187E-3,2.1651255E-3,7.820014E-3,-7.2214818E-3,3.9421218E-3],"split_indices":[3,26,26,13,13,13,13,0,0,0,0,0,0,0,0],"split_type":[0,0,0,0,0,0,0,0,0,0,0,0,0,0,0],"sum_hessian":[6.6729266E2,3.5221146E2,3.1508124E2,9.579262E1,2.5641882E2,2.2081946E2,9.426178E1,4.321668E1,5.257594E1,1.667002E2,8.9718636E1,5.2412464E1,1.68407E2,5.102159E1,4.324019E1],"tree_param":{"num_deleted":"0","num_feature":"27","num_nodes":"15","size_leaf_vector":"1"}},{"base_weights":[-5.847521E-3,-3.5103354E-1,3.7543494E-1,2.832592E-1,-5.8727676E-1,6.750801E-1,-1.7887105E-1,-3.5503758E-3,8.146455E-3,-8.057313E-3,-1.7002962E-3,2.1295436E-3,7.937057E-3,-7.588302E-3,4.1775806E-3],"categories":[],"categories_nodes":[],"categories_segments":[],"categories_sizes":[],"default_left":[0,0,0,0,0,0,0,0,0,0,0,0,0,0,0],"id":50,"left_children":[1,3,5,7,9,11,13,-1,-1,-1,-1,-1,-1,-1,-1],"loss_changes":[8.7921776E1,5.2703297E1,5.284372E1,3.2789715E1,2.317749E1,1.1137756E1,3.9131203E1,0E0,0E0,0E0,0E0,0E0,0E0,0E0,0E0],"parents":[2147483647,0,0,1,1,2,2,3,3,4,4,5,5,6,6],"right_children":[2,4,6,8,10,12,14,-1,-1,-1,-1,-1,-1,-1,-1],"split_conditions":[4.81E-1,1.08E2,1.21E2,1.05E2,1.14E2,1.14E2,1.28E2,-3.5503758E-3,8.146455E-3,-8.057313E-3,-1.7002962E-3,2.1295436E-3,7.937057E-3,-7.588302E-3,4.1775806E-3],"split_indices":[16,13,13,26,26,26,26,0,0,0,0,0,0,0,0],"split_type":[0,0,0,0,0,0,0,0,0,0,0,0,0,0,0],"sum_hessian":[6.6602936E2,3.4960303E2,3.1642636E2,9.482014E1,2.5478288E2,2.0525325E2,1.11173096E2,4.3227493E1,5.159264E1,1.6661737E2,8.816551E1,4.2496452E1,1.627568E2,5.6236244E1,5.493685E1],"tree_param":{"num_deleted":"0","num_feature":"27","num_nodes":"15","size_leaf_vector":"1"}},{"base_weights":[5.847538E-3,3.5103354E-1,-3.7543494E-1,-2.8325924E-1,5.872768E-1,-6.7508006E-1,1.7887102E-1,3.5503758E-3,-8.1464555E-3,8.057314E-3,1.700296E-3,-2.1295433E-3,-7.937056E-3,7.588302E-3,-4.1775806E-3],"categories":[],"categories_nodes":[],"categories_segments":[],"categories_sizes":[],"default_left":[0,0,0,0,0,0,0,0,0,0,0,0,0,0,0],"id":51,"left_children":[1,3,5,7,9,11,13,-1,-1,-1,-1,-1,-1,-1,-1],"loss_changes":[8.792177E1,5.2703297E1,5.284371E1,3.278971E1,2.3177498E1,1.1137749E1,3.9131203E1,0E0,0E0,0E0,0E0,0E0,0E0,0E0,0E0],"parents":[2147483647,0,0,1,1,2,2,3,3,4,4,5,5,6,6],"right_children":[2,4,6,8,10,12,14,-1,-1,-1,-1,-1,-1,-1,-1],"split_conditions":[4.81E-1,1.08E2,1.21E2,1.05E2,1.14E2,1.14E2,1.28E2,3.5503758E-3,-8.1464555E-3,8.057314E-3,1.700296E-3,-2.1295433E-3,-7.937056E-3,7.588302E-3,-4.1775806E-3],"split_indices":[16,13,13,26,26,26,26,0,0,0,0,0,0,0,0],"split_type":[0,0,0,0,0,0,0,0,0,0,0,0,0,0,0],"sum_hessian":[6.6602936E2,3.4960303E2,3.1642636E2,9.482014E1,2.547829E2,2.0525325E2,1.11173096E2,4.322749E1,5.1592644E1,1.6661739E2,8.816551E1,4.2496452E1,1.627568E2,5.6236244E1,5.493685E1],"tree_param":{"num_deleted":"0","num_feature":"27","num_nodes":"15","size_leaf_vector":"1"}},{"base_weights":[-5.798239E-3,3.3539477E-1,-3.8701925E-1,-1.9877647E-1,5.9196824E-1,-6.409192E-1,2.072271E-1,3.916157E-3,-7.892549E-3,7.902668E-3,9.4378064E-4,-3.0216232E-3,-8.089185E-3,8.059244E-3,-3.003043E-3],"categories":[],"categories_nodes":[],"categories_segments":[],"categories_sizes":[],"default_left":[0,0,0,0,0,0,0,0,0,0,0,0,0,0,0],"id":52,"left_children":[1,3,5,7,9,11,13,-1,-1,-1,-1,-1,-1,-1,-1],"loss_changes":[8.671998E1,4.8338688E1,4.764178E1,4.036834E1,2.3402206E1,1.2325096E1,2.9113977E1,0E0,0E0,0E0,0E0,0E0,0E0,0E0,0E0],"parents":[2147483647,0,0,1,1,2,2,3,3,4,4,5,5,6,6],"right_children":[2,4,6,8,10,12,14,-1,-1,-1,-1,-1,-1,-1,-1],"split_conditions":[4.81E-1,1.1E2,1.23E2,1.06E2,1.16E2,1.18E2,1.27E2,3.916157E-3,-7.892549E-3,7.902668E-3,9.4378064E-4,-3.0216232E-3,-8.089185E-3,8.059244E-3,-3.003043E-3],"split_indices":[3,26,26,13,13,13,13,0,0,0,0,0,0,0,0],"split_type":[0,0,0,0,0,0,0,0,0,0,0,0,0,0,0],"sum_hessian":[6.647201E2,3.508391E2,3.1388098E2,1.13910095E2,2.3692902E2,2.1986296E2,9.401803E1,5.7127613E1,5.6782482E1,1.6899379E2,6.793523E1,7.381654E1,1.4604642E2,4.2865196E1,5.1152832E1],"tree_param":{"num_deleted":"0","num_feature":"27","num_nodes":"15","size_leaf_vector":"1"}},{"base_weights":[5.7982365E-3,-3.3539474E-1,3.8701922E-1,1.9877648E-1,-5.9196824E-1,6.4091915E-1,-2.072271E-1,-3.916157E-3,7.892549E-3,-7.902667E-3,-9.4378076E-4,3.0216228E-3,8.089185E-3,-8.059244E-3,3.0030431E-3],"categories":[],"categories_nodes":[],"categories_segments":[],"categories_sizes":[],"default_left":[0,0,0,0,0,0,0,0,0,0,0,0,0,0,0],"id":53,"left_children":[1,3,5,7,9,11,13,-1,-1,-1,-1,-1,-1,-1,-1],"loss_changes":[8.671997E1,4.8338684E1,4.764178E1,4.0368336E1,2.3402199E1,1.2325081E1,2.9113981E1,0E0,0E0,0E0,0E0,0E0,0E0,0E0,0E0],"parents":[2147483647,0,0,1,1,2,2,3,3,4,4,5,5,6,6],"right_children":[2,4,6,8,10,12,14,-1,-1,-1,-1,-1,-1,-1,-1],"split_conditions":[4.81E-1,1.1E2,1.23E2,1.06E2,1.16E2,1.18E2,1.27E2,-3.916157E-3,7.892549E-3,-7.902667E-3,-9.4378076E-4,3.0216228E-3,8.089185E-3,-8.059244E-3,3.0030431E-3],"split_indices":[3,26,26,13,13,13,13,0,0,0,0,0,0,0,0],"split_type":[0,0,0,0,0,0,0,0,0,0,0,0,0,0,0],"sum_hessian":[6.647201E2,3.508391E2,3.1388098E2,1.13910095E2,2.3692902E2,2.1986296E2,9.401803E1,5.7127613E1,5.6782482E1,1.6899379E2,6.793523E1,7.381654E1,1.4604642E2,4.2865192E1,5.1152832E1],"tree_param":{"num_deleted":"0","num_feature":"27","num_nodes":"15","size_leaf_vector":"1"}},{"base_weights":[-5.753557E-3,-3.4653065E-1,3.7071353E-1,2.7835986E-1,-5.7951266E-1,6.3706017E-1,-2.3527934E-1,-4.230177E-3,7.53661E-3,-7.962769E-3,-1.6725633E-3,2.9566989E-3,8.001949E-3,-6.9837156E-3,4.521516E-3],"categories":[],"categories_nodes":[],"categories_segments":[],"categories_sizes":[],"default_left":[0,0,0,0,0,0,0,0,0,0,0,0,0,0,0],"id":54,"left_children":[1,3,5,7,9,11,13,-1,-1,-1,-1,-1,-1,-1,-1],"loss_changes":[8.536413E1,5.1006912E1,5.1177605E1,3.216296E1,2.262915E1,1.2009682E1,3.1277346E1,0E0,0E0,0E0,0E0,0E0,0E0,0E0,0E0],"parents":[2147483647,0,0,1,1,2,2,3,3,4,4,5,5,6,6],"right_children":[2,4,6,8,10,12,14,-1,-1,-1,-1,-1,-1,-1,-1],"split_conditions":[4.81E-1,1.08E2,1.23E2,1.04E2,1.14E2,1.18E2,1.3E2,-4.230177E-3,7.53661E-3,-7.962769E-3,-1.6725633E-3,2.9566989E-3,8.001949E-3,-6.9837156E-3,4.521516E-3],"split_indices":[16,13,13,26,26,26,26,0,0,0,0,0,0,0,0],"split_type":[0,0,0,0,0,0,0,0,0,0,0,0,0,0,0],"sum_hessian":[6.6339124E2,3.482425E2,3.1514874E2,9.452319E1,2.5371931E2,2.188905E2,9.625825E1,3.8225613E1,5.6297577E1,1.6567561E2,8.80437E1,7.168614E1,1.4720436E2,5.750424E1,3.875401E1],"tree_param":{"num_deleted":"0","num_feature":"27","num_nodes":"15","size_leaf_vector":"1"}},{"base_weights":[5.7535456E-3,3.4653065E-1,-3.7071356E-1,-2.783599E-1,5.7951266E-1,-6.3706017E-1,2.352793E-1,4.2301766E-3,-7.53661E-3,7.962769E-3,1.672563E-3,-2.9566989E-3,-8.001949E-3,6.983715E-3,-4.521516E-3],"categories":[],"categories_nodes":[],"categories_segments":[],"categories_sizes":[],"default_left":[0,0,0,0,0,0,0,0,0,0,0,0,0,0,0],"id":55,"left_children":[1,3,5,7,9,11,13,-1,-1,-1,-1,-1,-1,-1,-1],"loss_changes":[8.536413E1,5.1006912E1,5.117761E1,3.2162956E1,2.262915E1,1.2009682E1,3.127734E1,0E0,0E0,0E0,0E0,0E0,0E0,0E0,0E0],"parents":[2147483647,0,0,1,1,2,2,3,3,4,4,5,5,6,6],"right_children":[2,4,6,8,10,12,14,-1,-1,-1,-1,-1,-1,-1,-1],"split_conditions":[4.81E-1,1.08E2,1.23E2,1.04E2,1.14E2,1.18E2,1.3E2,4.2301766E-3,-7.53661E-3,7.962769E-3,1.672563E-3,-2.9566989E-3,-8.001949E-3,6.983715E-3,-4.521516E-3],"split_indices":[16,13,13,26,26,26,26,0,0,0,0,0,0,0,0],"split_type":[0,0,0,0,0,0,0,0,0,0,0,0,0,0,0],"sum_hessian":[6.6339124E2,3.482425E2,3.1514874E2,9.452319E1,2.5371931E2,2.188905E2,9.625825E1,3.8225613E1,5.6297577E1,1.6567561E2,8.80437E1,7.168614E1,1.4720436E2,5.7504234E1,3.875401E1],"tree_param":{"num_deleted":"0","num_feature":"27","num_nodes":"15","size_leaf_vector":"1"}},{"base_weights":[-5.7045864E-3,3.8968483E-1,-3.2712263E-1,-4.2556047E-1,7.38547E-1,-7.5576705E-1,2.7884334E-1,4.7392263E-3,-7.864758E-3,3.648838E-3,8.281337E-3,-8.152913E-3,-4.3329075E-3,8.23909E-3,-2.5111644E-3],"categories":[],"categories_nodes":[],"categories_segments":[],"categories_sizes":[],"default_left":[0,0,0,0,0,0,0,0,0,0,0,0,0,0,0],"id":56,"left_children":[1,3,5,7,9,11,13,-1,-1,-1,-1,-1,-1,-1,-1],"loss_changes":[8.438849E1,8.4999504E1,9.534664E1,2.9547085E1,6.6905212E0,3.7696838E0,4.4251907E1,0E0,0E0,0E0,0E0,0E0,0E0,0E0,0E0],"parents":[2147483647,0,0,1,1,2,2,3,3,4,4,5,5,6,6],"right_children":[2,4,6,8,10,12,14,-1,-1,-1,-1,-1,-1,-1,-1],"split_conditions":[1.14E2,1.06E2,1.21E2,1.02E2,1.11E2,1.18E2,1.26E2,4.7392263E-3,-7.864758E-3,3.648838E-3,8.281337E-3,-8.152913E-3,-4.3329075E-3,8.23909E-3,-2.5111644E-3],"split_indices":[13,26,26,13,26,26,13,0,0,0,0,0,0,0,0],"split_type":[0,0,0,0,0,0,0,0,0,0,0,0,0,0,0],"sum_hessian":[6.620273E2,2.9675925E2,3.65268E2,8.886755E1,2.078917E2,2.137908E2,1.5147722E2,2.5357582E1,6.3509975E1,4.118468E1,1.6670702E2,1.791873E2,3.46035E1,7.440092E1,7.70763E1],"tree_param":{"num_deleted":"0","num_feature":"27","num_nodes":"15","size_leaf_vector":"1"}},{"base_weights":[5.7045775E-3,-3.896848E-1,3.271226E-1,4.2556047E-1,-7.3854697E-1,7.5576705E-1,-2.7884334E-1,-4.739227E-3,7.864758E-3,-3.648838E-3,-8.281337E-3,8.152912E-3,4.3329075E-3,-8.23909E-3,2.5111644E-3],"categories":[],"categories_nodes":[],"categories_segments":[],"categories_sizes":[],"default_left":[0,0,0,0,0,0,0,0,0,0,0,0,0,0,0],"id":57,"left_children":[1,3,5,7,9,11,13,-1,-1,-1,-1,-1,-1,-1,-1],"loss_changes":[8.438847E1,8.499948E1,9.5346634E1,2.9547081E1,6.6905365E0,3.7696838E0,4.4251907E1,0E0,0E0,0E0,0E0,0E0,0E0,0E0,0E0],"parents":[2147483647,0,0,1,1,2,2,3,3,4,4,5,5,6,6],"right_children":[2,4,6,8,10,12,14,-1,-1,-1,-1,-1,-1,-1,-1],"split_conditions":[1.14E2,1.06E2,1.21E2,1.02E2,1.11E2,1.18E2,1.26E2,-4.739227E-3,7.864758E-3,-3.648838E-3,-8.281337E-3,8.152912E-3,4.3329075E-3,-8.23909E-3,2.5111644E-3],"split_indices":[13,26,26,13,26,26,13,0,0,0,0,0,0,0,0],"split_type":[0,0,0,0,0,0,0,0,0,0,0,0,0,0,0],"sum_hessian":[6.620273E2,2.9675925E2,3.6526804E2,8.886755E1,2.078917E2,2.137908E2,1.5147722E2,2.5357582E1,6.3509975E1,4.118468E1,1.6670702E2,1.791873E2,3.46035E1,7.4400925E1,7.70763E1],"tree_param":{"num_deleted":"0","num_feature":"27","num_nodes":"15","size_leaf_vector":"1"}},{"base_weights":[-5.656751E-3,3.2926932E-1,-3.7987924E-1,-1.9336963E-1,5.806342E-1,-6.2892777E-1,2.0160757E-1,4.472895E-3,-7.20196E-3,7.7641797E-3,9.250844E-4,-2.948736E-3,-7.954305E-3,7.0221745E-3,-3.8611284E-3],"categories":[],"categories_nodes":[],"categories_segments":[],"categories_sizes":[],"default_left":[0,0,0,0,0,0,0,0,0,0,0,0,0,0,0],"id":58,"left_children":[1,3,5,7,9,11,13,-1,-1,-1,-1,-1,-1,-1,-1],"loss_changes":[8.304311E1,4.604636E1,4.5442703E1,3.890057E1,2.2515007E1,1.1964546E1,2.8101168E1,0E0,0E0,0E0,0E0,0E0,0E0,0E0,0E0],"parents":[2147483647,0,0,1,1,2,2,3,3,4,4,5,5,6,6],"right_children":[2,4,6,8,10,12,14,-1,-1,-1,-1,-1,-1,-1,-1],"split_conditions":[4.81E-1,1.1E2,1.23E2,1.05E2,1.16E2,1.18E2,1.29E2,4.472895E-3,-7.20196E-3,7.7641797E-3,9.250844E-4,-2.948736E-3,-7.954305E-3,7.0221745E-3,-3.8611284E-3],"split_indices":[3,26,26,13,13,13,13,0,0,0,0,0,0,0,0],"split_type":[0,0,0,0,0,0,0,0,0,0,0,0,0,0,0],"sum_hessian":[6.6056146E2,3.4864615E2,3.119153E2,1.1330099E2,2.3534517E2,2.1832568E2,9.358962E1,5.1195057E1,6.210593E1,1.6755103E2,6.779414E1,7.354448E1,1.447812E2,5.043509E1,4.3154537E1],"tree_param":{"num_deleted":"0","num_feature":"27","num_nodes":"15","size_leaf_vector":"1"}},{"base_weights":[5.656762E-3,-3.292693E-1,3.7987924E-1,1.9336964E-1,-5.806342E-1,6.2892777E-1,-2.0160758E-1,-4.472895E-3,7.2019603E-3,-7.76418E-3,-9.2508405E-4,2.9487358E-3,7.954305E-3,-7.0221745E-3,3.8611281E-3],"categories":[],"categories_nodes":[],"categories_segments":[],"categories_sizes":[],"default_left":[0,0,0,0,0,0,0,0,0,0,0,0,0,0,0],"id":59,"left_children":[1,3,5,7,9,11,13,-1,-1,-1,-1,-1,-1,-1,-1],"loss_changes":[8.304311E1,4.604638E1,4.5442707E1,3.890057E1,2.2515007E1,1.1964546E1,2.8101166E1,0E0,0E0,0E0,0E0,0E0,0E0,0E0,0E0],"parents":[2147483647,0,0,1,1,2,2,3,3,4,4,5,5,6,6],"right_children":[2,4,6,8,10,12,14,-1,-1,-1,-1,-1,-1,-1,-1],"split_conditions":[4.81E-1,1.1E2,1.23E2,1.05E2,1.16E2,1.18E2,1.29E2,-4.472895E-3,7.2019603E-3,-7.76418E-3,-9.2508405E-4,2.9487358E-3,7.954305E-3,-7.0221745E-3,3.8611281E-3],"split_indices":[3,26,26,13,13,13,13,0,0,0,0,0,0,0,0],"split_type":[0,0,0,0,0,0,0,0,0,0,0,0,0,0,0],"sum_hessian":[6.6056146E2,3.4864615E2,3.119153E2,1.1330099E2,2.3534515E2,2.183257E2,9.358962E1,5.1195057E1,6.210593E1,1.6755101E2,6.779414E1,7.354448E1,1.4478122E2,5.043509E1,4.3154537E1],"tree_param":{"num_deleted":"0","num_feature":"27","num_nodes":"15","size_leaf_vector":"1"}},{"base_weights":[-5.614937E-3,3.8425475E-1,-3.223217E-1,-4.210722E-1,7.2960025E-1,-7.465858E-1,2.7583128E-1,4.6572643E-3,-7.7806762E-3,3.6102303E-3,8.183237E-3,-8.059505E-3,-4.2599807E-3,8.149541E-3,-2.4683492E-3],"categories":[],"categories_nodes":[],"categories_segments":[],"categories_sizes":[],"default_left":[0,0,0,0,0,0,0,0,0,0,0,0,0,0,0],"id":60,"left_children":[1,3,5,7,9,11,13,-1,-1,-1,-1,-1,-1,-1,-1],"loss_changes":[8.163471E1,8.272708E1,9.278128E1,2.8720703E1,6.499092E0,3.7234955E0,4.3061657E1,0E0,0E0,0E0,0E0,0E0,0E0,0E0,0E0],"parents":[2147483647,0,0,1,1,2,2,3,3,4,4,5,5,6,6],"right_children":[2,4,6,8,10,12,14,-1,-1,-1,-1,-1,-1,-1,-1],"split_conditions":[1.14E2,1.06E2,1.21E2,1.02E2,1.11E2,1.18E2,1.26E2,4.6572643E-3,-7.7806762E-3,3.6102303E-3,8.183237E-3,-8.059505E-3,-4.2599807E-3,8.149541E-3,-2.4683492E-3],"split_indices":[13,26,26,13,26,26,13,0,0,0,0,0,0,0,0],"split_type":[0,0,0,0,0,0,0,0,0,0,0,0,0,0,0],"sum_hessian":[6.59144E2,2.9535065E2,3.6379333E2,8.857628E1,2.0677435E2,2.126878E2,1.5110553E2,2.5335863E1,6.3240417E1,4.1100933E1,1.6567342E2,1.7817949E2,3.450831E1,7.410649E1,7.699904E1],"tree_param":{"num_deleted":"0","num_feature":"27","num_nodes":"15","size_leaf_vector":"1"}},{"base_weights":[5.6149396E-3,-3.8425475E-1,3.223217E-1,4.210722E-1,-7.2960025E-1,7.465858E-1,-2.7583128E-1,-4.6572653E-3,7.7806762E-3,-3.6102303E-3,-8.183237E-3,8.059505E-3,4.259981E-3,-8.149541E-3,2.4683494E-3],"categories":[],"categories_nodes":[],"categories_segments":[],"categories_sizes":[],"default_left":[0,0,0,0,0,0,0,0,0,0,0,0,0,0,0],"id":61,"left_children":[1,3,5,7,9,11,13,-1,-1,-1,-1,-1,-1,-1,-1],"loss_changes":[8.163472E1,8.272707E1,9.278128E1,2.8720707E1,6.499092E0,3.7234955E0,4.306166E1,0E0,0E0,0E0,0E0,0E0,0E0,0E0,0E0],"parents":[2147483647,0,0,1,1,2,2,3,3,4,4,5,5,6,6],"right_children":[2,4,6,8,10,12,14,-1,-1,-1,-1,-1,-1,-1,-1],"split_conditions":[1.14E2,1.06E2,1.21E2,1.02E2,1.11E2,1.18E2,1.26E2,-4.6572653E-3,7.7806762E-3,-3.6102303E-3,-8.183237E-3,8.059505E-3,4.259981E-3,-8.149541E-3,2.4683494E-3],"split_indices":[13,26,26,13,26,26,13,0,0,0,0,0,0,0,0],"split_type":[0,0,0,0,0,0,0,0,0,0,0,0,0,0,0],"sum_hessian":[6.59144E2,2.9535065E2,3.6379333E2,8.857628E1,2.0677437E2,2.126878E2,1.5110553E2,2.5335863E1,6.3240417E1,4.1100933E1,1.6567343E2,1.7817949E2,3.450831E1,7.410649E1,7.699904E1],"tree_param":{"num_deleted":"0","num_feature":"27","num_nodes":"15","size_leaf_vector":"1"}},{"base_weights":[-5.568549E-3,3.2471135E-1,-3.7459952E-1,-2.587949E-1,5.433793E-1,-6.203659E-1,1.9815634E-1,3.7277138E-3,-7.8382315E-3,7.7313366E-3,1.1906107E-3,-2.8978433E-3,-7.858503E-3,6.9299233E-3,-3.8020515E-3],"categories":[],"categories_nodes":[],"categories_segments":[],"categories_sizes":[],"default_left":[0,0,0,0,0,0,0,0,0,0,0,0,0,0,0],"id":62,"left_children":[1,3,5,7,9,11,13,-1,-1,-1,-1,-1,-1,-1,-1],"loss_changes":[8.039355E1,4.4553677E1,4.397302E1,3.197965E1,2.462323E1,1.171035E1,2.7249321E1,0E0,0E0,0E0,0E0,0E0,0E0,0E0,0E0],"parents":[2147483647,0,0,1,1,2,2,3,3,4,4,5,5,6,6],"right_children":[2,4,6,8,10,12,14,-1,-1,-1,-1,-1,-1,-1,-1],"split_conditions":[4.81E-1,1.08E2,1.23E2,1.05E2,1.14E2,1.18E2,1.29E2,3.7277138E-3,-7.8382315E-3,7.7313366E-3,1.1906107E-3,-2.8978433E-3,-7.858503E-3,6.9299233E-3,-3.8020515E-3],"split_indices":[3,26,26,13,13,13,13,0,0,0,0,0,0,0,0],"split_type":[0,0,0,0,0,0,0,0,0,0,0,0,0,0,0],"sum_hessian":[6.575953E2,3.4708075E2,3.1051456E2,9.456214E1,2.5251862E2,2.1722244E2,9.32921E1,4.3057487E1,5.1504654E1,1.6328375E2,8.9234856E1,7.3381744E1,1.4384071E2,5.0169636E1,4.3122463E1],"tree_param":{"num_deleted":"0","num_feature":"27","num_nodes":"15","size_leaf_vector":"1"}},{"base_weights":[5.568543E-3,-3.2471138E-1,3.7459952E-1,2.587949E-1,-5.4337937E-1,6.203659E-1,-1.9815636E-1,-3.727714E-3,7.838232E-3,-7.7313376E-3,-1.1906109E-3,2.8978433E-3,7.858503E-3,-6.9299233E-3,3.8020508E-3],"categories":[],"categories_nodes":[],"categories_segments":[],"categories_sizes":[],"default_left":[0,0,0,0,0,0,0,0,0,0,0,0,0,0,0],"id":63,"left_children":[1,3,5,7,9,11,13,-1,-1,-1,-1,-1,-1,-1,-1],"loss_changes":[8.039355E1,4.4553684E1,4.3973022E1,3.1979662E1,2.462323E1,1.1710358E1,2.7249321E1,0E0,0E0,0E0,0E0,0E0,0E0,0E0,0E0],"parents":[2147483647,0,0,1,1,2,2,3,3,4,4,5,5,6,6],"right_children":[2,4,6,8,10,12,14,-1,-1,-1,-1,-1,-1,-1,-1],"split_conditions":[4.81E-1,1.08E2,1.23E2,1.05E2,1.14E2,1.18E2,1.29E2,-3.727714E-3,7.838232E-3,-7.7313376E-3,-1.1906109E-3,2.8978433E-3,7.858503E-3,-6.9299233E-3,3.8020508E-3],"split_indices":[3,26,26,13,13,13,13,0,0,0,0,0,0,0,0],"split_type":[0,0,0,0,0,0,0,0,0,0,0,0,0,0,0],"sum_hessian":[6.575953E2,3.4708075E2,3.1051456E2,9.456214E1,2.5251862E2,2.1722244E2,9.32921E1,4.3057487E1,5.1504654E1,1.6328375E2,8.9234856E1,7.3381744E1,1.4384071E2,5.0169636E1,4.3122463E1],"tree_param":{"num_deleted":"0","num_feature":"27","num_nodes":"15","size_leaf_vector":"1"}},{"base_weights":[-5.529878E-3,-3.3630377E-1,3.5990655E-1,2.685768E-1,-5.625227E-1,6.470987E-1,-1.6753946E-1,-5.8062375E-3,6.464727E-3,-7.752515E-3,-1.6199611E-3,2.0043699E-3,7.6322923E-3,-7.3480913E-3,4.0983013E-3],"categories":[],"categories_nodes":[],"categories_segments":[],"categories_sizes":[],"default_left":[0,0,0,0,0,0,0,0,0,0,0,0,0,0,0],"id":64,"left_children":[1,3,5,7,9,11,13,-1,-1,-1,-1,-1,-1,-1,-1],"loss_changes":[7.954932E1,4.7417477E1,4.7472046E1,3.0765135E1,2.1322388E1,1.03587265E1,3.6664513E1,0E0,0E0,0E0,0E0,0E0,0E0,0E0,0E0],"parents":[2147483647,0,0,1,1,2,2,3,3,4,4,5,5,6,6],"right_children":[2,4,6,8,10,12,14,-1,-1,-1,-1,-1,-1,-1,-1],"split_conditions":[4.81E-1,1.08E2,1.21E2,1.02E2,1.14E2,1.14E2,1.28E2,-5.8062375E-3,6.464727E-3,-7.752515E-3,-1.6199611E-3,2.0043699E-3,7.6322923E-3,-7.3480913E-3,4.0983013E-3],"split_indices":[16,13,13,26,26,26,26,0,0,0,0,0,0,0,0],"split_type":[0,0,0,0,0,0,0,0,0,0,0,0,0,0,0],"sum_hessian":[6.5610095E2,3.444251E2,3.1167584E2,9.369893E1,2.507262E2,2.016509E2,1.1002494E2,2.8690258E1,6.500867E1,1.6314212E2,8.758407E1,4.2172554E1,1.5947835E2,5.5360336E1,5.4664604E1],"tree_param":{"num_deleted":"0","num_feature":"27","num_nodes":"15","size_leaf_vector":"1"}},{"base_weights":[5.5298866E-3,3.3630377E-1,-3.5990655E-1,-2.6857683E-1,5.6252277E-1,-6.470987E-1,1.6753948E-1,5.8062375E-3,-6.464727E-3,7.7525154E-3,1.6199612E-3,-2.00437E-3,-7.6322923E-3,7.3480913E-3,-4.0983013E-3],"categories":[],"categories_nodes":[],"categories_segments":[],"categories_sizes":[],"default_left":[0,0,0,0,0,0,0,0,0,0,0,0,0,0,0],"id":65,"left_children":[1,3,5,7,9,11,13,-1,-1,-1,-1,-1,-1,-1,-1],"loss_changes":[7.954932E1,4.7417484E1,4.747205E1,3.0765135E1,2.132238E1,1.0358734E1,3.666451E1,0E0,0E0,0E0,0E0,0E0,0E0,0E0,0E0],"parents":[2147483647,0,0,1,1,2,2,3,3,4,4,5,5,6,6],"right_children":[2,4,6,8,10,12,14,-1,-1,-1,-1,-1,-1,-1,-1],"split_conditions":[4.81E-1,1.08E2,1.21E2,1.02E2,1.14E2,1.14E2,1.28E2,5.8062375E-3,-6.464727E-3,7.7525154E-3,1.6199612E-3,-2.00437E-3,-7.6322923E-3,7.3480913E-3,-4.0983013E-3],"split_indices":[16,13,13,26,26,26,26,0,0,0,0,0,0,0,0],"split_type":[0,0,0,0,0,0,0,0,0,0,0,0,0,0,0],"sum_hessian":[6.5610095E2,3.444251E2,3.1167584E2,9.369893E1,2.507262E2,2.016509E2,1.1002494E2,2.8690258E1,6.500867E1,1.6314212E2,8.758407E1,4.2172554E1,1.5947833E2,5.5360336E1,5.4664604E1],"tree_param":{"num_deleted":"0","num_feature":"27","num_nodes":"15","size_leaf_vector":"1"}},{"base_weights":[-5.491065E-3,-3.337067E-1,3.57168E-1,2.6635414E-1,-5.582753E-1,6.424342E-1,-1.661662E-1,-5.7541793E-3,6.4147254E-3,-7.70308E-3,-1.6042144E-3,1.9853972E-3,7.582014E-3,-7.295361E-3,4.0602474E-3],"categories":[],"categories_nodes":[],"categories_segments":[],"categories_sizes":[],"default_left":[0,0,0,0,0,0,0,0,0,0,0,0,0,0,0],"id":66,"left_children":[1,3,5,7,9,11,13,-1,-1,-1,-1,-1,-1,-1,-1],"loss_changes":[7.815656E1,4.659384E1,4.6676846E1,3.0220903E1,2.1060898E1,1.0235031E1,3.6027843E1,0E0,0E0,0E0,0E0,0E0,0E0,0E0,0E0],"parents":[2147483647,0,0,1,1,2,2,3,3,4,4,5,5,6,6],"right_children":[2,4,6,8,10,12,14,-1,-1,-1,-1,-1,-1,-1,-1],"split_conditions":[4.81E-1,1.08E2,1.21E2,1.02E2,1.14E2,1.14E2,1.28E2,-5.7541793E-3,6.4147254E-3,-7.70308E-3,-1.6042144E-3,1.9853972E-3,7.582014E-3,-7.295361E-3,4.0602474E-3],"split_indices":[16,13,13,26,26,26,26,0,0,0,0,0,0,0,0],"split_type":[0,0,0,0,0,0,0,0,0,0,0,0,0,0,0],"sum_hessian":[6.546088E2,3.4366403E2,3.1094482E2,9.353821E1,2.5012582E2,2.0109929E2,1.09845535E2,2.866947E1,6.486874E1,1.6255658E2,8.756925E1,4.215942E1,1.5893987E2,5.5210846E1,5.463469E1],"tree_param":{"num_deleted":"0","num_feature":"27","num_nodes":"15","size_leaf_vector":"1"}},{"base_weights":[5.4910583E-3,3.3370668E-1,-3.57168E-1,-2.6635417E-1,5.582753E-1,-6.424342E-1,1.661662E-1,5.754179E-3,-6.4147264E-3,7.70308E-3,1.6042141E-3,-1.9853974E-3,-7.5820135E-3,7.295361E-3,-4.060248E-3],"categories":[],"categories_nodes":[],"categories_segments":[],"categories_sizes":[],"default_left":[0,0,0,0,0,0,0,0,0,0,0,0,0,0,0],"id":67,"left_children":[1,3,5,7,9,11,13,-1,-1,-1,-1,-1,-1,-1,-1],"loss_changes":[7.815655E1,4.659384E1,4.6676853E1,3.02209E1,2.1060905E1,1.02350235E1,3.6027847E1,0E0,0E0,0E0,0E0,0E0,0E0,0E0,0E0],"parents":[2147483647,0,0,1,1,2,2,3,3,4,4,5,5,6,6],"right_children":[2,4,6,8,10,12,14,-1,-1,-1,-1,-1,-1,-1,-1],"split_conditions":[4.81E-1,1.08E2,1.21E2,1.02E2,1.14E2,1.14E2,1.28E2,5.754179E-3,-6.4147264E-3,7.70308E-3,1.6042141E-3,-1.9853974E-3,-7.5820135E-3,7.295361E-3,-4.060248E-3],"split_indices":[16,13,13,26,26,26,26,0,0,0,0,0,0,0,0],"split_type":[0,0,0,0,0,0,0,0,0,0,0,0,0,0,0],"sum_hessian":[6.546088E2,3.4366403E2,3.1094482E2,9.353821E1,2.5012582E2,2.0109927E2,1.09845535E2,2.866947E1,6.486874E1,1.6255656E2,8.756925E1,4.215942E1,1.5893987E2,5.5210846E1,5.463469E1],"tree_param":{"num_deleted":"0","num_feature":"27","num_nodes":"15","size_leaf_vector":"1"}},{"base_weights":[-5.452845E-3,3.1948203E-1,-3.6848998E-1,-1.858978E-1,5.630892E-1,-5.976485E-1,2.2304282E-1,3.7623055E-3,-7.56823E-3,7.5548706E-3,8.911875E-4,-2.436912E-3,-7.7819624E-3,7.123519E-3,-3.4176053E-3],"categories":[],"categories_nodes":[],"categories_segments":[],"categories_sizes":[],"default_left":[0,0,0,0,0,0,0,0,0,0,0,0,0,0,0],"id":68,"left_children":[1,3,5,7,9,11,13,-1,-1,-1,-1,-1,-1,-1,-1],"loss_changes":[7.7275444E1,4.2663902E1,4.2072956E1,3.6610146E1,2.122596E1,1.4078957E1,2.4319897E1,0E0,0E0,0E0,0E0,0E0,0E0,0E0,0E0],"parents":[2147483647,0,0,1,1,2,2,3,3,4,4,5,5,6,6],"right_children":[2,4,6,8,10,12,14,-1,-1,-1,-1,-1,-1,-1,-1],"split_conditions":[4.81E-1,1.1E2,1.24E2,1.06E2,1.16E2,1.18E2,1.29E2,3.7623055E-3,-7.56823E-3,7.5548706E-3,8.911875E-4,-2.436912E-3,-7.7819624E-3,7.123519E-3,-3.4176053E-3],"split_indices":[3,26,26,13,13,13,13,0,0,0,0,0,0,0,0],"split_type":[0,0,0,0,0,0,0,0,0,0,0,0,0,0,0],"sum_hessian":[6.530818E2,3.4468915E2,3.0839264E2,1.12186806E2,2.3250235E2,2.2227386E2,8.611877E1,5.6700733E1,5.5486073E1,1.6495041E2,6.755193E1,7.5874466E1,1.463994E2,4.600327E1,4.0115494E1],"tree_param":{"num_deleted":"0","num_feature":"27","num_nodes":"15","size_leaf_vector":"1"}},{"base_weights":[5.4528536E-3,-3.1948203E-1,3.6848998E-1,1.858978E-1,-5.630892E-1,5.9764856E-1,-2.230428E-1,-3.7623055E-3,7.56823E-3,-7.55487E-3,-8.911875E-4,2.436912E-3,7.7819633E-3,-7.1235183E-3,3.4176058E-3],"categories":[],"categories_nodes":[],"categories_segments":[],"categories_sizes":[],"default_left":[0,0,0,0,0,0,0,0,0,0,0,0,0,0,0],"id":69,"left_children":[1,3,5,7,9,11,13,-1,-1,-1,-1,-1,-1,-1,-1],"loss_changes":[7.727546E1,4.2663895E1,4.2072956E1,3.6610146E1,2.122596E1,1.4078957E1,2.4319893E1,0E0,0E0,0E0,0E0,0E0,0E0,0E0,0E0],"parents":[2147483647,0,0,1,1,2,2,3,3,4,4,5,5,6,6],"right_children":[2,4,6,8,10,12,14,-1,-1,-1,-1,-1,-1,-1,-1],"split_conditions":[4.81E-1,1.1E2,1.24E2,1.06E2,1.16E2,1.18E2,1.29E2,-3.7623055E-3,7.56823E-3,-7.55487E-3,-8.911875E-4,2.436912E-3,7.7819633E-3,-7.1235183E-3,3.4176058E-3],"split_indices":[3,26,26,13,13,13,13,0,0,0,0,0,0,0,0],"split_type":[0,0,0,0,0,0,0,0,0,0,0,0,0,0,0],"sum_hessian":[6.530818E2,3.4468915E2,3.083926E2,1.121868E2,2.3250235E2,2.2227385E2,8.611877E1,5.6700733E1,5.548607E1,1.6495041E2,6.755193E1,7.5874466E1,1.4639938E2,4.600327E1,4.0115494E1],"tree_param":{"num_deleted":"0","num_feature":"27","num_nodes":"15","size_leaf_vector":"1"}},{"base_weights":[-5.4142727E-3,3.7334883E-1,-3.1251997E-1,-4.1010514E-1,7.1126866E-1,-7.2804356E-1,2.6918837E-1,4.55061E-3,-7.6141474E-3,3.513823E-3,7.9852855E-3,-7.866297E-3,-4.1373884E-3,7.987576E-3,-2.4103706E-3],"categories":[],"categories_nodes":[],"categories_segments":[],"categories_sizes":[],"default_left":[0,0,0,0,0,0,0,0,0,0,0,0,0,0,0],"id":70,"left_children":[1,3,5,7,9,11,13,-1,-1,-1,-1,-1,-1,-1,-1],"loss_changes":[7.60189E1,7.7764565E1,8.742923E1,2.7341782E1,6.1513596E0,3.5559845E0,4.102153E1,0E0,0E0,0E0,0E0,0E0,0E0,0E0,0E0],"parents":[2147483647,0,0,1,1,2,2,3,3,4,4,5,5,6,6],"right_children":[2,4,6,8,10,12,14,-1,-1,-1,-1,-1,-1,-1,-1],"split_conditions":[1.14E2,1.06E2,1.21E2,1.02E2,1.11E2,1.18E2,1.26E2,4.55061E-3,-7.6141474E-3,3.513823E-3,7.9852855E-3,-7.866297E-3,-4.1373884E-3,7.987576E-3,-2.4103706E-3],"split_indices":[13,26,26,13,26,26,13,0,0,0,0,0,0,0,0],"split_type":[0,0,0,0,0,0,0,0,0,0,0,0,0,0,0],"sum_hessian":[6.5152765E2,2.9163245E2,3.5989517E2,8.7817474E1,2.0381499E2,2.097884E2,1.5010678E2,2.527578E1,6.254169E1,4.075517E1,1.6305981E2,1.7556116E2,3.422725E1,7.337965E1,7.672713E1],"tree_param":{"num_deleted":"0","num_feature":"27","num_nodes":"15","size_leaf_vector":"1"}},{"base_weights":[5.414274E-3,-3.733488E-1,3.1251994E-1,4.1010514E-1,-7.1126866E-1,7.2804356E-1,-2.691884E-1,-4.55061E-3,7.6141483E-3,-3.5138228E-3,-7.9852855E-3,7.866297E-3,4.137389E-3,-7.987576E-3,2.4103706E-3],"categories":[],"categories_nodes":[],"categories_segments":[],"categories_sizes":[],"default_left":[0,0,0,0,0,0,0,0,0,0,0,0,0,0,0],"id":71,"left_children":[1,3,5,7,9,11,13,-1,-1,-1,-1,-1,-1,-1,-1],"loss_changes":[7.601888E1,7.776456E1,8.742923E1,2.7341782E1,6.151352E0,3.5559692E0,4.1021534E1,0E0,0E0,0E0,0E0,0E0,0E0,0E0,0E0],"parents":[2147483647,0,0,1,1,2,2,3,3,4,4,5,5,6,6],"right_children":[2,4,6,8,10,12,14,-1,-1,-1,-1,-1,-1,-1,-1],"split_conditions":[1.14E2,1.06E2,1.21E2,1.02E2,1.11E2,1.18E2,1.26E2,-4.55061E-3,7.6141483E-3,-3.5138228E-3,-7.9852855E-3,7.866297E-3,4.137389E-3,-7.987576E-3,2.4103706E-3],"split_indices":[13,26,26,13,26,26,13,0,0,0,0,0,0,0,0],"split_type":[0,0,0,0,0,0,0,0,0,0,0,0,0,0,0],"sum_hessian":[6.5152765E2,2.9163245E2,3.5989517E2,8.7817474E1,2.0381499E2,2.097884E2,1.5010678E2,2.527578E1,6.254169E1,4.075517E1,1.6305983E2,1.7556116E2,3.422725E1,7.337965E1,7.672713E1],"tree_param":{"num_deleted":"0","num_feature":"27","num_nodes":"15","size_leaf_vector":"1"}},{"base_weights":[-5.370879E-3,3.152255E-1,-3.6353725E-1,-2.916888E-2,6.6554695E-1,-5.8988786E-1,2.195939E-1,4.9237753E-3,-6.470216E-3,7.641605E-3,-2.1939322E-4,-2.395178E-3,-7.6945266E-3,7.0368694E-3,-3.3631453E-3],"categories":[],"categories_nodes":[],"categories_segments":[],"categories_sizes":[],"default_left":[0,0,0,0,0,0,0,0,0,0,0,0,0,0,0],"id":72,"left_children":[1,3,5,7,9,11,13,-1,-1,-1,-1,-1,-1,-1,-1],"loss_changes":[7.484599E1,4.15173E1,4.0764866E1,5.651814E1,1.1579475E1,1.3785637E1,2.3599384E1,0E0,0E0,0E0,0E0,0E0,0E0,0E0,0E0],"parents":[2147483647,0,0,1,1,2,2,3,3,4,4,5,5,6,6],"right_children":[2,4,6,8,10,12,14,-1,-1,-1,-1,-1,-1,-1,-1],"split_conditions":[4.81E-1,1.16E2,1.24E2,1.07E2,1.24E2,1.18E2,1.29E2,4.9237753E-3,-6.470216E-3,7.641605E-3,-2.1939322E-4,-2.395178E-3,-7.6945266E-3,7.0368694E-3,-3.3631453E-3],"split_indices":[3,26,26,13,13,13,13,0,0,0,0,0,0,0,0],"split_type":[0,0,0,0,0,0,0,0,0,0,0,0,0,0,0],"sum_hessian":[6.498182E2,3.429563E2,3.0686188E2,1.7340341E2,1.6955289E2,2.2104756E2,8.581432E1,9.414018E1,7.926323E1,1.4818552E2,2.136737E1,7.569127E1,1.4535628E2,4.5727943E1,4.008638E1],"tree_param":{"num_deleted":"0","num_feature":"27","num_nodes":"15","size_leaf_vector":"1"}},{"base_weights":[5.3708623E-3,-3.1522554E-1,3.6353725E-1,2.9168861E-2,-6.6554695E-1,5.8988786E-1,-2.1959393E-1,-4.923776E-3,6.470216E-3,-7.641605E-3,2.1939285E-4,2.3951782E-3,7.6945266E-3,-7.036869E-3,3.3631446E-3],"categories":[],"categories_nodes":[],"categories_segments":[],"categories_sizes":[],"default_left":[0,0,0,0,0,0,0,0,0,0,0,0,0,0,0],"id":73,"left_children":[1,3,5,7,9,11,13,-1,-1,-1,-1,-1,-1,-1,-1],"loss_changes":[7.4846E1,4.1517303E1,4.0764874E1,5.651814E1,1.1579475E1,1.3785637E1,2.359938E1,0E0,0E0,0E0,0E0,0E0,0E0,0E0,0E0],"parents":[2147483647,0,0,1,1,2,2,3,3,4,4,5,5,6,6],"right_children":[2,4,6,8,10,12,14,-1,-1,-1,-1,-1,-1,-1,-1],"split_conditions":[4.81E-1,1.16E2,1.24E2,1.07E2,1.24E2,1.18E2,1.29E2,-4.923776E-3,6.470216E-3,-7.641605E-3,2.1939285E-4,2.3951782E-3,7.6945266E-3,-7.036869E-3,3.3631446E-3],"split_indices":[3,26,26,13,13,13,13,0,0,0,0,0,0,0,0],"split_type":[0,0,0,0,0,0,0,0,0,0,0,0,0,0,0],"sum_hessian":[6.498182E2,3.429563E2,3.0686188E2,1.7340341E2,1.6955289E2,2.2104756E2,8.581432E1,9.414018E1,7.926323E1,1.4818552E2,2.136737E1,7.569127E1,1.453563E2,4.5727943E1,4.008638E1],"tree_param":{"num_deleted":"0","num_feature":"27","num_nodes":"15","size_leaf_vector":"1"}},{"base_weights":[-5.3309333E-3,-3.2598534E-1,3.4915668E-1,2.5724927E-1,-5.450805E-1,6.2811214E-1,-1.601874E-1,-3.4524063E-3,7.716175E-3,-7.5462405E-3,-1.5545036E-3,1.9369262E-3,7.424466E-3,-7.167078E-3,4.0100263E-3],"categories":[],"categories_nodes":[],"categories_segments":[],"categories_sizes":[],"default_left":[0,0,0,0,0,0,0,0,0,0,0,0,0,0,0],"id":74,"left_children":[1,3,5,7,9,11,13,-1,-1,-1,-1,-1,-1,-1,-1],"loss_changes":[7.391018E1,4.376537E1,4.398038E1,2.9368076E1,2.0170692E1,9.777458E0,3.4667553E1,0E0,0E0,0E0,0E0,0E0,0E0,0E0,0E0],"parents":[2147483647,0,0,1,1,2,2,3,3,4,4,5,5,6,6],"right_children":[2,4,6,8,10,12,14,-1,-1,-1,-1,-1,-1,-1,-1],"split_conditions":[4.81E-1,1.08E2,1.21E2,1.05E2,1.14E2,1.14E2,1.28E2,-3.4524063E-3,7.716175E-3,-7.5462405E-3,-1.5545036E-3,1.9369262E-3,7.424466E-3,-7.167078E-3,4.0100263E-3],"split_indices":[16,13,13,26,26,26,26,0,0,0,0,0,0,0,0],"split_type":[0,0,0,0,0,0,0,0,0,0,0,0,0,0,0],"sum_hessian":[6.482271E2,3.4039798E2,3.078291E2,9.290617E1,2.474918E2,1.9874701E2,1.0908211E2,4.293931E1,4.9966866E1,1.6032957E2,8.716223E1,4.197084E1,1.5677617E2,5.462978E1,5.4452328E1],"tree_param":{"num_deleted":"0","num_feature":"27","num_nodes":"15","size_leaf_vector":"1"}},{"base_weights":[5.3309305E-3,3.259853E-1,-3.4915668E-1,-2.5724927E-1,5.450804E-1,-6.2811214E-1,1.6018742E-1,3.4524065E-3,-7.7161756E-3,7.54624E-3,1.5545036E-3,-1.9369262E-3,-7.424466E-3,7.167078E-3,-4.010026E-3],"categories":[],"categories_nodes":[],"categories_segments":[],"categories_sizes":[],"default_left":[0,0,0,0,0,0,0,0,0,0,0,0,0,0,0],"id":75,"left_children":[1,3,5,7,9,11,13,-1,-1,-1,-1,-1,-1,-1,-1],"loss_changes":[7.391017E1,4.3765373E1,4.3980385E1,2.9368076E1,2.0170685E1,9.777458E0,3.4667553E1,0E0,0E0,0E0,0E0,0E0,0E0,0E0,0E0],"parents":[2147483647,0,0,1,1,2,2,3,3,4,4,5,5,6,6],"right_children":[2,4,6,8,10,12,14,-1,-1,-1,-1,-1,-1,-1,-1],"split_conditions":[4.81E-1,1.08E2,1.21E2,1.05E2,1.14E2,1.14E2,1.28E2,3.4524065E-3,-7.7161756E-3,7.54624E-3,1.5545036E-3,-1.9369262E-3,-7.424466E-3,7.167078E-3,-4.010026E-3],"split_indices":[16,13,13,26,26,26,26,0,0,0,0,0,0,0,0],"split_type":[0,0,0,0,0,0,0,0,0,0,0,0,0,0,0],"sum_hessian":[6.482271E2,3.4039798E2,3.078291E2,9.290618E1,2.474918E2,1.9874701E2,1.090821E2,4.293931E1,4.996687E1,1.6032957E2,8.716223E1,4.197084E1,1.5677617E2,5.4629776E1,5.4452324E1],"tree_param":{"num_deleted":"0","num_feature":"27","num_nodes":"15","size_leaf_vector":"1"}},{"base_weights":[-5.289037E-3,3.6708435E-1,-3.0698964E-1,-4.0387064E-1,7.008946E-1,-7.165873E-1,2.6391783E-1,4.481937E-3,-7.5168996E-3,3.4511702E-3,7.876106E-3,-7.745152E-3,-4.072066E-3,7.864673E-3,-2.3680832E-3],"categories":[],"categories_nodes":[],"categories_segments":[],"categories_sizes":[],"default_left":[0,0,0,0,0,0,0,0,0,0,0,0,0,0,0],"id":76,"left_children":[1,3,5,7,9,11,13,-1,-1,-1,-1,-1,-1,-1,-1],"loss_changes":[7.286432E1,7.499107E1,8.396958E1,2.6520184E1,5.98938E0,3.4281082E0,3.9538563E1,0E0,0E0,0E0,0E0,0E0,0E0,0E0,0E0],"parents":[2147483647,0,0,1,1,2,2,3,3,4,4,5,5,6,6],"right_children":[2,4,6,8,10,12,14,-1,-1,-1,-1,-1,-1,-1,-1],"split_conditions":[1.14E2,1.06E2,1.21E2,1.02E2,1.11E2,1.18E2,1.26E2,4.481937E-3,-7.5168996E-3,3.4511702E-3,7.876106E-3,-7.745152E-3,-4.072066E-3,7.864673E-3,-2.3680832E-3],"split_indices":[13,26,26,13,26,26,13,0,0,0,0,0,0,0,0],"split_type":[0,0,0,0,0,0,0,0,0,0,0,0,0,0,0],"sum_hessian":[6.465717E2,2.8929422E2,3.5727753E2,8.734825E1,2.0194595E2,2.0787932E2,1.4939821E2,2.5236645E1,6.211161E1,4.0551495E1,1.6139447E2,1.7382854E2,3.405079E1,7.282677E1,7.657144E1],"tree_param":{"num_deleted":"0","num_feature":"27","num_nodes":"15","size_leaf_vector":"1"}},{"base_weights":[5.2890535E-3,-3.6708432E-1,3.0698967E-1,4.0387067E-1,-7.008946E-1,7.165873E-1,-2.6391783E-1,-4.481937E-3,7.5169E-3,-3.45117E-3,-7.876106E-3,7.745152E-3,4.0720664E-3,-7.864673E-3,2.3680835E-3],"categories":[],"categories_nodes":[],"categories_segments":[],"categories_sizes":[],"default_left":[0,0,0,0,0,0,0,0,0,0,0,0,0,0,0],"id":77,"left_children":[1,3,5,7,9,11,13,-1,-1,-1,-1,-1,-1,-1,-1],"loss_changes":[7.286432E1,7.499108E1,8.396959E1,2.6520184E1,5.98938E0,3.428093E0,3.9538563E1,0E0,0E0,0E0,0E0,0E0,0E0,0E0,0E0],"parents":[2147483647,0,0,1,1,2,2,3,3,4,4,5,5,6,6],"right_children":[2,4,6,8,10,12,14,-1,-1,-1,-1,-1,-1,-1,-1],"split_conditions":[1.14E2,1.06E2,1.21E2,1.02E2,1.11E2,1.18E2,1.26E2,-4.481937E-3,7.5169E-3,-3.45117E-3,-7.876106E-3,7.745152E-3,4.0720664E-3,-7.864673E-3,2.3680835E-3],