{"learner":{"attributes":{},"feature_names":[],"feature_types":[],"gradient_booster":{"model":{"gbtree_model_param":{"num_parallel_tree":"1","num_trees":"1500"},"iteration_indptr":[0,2,4,6,8,10,12,14,16,18,20,22,24,26,28,30,32,34,36,38,40,42,44,46,48,50,52,54,56,58,60,62,64,66,68,70,72,74,76,78,80,82,84,86,88,90,92,94,96,98,100,102,104,106,108,110,112,114,116,118,120,122,124,126,128,130,132,134,136,138,140,142,144,146,148,150,152,154,156,158,160,162,164,166,168,170,172,174,176,178,180,182,184,186,188,190,192,194,196,198,200,202,204,206,208,210,212,214,216,218,220,222,224,226,228,230,232,234,236,238,240,242,244,246,248,250,252,254,256,258,260,262,264,266,268,270,272,274,276,278,280,282,284,286,288,290,292,294,296,298,300,302,304,306,308,310,312,314,316,318,320,322,324,326,328,330,332,334,336,338,340,342,344,346,348,350,352,354,356,358,360,362,364,366,368,370,372,374,376,378,380,382,384,386,388,390,392,394,396,398,400,402,404,406,408,410,412,414,416,418,420,422,424,426,428,430,432,434,436,438,440,442,444,446,448,450,452,454,456,458,460,462,464,466,468,470,472,474,476,478,480,482,484,486,488,490,492,494,496,498,500,502,504,506,508,510,512,514,516,518,520,522,524,526,528,530,532,534,536,538,540,542,544,546,548,550,552,554,556,558,560,562,564,566,568,570,572,574,576,578,580,582,584,586,588,590,592,594,596,598,600,602,604,606,608,610,612,614,616,618,620,622,624,626,628,630,632,634,636,638,640,642,644,646,648,650,652,654,656,658,660,662,664,666,668,670,672,674,676,678,680,682,684,686,688,690,692,694,696,698,700,702,704,706,708,710,712,714,716,718,720,722,724,726,728,730,732,734,736,738,740,742,744,746,748,750,752,754,756,758,760,762,764,766,768,770,772,774,776,778,780,782,784,786,788,790,792,794,796,798,800,802,804,806,808,810,812,814,816,818,820,822,824,826,828,830,832,834,836,838,840,842,844,846,848,850,852,854,856,858,860,862,864,866,868,870,872,874,876,878,880,882,884,886,888,890,892,894,896,898,900,902,904,906,908,910,912,914,916,918,920,922,924,926,928,930,932,934,936,938,940,942,944,946,948,950,952,954,956,958,960,962,964,966,968,970,972,974,976,978,980,982,984,986,988,990,992,994,996,998,1000,1002,1004,1006,1008,1010,1012,1014,1016,1018,1020,1022,1024,1026,1028,1030,1032,1034,1036,1038,1040,1042,1044,1046,1048,1050,1052,1054,1056,1058,1060,1062,1064,1066,1068,1070,1072,1074,1076,1078,1080,1082,1084,1086,1088,1090,1092,1094,1096,1098,1100,1102,1104,1106,1108,1110,1112,1114,1116,1118,1120,1122,1124,1126,1128,1130,1132,1134,1136,1138,1140,1142,1144,1146,1148,1150,1152,1154,1156,1158,1160,1162,1164,1166,1168,1170,1172,1174,1176,1178,1180,1182,1184,1186,1188,1190,1192,1194,1196,1198,1200,1202,1204,1206,1208,1210,1212,1214,1216,1218,1220,1222,1224,1226,1228,1230,1232,1234,1236,1238,1240,1242,1244,1246,1248,1250,1252,1254,1256,1258,1260,1262,1264,1266,1268,1270,1272,1274,1276,1278,1280,1282,1284,1286,1288,1290,1292,1294,1296,1298,1300,1302,1304,1306,1308,1310,1312,1314,1316,1318,1320,1322,1324,1326,1328,1330,1332,1334,1336,1338,1340,1342,1344,1346,1348,1350,1352,1354,1356,1358,1360,1362,1364,1366,1368,1370,1372,1374,1376,1378,1380,1382,1384,1386,1388,1390,1392,1394,1396,1398,1400,1402,1404,1406,1408,1410,1412,1414,1416,1418,1420,1422,1424,1426,1428,1430,1432,1434,1436,1438,1440,1442,1444,1446,1448,1450,1452,1454,1456,1458,1460,1462,1464,1466,1468,1470,1472,1474,1476,1478,1480,1482,1484,1486,1488,1490,1492,1494,1496,1498,1500],"tree_info":[0,1,0,1,0,1,0,1,0,1,0,1,0,1,0,1,0,1,0,1,0,1,0,1,0,1,0,1,0,1,0,1,0,1,0,1,0,1,0,1,0,1,0,1,0,1,0,1,0,1,0,1,0,1,0,1,0,1,0,1,0,1,0,1,0,1,0,1,0,1,0,1,0,1,0,1,0,1,0,1,0,1,0,1,0,1,0,1,0,1,0,1,0,1,0,1,0,1,0,1,0,1,0,1,0,1,0,1,0,1,0,1,0,1,0,1,0,1,0,1,0,1,0,1,0,1,0,1,0,1,0,1,0,1,0,1,0,1,0,1,0,1,0,1,0,1,0,1,0,1,0,1,0,1,0,1,0,1,0,1,0,1,0,1,0,1,0,1,0,1,0,1,0,1,0,1,0,1,0,1,0,1,0,1,0,1,0,1,0,1,0,1,0,1,0,1,0,1,0,1,0,1,0,1,0,1,0,1,0,1,0,1,0,1,0,1,0,1,0,1,0,1,0,1,0,1,0,1,0,1,0,1,0,1,0,1,0,1,0,1,0,1,0,1,0,1,0,1,0,1,0,1,0,1,0,1,0,1,0,1,0,1,0,1,0,1,0,1,0,1,0,1,0,1,0,1,0,1,0,1,0,1,0,1,0,1,0,1,0,1,0,1,0,1,0,1,0,1,0,1,0,1,0,1,0,1,0,1,0,1,0,1,0,1,0,1,0,1,0,1,0,1,0,1,0,1,0,1,0,1,0,1,0,1,0,1,0,1,0,1,0,1,0,1,0,1,0,1,0,1,0,1,0,1,0,1,0,1,0,1,0,1,0,1,0,1,0,1,0,1,0,1,0,1,0,1,0,1,0,1,0,1,0,1,0,1,0,1,0,1,0,1,0,1,0,1,0,1,0,1,0,1,0,1,0,1,0,1,0,1,0,1,0,1,0,1,0,1,0,1,0,1,0,1,0,1,0,1,0,1,0,1,0,1,0,1,0,1,0,1,0,1,0,1,0,1,0,1,0,1,0,1,0,1,0,1,0,1,0,1,0,1,0,1,0,1,0,1,0,1,0,1,0,1,0,1,0,1,0,1,0,1,0,1,0,1,0,1,0,1,0,1,0,1,0,1,0,1,0,1,0,1,0,1,0,1,0,1,0,1,0,1,0,1,0,1,0,1,0,1,0,1,0,1,0,1,0,1,0,1,0,1,0,1,0,1,0,1,0,1,0,1,0,1,0,1,0,1,0,1,0,1,0,1,0,1,0,1,0,1,0,1,0,1,0,1,0,1,0,1,0,1,0,1,0,1,0,1,0,1,0,1,0,1,0,1,0,1,0,1,0,1,0,1,0,1,0,1,0,1,0,1,0,1,0,1,0,1,0,1,0,1,0,1,0,1,0,1,0,1,0,1,0,1,0,1,0,1,0,1,0,1,0,1,0,1,0,1,0,1,0,1,0,1,0,1,0,1,0,1,0,1,0,1,0,1,0,1,0,1,0,1,0,1,0,1,0,1,0,1,0,1,0,1,0,1,0,1,0,1,0,1,0,1,0,1,0,1,0,1,0,1,0,1,0,1,0,1,0,1,0,1,0,1,0,1,0,1,0,1,0,1,0,1,0,1,0,1,0,1,0,1,0,1,0,1,0,1,0,1,0,1,0,1,0,1,0,1,0,1,0,1,0,1,0,1,0,1,0,1,0,1,0,1,0,1,0,1,0,1,0,1,0,1,0,1,0,1,0,1,0,1,0,1,0,1,0,1,0,1,0,1,0,1,0,1,0,1,0,1,0,1,0,1,0,1,0,1,0,1,0,1,0,1,0,1,0,1,0,1,0,1,0,1,0,1,0,1,0,1,0,1,0,1,0,1,0,1,0,1,0,1,0,1,0,1,0,1,0,1,0,1,0,1,0,1,0,1,0,1,0,1,0,1,0,1,0,1,0,1,0,1,0,1,0,1,0,1,0,1,0,1,0,1,0,1,0,1,0,1,0,1,0,1,0,1,0,1,0,1,0,1,0,1,0,1,0,1,0,1,0,1,0,1,0,1,0,1,0,1,0,1,0,1,0,1,0,1,0,1,0,1,0,1,0,1,0,1,0,1,0,1,0,1,0,1,0,1,0,1,0,1,0,1,0,1,0,1,0,1,0,1,0,1,0,1,0,1,0,1,0,1,0,1,0,1,0,1,0,1,0,1,0,1,0,1,0,1,0,1,0,1,0,1,0,1,0,1,0,1,0,1,0,1,0,1,0,1,0,1,0,1,0,1,0,1,0,1,0,1,0,1,0,1,0,1,0,1,0,1,0,1,0,1,0,1,0,1,0,1,0,1,0,1,0,1,0,1,0,1,0,1,0,1,0,1,0,1,0,1,0,1,0,1,0,1,0,1,0,1,0,1,0,1,0,1,0,1,0,1,0,1,0,1,0,1,0,1,0,1,0,1,0,1,0,1,0,1,0,1,0,1,0,1,0,1,0,1,0,1,0,1,0,1,0,1,0,1,0,1,0,1,0,1,0,1,0,1,0,1,0,1,0,1,0,1,0,1,0,1,0,1,0,1,0,1,0,1,0,1,0,1,0,1,0,1,0,1,0,1,0,1,0,1,0,1,0,1,0,1,0,1,0,1,0,1,0,1,0,1,0,1,0,1,0,1,0,1,0,1,0,1,0,1,0,1,0,1,0,1,0,1,0,1,0,1,0,1,0,1,0,1,0,1,0,1,0,1,0,1,0,1,0,1,0,1,0,1,0,1,0,1,0,1,0,1,0,1,0,1,0,1,0,1,0,1,0,1,0,1,0,1,0,1,0,1,0,1,0,1,0,1,0,1,0,1,0,1,0,1,0,1,0,1,0,1,0,1,0,1,0,1,0,1,0,1,0,1,0,1,0,1,0,1,0,1,0,1,0,1,0,1,0,1,0,1,0,1,0,1,0,1,0,1,0,1,0,1,0,1,0,1,0,1,0,1,0,1,0,1,0,1,0,1,0,1,0,1,0,1,0,1,0,1,0,1,0,1,0,1,0,1,0,1,0,1,0,1,0,1,0,1,0,1,0,1,0,1,0,1,0,1,0,1,0,1,0,1,0,1,0,1,0,1,0,1,0,1,0,1,0,1,0,1,0,1,0,1,0,1,0,1,0,1,0,1,0,1,0,1,0,1,0,1,0,1,0,1,0,1,0,1,0,1,0,1,0,1,0,1,0,1,0,1,0,1,0,1,0,1,0,1,0,1,0,1,0,1,0,1,0,1,0,1,0,1,0,1,0,1,0,1,0,1,0,1,0,1,0,1,0,1,0,1,0,1,0,1,0,1,0,1,0,1,0,1,0,1,0,1,0,1,0,1,0,1,0,1,0,1,0,1,0,1,0,1,0,1,0,1],"trees":[{"base_weights":[1.1678832E-2,4.2265195E-1,-4.4753087E-1,-3.5789475E-1,6.977612E-1,-7.8571427E-1,3.069307E-1,3.8636362E-3,-9.807692E-3,9.546742E-3,2E-3,-2.962963E-3,-9.356725E-3,8.938053E-3,-4.285714E-3],"categories":[],"categories_nodes":[],"categories_segments":[],"categories_sizes":[],"default_left":[0,0,0,0,0,0,0,0,0,0,0,0,0,0,0],"id":0,"left_children":[1,3,5,7,9,11,13,-1,-1,-1,-1,-1,-1,-1,-1],"loss_changes":[1.294643E2,7.798402E1,8.290859E1,4.441899E1,3.408127E1,1.6162613E1,4.397946E1,0E0,0E0,0E0,0E0,0E0,0E0,0E0,0E0],"parents":[2147483647,0,0,1,1,2,2,3,3,4,4,5,5,6,6],"right_children":[2,4,6,8,10,12,14,-1,-1,-1,-1,-1,-1,-1,-1],"split_conditions":[4.81E-1,1.08E2,1.23E2,1.05E2,1.14E2,1.15E2,1.29E2,3.8636362E-3,-9.807692E-3,9.546742E-3,2E-3,-2.962963E-3,-9.356725E-3,8.938053E-3,-4.285714E-3],"split_indices":[3,26,26,13,13,13,13,0,0,0,0,0,0,0,0],"split_type":[0,0,0,0,0,0,0,0,0,0,0,0,0,0,0],"sum_hessian":[6.84E2,3.61E2,3.23E2,9.4E1,2.67E2,2.23E2,1E2,4.3E1,5.1E1,1.755E2,9.15E1,5.3E1,1.7E2,5.55E1,4.45E1],"tree_param":{"num_deleted":"0","num_feature":"27","num_nodes":"15","size_leaf_vector":"1"}},{"base_weights":[-1.1678832E-2,-4.2265195E-1,4.4753087E-1,3.5789475E-1,-6.977612E-1,7.8571427E-1,-3.069307E-1,-3.8636362E-3,9.807692E-3,-9.546742E-3,-2E-3,2.962963E-3,9.356725E-3,-8.938053E-3,4.285714E-3],"categories":[],"categories_nodes":[],"categories_segments":[],"categories_sizes":[],"default_left":[0,0,0,0,0,0,0,0,0,0,0,0,0,0,0],"id":1,"left_children":[1,3,5,7,9,11,13,-1,-1,-1,-1,-1,-1,-1,-1],"loss_changes":[1.294643E2,7.798402E1,8.290859E1,4.441899E1,3.408127E1,1.6162613E1,4.397946E1,0E0,0E0,0E0,0E0,0E0,0E0,0E0,0E0],"parents":[2147483647,0,0,1,1,2,2,3,3,4,4,5,5,6,6],"right_children":[2,4,6,8,10,12,14,-1,-1,-1,-1,-1,-1,-1,-1],"split_conditions":[4.81E-1,1.08E2,1.23E2,1.05E2,1.14E2,1.15E2,1.29E2,-3.8636362E-3,9.807692E-3,-9.546742E-3,-2E-3,2.962963E-3,9.356725E-3,-8.938053E-3,4.285714E-3],"split_indices":[3,26,26,13,13,13,13,0,0,0,0,0,0,0,0],"split_type":[0,0,0,0,0,0,0,0,0,0,0,0,0,0,0],"sum_hessian":[6.84E2,3.61E2,3.23E2,9.4E1,2.67E2,2.23E2,1E2,4.3E1,5.1E1,1.755E2,9.15E1,5.3E1,1.7E2,5.55E1,4.45E1],"tree_param":{"num_deleted":"0","num_feature":"27","num_nodes":"15","size_leaf_vector":"1"}},{"base_weights":[1.155978E-2,-3.9714625E-1,4.6683142E-1,3.5942942E-1,-6.8584794E-1,7.8684944E-1,-2.7003166E-1,-4.4797966E-3,9.588124E-3,-9.140983E-3,-9.362364E-4,3.0580603E-3,9.3023395E-3,-8.974135E-3,4.017035E-3],"categories":[],"categories_nodes":[],"categories_segments":[],"categories_sizes":[],"default_left":[0,0,0,0,0,0,0,0,0,0,0,0,0,0,0],"id":2,"left_children":[1,3,5,7,9,11,13,-1,-1,-1,-1,-1,-1,-1,-1],"loss_changes":[1.27637E2,7.920214E1,7.67279E1,4.906376E1,3.5328033E1,1.5337128E1,4.208053E1,0E0,0E0,0E0,0E0,0E0,0E0,0E0,0E0],"parents":[2147483647,0,0,1,1,2,2,3,3,4,4,5,5,6,6],"right_children":[2,4,6,8,10,12,14,-1,-1,-1,-1,-1,-1,-1,-1],"split_conditions":[4.81E-1,1.08E2,1.23E2,1.05E2,1.16E2,1.15E2,1.28E2,-4.4797966E-3,9.588124E-3,-9.140983E-3,-9.362364E-4,3.0580603E-3,9.3023395E-3,-8.974135E-3,4.017035E-3],"split_indices":[16,13,13,26,26,26,26,0,0,0,0,0,0,0,0],"split_type":[0,0,0,0,0,0,0,0,0,0,0,0,0,0,0],"sum_hessian":[6.839575E2,3.6047757E2,3.2347992E2,9.949489E1,2.6098267E2,2.2548462E2,9.799531E1,4.2498775E1,5.699611E1,1.879868E2,7.299589E1,5.2496365E1,1.7298825E2,5.0496773E1,4.7498535E1],"tree_param":{"num_deleted":"0","num_feature":"27","num_nodes":"15","size_leaf_vector":"1"}},{"base_weights":[-1.155975E-2,3.9714628E-1,-4.668314E-1,-3.594294E-1,6.8584794E-1,-7.868494E-1,2.7003166E-1,4.4797966E-3,-9.588122E-3,9.140983E-3,9.362366E-4,-3.0580598E-3,-9.302339E-3,8.974135E-3,-4.0170355E-3],"categories":[],"categories_nodes":[],"categories_segments":[],"categories_sizes":[],"default_left":[0,0,0,0,0,0,0,0,0,0,0,0,0,0,0],"id":3,"left_children":[1,3,5,7,9,11,13,-1,-1,-1,-1,-1,-1,-1,-1],"loss_changes":[1.27636986E2,7.920212E1,7.67279E1,4.906375E1,3.532805E1,1.5337112E1,4.208053E1,0E0,0E0,0E0,0E0,0E0,0E0,0E0,0E0],"parents":[2147483647,0,0,1,1,2,2,3,3,4,4,5,5,6,6],"right_children":[2,4,6,8,10,12,14,-1,-1,-1,-1,-1,-1,-1,-1],"split_conditions":[4.81E-1,1.08E2,1.23E2,1.05E2,1.16E2,1.15E2,1.28E2,4.4797966E-3,-9.588122E-3,9.140983E-3,9.362366E-4,-3.0580598E-3,-9.302339E-3,8.974135E-3,-4.0170355E-3],"split_indices":[16,13,13,26,26,26,26,0,0,0,0,0,0,0,0],"split_type":[0,0,0,0,0,0,0,0,0,0,0,0,0,0,0],"sum_hessian":[6.839575E2,3.6047757E2,3.2347992E2,9.949489E1,2.609827E2,2.2548462E2,9.799531E1,4.249878E1,5.699611E1,1.879868E2,7.299589E1,5.2496365E1,1.7298825E2,5.0496773E1,4.7498535E1],"tree_param":{"num_deleted":"0","num_feature":"27","num_nodes":"15","size_leaf_vector":"1"}},{"base_weights":[1.1449392E-2,4.157034E-1,-4.4025326E-1,-3.5095465E-1,6.8592525E-1,-7.7238315E-1,3.0064967E-1,3.8240552E-3,-9.648859E-3,9.385437E-3,1.9659447E-3,-2.9063423E-3,-9.200246E-3,8.796191E-3,-4.2475546E-3],"categories":[],"categories_nodes":[],"categories_segments":[],"categories_sizes":[],"default_left":[0,0,0,0,0,0,0,0,0,0,0,0,0,0,0],"id":4,"left_children":[1,3,5,7,9,11,13,-1,-1,-1,-1,-1,-1,-1,-1],"loss_changes":[1.2523973E2,7.521991E1,7.9944176E1,4.313343E1,3.2936874E1,1.5661133E1,4.2785954E1,0E0,0E0,0E0,0E0,0E0,0E0,0E0,0E0],"parents":[2147483647,0,0,1,1,2,2,3,3,4,4,5,5,6,6],"right_children":[2,4,6,8,10,12,14,-1,-1,-1,-1,-1,-1,-1,-1],"split_conditions":[4.81E-1,1.08E2,1.23E2,1.05E2,1.14E2,1.15E2,1.29E2,3.8240552E-3,-9.648859E-3,9.385437E-3,1.9659447E-3,-2.9063423E-3,-9.200246E-3,8.796191E-3,-4.2475546E-3],"split_indices":[3,26,26,13,13,13,13,0,0,0,0,0,0,0,0],"split_type":[0,0,0,0,0,0,0,0,0,0,0,0,0,0,0],"sum_hessian":[6.8385724E2,3.6092496E2,3.2293228E2,9.3982994E1,2.6694196E2,2.229475E2,9.998477E1,4.299784E1,5.0985153E1,1.7544826E2,9.149371E1,5.2995045E1,1.6995245E2,5.5486557E1,4.449822E1],"tree_param":{"num_deleted":"0","num_feature":"27","num_nodes":"15","size_leaf_vector":"1"}},{"base_weights":[-1.1449404E-2,-4.157034E-1,4.4025323E-1,3.5095462E-1,-6.859252E-1,7.723831E-1,-3.0064964E-1,-3.8240554E-3,9.648858E-3,-9.385437E-3,-1.9659444E-3,2.9063427E-3,9.200245E-3,-8.796191E-3,4.247554E-3],"categories":[],"categories_nodes":[],"categories_segments":[],"categories_sizes":[],"default_left":[0,0,0,0,0,0,0,0,0,0,0,0,0,0,0],"id":5,"left_children":[1,3,5,7,9,11,13,-1,-1,-1,-1,-1,-1,-1,-1],"loss_changes":[1.2523972E2,7.5219894E1,7.994417E1,4.3133423E1,3.2936874E1,1.5661118E1,4.278595E1,0E0,0E0,0E0,0E0,0E0,0E0,0E0,0E0],"parents":[2147483647,0,0,1,1,2,2,3,3,4,4,5,5,6,6],"right_children":[2,4,6,8,10,12,14,-1,-1,-1,-1,-1,-1,-1,-1],"split_conditions":[4.81E-1,1.08E2,1.23E2,1.05E2,1.14E2,1.15E2,1.29E2,-3.8240554E-3,9.648858E-3,-9.385437E-3,-1.9659444E-3,2.9063427E-3,9.200245E-3,-8.796191E-3,4.247554E-3],"split_indices":[3,26,26,13,13,13,13,0,0,0,0,0,0,0,0],"split_type":[0,0,0,0,0,0,0,0,0,0,0,0,0,0,0],"sum_hessian":[6.8385724E2,3.6092496E2,3.2293228E2,9.3982994E1,2.66942E2,2.229475E2,9.998477E1,4.299784E1,5.0985153E1,1.7544826E2,9.149371E1,5.2995045E1,1.6995245E2,5.5486557E1,4.449822E1],"tree_param":{"num_deleted":"0","num_feature":"27","num_nodes":"15","size_leaf_vector":"1"}},{"base_weights":[1.1334961E-2,-3.9079365E-1,4.5928082E-1,3.5229665E-1,-6.743651E-1,7.7379185E-1,-2.6478708E-1,-4.4336254E-3,9.432473E-3,-9.370304E-3,-1.748437E-3,3.00293E-3,9.1497125E-3,-8.835562E-3,3.974655E-3],"categories":[],"categories_nodes":[],"categories_segments":[],"categories_sizes":[],"default_left":[0,0,0,0,0,0,0,0,0,0,0,0,0,0,0],"id":6,"left_children":[1,3,5,7,9,11,13,-1,-1,-1,-1,-1,-1,-1,-1],"loss_changes":[1.2351134E2,7.637659E1,7.4067375E1,4.7653378E1,3.4195404E1,1.4858353E1,4.090571E1,0E0,0E0,0E0,0E0,0E0,0E0,0E0,0E0],"parents":[2147483647,0,0,1,1,2,2,3,3,4,4,5,5,6,6],"right_children":[2,4,6,8,10,12,14,-1,-1,-1,-1,-1,-1,-1,-1],"split_conditions":[4.81E-1,1.08E2,1.23E2,1.05E2,1.14E2,1.15E2,1.28E2,-4.4336254E-3,9.432473E-3,-9.370304E-3,-1.748437E-3,3.00293E-3,9.1497125E-3,-8.835562E-3,3.974655E-3],"split_indices":[16,13,13,26,26,26,26,0,0,0,0,0,0,0,0],"split_type":[0,0,0,0,0,0,0,0,0,0,0,0,0,0,0],"sum_hessian":[6.836755E2,3.603293E2,3.2334616E2,9.945863E1,2.6087067E2,2.2537993E2,9.796623E1,4.2494095E1,5.6964535E1,1.7039523E2,9.047544E1,5.24835E1,1.7289642E2,5.0473064E1,4.7493168E1],"tree_param":{"num_deleted":"0","num_feature":"27","num_nodes":"15","size_leaf_vector":"1"}},{"base_weights":[-1.1334951E-2,3.9079365E-1,-4.592808E-1,-3.5229668E-1,6.743651E-1,-7.7379185E-1,2.6478714E-1,4.433625E-3,-9.432473E-3,9.370304E-3,1.7484373E-3,-3.00293E-3,-9.149712E-3,8.835562E-3,-3.9746542E-3],"categories":[],"categories_nodes":[],"categories_segments":[],"categories_sizes":[],"default_left":[0,0,0,0,0,0,0,0,0,0,0,0,0,0,0],"id":7,"left_children":[1,3,5,7,9,11,13,-1,-1,-1,-1,-1,-1,-1,-1],"loss_changes":[1.2351132E2,7.637659E1,7.406739E1,4.765338E1,3.419542E1,1.4858337E1,4.09057E1,0E0,0E0,0E0,0E0,0E0,0E0,0E0,0E0],"parents":[2147483647,0,0,1,1,2,2,3,3,4,4,5,5,6,6],"right_children":[2,4,6,8,10,12,14,-1,-1,-1,-1,-1,-1,-1,-1],"split_conditions":[4.81E-1,1.08E2,1.23E2,1.05E2,1.14E2,1.15E2,1.28E2,4.433625E-3,-9.432473E-3,9.370304E-3,1.7484373E-3,-3.00293E-3,-9.149712E-3,8.835562E-3,-3.9746542E-3],"split_indices":[16,13,13,26,26,26,26,0,0,0,0,0,0,0,0],"split_type":[0,0,0,0,0,0,0,0,0,0,0,0,0,0,0],"sum_hessian":[6.836755E2,3.6032928E2,3.2334616E2,9.945863E1,2.6087067E2,2.2537993E2,9.796623E1,4.2494095E1,5.6964535E1,1.7039522E2,9.047544E1,5.24835E1,1.7289642E2,5.0473064E1,4.7493168E1],"tree_param":{"num_deleted":"0","num_feature":"27","num_nodes":"15","size_leaf_vector":"1"}},{"base_weights":[1.1227228E-2,4.0904298E-1,-4.332816E-1,-3.441129E-1,6.74528E-1,-7.596967E-1,2.9470786E-1,3.7854211E-3,-9.495462E-3,9.231973E-3,1.9316779E-3,-2.8519558E-3,-9.052008E-3,8.661599E-3,-4.2082598E-3],"categories":[],"categories_nodes":[],"categories_segments":[],"categories_sizes":[],"default_left":[0,0,0,0,0,0,0,0,0,0,0,0,0,0,0],"id":8,"left_children":[1,3,5,7,9,11,13,-1,-1,-1,-1,-1,-1,-1,-1],"loss_changes":[1.21208466E2,7.255553E1,7.715196E1,4.1894066E1,3.1873924E1,1.5193069E1,4.1638214E1,0E0,0E0,0E0,0E0,0E0,0E0,0E0,0E0],"parents":[2147483647,0,0,1,1,2,2,3,3,4,4,5,5,6,6],"right_children":[2,4,6,8,10,12,14,-1,-1,-1,-1,-1,-1,-1,-1],"split_conditions":[4.81E-1,1.08E2,1.23E2,1.05E2,1.14E2,1.15E2,1.29E2,3.7854211E-3,-9.495462E-3,9.231973E-3,1.9316779E-3,-2.8519558E-3,-9.052008E-3,8.661599E-3,-4.2082598E-3],"split_indices":[3,26,26,13,13,13,13,0,0,0,0,0,0,0,0],"split_type":[0,0,0,0,0,0,0,0,0,0,0,0,0,0,0],"sum_hessian":[6.834395E2,3.6070462E2,3.227349E2,9.393207E1,2.6677255E2,2.2279483E2,9.9940056E1,4.299149E1,5.094058E1,1.752968E2,9.147575E1,5.2980644E1,1.698142E2,5.544728E1,4.4492775E1],"tree_param":{"num_deleted":"0","num_feature":"27","num_nodes":"15","size_leaf_vector":"1"}},{"base_weights":[-1.1227217E-2,-4.0904298E-1,4.3328163E-1,3.441129E-1,-6.74528E-1,7.596967E-1,-2.9470783E-1,-3.7854214E-3,9.495462E-3,-9.231973E-3,-1.9316779E-3,2.8519556E-3,9.052009E-3,-8.661598E-3,4.20826E-3],"categories":[],"categories_nodes":[],"categories_segments":[],"categories_sizes":[],"default_left":[0,0,0,0,0,0,0,0,0,0,0,0,0,0,0],"id":9,"left_children":[1,3,5,7,9,11,13,-1,-1,-1,-1,-1,-1,-1,-1],"loss_changes":[1.21208466E2,7.255553E1,7.715198E1,4.1894073E1,3.1873924E1,1.5193069E1,4.1638214E1,0E0,0E0,0E0,0E0,0E0,0E0,0E0,0E0],"parents":[2147483647,0,0,1,1,2,2,3,3,4,4,5,5,6,6],"right_children":[2,4,6,8,10,12,14,-1,-1,-1,-1,-1,-1,-1,-1],"split_conditions":[4.81E-1,1.08E2,1.23E2,1.05E2,1.14E2,1.15E2,1.29E2,-3.7854214E-3,9.495462E-3,-9.231973E-3,-1.9316779E-3,2.8519556E-3,9.052009E-3,-8.661598E-3,4.20826E-3],"split_indices":[3,26,26,13,13,13,13,0,0,0,0,0,0,0,0],"split_type":[0,0,0,0,0,0,0,0,0,0,0,0,0,0,0],"sum_hessian":[6.834395E2,3.6070462E2,3.227349E2,9.393207E1,2.6677255E2,2.2279483E2,9.9940056E1,4.299149E1,5.094058E1,1.752968E2,9.147575E1,5.2980644E1,1.698142E2,5.544728E1,4.4492775E1],"tree_param":{"num_deleted":"0","num_feature":"27","num_nodes":"15","size_leaf_vector":"1"}},{"base_weights":[1.1117132E-2,-3.8469958E-1,4.5203593E-1,3.454095E-1,-6.633445E-1,7.61289E-1,-2.597023E-1,-4.3885214E-3,9.28441E-3,-8.849186E-3,-8.910023E-4,2.9492432E-3,9.0043275E-3,-8.703147E-3,3.9332598E-3],"categories":[],"categories_nodes":[],"categories_segments":[],"categories_sizes":[],"default_left":[0,0,0,0,0,0,0,0,0,0,0,0,0,0,0],"id":10,"left_children":[1,3,5,7,9,11,13,-1,-1,-1,-1,-1,-1,-1,-1],"loss_changes":[1.19569565E2,7.367975E1,7.153104E1,4.6309242E1,3.3213394E1,1.4411362E1,3.9782074E1,0E0,0E0,0E0,0E0,0E0,0E0,0E0,0E0],"parents":[2147483647,0,0,1,1,2,2,3,3,4,4,5,5,6,6],"right_children":[2,4,6,8,10,12,14,-1,-1,-1,-1,-1,-1,-1,-1],"split_conditions":[4.81E-1,1.08E2,1.23E2,1.05E2,1.16E2,1.15E2,1.28E2,-4.3885214E-3,9.28441E-3,-8.849186E-3,-8.910023E-4,2.9492432E-3,9.0043275E-3,-8.703147E-3,3.9332598E-3],"split_indices":[16,13,13,26,26,26,26,0,0,0,0,0,0,0,0],"split_type":[0,0,0,0,0,0,0,0,0,0,0,0,0,0,0],"sum_hessian":[6.8312555E2,3.6004102E2,3.230845E2,9.938681E1,2.606542E2,2.2517532E2,9.790919E1,4.248527E1,5.690154E1,1.8769173E2,7.296248E1,5.2461388E1,1.7271393E2,5.042587E1,4.748332E1],"tree_param":{"num_deleted":"0","num_feature":"27","num_nodes":"15","size_leaf_vector":"1"}},{"base_weights":[-1.1117161E-2,3.8469955E-1,-4.5203596E-1,-3.4540948E-1,6.633445E-1,-7.6128906E-1,2.597023E-1,4.3885214E-3,-9.28441E-3,8.849185E-3,8.910024E-4,-2.9492434E-3,-9.004328E-3,8.703147E-3,-3.9332593E-3],"categories":[],"categories_nodes":[],"categories_segments":[],"categories_sizes":[],"default_left":[0,0,0,0,0,0,0,0,0,0,0,0,0,0,0],"id":11,"left_children":[1,3,5,7,9,11,13,-1,-1,-1,-1,-1,-1,-1,-1],"loss_changes":[1.19569565E2,7.367975E1,7.1531075E1,4.6309242E1,3.32134E1,1.4411346E1,3.978207E1,0E0,0E0,0E0,0E0,0E0,0E0,0E0,0E0],"parents":[2147483647,0,0,1,1,2,2,3,3,4,4,5,5,6,6],"right_children":[2,4,6,8,10,12,14,-1,-1,-1,-1,-1,-1,-1,-1],"split_conditions":[4.81E-1,1.08E2,1.23E2,1.05E2,1.16E2,1.15E2,1.28E2,4.3885214E-3,-9.28441E-3,8.849185E-3,8.910024E-4,-2.9492434E-3,-9.004328E-3,8.703147E-3,-3.9332593E-3],"split_indices":[16,13,13,26,26,26,26,0,0,0,0,0,0,0,0],"split_type":[0,0,0,0,0,0,0,0,0,0,0,0,0,0,0],"sum_hessian":[6.8312555E2,3.6004102E2,3.230845E2,9.938681E1,2.606542E2,2.2517532E2,9.790919E1,4.248527E1,5.690154E1,1.8769173E2,7.296248E1,5.246139E1,1.7271393E2,5.042587E1,4.7483315E1],"tree_param":{"num_deleted":"0","num_feature":"27","num_nodes":"15","size_leaf_vector":"1"}},{"base_weights":[1.1015361E-2,4.026415E-1,-4.2657998E-1,-3.3763447E-1,6.636273E-1,-7.474642E-1,2.8880394E-1,3.7476958E-3,-9.351886E-3,9.086067E-3,1.8991973E-3,-2.7982E-3,-8.909984E-3,8.5318405E-3,-4.171649E-3],"categories":[],"categories_nodes":[],"categories_segments":[],"categories_sizes":[],"default_left":[0,0,0,0,0,0,0,0,0,0,0,0,0,0,0],"id":12,"left_children":[1,3,5,7,9,11,13,-1,-1,-1,-1,-1,-1,-1,-1],"loss_changes":[1.1735028E2,7.0036865E1,7.445706E1,4.07283E1,3.0870064E1,1.4755722E1,4.054496E1,0E0,0E0,0E0,0E0,0E0,0E0,0E0,0E0],"parents":[2147483647,0,0,1,1,2,2,3,3,4,4,5,5,6,6],"right_children":[2,4,6,8,10,12,14,-1,-1,-1,-1,-1,-1,-1,-1],"split_conditions":[4.81E-1,1.08E2,1.23E2,1.05E2,1.14E2,1.15E2,1.29E2,3.7476958E-3,-9.351886E-3,9.086067E-3,1.8991973E-3,-2.7982E-3,-8.909984E-3,8.5318405E-3,-4.171649E-3],"split_indices":[3,26,26,13,13,13,13,0,0,0,0,0,0,0,0],"split_type":[0,0,0,0,0,0,0,0,0,0,0,0,0,0,0],"sum_hessian":[6.8275995E2,3.6034708E2,3.224129E2,9.38504E1,2.6649667E2,2.2254561E2,9.9867294E1,4.298113E1,5.0869278E1,1.750506E2,9.1446075E1,5.2957123E1,1.6958849E2,5.5383186E1,4.4484104E1],"tree_param":{"num_deleted":"0","num_feature":"27","num_nodes":"15","size_leaf_vector":"1"}},{"base_weights":[-1.101538E-2,-4.026415E-1,4.2657995E-1,3.3763444E-1,-6.636273E-1,7.474642E-1,-2.8880388E-1,-3.7476956E-3,9.351885E-3,-9.086068E-3,-1.8991968E-3,2.7981997E-3,8.909983E-3,-8.5318405E-3,4.171649E-3],"categories":[],"categories_nodes":[],"categories_segments":[],"categories_sizes":[],"default_left":[0,0,0,0,0,0,0,0,0,0,0,0,0,0,0],"id":13,"left_children":[1,3,5,7,9,11,13,-1,-1,-1,-1,-1,-1,-1,-1],"loss_changes":[1.1735027E2,7.003687E1,7.445703E1,4.0728287E1,3.0870071E1,1.4755699E1,4.0544956E1,0E0,0E0,0E0,0E0,0E0,0E0,0E0,0E0],"parents":[2147483647,0,0,1,1,2,2,3,3,4,4,5,5,6,6],"right_children":[2,4,6,8,10,12,14,-1,-1,-1,-1,-1,-1,-1,-1],"split_conditions":[4.81E-1,1.08E2,1.23E2,1.05E2,1.14E2,1.15E2,1.29E2,-3.7476956E-3,9.351885E-3,-9.086068E-3,-1.8991968E-3,2.7981997E-3,8.909983E-3,-8.5318405E-3,4.171649E-3],"split_indices":[3,26,26,13,13,13,13,0,0,0,0,0,0,0,0],"split_type":[0,0,0,0,0,0,0,0,0,0,0,0,0,0,0],"sum_hessian":[6.8275995E2,3.6034708E2,3.224129E2,9.38504E1,2.6649667E2,2.2254561E2,9.9867294E1,4.298113E1,5.0869278E1,1.750506E2,9.1446075E1,5.2957123E1,1.6958849E2,5.538319E1,4.4484104E1],"tree_param":{"num_deleted":"0","num_feature":"27","num_nodes":"15","size_leaf_vector":"1"}},{"base_weights":[1.0909383E-2,-3.7884253E-1,4.4507813E-1,3.3875337E-1,-6.527506E-1,7.493053E-1,-2.5476828E-1,-5.186898E-3,8.5864505E-3,-9.081846E-3,-1.6790146E-3,2.896933E-3,8.865703E-3,-8.576503E-3,3.892822E-3],"categories":[],"categories_nodes":[],"categories_segments":[],"categories_sizes":[],"default_left":[0,0,0,0,0,0,0,0,0,0,0,0,0,0,0],"id":14,"left_children":[1,3,5,7,9,11,13,-1,-1,-1,-1,-1,-1,-1,-1],"loss_changes":[1.15798836E2,7.110272E1,6.911093E1,4.5148487E1,3.22134E1,1.3993378E1,3.8706486E1,0E0,0E0,0E0,0E0,0E0,0E0,0E0,0E0],"parents":[2147483647,0,0,1,1,2,2,3,3,4,4,5,5,6,6],"right_children":[2,4,6,8,10,12,14,-1,-1,-1,-1,-1,-1,-1,-1],"split_conditions":[4.81E-1,1.08E2,1.23E2,1.04E2,1.14E2,1.15E2,1.28E2,-5.186898E-3,8.5864505E-3,-9.081846E-3,-1.6790146E-3,2.896933E-3,8.865703E-3,-8.576503E-3,3.892822E-3],"split_indices":[16,13,13,26,26,26,26,0,0,0,0,0,0,0,0],"split_type":[0,0,0,0,0,0,0,0,0,0,0,0,0,0,0],"sum_hessian":[6.823206E2,3.596191E2,3.227015E2,9.928123E1,2.603379E2,2.2487599E2,9.782553E1,3.747577E1,6.1805458E1,1.6993669E2,9.0401184E1,5.2430492E1,1.724455E2,5.0356358E1,4.7469173E1],"tree_param":{"num_deleted":"0","num_feature":"27","num_nodes":"15","size_leaf_vector":"1"}},{"base_weights":[-1.0909375E-2,3.7884253E-1,-4.4507813E-1,-3.3875334E-1,6.527506E-1,-7.493053E-1,2.5476828E-1,5.186898E-3,-8.5864505E-3,9.081845E-3,1.6790149E-3,-2.8969327E-3,-8.865703E-3,8.576503E-3,-3.892822E-3],"categories":[],"categories_nodes":[],"categories_segments":[],"categories_sizes":[],"default_left":[0,0,0,0,0,0,0,0,0,0,0,0,0,0,0],"id":15,"left_children":[1,3,5,7,9,11,13,-1,-1,-1,-1,-1,-1,-1,-1],"loss_changes":[1.15798836E2,7.110272E1,6.911093E1,4.5148483E1,3.2213387E1,1.399337E1,3.8706486E1,0E0,0E0,0E0,0E0,0E0,0E0,0E0,0E0],"parents":[2147483647,0,0,1,1,2,2,3,3,4,4,5,5,6,6],"right_children":[2,4,6,8,10,12,14,-1,-1,-1,-1,-1,-1,-1,-1],"split_conditions":[4.81E-1,1.08E2,1.23E2,1.04E2,1.14E2,1.15E2,1.28E2,5.186898E-3,-8.5864505E-3,9.081845E-3,1.6790149E-3,-2.8969327E-3,-8.865703E-3,8.576503E-3,-3.892822E-3],"split_indices":[16,13,13,26,26,26,26,0,0,0,0,0,0,0,0],"split_type":[0,0,0,0,0,0,0,0,0,0,0,0,0,0,0],"sum_hessian":[6.823206E2,3.596191E2,3.227015E2,9.928123E1,2.603379E2,2.2487598E2,9.782553E1,3.747577E1,6.1805458E1,1.699367E2,9.0401184E1,5.2430492E1,1.724455E2,5.0356358E1,4.7469173E1],"tree_param":{"num_deleted":"0","num_feature":"27","num_nodes":"15","size_leaf_vector":"1"}},{"base_weights":[1.0807523E-2,3.9648962E-1,-4.2015105E-1,-3.3146626E-1,6.531809E-1,-7.358073E-1,2.8321743E-1,3.7073286E-3,-9.214159E-3,8.948033E-3,1.8664622E-3,-2.7467727E-3,-8.775183E-3,8.40858E-3,-4.1339234E-3],"categories":[],"categories_nodes":[],"categories_segments":[],"categories_sizes":[],"default_left":[0,0,0,0,0,0,0,0,0,0,0,0,0,0,0],"id":16,"left_children":[1,3,5,7,9,11,13,-1,-1,-1,-1,-1,-1,-1,-1],"loss_changes":[1.1366304E2,6.764721E1,7.191618E1,3.958791E1,2.9944641E1,1.4344948E1,3.9491673E1,0E0,0E0,0E0,0E0,0E0,0E0,0E0,0E0],"parents":[2147483647,0,0,1,1,2,2,3,3,4,4,5,5,6,6],"right_children":[2,4,6,8,10,12,14,-1,-1,-1,-1,-1,-1,-1,-1],"split_conditions":[4.81E-1,1.08E2,1.23E2,1.05E2,1.14E2,1.15E2,1.29E2,3.7073286E-3,-9.214159E-3,8.948033E-3,1.8664622E-3,-2.7467727E-3,-8.775183E-3,8.40858E-3,-4.1339234E-3],"split_indices":[3,26,26,13,13,13,13,0,0,0,0,0,0,0,0],"split_type":[0,0,0,0,0,0,0,0,0,0,0,0,0,0,0],"sum_hessian":[6.818374E2,3.5986224E2,3.2197516E2,9.373788E1,2.661244E2,2.2220732E2,9.976785E1,4.2967068E1,5.077081E1,1.7471828E2,9.1406105E1,5.292542E1,1.6928189E2,5.529599E1,4.4471863E1],"tree_param":{"num_deleted":"0","num_feature":"27","num_nodes":"15","size_leaf_vector":"1"}},{"base_weights":[-1.0807517E-2,-3.964896E-1,4.2015103E-1,3.3146632E-1,-6.531809E-1,7.358073E-1,-2.8321743E-1,-3.7073283E-3,9.21416E-3,-8.948033E-3,-1.8664623E-3,2.7467727E-3,8.775183E-3,-8.40858E-3,4.133923E-3],"categories":[],"categories_nodes":[],"categories_segments":[],"categories_sizes":[],"default_left":[0,0,0,0,0,0,0,0,0,0,0,0,0,0,0],"id":17,"left_children":[1,3,5,7,9,11,13,-1,-1,-1,-1,-1,-1,-1,-1],"loss_changes":[1.1366304E2,6.764722E1,7.191618E1,3.9587914E1,2.9944641E1,1.4344948E1,3.949167E1,0E0,0E0,0E0,0E0,0E0,0E0,0E0,0E0],"parents":[2147483647,0,0,1,1,2,2,3,3,4,4,5,5,6,6],"right_children":[2,4,6,8,10,12,14,-1,-1,-1,-1,-1,-1,-1,-1],"split_conditions":[4.81E-1,1.08E2,1.23E2,1.05E2,1.14E2,1.15E2,1.29E2,-3.7073283E-3,9.21416E-3,-8.948033E-3,-1.8664623E-3,2.7467727E-3,8.775183E-3,-8.40858E-3,4.133923E-3],"split_indices":[3,26,26,13,13,13,13,0,0,0,0,0,0,0,0],"split_type":[0,0,0,0,0,0,0,0,0,0,0,0,0,0,0],"sum_hessian":[6.818374E2,3.5986224E2,3.2197516E2,9.373788E1,2.6612436E2,2.2220732E2,9.976786E1,4.2967068E1,5.077081E1,1.7471828E2,9.1406105E1,5.2925423E1,1.6928189E2,5.5295994E1,4.4471867E1],"tree_param":{"num_deleted":"0","num_feature":"27","num_nodes":"15","size_leaf_vector":"1"}},{"base_weights":[1.0705384E-2,-3.7321264E-1,4.3838957E-1,3.3228523E-1,-6.425641E-1,7.378077E-1,-2.499777E-1,-5.1360917E-3,8.459484E-3,-8.583656E-3,-8.47712E-4,2.8459379E-3,8.733387E-3,-8.455272E-3,3.8532955E-3],"categories":[],"categories_nodes":[],"categories_segments":[],"categories_sizes":[],"default_left":[0,0,0,0,0,0,0,0,0,0,0,0,0,0,0],"id":18,"left_children":[1,3,5,7,9,11,13,-1,-1,-1,-1,-1,-1,-1,-1],"loss_changes":[1.1219099E2,6.8637665E1,6.679979E1,4.394945E1,3.1335754E1,1.3601898E1,3.7675903E1,0E0,0E0,0E0,0E0,0E0,0E0,0E0,0E0],"parents":[2147483647,0,0,1,1,2,2,3,3,4,4,5,5,6,6],"right_children":[2,4,6,8,10,12,14,-1,-1,-1,-1,-1,-1,-1,-1],"split_conditions":[4.81E-1,1.08E2,1.23E2,1.04E2,1.16E2,1.15E2,1.28E2,-5.1360917E-3,8.459484E-3,-8.583656E-3,-8.47712E-4,2.8459379E-3,8.733387E-3,-8.455272E-3,3.8532955E-3],"split_indices":[16,13,13,26,26,26,26,0,0,0,0,0,0,0,0],"split_type":[0,0,0,0,0,0,0,0,0,0,0,0,0,0,0],"sum_hessian":[6.8127966E2,3.5907617E2,3.2220352E2,9.9148415E1,2.5992776E2,2.2448694E2,9.771658E1,3.7459938E1,6.1688477E1,1.8702994E2,7.2897835E1,5.2391243E1,1.7209569E2,5.0265667E1,4.745092E1],"tree_param":{"num_deleted":"0","num_feature":"27","num_nodes":"15","size_leaf_vector":"1"}},{"base_weights":[-1.0705375E-2,3.7321264E-1,-4.3838954E-1,-3.3228526E-1,6.425641E-1,-7.378077E-1,2.4997774E-1,5.136091E-3,-8.459484E-3,8.583656E-3,8.4771175E-4,-2.8459379E-3,-8.733387E-3,8.455272E-3,-3.8532948E-3],"categories":[],"categories_nodes":[],"categories_segments":[],"categories_sizes":[],"default_left":[0,0,0,0,0,0,0,0,0,0,0,0,0,0,0],"id":19,"left_children":[1,3,5,7,9,11,13,-1,-1,-1,-1,-1,-1,-1,-1],"loss_changes":[1.1219098E2,6.863768E1,6.6799805E1,4.3949448E1,3.1335754E1,1.3601906E1,3.767591E1,0E0,0E0,0E0,0E0,0E0,0E0,0E0,0E0],"parents":[2147483647,0,0,1,1,2,2,3,3,4,4,5,5,6,6],"right_children":[2,4,6,8,10,12,14,-1,-1,-1,-1,-1,-1,-1,-1],"split_conditions":[4.81E-1,1.08E2,1.23E2,1.04E2,1.16E2,1.15E2,1.28E2,5.136091E-3,-8.459484E-3,8.583656E-3,8.4771175E-4,-2.8459379E-3,-8.733387E-3,8.455272E-3,-3.8532948E-3],"split_indices":[16,13,13,26,26,26,26,0,0,0,0,0,0,0,0],"split_type":[0,0,0,0,0,0,0,0,0,0,0,0,0,0,0],"sum_hessian":[6.812797E2,3.5907617E2,3.2220352E2,9.9148415E1,2.5992776E2,2.2448694E2,9.771658E1,3.7459938E1,6.1688477E1,1.8702994E2,7.2897835E1,5.2391247E1,1.7209569E2,5.0265663E1,4.745092E1],"tree_param":{"num_deleted":"0","num_feature":"27","num_nodes":"15","size_leaf_vector":"1"}},{"base_weights":[1.0608994E-2,3.905644E-1,-4.1396052E-1,-3.2562622E-1,6.431716E-1,-7.2454405E-1,2.776541E-1,3.6679513E-3,-9.085055E-3,8.816504E-3,1.8354303E-3,-2.6958738E-3,-8.645764E-3,8.289502E-3,-4.098754E-3],"categories":[],"categories_nodes":[],"categories_segments":[],"categories_sizes":[],"default_left":[0,0,0,0,0,0,0,0,0,0,0,0,0,0,0],"id":20,"left_children":[1,3,5,7,9,11,13,-1,-1,-1,-1,-1,-1,-1,-1],"loss_changes":[1.1012865E2,6.5385056E1,6.945932E1,3.8512817E1,2.9066986E1,1.3960037E1,3.8486763E1,0E0,0E0,0E0,0E0,0E0,0E0,0E0,0E0],"parents":[2147483647,0,0,1,1,2,2,3,3,4,4,5,5,6,6],"right_children":[2,4,6,8,10,12,14,-1,-1,-1,-1,-1,-1,-1,-1],"split_conditions":[4.81E-1,1.08E2,1.23E2,1.05E2,1.14E2,1.15E2,1.29E2,3.6679513E-3,-9.085055E-3,8.816504E-3,1.8354303E-3,-2.6958738E-3,-8.645764E-3,8.289502E-3,-4.098754E-3],"split_indices":[3,26,26,13,13,13,13,0,0,0,0,0,0,0,0],"split_type":[0,0,0,0,0,0,0,0,0,0,0,0,0,0,0],"sum_hessian":[6.8068036E2,3.5925568E2,3.214247E2,9.359801E1,2.6565765E2,2.2178159E2,9.964312E1,4.294864E1,5.064937E1,1.7430244E2,9.135522E1,5.288535E1,1.6889624E2,5.518627E1,4.4456852E1],"tree_param":{"num_deleted":"0","num_feature":"27","num_nodes":"15","size_leaf_vector":"1"}},{"base_weights":[-1.060897E-2,-3.905644E-1,4.1396058E-1,3.2562622E-1,-6.431716E-1,7.245441E-1,-2.7765408E-1,-3.667951E-3,9.085055E-3,-8.816504E-3,-1.8354303E-3,2.6958738E-3,8.645764E-3,-8.289502E-3,4.098754E-3],"categories":[],"categories_nodes":[],"categories_segments":[],"categories_sizes":[],"default_left":[0,0,0,0,0,0,0,0,0,0,0,0,0,0,0],"id":21,"left_children":[1,3,5,7,9,11,13,-1,-1,-1,-1,-1,-1,-1,-1],"loss_changes":[1.1012865E2,6.5385056E1,6.9459335E1,3.8512817E1,2.9066986E1,1.3960037E1,3.8486767E1,0E0,0E0,0E0,0E0,0E0,0E0,0E0,0E0],"parents":[2147483647,0,0,1,1,2,2,3,3,4,4,5,5,6,6],"right_children":[2,4,6,8,10,12,14,-1,-1,-1,-1,-1,-1,-1,-1],"split_conditions":[4.81E-1,1.08E2,1.23E2,1.05E2,1.14E2,1.15E2,1.29E2,-3.667951E-3,9.085055E-3,-8.816504E-3,-1.8354303E-3,2.6958738E-3,8.645764E-3,-8.289502E-3,4.098754E-3],"split_indices":[3,26,26,13,13,13,13,0,0,0,0,0,0,0,0],"split_type":[0,0,0,0,0,0,0,0,0,0,0,0,0,0,0],"sum_hessian":[6.8068036E2,3.5925568E2,3.214247E2,9.359801E1,2.6565765E2,2.2178159E2,9.964312E1,4.294864E1,5.064937E1,1.7430244E2,9.135522E1,5.288535E1,1.6889624E2,5.5186268E1,4.4456852E1],"tree_param":{"num_deleted":"0","num_feature":"27","num_nodes":"15","size_leaf_vector":"1"}},{"base_weights":[1.0510452E-2,-3.6779103E-1,4.3195432E-1,3.2602137E-1,-6.3275355E-1,7.2676605E-1,-2.4532267E-1,-5.086433E-3,8.337907E-3,-8.819784E-3,-1.6127427E-3,2.796199E-3,8.606976E-3,-8.339124E-3,3.8146554E-3],"categories":[],"categories_nodes":[],"categories_segments":[],"categories_sizes":[],"default_left":[0,0,0,0,0,0,0,0,0,0,0,0,0,0,0],"id":22,"left_children":[1,3,5,7,9,11,13,-1,-1,-1,-1,-1,-1,-1,-1],"loss_changes":[1.0873432E2,6.6278915E1,6.45909E1,4.279984E1,3.0459183E1,1.323468E1,3.6687687E1,0E0,0E0,0E0,0E0,0E0,0E0,0E0,0E0],"parents":[2147483647,0,0,1,1,2,2,3,3,4,4,5,5,6,6],"right_children":[2,4,6,8,10,12,14,-1,-1,-1,-1,-1,-1,-1,-1],"split_conditions":[4.81E-1,1.08E2,1.23E2,1.04E2,1.14E2,1.15E2,1.28E2,-5.086433E-3,8.337907E-3,-8.819784E-3,-1.6127427E-3,2.796199E-3,8.606976E-3,-8.339124E-3,3.8146554E-3],"split_indices":[16,13,13,26,26,26,26,0,0,0,0,0,0,0,0],"split_type":[0,0,0,0,0,0,0,0,0,0,0,0,0,0,0],"sum_hessian":[6.800106E2,3.5841403E2,3.215966E2,9.898592E1,2.594281E2,2.2401297E2,9.758362E1,3.7440304E1,6.154562E1,1.6914636E2,9.0281746E1,5.2344055E1,1.7166891E2,5.0154884E1,4.7428734E1],"tree_param":{"num_deleted":"0","num_feature":"27","num_nodes":"15","size_leaf_vector":"1"}},{"base_weights":[-1.0510464E-2,3.67791E-1,-4.319543E-1,-3.2602137E-1,6.327535E-1,-7.2676605E-1,2.4532275E-1,5.086432E-3,-8.337906E-3,8.819783E-3,1.6127425E-3,-2.7961987E-3,-8.606976E-3,8.339125E-3,-3.8146551E-3],"categories":[],"categories_nodes":[],"categories_segments":[],"categories_sizes":[],"default_left":[0,0,0,0,0,0,0,0,0,0,0,0,0,0,0],"id":23,"left_children":[1,3,5,7,9,11,13,-1,-1,-1,-1,-1,-1,-1,-1],"loss_changes":[1.0873431E2,6.627891E1,6.459091E1,4.279984E1,3.0459167E1,1.3234665E1,3.668769E1,0E0,0E0,0E0,0E0,0E0,0E0,0E0,0E0],"parents":[2147483647,0,0,1,1,2,2,3,3,4,4,5,5,6,6],"right_children":[2,4,6,8,10,12,14,-1,-1,-1,-1,-1,-1,-1,-1],"split_conditions":[4.81E-1,1.08E2,1.23E2,1.04E2,1.14E2,1.15E2,1.28E2,5.086432E-3,-8.337906E-3,8.819783E-3,1.6127425E-3,-2.7961987E-3,-8.606976E-3,8.339125E-3,-3.8146551E-3],"split_indices":[16,13,13,26,26,26,26,0,0,0,0,0,0,0,0],"split_type":[0,0,0,0,0,0,0,0,0,0,0,0,0,0,0],"sum_hessian":[6.800106E2,3.5841403E2,3.215966E2,9.898592E1,2.594281E2,2.2401297E2,9.758362E1,3.7440304E1,6.1545624E1,1.6914636E2,9.0281746E1,5.234406E1,1.7166891E2,5.015488E1,4.7428734E1],"tree_param":{"num_deleted":"0","num_feature":"27","num_nodes":"15","size_leaf_vector":"1"}},{"base_weights":[1.0415751E-2,3.848647E-1,-4.0800846E-1,-3.1984577E-1,6.334881E-1,-7.13788E-1,2.7238405E-1,3.629526E-3,-8.959938E-3,8.690801E-3,1.8041057E-3,-2.6469098E-3,-8.522714E-3,8.176179E-3,-4.0624905E-3],"categories":[],"categories_nodes":[],"categories_segments":[],"categories_sizes":[],"default_left":[0,0,0,0,0,0,0,0,0,0,0,0,0,0,0],"id":24,"left_children":[1,3,5,7,9,11,13,-1,-1,-1,-1,-1,-1,-1,-1],"loss_changes":[1.0674574E2,6.3195248E1,6.7138824E1,3.747252E1,2.8247498E1,1.3598335E1,3.7516426E1,0E0,0E0,0E0,0E0,0E0,0E0,0E0,0E0],"parents":[2147483647,0,0,1,1,2,2,3,3,4,4,5,5,6,6],"right_children":[2,4,6,8,10,12,14,-1,-1,-1,-1,-1,-1,-1,-1],"split_conditions":[4.81E-1,1.08E2,1.23E2,1.05E2,1.14E2,1.15E2,1.29E2,3.629526E-3,-8.959938E-3,8.690801E-3,1.8041057E-3,-2.6469098E-3,-8.522714E-3,8.176179E-3,-4.0624905E-3],"split_indices":[3,26,26,13,13,13,13,0,0,0,0,0,0,0,0],"split_type":[0,0,0,0,0,0,0,0,0,0,0,0,0,0,0],"sum_hessian":[6.793021E2,3.5853152E2,3.2077063E2,9.342803E1,2.651035E2,2.2127634E2,9.949429E1,4.292603E1,5.0502007E1,1.7380821E2,9.129528E1,5.283749E1,1.6843884E2,5.505593E1,4.4438362E1],"tree_param":{"num_deleted":"0","num_feature":"27","num_nodes":"15","size_leaf_vector":"1"}},{"base_weights":[-1.041575E-2,-3.8486472E-1,4.0800846E-1,3.1984574E-1,-6.334881E-1,7.13788E-1,-2.7238405E-1,-3.6295252E-3,8.959936E-3,-8.690801E-3,-1.804106E-3,2.6469093E-3,8.522714E-3,-8.176179E-3,4.0624905E-3],"categories":[],"categories_nodes":[],"categories_segments":[],"categories_sizes":[],"default_left":[0,0,0,0,0,0,0,0,0,0,0,0,0,0,0],"id":25,"left_children":[1,3,5,7,9,11,13,-1,-1,-1,-1,-1,-1,-1,-1],"loss_changes":[1.0674574E2,6.3195248E1,6.713884E1,3.7472515E1,2.8247482E1,1.3598335E1,3.7516426E1,0E0,0E0,0E0,0E0,0E0,0E0,0E0,0E0],"parents":[2147483647,0,0,1,1,2,2,3,3,4,4,5,5,6,6],"right_children":[2,4,6,8,10,12,14,-1,-1,-1,-1,-1,-1,-1,-1],"split_conditions":[4.81E-1,1.08E2,1.23E2,1.05E2,1.14E2,1.15E2,1.29E2,-3.6295252E-3,8.959936E-3,-8.690801E-3,-1.804106E-3,2.6469093E-3,8.522714E-3,-8.176179E-3,4.0624905E-3],"split_indices":[3,26,26,13,13,13,13,0,0,0,0,0,0,0,0],"split_type":[0,0,0,0,0,0,0,0,0,0,0,0,0,0,0],"sum_hessian":[6.793021E2,3.5853152E2,3.2077063E2,9.342803E1,2.651035E2,2.2127634E2,9.949429E1,4.2926033E1,5.0502003E1,1.7380821E2,9.129527E1,5.283749E1,1.6843884E2,5.505593E1,4.4438362E1],"tree_param":{"num_deleted":"0","num_feature":"27","num_nodes":"15","size_leaf_vector":"1"}},{"base_weights":[1.0320632E-2,-3.625712E-1,4.2575747E-1,3.199503E-1,-6.2330365E-1,7.161527E-1,-2.4079694E-1,-4.240512E-3,8.771799E-3,-8.341099E-3,-8.062325E-4,2.747662E-3,8.486098E-3,-8.227756E-3,3.7768602E-3],"categories":[],"categories_nodes":[],"categories_segments":[],"categories_sizes":[],"default_left":[0,0,0,0,0,0,0,0,0,0,0,0,0,0,0],"id":26,"left_children":[1,3,5,7,9,11,13,-1,-1,-1,-1,-1,-1,-1,-1],"loss_changes":[1.0542185E2,6.402136E1,6.247819E1,4.1745083E1,2.965908E1,1.2889748E1,3.5739258E1,0E0,0E0,0E0,0E0,0E0,0E0,0E0,0E0],"parents":[2147483647,0,0,1,1,2,2,3,3,4,4,5,5,6,6],"right_children":[2,4,6,8,10,12,14,-1,-1,-1,-1,-1,-1,-1,-1],"split_conditions":[4.81E-1,1.08E2,1.23E2,1.05E2,1.16E2,1.15E2,1.28E2,-4.240512E-3,8.771799E-3,-8.341099E-3,-8.062325E-4,2.747662E-3,8.486098E-3,-8.227756E-3,3.7768602E-3],"split_indices":[16,13,13,26,26,26,26,0,0,0,0,0,0,0,0],"split_type":[0,0,0,0,0,0,0,0,0,0,0,0,0,0,0],"sum_hessian":[6.785264E2,3.5763983E2,3.208866E2,9.8795334E1,2.5884448E2,2.2345874E2,9.742785E1,4.240973E1,5.63856E1,1.8603966E2,7.280483E1,5.228933E1,1.7116942E2,5.0025063E1,4.7402786E1],"tree_param":{"num_deleted":"0","num_feature":"27","num_nodes":"15","size_leaf_vector":"1"}},{"base_weights":[-1.0320634E-2,3.625712E-1,-4.2575747E-1,-3.199503E-1,6.2330365E-1,-7.161527E-1,2.4079692E-1,4.2405115E-3,-8.771799E-3,8.341099E-3,8.062327E-4,-2.747662E-3,-8.486097E-3,8.227756E-3,-3.7768604E-3],"categories":[],"categories_nodes":[],"categories_segments":[],"categories_sizes":[],"default_left":[0,0,0,0,0,0,0,0,0,0,0,0,0,0,0],"id":27,"left_children":[1,3,5,7,9,11,13,-1,-1,-1,-1,-1,-1,-1,-1],"loss_changes":[1.0542185E2,6.402136E1,6.247819E1,4.1745083E1,2.9659065E1,1.2889748E1,3.5739258E1,0E0,0E0,0E0,0E0,0E0,0E0,0E0,0E0],"parents":[2147483647,0,0,1,1,2,2,3,3,4,4,5,5,6,6],"right_children":[2,4,6,8,10,12,14,-1,-1,-1,-1,-1,-1,-1,-1],"split_conditions":[4.81E-1,1.08E2,1.23E2,1.05E2,1.16E2,1.15E2,1.28E2,4.2405115E-3,-8.771799E-3,8.341099E-3,8.062327E-4,-2.747662E-3,-8.486097E-3,8.227756E-3,-3.7768604E-3],"split_indices":[16,13,13,26,26,26,26,0,0,0,0,0,0,0,0],"split_type":[0,0,0,0,0,0,0,0,0,0,0,0,0,0,0],"sum_hessian":[6.785264E2,3.5763983E2,3.208866E2,9.8795334E1,2.5884448E2,2.2345874E2,9.742785E1,4.240973E1,5.63856E1,1.8603966E2,7.280483E1,5.2289326E1,1.7116942E2,5.0025066E1,4.7402786E1],"tree_param":{"num_deleted":"0","num_feature":"27","num_nodes":"15","size_leaf_vector":"1"}},{"base_weights":[1.0233052E-2,3.7936902E-1,-4.0226388E-1,-3.1412947E-1,6.2412846E-1,-7.0336694E-1,2.671221E-1,3.5952386E-3,-8.841202E-3,8.569857E-3,1.7744123E-3,-2.5981036E-3,-8.404346E-3,8.066451E-3,-4.0286663E-3],"categories":[],"categories_nodes":[],"categories_segments":[],"categories_sizes":[],"default_left":[0,0,0,0,0,0,0,0,0,0,0,0,0,0,0],"id":28,"left_children":[1,3,5,7,9,11,13,-1,-1,-1,-1,-1,-1,-1,-1],"loss_changes":[1.0349822E2,6.1081203E1,6.488985E1,3.6502518E1,2.7459526E1,1.3259949E1,3.6589035E1,0E0,0E0,0E0,0E0,0E0,0E0,0E0,0E0],"parents":[2147483647,0,0,1,1,2,2,3,3,4,4,5,5,6,6],"right_children":[2,4,6,8,10,12,14,-1,-1,-1,-1,-1,-1,-1,-1],"split_conditions":[4.81E-1,1.08E2,1.23E2,1.05E2,1.14E2,1.15E2,1.29E2,3.5952386E-3,-8.841202E-3,8.569857E-3,1.7744123E-3,-2.5981036E-3,-8.404346E-3,8.066451E-3,-4.0286663E-3],"split_indices":[3,26,26,13,13,13,13,0,0,0,0,0,0,0,0],"split_type":[0,0,0,0,0,0,0,0,0,0,0,0,0,0,0],"sum_hessian":[6.777111E2,3.576959E2,3.2001523E2,9.323671E1,2.644592E2,2.2069257E2,9.932265E1,4.2901768E1,5.033494E1,1.7323404E2,9.122514E1,5.2782333E1,1.6791023E2,5.4905132E1,4.4417515E1],"tree_param":{"num_deleted":"0","num_feature":"27","num_nodes":"15","size_leaf_vector":"1"}},{"base_weights":[-1.0233049E-2,-3.79369E-1,4.0226388E-1,3.141295E-1,-6.2412846E-1,7.0336694E-1,-2.6712212E-1,-3.5952383E-3,8.841202E-3,-8.569857E-3,-1.7744119E-3,2.598104E-3,8.404346E-3,-8.066451E-3,4.0286663E-3],"categories":[],"categories_nodes":[],"categories_segments":[],"categories_sizes":[],"default_left":[0,0,0,0,0,0,0,0,0,0,0,0,0,0,0],"id":29,"left_children":[1,3,5,7,9,11,13,-1,-1,-1,-1,-1,-1,-1,-1],"loss_changes":[1.03498215E2,6.1081203E1,6.488985E1,3.650251E1,2.7459534E1,1.3259949E1,3.6589035E1,0E0,0E0,0E0,0E0,0E0,0E0,0E0,0E0],"parents":[2147483647,0,0,1,1,2,2,3,3,4,4,5,5,6,6],"right_children":[2,4,6,8,10,12,14,-1,-1,-1,-1,-1,-1,-1,-1],"split_conditions":[4.81E-1,1.08E2,1.23E2,1.05E2,1.14E2,1.15E2,1.29E2,-3.5952383E-3,8.841202E-3,-8.569857E-3,-1.7744119E-3,2.598104E-3,8.404346E-3,-8.066451E-3,4.0286663E-3],"split_indices":[3,26,26,13,13,13,13,0,0,0,0,0,0,0,0],"split_type":[0,0,0,0,0,0,0,0,0,0,0,0,0,0,0],"sum_hessian":[6.777111E2,3.576959E2,3.200152E2,9.323671E1,2.644592E2,2.2069255E2,9.932265E1,4.2901768E1,5.033494E1,1.7323404E2,9.122514E1,5.278233E1,1.6791022E2,5.4905132E1,4.4417515E1],"tree_param":{"num_deleted":"0","num_feature":"27","num_nodes":"15","size_leaf_vector":"1"}},{"base_weights":[1.0141107E-2,-3.575356E-1,4.1978556E-1,3.1408563E-1,-6.1418647E-1,7.0594233E-1,-2.3639344E-1,-4.9978993E-3,8.115343E-3,-8.580849E-3,-1.5493626E-3,2.7002727E-3,8.37041E-3,-8.120886E-3,3.7398902E-3],"categories":[],"categories_nodes":[],"categories_segments":[],"categories_sizes":[],"default_left":[0,0,0,0,0,0,0,0,0,0,0,0,0,0,0],"id":30,"left_children":[1,3,5,7,9,11,13,-1,-1,-1,-1,-1,-1,-1,-1],"loss_changes":[1.0224337E2,6.186005E1,6.045594E1,4.0719585E1,2.889801E1,1.2565315E1,3.482836E1,0E0,0E0,0E0,0E0,0E0,0E0,0E0,0E0],"parents":[2147483647,0,0,1,1,2,2,3,3,4,4,5,5,6,6],"right_children":[2,4,6,8,10,12,14,-1,-1,-1,-1,-1,-1,-1,-1],"split_conditions":[4.81E-1,1.08E2,1.23E2,1.04E2,1.14E2,1.15E2,1.28E2,-4.9978993E-3,8.115343E-3,-8.580849E-3,-1.5493626E-3,2.7002727E-3,8.37041E-3,-8.120886E-3,3.7398902E-3],"split_indices":[16,13,13,26,26,26,26,0,0,0,0,0,0,0,0],"split_type":[0,0,0,0,0,0,0,0,0,0,0,0,0,0,0],"sum_hessian":[6.7683496E2,3.5675574E2,3.200792E2,9.85748E1,2.5818094E2,2.2282872E2,9.725047E1,3.73924E1,6.1182396E1,1.6805951E2,9.012143E1,5.2227425E1,1.706013E2,4.987724E1,4.7373238E1],"tree_param":{"num_deleted":"0","num_feature":"27","num_nodes":"15","size_leaf_vector":"1"}},{"base_weights":[-1.0141119E-2,3.575356E-1,-4.197856E-1,-3.1408566E-1,6.1418647E-1,-7.059424E-1,2.3639342E-1,4.9978993E-3,-8.115343E-3,8.580849E-3,1.5493622E-3,-2.700273E-3,-8.37041E-3,8.120886E-3,-3.7398904E-3],"categories":[],"categories_nodes":[],"categories_segments":[],"categories_sizes":[],"default_left":[0,0,0,0,0,0,0,0,0,0,0,0,0,0,0],"id":31,"left_children":[1,3,5,7,9,11,13,-1,-1,-1,-1,-1,-1,-1,-1],"loss_changes":[1.0224338E2,6.1860054E1,6.0455948E1,4.071958E1,2.889801E1,1.2565308E1,3.4828365E1,0E0,0E0,0E0,0E0,0E0,0E0,0E0,0E0],"parents":[2147483647,0,0,1,1,2,2,3,3,4,4,5,5,6,6],"right_children":[2,4,6,8,10,12,14,-1,-1,-1,-1,-1,-1,-1,-1],"split_conditions":[4.81E-1,1.08E2,1.23E2,1.04E2,1.14E2,1.15E2,1.28E2,4.9978993E-3,-8.115343E-3,8.580849E-3,1.5493622E-3,-2.700273E-3,-8.37041E-3,8.120886E-3,-3.7398904E-3],"split_indices":[16,13,13,26,26,26,26,0,0,0,0,0,0,0,0],"split_type":[0,0,0,0,0,0,0,0,0,0,0,0,0,0,0],"sum_hessian":[6.7683496E2,3.5675574E2,3.200792E2,9.85748E1,2.5818094E2,2.2282872E2,9.725048E1,3.7392403E1,6.1182396E1,1.6805952E2,9.012143E1,5.222742E1,1.706013E2,4.987724E1,4.7373238E1],"tree_param":{"num_deleted":"0","num_feature":"27","num_nodes":"15","size_leaf_vector":"1"}},{"base_weights":[1.0052735E-2,3.740701E-1,-3.9673463E-1,-3.086927E-1,6.151224E-1,-6.934057E-1,2.6213712E-1,3.558531E-3,-8.727147E-3,8.455009E-3,1.7443922E-3,-2.5513815E-3,-8.291624E-3,7.961922E-3,-3.9937687E-3],"categories":[],"categories_nodes":[],"categories_segments":[],"categories_sizes":[],"default_left":[0,0,0,0,0,0,0,0,0,0,0,0,0,0,0],"id":32,"left_children":[1,3,5,7,9,11,13,-1,-1,-1,-1,-1,-1,-1,-1],"loss_changes":[1.0038602E2,5.9070248E1,6.2764378E1,3.554954E1,2.6730164E1,1.2939751E1,3.569219E1,0E0,0E0,0E0,0E0,0E0,0E0,0E0,0E0],"parents":[2147483647,0,0,1,1,2,2,3,3,4,4,5,5,6,6],"right_children":[2,4,6,8,10,12,14,-1,-1,-1,-1,-1,-1,-1,-1],"split_conditions":[4.81E-1,1.08E2,1.23E2,1.05E2,1.14E2,1.15E2,1.29E2,3.558531E-3,-8.727147E-3,8.455009E-3,1.7443922E-3,-2.5513815E-3,-8.291624E-3,7.961922E-3,-3.9937687E-3],"split_indices":[3,26,26,13,13,13,13,0,0,0,0,0,0,0,0],"split_type":[0,0,0,0,0,0,0,0,0,0,0,0,0,0,0],"sum_hessian":[6.7592584E2,3.5675806E2,3.191678E2,9.301613E1,2.6374194E2,2.2003839E2,9.9129395E1,4.2872124E1,5.0144005E1,1.7259488E2,9.114706E1,5.2720036E1,1.6731834E2,5.473611E1,4.4393284E1],"tree_param":{"num_deleted":"0","num_feature":"27","num_nodes":"15","size_leaf_vector":"1"}},{"base_weights":[-1.0052729E-2,-3.740701E-1,3.9673463E-1,3.0869272E-1,-6.151224E-1,6.934057E-1,-2.6213706E-1,-3.558531E-3,8.727147E-3,-8.455009E-3,-1.7443924E-3,2.5513815E-3,8.291624E-3,-7.961921E-3,3.9937687E-3],"categories":[],"categories_nodes":[],"categories_segments":[],"categories_sizes":[],"default_left":[0,0,0,0,0,0,0,0,0,0,0,0,0,0,0],"id":33,"left_children":[1,3,5,7,9,11,13,-1,-1,-1,-1,-1,-1,-1,-1],"loss_changes":[1.0038602E2,5.9070255E1,6.2764374E1,3.5549545E1,2.6730156E1,1.2939751E1,3.5692184E1,0E0,0E0,0E0,0E0,0E0,0E0,0E0,0E0],"parents":[2147483647,0,0,1,1,2,2,3,3,4,4,5,5,6,6],"right_children":[2,4,6,8,10,12,14,-1,-1,-1,-1,-1,-1,-1,-1],"split_conditions":[4.81E-1,1.08E2,1.23E2,1.05E2,1.14E2,1.15E2,1.29E2,-3.558531E-3,8.727147E-3,-8.455009E-3,-1.7443924E-3,2.5513815E-3,8.291624E-3,-7.961921E-3,3.9937687E-3],"split_indices":[3,26,26,13,13,13,13,0,0,0,0,0,0,0,0],"split_type":[0,0,0,0,0,0,0,0,0,0,0,0,0,0,0],"sum_hessian":[6.7592584E2,3.5675806E2,3.191678E2,9.301613E1,2.6374194E2,2.2003839E2,9.9129395E1,4.2872124E1,5.0144005E1,1.7259488E2,9.114706E1,5.272004E1,1.6731834E2,5.473611E1,4.4393284E1],"tree_param":{"num_deleted":"0","num_feature":"27","num_nodes":"15","size_leaf_vector":"1"}},{"base_weights":[9.963801E-3,-3.5268006E-1,4.140256E-1,3.0836716E-1,-6.053901E-1,6.961111E-1,-2.3210667E-1,-4.1675544E-3,8.546134E-3,-8.118746E-3,-7.6643785E-4,2.6539855E-3,8.259596E-3,-8.018252E-3,3.703705E-3],"categories":[],"categories_nodes":[],"categories_segments":[],"categories_sizes":[],"default_left":[0,0,0,0,0,0,0,0,0,0,0,0,0,0,0],"id":34,"left_children":[1,3,5,7,9,11,13,-1,-1,-1,-1,-1,-1,-1,-1],"loss_changes":[9.919409E1,5.978716E1,5.851901E1,3.9701454E1,2.8154E1,1.2259705E1,3.3952797E1,0E0,0E0,0E0,0E0,0E0,0E0,0E0,0E0],"parents":[2147483647,0,0,1,1,2,2,3,3,4,4,5,5,6,6],"right_children":[2,4,6,8,10,12,14,-1,-1,-1,-1,-1,-1,-1,-1],"split_conditions":[4.81E-1,1.08E2,1.23E2,1.05E2,1.16E2,1.15E2,1.28E2,-4.1675544E-3,8.546134E-3,-8.118746E-3,-7.6643785E-4,2.6539855E-3,8.259596E-3,-8.018252E-3,3.703705E-3],"split_indices":[16,13,13,26,26,26,26,0,0,0,0,0,0,0,0],"split_type":[0,0,0,0,0,0,0,0,0,0,0,0,0,0,0],"sum_hessian":[6.749552E2,3.557754E2,3.1917984E2,9.833283E1,2.5744257E2,2.221272E2,9.705264E1,4.2350758E1,5.598208E1,1.847565E2,7.268606E1,5.21587E1,1.699685E2,4.971239E1,4.7340252E1],"tree_param":{"num_deleted":"0","num_feature":"27","num_nodes":"15","size_leaf_vector":"1"}},{"base_weights":[-9.963815E-3,3.5268006E-1,-4.140256E-1,-3.0836716E-1,6.053901E-1,-6.9611114E-1,2.3210666E-1,4.1675544E-3,-8.546134E-3,8.118746E-3,7.664374E-4,-2.6539862E-3,-8.259596E-3,8.018252E-3,-3.703705E-3],"categories":[],"categories_nodes":[],"categories_segments":[],"categories_sizes":[],"default_left":[0,0,0,0,0,0,0,0,0,0,0,0,0,0,0],"id":35,"left_children":[1,3,5,7,9,11,13,-1,-1,-1,-1,-1,-1,-1,-1],"loss_changes":[9.91941E1,5.978716E1,5.851901E1,3.9701458E1,2.8154E1,1.2259712E1,3.3952797E1,0E0,0E0,0E0,0E0,0E0,0E0,0E0,0E0],"parents":[2147483647,0,0,1,1,2,2,3,3,4,4,5,5,6,6],"right_children":[2,4,6,8,10,12,14,-1,-1,-1,-1,-1,-1,-1,-1],"split_conditions":[4.81E-1,1.08E2,1.23E2,1.05E2,1.16E2,1.15E2,1.28E2,4.1675544E-3,-8.546134E-3,8.118746E-3,7.664374E-4,-2.6539862E-3,-8.259596E-3,8.018252E-3,-3.703705E-3],"split_indices":[16,13,13,26,26,26,26,0,0,0,0,0,0,0,0],"split_type":[0,0,0,0,0,0,0,0,0,0,0,0,0,0,0],"sum_hessian":[6.749552E2,3.557754E2,3.1917984E2,9.833283E1,2.5744257E2,2.221272E2,9.705264E1,4.2350758E1,5.598208E1,1.847565E2,7.268606E1,5.21587E1,1.699685E2,4.971239E1,4.7340252E1],"tree_param":{"num_deleted":"0","num_feature":"27","num_nodes":"15","size_leaf_vector":"1"}},{"base_weights":[9.882156E-3,3.6895308E-1,-3.9139E-1,-3.033007E-1,6.0640585E-1,-6.8373615E-1,2.5714955E-1,3.525753E-3,-8.618671E-3,8.344337E-3,1.715939E-3,-2.5047557E-3,-8.182994E-3,7.860522E-3,-3.961203E-3],"categories":[],"categories_nodes":[],"categories_segments":[],"categories_sizes":[],"default_left":[0,0,0,0,0,0,0,0,0,0,0,0,0,0,0],"id":36,"left_children":[1,3,5,7,9,11,13,-1,-1,-1,-1,-1,-1,-1,-1],"loss_changes":[9.739469E1,5.71267E1,6.07011E1,3.4659573E1,2.6026505E1,1.2639542E1,3.4833855E1,0E0,0E0,0E0,0E0,0E0,0E0,0E0,0E0],"parents":[2147483647,0,0,1,1,2,2,3,3,4,4,5,5,6,6],"right_children":[2,4,6,8,10,12,14,-1,-1,-1,-1,-1,-1,-1,-1],"split_conditions":[4.81E-1,1.08E2,1.23E2,1.05E2,1.14E2,1.15E2,1.29E2,3.525753E-3,-8.618671E-3,8.344337E-3,1.715939E-3,-2.5047557E-3,-8.182994E-3,7.860522E-3,-3.961203E-3],"split_indices":[3,26,26,13,13,13,13,0,0,0,0,0,0,0,0],"split_type":[0,0,0,0,0,0,0,0,0,0,0,0,0,0,0],"sum_hessian":[6.7395E2,3.557206E2,3.1822943E2,9.277826E1,2.6294235E2,2.1931375E2,9.891569E1,4.284173E1,4.9936527E1,1.7188292E2,9.1059425E1,5.2651215E1,1.6666254E2,5.45486E1,4.4367085E1],"tree_param":{"num_deleted":"0","num_feature":"27","num_nodes":"15","size_leaf_vector":"1"}},{"base_weights":[-9.882172E-3,-3.689531E-1,3.9138997E-1,3.033007E-1,-6.0640585E-1,6.8373615E-1,-2.5714958E-1,-3.5257533E-3,8.618671E-3,-8.344337E-3,-1.7159391E-3,2.5047557E-3,8.182994E-3,-7.860522E-3,3.961203E-3],"categories":[],"categories_nodes":[],"categories_segments":[],"categories_sizes":[],"default_left":[0,0,0,0,0,0,0,0,0,0,0,0,0,0,0],"id":37,"left_children":[1,3,5,7,9,11,13,-1,-1,-1,-1,-1,-1,-1,-1],"loss_changes":[9.739469E1,5.712671E1,6.0701107E1,3.465957E1,2.602649E1,1.2639542E1,3.4833855E1,0E0,0E0,0E0,0E0,0E0,0E0,0E0,0E0],"parents":[2147483647,0,0,1,1,2,2,3,3,4,4,5,5,6,6],"right_children":[2,4,6,8,10,12,14,-1,-1,-1,-1,-1,-1,-1,-1],"split_conditions":[4.81E-1,1.08E2,1.23E2,1.05E2,1.14E2,1.15E2,1.29E2,-3.5257533E-3,8.618671E-3,-8.344337E-3,-1.7159391E-3,2.5047557E-3,8.182994E-3,-7.860522E-3,3.961203E-3],"split_indices":[3,26,26,13,13,13,13,0,0,0,0,0,0,0,0],"split_type":[0,0,0,0,0,0,0,0,0,0,0,0,0,0,0],"sum_hessian":[6.7395E2,3.5572058E2,3.1822943E2,9.277826E1,2.6294232E2,2.1931375E2,9.891569E1,4.284173E1,4.993653E1,1.7188292E2,9.1059425E1,5.2651215E1,1.6666254E2,5.4548603E1,4.4367085E1],"tree_param":{"num_deleted":"0","num_feature":"27","num_nodes":"15","size_leaf_vector":"1"}},{"base_weights":[9.796099E-3,-3.4798867E-1,4.0846592E-1,3.028376E-1,-5.968889E-1,6.866371E-1,-2.2793059E-1,-4.913092E-3,7.910632E-3,-8.362278E-3,-1.4886452E-3,3.504231E-3,8.5082995E-3,-7.919615E-3,3.6682873E-3],"categories":[],"categories_nodes":[],"categories_segments":[],"categories_sizes":[],"default_left":[0,0,0,0,0,0,0,0,0,0,0,0,0,0,0],"id":38,"left_children":[1,3,5,7,9,11,13,-1,-1,-1,-1,-1,-1,-1,-1],"loss_changes":[9.626448E1,5.780029E1,5.6662468E1,3.8797714E1,2.7501427E1,1.1976906E1,3.311065E1,0E0,0E0,0E0,0E0,0E0,0E0,0E0,0E0],"parents":[2147483647,0,0,1,1,2,2,3,3,4,4,5,5,6,6],"right_children":[2,4,6,8,10,12,14,-1,-1,-1,-1,-1,-1,-1,-1],"split_conditions":[4.81E-1,1.08E2,1.23E2,1.04E2,1.14E2,1.18E2,1.28E2,-4.913092E-3,7.910632E-3,-8.362278E-3,-1.4886452E-3,3.504231E-3,8.5082995E-3,-7.919615E-3,3.6682873E-3],"split_indices":[16,13,13,26,26,26,26,0,0,0,0,0,0,0,0],"split_type":[0,0,0,0,0,0,0,0,0,0,0,0,0,0,0],"sum_hessian":[6.728901E2,3.5469632E2,3.181938E2,9.8063194E1,2.5663312E2,2.2135834E2,9.683544E1,3.733227E1,6.0730923E1,1.6670906E2,8.992407E1,7.3660225E1,1.476981E2,4.9531467E1,4.7303978E1],"tree_param":{"num_deleted":"0","num_feature":"27","num_nodes":"15","size_leaf_vector":"1"}},{"base_weights":[-9.796085E-3,3.479887E-1,-4.0846595E-1,-3.0283764E-1,5.9688896E-1,-6.866371E-1,2.2793062E-1,4.913092E-3,-7.910632E-3,8.362278E-3,1.4886452E-3,-3.504231E-3,-8.5083E-3,7.919615E-3,-3.6682873E-3],"categories":[],"categories_nodes":[],"categories_segments":[],"categories_sizes":[],"default_left":[0,0,0,0,0,0,0,0,0,0,0,0,0,0,0],"id":39,"left_children":[1,3,5,7,9,11,13,-1,-1,-1,-1,-1,-1,-1,-1],"loss_changes":[9.626448E1,5.7800312E1,5.6662468E1,3.8797714E1,2.7501442E1,1.1976921E1,3.3110657E1,0E0,0E0,0E0,0E0,0E0,0E0,0E0,0E0],"parents":[2147483647,0,0,1,1,2,2,3,3,4,4,5,5,6,6],"right_children":[2,4,6,8,10,12,14,-1,-1,-1,-1,-1,-1,-1,-1],"split_conditions":[4.81E-1,1.08E2,1.23E2,1.04E2,1.14E2,1.18E2,1.28E2,4.913092E-3,-7.910632E-3,8.362278E-3,1.4886452E-3,-3.504231E-3,-8.5083E-3,7.919615E-3,-3.6682873E-3],"split_indices":[16,13,13,26,26,26,26,0,0,0,0,0,0,0,0],"split_type":[0,0,0,0,0,0,0,0,0,0,0,0,0,0,0],"sum_hessian":[6.728901E2,3.5469632E2,3.181938E2,9.8063194E1,2.5663312E2,2.2135834E2,9.683544E1,3.733227E1,6.0730927E1,1.6670906E2,8.992407E1,7.3660225E1,1.476981E2,4.9531467E1,4.7303978E1],"tree_param":{"num_deleted":"0","num_feature":"27","num_nodes":"15","size_leaf_vector":"1"}},{"base_weights":[9.71511E-3,3.6399123E-1,-3.8622075E-1,-2.9832092E-1,5.980213E-1,-6.743952E-1,2.5231928E-1,3.488893E-3,-8.515413E-3,8.239672E-3,1.6862667E-3,-2.4579999E-3,-8.078981E-3,7.762312E-3,-3.9275843E-3],"categories":[],"categories_nodes":[],"categories_segments":[],"categories_sizes":[],"default_left":[0,0,0,0,0,0,0,0,0,0,0,0,0,0,0],"id":40,"left_children":[1,3,5,7,9,11,13,-1,-1,-1,-1,-1,-1,-1,-1],"loss_changes":[9.451566E1,5.5296608E1,5.872392E1,3.3779114E1,2.5385735E1,1.2362602E1,3.399273E1,0E0,0E0,0E0,0E0,0E0,0E0,0E0,0E0],"parents":[2147483647,0,0,1,1,2,2,3,3,4,4,5,5,6,6],"right_children":[2,4,6,8,10,12,14,-1,-1,-1,-1,-1,-1,-1,-1],"split_conditions":[4.81E-1,1.08E2,1.23E2,1.05E2,1.14E2,1.15E2,1.29E2,3.488893E-3,-8.515413E-3,8.239672E-3,1.6862667E-3,-2.4579999E-3,-8.078981E-3,7.762312E-3,-3.9275843E-3],"split_indices":[3,26,26,13,13,13,13,0,0,0,0,0,0,0,0],"split_type":[0,0,0,0,0,0,0,0,0,0,0,0,0,0,0],"sum_hessian":[6.718072E2,3.5459912E2,3.1720807E2,9.251217E1,2.6208694E2,2.1852924E2,9.867885E1,4.2804596E1,4.970757E1,1.7112349E2,9.096345E1,5.2577286E1,1.6595195E2,5.4341263E1,4.4337585E1],"tree_param":{"num_deleted":"0","num_feature":"27","num_nodes":"15","size_leaf_vector":"1"}},{"base_weights":[-9.7151E-3,-3.6399123E-1,3.8622075E-1,2.9832098E-1,-5.980213E-1,6.743952E-1,-2.5231928E-1,-3.4888922E-3,8.515413E-3,-8.239672E-3,-1.6862666E-3,2.4579996E-3,8.078981E-3,-7.762312E-3,3.9275843E-3],"categories":[],"categories_nodes":[],"categories_segments":[],"categories_sizes":[],"default_left":[0,0,0,0,0,0,0,0,0,0,0,0,0,0,0],"id":41,"left_children":[1,3,5,7,9,11,13,-1,-1,-1,-1,-1,-1,-1,-1],"loss_changes":[9.451566E1,5.529661E1,5.8723923E1,3.3779118E1,2.5385735E1,1.2362602E1,3.399273E1,0E0,0E0,0E0,0E0,0E0,0E0,0E0,0E0],"parents":[2147483647,0,0,1,1,2,2,3,3,4,4,5,5,6,6],"right_children":[2,4,6,8,10,12,14,-1,-1,-1,-1,-1,-1,-1,-1],"split_conditions":[4.81E-1,1.08E2,1.23E2,1.05E2,1.14E2,1.15E2,1.29E2,-3.4888922E-3,8.515413E-3,-8.239672E-3,-1.6862666E-3,2.4579996E-3,8.078981E-3,-7.762312E-3,3.9275843E-3],"split_indices":[3,26,26,13,13,13,13,0,0,0,0,0,0,0,0],"split_type":[0,0,0,0,0,0,0,0,0,0,0,0,0,0,0],"sum_hessian":[6.718072E2,3.545991E2,3.172081E2,9.251217E1,2.6208694E2,2.1852924E2,9.867885E1,4.28046E1,4.970757E1,1.7112349E2,9.096344E1,5.2577286E1,1.6595195E2,5.4341263E1,4.4337585E1],"tree_param":{"num_deleted":"0","num_feature":"27","num_nodes":"15","size_leaf_vector":"1"}},{"base_weights":[9.63171E-3,-3.434581E-1,4.030933E-1,2.9743543E-1,-5.886744E-1,6.77491E-1,-2.2386004E-1,-4.868384E-3,7.811388E-3,-8.258603E-3,-1.462308E-3,2.5560008E-3,8.053795E-3,-7.824748E-3,3.6336067E-3],"categories":[],"categories_nodes":[],"categories_segments":[],"categories_sizes":[],"default_left":[0,0,0,0,0,0,0,0,0,0,0,0,0,0,0],"id":42,"left_children":[1,3,5,7,9,11,13,-1,-1,-1,-1,-1,-1,-1,-1],"loss_changes":[9.345081E1,5.5892586E1,5.4881145E1,3.785133E1,2.6823685E1,1.1746841E1,3.230005E1,0E0,0E0,0E0,0E0,0E0,0E0,0E0,0E0],"parents":[2147483647,0,0,1,1,2,2,3,3,4,4,5,5,6,6],"right_children":[2,4,6,8,10,12,14,-1,-1,-1,-1,-1,-1,-1,-1],"split_conditions":[4.81E-1,1.08E2,1.23E2,1.04E2,1.14E2,1.15E2,1.28E2,-4.868384E-3,7.811388E-3,-8.258603E-3,-1.462308E-3,2.5560008E-3,8.053795E-3,-7.824748E-3,3.6336067E-3],"split_indices":[16,13,13,26,26,26,26,0,0,0,0,0,0,0,0],"split_type":[0,0,0,0,0,0,0,0,0,0,0,0,0,0,0],"sum_hessian":[6.706634E2,3.5353265E2,3.1713074E2,9.777541E1,2.5575725E2,2.2053078E2,9.659996E1,3.729654E1,6.0478874E1,1.6593562E2,8.9821625E1,5.1996952E1,1.6853383E2,4.9335396E1,4.726457E1],"tree_param":{"num_deleted":"0","num_feature":"27","num_nodes":"15","size_leaf_vector":"1"}},{"base_weights":[-9.631709E-3,3.434581E-1,-4.030933E-1,-2.9743543E-1,5.8867437E-1,-6.77491E-1,2.2386007E-1,4.868384E-3,-7.8113875E-3,8.258603E-3,1.4623076E-3,-2.5560013E-3,-8.053796E-3,7.824749E-3,-3.6336067E-3],"categories":[],"categories_nodes":[],"categories_segments":[],"categories_sizes":[],"default_left":[0,0,0,0,0,0,0,0,0,0,0,0,0,0,0],"id":43,"left_children":[1,3,5,7,9,11,13,-1,-1,-1,-1,-1,-1,-1,-1],"loss_changes":[9.345081E1,5.5892563E1,5.4881145E1,3.7851326E1,2.6823708E1,1.1746857E1,3.2300056E1,0E0,0E0,0E0,0E0,0E0,0E0,0E0,0E0],"parents":[2147483647,0,0,1,1,2,2,3,3,4,4,5,5,6,6],"right_children":[2,4,6,8,10,12,14,-1,-1,-1,-1,-1,-1,-1,-1],"split_conditions":[4.81E-1,1.08E2,1.23E2,1.04E2,1.14E2,1.15E2,1.28E2,4.868384E-3,-7.8113875E-3,8.258603E-3,1.4623076E-3,-2.5560013E-3,-8.053796E-3,7.824749E-3,-3.6336067E-3],"split_indices":[16,13,13,26,26,26,26,0,0,0,0,0,0,0,0],"split_type":[0,0,0,0,0,0,0,0,0,0,0,0,0,0,0],"sum_hessian":[6.706634E2,3.5353265E2,3.1713074E2,9.777541E1,2.5575725E2,2.2053078E2,9.659997E1,3.729654E1,6.0478874E1,1.6593562E2,8.9821625E1,5.1996952E1,1.6853381E2,4.9335396E1,4.7264572E1],"tree_param":{"num_deleted":"0","num_feature":"27","num_nodes":"15","size_leaf_vector":"1"}},{"base_weights":[9.551497E-3,-3.406273E-1,3.9979637E-1,2.949684E-1,-5.838478E-1,6.721036E-1,-2.2195446E-1,-4.066519E-3,8.282742E-3,-7.857405E-3,-7.1384094E-4,3.4104642E-3,8.345028E-3,-7.3844627E-3,4.025794E-3],"categories":[],"categories_nodes":[],"categories_segments":[],"categories_sizes":[],"default_left":[0,0,0,0,0,0,0,0,0,0,0,0,0,0,0],"id":44,"left_children":[1,3,5,7,9,11,13,-1,-1,-1,-1,-1,-1,-1,-1],"loss_changes":[9.176286E1,5.488591E1,5.39154E1,3.7237225E1,2.6462502E1,1.1602058E1,3.173922E1,0E0,0E0,0E0,0E0,0E0,0E0,0E0,0E0],"parents":[2147483647,0,0,1,1,2,2,3,3,4,4,5,5,6,6],"right_children":[2,4,6,8,10,12,14,-1,-1,-1,-1,-1,-1,-1,-1],"split_conditions":[4.81E-1,1.08E2,1.23E2,1.05E2,1.16E2,1.18E2,1.29E2,-4.066519E-3,8.282742E-3,-7.857405E-3,-7.1384094E-4,3.4104642E-3,8.345028E-3,-7.3844627E-3,4.025794E-3],"split_indices":[16,13,13,26,26,26,26,0,0,0,0,0,0,0,0],"split_type":[0,0,0,0,0,0,0,0,0,0,0,0,0,0,0],"sum_hessian":[6.6949396E2,3.5292792E2,3.16566E2,9.761719E1,2.5531075E2,2.2009178E2,9.6474236E1,4.2258785E1,5.5358402E1,1.8277184E2,7.253891E1,7.345367E1,1.466381E2,5.270479E1,4.3769447E1],"tree_param":{"num_deleted":"0","num_feature":"27","num_nodes":"15","size_leaf_vector":"1"}},{"base_weights":[-9.551505E-3,3.406273E-1,-3.9979637E-1,-2.9496837E-1,5.838478E-1,-6.721036E-1,2.219545E-1,4.0665185E-3,-8.282742E-3,7.857404E-3,7.1384106E-4,-3.410464E-3,-8.345028E-3,7.3844627E-3,-4.025794E-3],"categories":[],"categories_nodes":[],"categories_segments":[],"categories_sizes":[],"default_left":[0,0,0,0,0,0,0,0,0,0,0,0,0,0,0],"id":45,"left_children":[1,3,5,7,9,11,13,-1,-1,-1,-1,-1,-1,-1,-1],"loss_changes":[9.176285E1,5.4885906E1,5.3915405E1,3.7237225E1,2.6462494E1,1.1602058E1,3.1739222E1,0E0,0E0,0E0,0E0,0E0,0E0,0E0,0E0],"parents":[2147483647,0,0,1,1,2,2,3,3,4,4,5,5,6,6],"right_children":[2,4,6,8,10,12,14,-1,-1,-1,-1,-1,-1,-1,-1],"split_conditions":[4.81E-1,1.08E2,1.23E2,1.05E2,1.16E2,1.18E2,1.29E2,4.0665185E-3,-8.282742E-3,7.857404E-3,7.1384106E-4,-3.410464E-3,-8.345028E-3,7.3844627E-3,-4.025794E-3],"split_indices":[16,13,13,26,26,26,26,0,0,0,0,0,0,0,0],"split_type":[0,0,0,0,0,0,0,0,0,0,0,0,0,0,0],"sum_hessian":[6.6949396E2,3.5292792E2,3.16566E2,9.761719E1,2.5531075E2,2.2009178E2,9.6474236E1,4.2258785E1,5.5358402E1,1.8277182E2,7.253892E1,7.345367E1,1.466381E2,5.270479E1,4.3769447E1],"tree_param":{"num_deleted":"0","num_feature":"27","num_nodes":"15","size_leaf_vector":"1"}},{"base_weights":[9.479394E-3,3.5747316E-1,-3.7944305E-1,-2.908842E-1,5.867603E-1,-6.61912E-1,2.4519303E-1,3.4548517E-3,-8.379479E-3,8.099687E-3,1.6464778E-3,-2.3915158E-3,-7.9413345E-3,7.635228E-3,-3.8985263E-3],"categories":[],"categories_nodes":[],"categories_segments":[],"categories_sizes":[],"default_left":[0,0,0,0,0,0,0,0,0,0,0,0,0,0,0],"id":46,"left_children":[1,3,5,7,9,11,13,-1,-1,-1,-1,-1,-1,-1,-1],"loss_changes":[9.071858E1,5.2758305E1,5.6013058E1,3.2695698E1,2.4519913E1,1.2009399E1,3.2983433E1,0E0,0E0,0E0,0E0,0E0,0E0,0E0,0E0],"parents":[2147483647,0,0,1,1,2,2,3,3,4,4,5,5,6,6],"right_children":[2,4,6,8,10,12,14,-1,-1,-1,-1,-1,-1,-1,-1],"split_conditions":[4.81E-1,1.08E2,1.23E2,1.05E2,1.14E2,1.15E2,1.29E2,3.4548517E-3,-8.379479E-3,8.099687E-3,1.6464778E-3,-2.3915158E-3,-7.9413345E-3,7.635228E-3,-3.8985263E-3],"split_indices":[3,26,26,13,13,13,13,0,0,0,0,0,0,0,0],"split_type":[0,0,0,0,0,0,0,0,0,0,0,0,0,0,0],"sum_hessian":[6.682863E2,3.527443E2,3.15542E2,9.2085266E1,2.6065903E2,2.1724237E2,9.829963E1,4.2738438E1,4.9346825E1,1.698993E2,9.075971E1,5.2426006E1,1.6481636E2,5.4012142E1,4.4287487E1],"tree_param":{"num_deleted":"0","num_feature":"27","num_nodes":"15","size_leaf_vector":"1"}},{"base_weights":[-9.479373E-3,-3.5747313E-1,3.7944308E-1,2.9088423E-1,-5.867603E-1,6.619121E-1,-2.4519308E-1,-3.4548515E-3,8.379479E-3,-8.099686E-3,-1.6464775E-3,2.3915165E-3,7.941335E-3,-7.635228E-3,3.898526E-3],"categories":[],"categories_nodes":[],"categories_segments":[],"categories_sizes":[],"default_left":[0,0,0,0,0,0,0,0,0,0,0,0,0,0,0],"id":47,"left_children":[1,3,5,7,9,11,13,-1,-1,-1,-1,-1,-1,-1,-1],"loss_changes":[9.071858E1,5.27583E1,5.6013077E1,3.26957E1,2.4519897E1,1.2009392E1,3.298343E1,0E0,0E0,0E0,0E0,0E0,0E0,0E0,0E0],"parents":[2147483647,0,0,1,1,2,2,3,3,4,4,5,5,6,6],"right_children":[2,4,6,8,10,12,14,-1,-1,-1,-1,-1,-1,-1,-1],"split_conditions":[4.81E-1,1.08E2,1.23E2,1.05E2,1.14E2,1.15E2,1.29E2,-3.4548515E-3,8.379479E-3,-8.099686E-3,-1.6464775E-3,2.3915165E-3,7.941335E-3,-7.635228E-3,3.898526E-3],"split_indices":[3,26,26,13,13,13,13,0,0,0,0,0,0,0,0],"split_type":[0,0,0,0,0,0,0,0,0,0,0,0,0,0,0],"sum_hessian":[6.682863E2,3.527443E2,3.15542E2,9.2085266E1,2.6065903E2,2.1724236E2,9.829963E1,4.2738438E1,4.9346825E1,1.6989932E2,9.075971E1,5.2426006E1,1.6481636E2,5.4012146E1,4.4287487E1],"tree_param":{"num_deleted":"0","num_feature":"27","num_nodes":"15","size_leaf_vector":"1"}},{"base_weights":[9.399591E-3,-3.363158E-1,3.9468387E-1,2.8980166E-1,-5.760205E-1,6.634265E-1,-2.1799982E-1,-4.7872267E-3,7.6643047E-3,-8.103303E-3,-1.4163363E-3,2.4805032E-3,7.900237E-3,-7.6785777E-3,3.5696244E-3],"categories":[],"categories_nodes":[],"categories_segments":[],"categories_sizes":[],"default_left":[0,0,0,0,0,0,0,0,0,0,0,0,0,0,0],"id":48,"left_children":[1,3,5,7,9,11,13,-1,-1,-1,-1,-1,-1,-1,-1],"loss_changes":[8.911397E1,5.3091866E1,5.2240685E1,3.6371952E1,2.5874374E1,1.1382095E1,3.1010124E1,0E0,0E0,0E0,0E0,0E0,0E0,0E0,0E0],"parents":[2147483647,0,0,1,1,2,2,3,3,4,4,5,5,6,6],"right_children":[2,4,6,8,10,12,14,-1,-1,-1,-1,-1,-1,-1,-1],"split_conditions":[4.81E-1,1.08E2,1.23E2,1.04E2,1.14E2,1.15E2,1.28E2,-4.7872267E-3,7.6643047E-3,-8.103303E-3,-1.4163363E-3,2.4805032E-3,7.900237E-3,-7.6785777E-3,3.5696244E-3],"split_indices":[16,13,13,26,26,26,26,0,0,0,0,0,0,0,0],"split_type":[0,0,0,0,0,0,0,0,0,0,0,0,0,0,0],"sum_hessian":[6.6703375E2,3.516371E2,3.153967E2,9.729362E1,2.5434346E2,2.1917618E2,9.6220505E1,3.724108E1,6.0052532E1,1.6465988E2,8.9683586E1,5.1887653E1,1.6728853E2,4.9012512E1,4.7207996E1],"tree_param":{"num_deleted":"0","num_feature":"27","num_nodes":"15","size_leaf_vector":"1"}},{"base_weights":[-9.399622E-3,3.3631575E-1,-3.946839E-1,-2.8980172E-1,5.760205E-1,-6.634266E-1,2.1799986E-1,4.787226E-3,-7.664306E-3,8.103303E-3,1.4163364E-3,-2.4805036E-3,-7.900237E-3,7.678579E-3,-3.5696244E-3],"categories":[],"categories_nodes":[],"categories_segments":[],"categories_sizes":[],"default_left":[0,0,0,0,0,0,0,0,0,0,0,0,0,0,0],"id":49,"left_children":[1,3,5,7,9,11,13,-1,-1,-1,-1,-1,-1,-1,-1],"loss_changes":[8.911397E1,5.3091873E1,5.2240696E1,3.6371952E1,2.5874374E1,1.1382088E1,3.1010128E1,0E0,0E0,0E0,0E0,0E0,0E0,0E0,0E0],"parents":[2147483647,0,0,1,1,2,2,3,3,4,4,5,5,6,6],"right_children":[2,4,6,8,10,12,14,-1,-1,-1,-1,-1,-1,-1,-1],"split_conditions":[4.81E-1,1.08E2,1.23E2,1.04E2,1.14E2,1.15E2,1.28E2,4.787226E-3,-7.664306E-3,8.103303E-3,1.4163364E-3,-2.4805036E-3,-7.900237E-3,7.678579E-3,-3.5696244E-3],"split_indices":[16,13,13,26,26,26,26,0,0,0,0,0,0,0,0],"split_type":[0,0,0,0,0,0,0,0,0,0,0,0,0,0,0],"sum_hessian":[6.6703375E2,3.516371E2,3.153967E2,9.729361E1,2.5434348E2,2.1917618E2,9.6220505E1,3.724108E1,6.0052532E1,1.6465988E2,8.9683586E1,5.1887653E1,1.6728853E2,4.901251E1,4.7207996E1],"tree_param":{"num_deleted":"0","num_feature":"27","num_nodes":"15","size_leaf_vector":"1"}},{"base_weights":[9.323058E-3,3.5292315E-1,-3.7470394E-1,-2.8610265E-1,5.7901853E-1,-6.534297E-1,2.407612E-1,3.421525E-3,-8.285783E-3,8.004682E-3,1.619148E-3,-2.3493834E-3,-7.8475885E-3,7.5470745E-3,-3.8661952E-3],"categories":[],"categories_nodes":[],"categories_segments":[],"categories_sizes":[],"default_left":[0,0,0,0,0,0,0,0,0,0,0,0,0,0,0],"id":50,"left_children":[1,3,5,7,9,11,13,-1,-1,-1,-1,-1,-1,-1,-1],"loss_changes":[8.8110275E1,5.1082005E1,5.4251766E1,3.190066E1,2.3945E1,1.175914E1,3.222074E1,0E0,0E0,0E0,0E0,0E0,0E0,0E0,0E0],"parents":[2147483647,0,0,1,1,2,2,3,3,4,4,5,5,6,6],"right_children":[2,4,6,8,10,12,14,-1,-1,-1,-1,-1,-1,-1,-1],"split_conditions":[4.81E-1,1.08E2,1.23E2,1.05E2,1.14E2,1.15E2,1.29E2,3.421525E-3,-8.285783E-3,8.004682E-3,1.619148E-3,-2.3493834E-3,-7.8475885E-3,7.5470745E-3,-3.8661952E-3],"split_indices":[3,26,26,13,13,13,13,0,0,0,0,0,0,0,0],"split_type":[0,0,0,0,0,0,0,0,0,0,0,0,0,0,0],"sum_hessian":[6.6574414E2,3.5140918E2,3.14335E2,9.176978E1,2.596394E2,2.1631206E2,9.802294E1,4.269401E1,4.9075768E1,1.6899634E2,9.064307E1,5.2334084E1,1.6397797E2,5.3771072E1,4.4251865E1],"tree_param":{"num_deleted":"0","num_feature":"27","num_nodes":"15","size_leaf_vector":"1"}},{"base_weights":[-9.323057E-3,-3.5292315E-1,3.7470394E-1,2.8610265E-1,-5.7901853E-1,6.534297E-1,-2.407612E-1,-3.4215248E-3,8.285783E-3,-8.004683E-3,-1.6191476E-3,2.3493837E-3,7.8475885E-3,-7.5470745E-3,3.8661952E-3],"categories":[],"categories_nodes":[],"categories_segments":[],"categories_sizes":[],"default_left":[0,0,0,0,0,0,0,0,0,0,0,0,0,0,0],"id":51,"left_children":[1,3,5,7,9,11,13,-1,-1,-1,-1,-1,-1,-1,-1],"loss_changes":[8.8110275E1,5.1082012E1,5.425177E1,3.190066E1,2.3945015E1,1.1759132E1,3.2220737E1,0E0,0E0,0E0,0E0,0E0,0E0,0E0,0E0],"parents":[2147483647,0,0,1,1,2,2,3,3,4,4,5,5,6,6],"right_children":[2,4,6,8,10,12,14,-1,-1,-1,-1,-1,-1,-1,-1],"split_conditions":[4.81E-1,1.08E2,1.23E2,1.05E2,1.14E2,1.15E2,1.29E2,-3.4215248E-3,8.285783E-3,-8.004683E-3,-1.6191476E-3,2.3493837E-3,7.8475885E-3,-7.5470745E-3,3.8661952E-3],"split_indices":[3,26,26,13,13,13,13,0,0,0,0,0,0,0,0],"split_type":[0,0,0,0,0,0,0,0,0,0,0,0,0,0,0],"sum_hessian":[6.6574414E2,3.5140918E2,3.14335E2,9.176978E1,2.596394E2,2.1631206E2,9.802294E1,4.269401E1,4.9075768E1,1.6899632E2,9.064307E1,5.2334084E1,1.6397797E2,5.3771072E1,4.4251865E1],"tree_param":{"num_deleted":"0","num_feature":"27","num_nodes":"15","size_leaf_vector":"1"}},{"base_weights":[9.245627E-3,-3.321455E-1,3.897434E-1,2.8474447E-1,-5.6844455E-1,6.5504867E-1,-2.1416408E-1,-4.0003443E-3,8.09629E-3,-8.009977E-3,-1.3912568E-3,3.2985627E-3,8.155159E-3,-7.217755E-3,3.9564017E-3],"categories":[],"categories_nodes":[],"categories_segments":[],"categories_sizes":[],"default_left":[0,0,0,0,0,0,0,0,0,0,0,0,0,0,0],"id":52,"left_children":[1,3,5,7,9,11,13,-1,-1,-1,-1,-1,-1,-1,-1],"loss_changes":[8.6566505E1,5.136718E1,5.0632957E1,3.553179E1,2.5279594E1,1.1169563E1,3.0293972E1,0E0,0E0,0E0,0E0,0E0,0E0,0E0,0E0],"parents":[2147483647,0,0,1,1,2,2,3,3,4,4,5,5,6,6],"right_children":[2,4,6,8,10,12,14,-1,-1,-1,-1,-1,-1,-1,-1],"split_conditions":[4.81E-1,1.08E2,1.23E2,1.05E2,1.14E2,1.18E2,1.29E2,-4.0003443E-3,8.09629E-3,-8.009977E-3,-1.3912568E-3,3.2985627E-3,8.155159E-3,-7.217755E-3,3.9564017E-3],"split_indices":[16,13,13,26,26,26,26,0,0,0,0,0,0,0,0],"split_type":[0,0,0,0,0,0,0,0,0,0,0,0,0,0,0],"sum_hessian":[6.644197E2,3.502735E2,3.1414618E2,9.6954895E1,2.533186E2,2.1820213E2,9.594404E1,4.2172867E1,5.478203E1,1.6375186E2,8.956675E1,7.310597E1,1.4509616E2,5.2259075E1,4.3684963E1],"tree_param":{"num_deleted":"0","num_feature":"27","num_nodes":"15","size_leaf_vector":"1"}},{"base_weights":[-9.245636E-3,3.321455E-1,-3.8974342E-1,-2.8474444E-1,5.6844455E-1,-6.5504867E-1,2.1416406E-1,4.0003443E-3,-8.09629E-3,8.009977E-3,1.3912575E-3,-3.2985627E-3,-8.155159E-3,7.217755E-3,-3.9564017E-3],"categories":[],"categories_nodes":[],"categories_segments":[],"categories_sizes":[],"default_left":[0,0,0,0,0,0,0,0,0,0,0,0,0,0,0],"id":53,"left_children":[1,3,5,7,9,11,13,-1,-1,-1,-1,-1,-1,-1,-1],"loss_changes":[8.656651E1,5.136718E1,5.063296E1,3.553179E1,2.527958E1,1.1169556E1,3.0293974E1,0E0,0E0,0E0,0E0,0E0,0E0,0E0,0E0],"parents":[2147483647,0,0,1,1,2,2,3,3,4,4,5,5,6,6],"right_children":[2,4,6,8,10,12,14,-1,-1,-1,-1,-1,-1,-1,-1],"split_conditions":[4.81E-1,1.08E2,1.23E2,1.05E2,1.14E2,1.18E2,1.29E2,4.0003443E-3,-8.09629E-3,8.009977E-3,1.3912575E-3,-3.2985627E-3,-8.155159E-3,7.217755E-3,-3.9564017E-3],"split_indices":[16,13,13,26,26,26,26,0,0,0,0,0,0,0,0],"split_type":[0,0,0,0,0,0,0,0,0,0,0,0,0,0,0],"sum_hessian":[6.644197E2,3.502735E2,3.1414618E2,9.6954895E1,2.533186E2,2.1820213E2,9.594404E1,4.2172867E1,5.478203E1,1.6375186E2,8.956675E1,7.310597E1,1.4509616E2,5.2259075E1,4.3684963E1],"tree_param":{"num_deleted":"0","num_feature":"27","num_nodes":"15","size_leaf_vector":"1"}},{"base_weights":[9.176397E-3,3.4849724E-1,-3.700808E-1,-2.8136653E-1,5.71473E-1,-6.451724E-1,2.3646593E-1,3.3900496E-3,-8.195782E-3,7.91325E-3,1.5913784E-3,-2.3058061E-3,-7.7574817E-3,7.4613416E-3,-3.8325186E-3],"categories":[],"categories_nodes":[],"categories_segments":[],"categories_sizes":[],"default_left":[0,0,0,0,0,0,0,0,0,0,0,0,0,0,0],"id":54,"left_children":[1,3,5,7,9,11,13,-1,-1,-1,-1,-1,-1,-1,-1],"loss_changes":[8.558779E1,4.9457096E1,5.2556244E1,3.114275E1,2.3404099E1,1.153273E1,3.1469088E1,0E0,0E0,0E0,0E0,0E0,0E0,0E0,0E0],"parents":[2147483647,0,0,1,1,2,2,3,3,4,4,5,5,6,6],"right_children":[2,4,6,8,10,12,14,-1,-1,-1,-1,-1,-1,-1,-1],"split_conditions":[4.81E-1,1.08E2,1.23E2,1.05E2,1.14E2,1.15E2,1.29E2,3.3900496E-3,-8.195782E-3,7.91325E-3,1.5913784E-3,-2.3058061E-3,-7.7574817E-3,7.4613416E-3,-3.8325186E-3],"split_indices":[3,26,26,13,13,13,13,0,0,0,0,0,0,0,0],"split_type":[0,0,0,0,0,0,0,0,0,0,0,0,0,0,0],"sum_hessian":[6.630679E2,3.5000238E2,3.130655E2,9.144002E1,2.5856238E2,2.15338E2,9.772751E1,4.264976E1,4.8790257E1,1.6804419E2,9.0518196E1,5.2239143E1,1.6309885E2,5.35132E1,4.4214306E1],"tree_param":{"num_deleted":"0","num_feature":"27","num_nodes":"15","size_leaf_vector":"1"}},{"base_weights":[-9.176392E-3,-3.484972E-1,3.7008077E-1,2.8136656E-1,-5.71473E-1,6.451724E-1,-2.3646596E-1,-3.3900496E-3,8.195783E-3,-7.91325E-3,-1.5913782E-3,2.3058061E-3,7.7574817E-3,-7.4613416E-3,3.8325181E-3],"categories":[],"categories_nodes":[],"categories_segments":[],"categories_sizes":[],"default_left":[0,0,0,0,0,0,0,0,0,0,0,0,0,0,0],"id":55,"left_children":[1,3,5,7,9,11,13,-1,-1,-1,-1,-1,-1,-1,-1],"loss_changes":[8.5587776E1,4.94571E1,5.255625E1,3.114275E1,2.3404099E1,1.153273E1,3.1469086E1,0E0,0E0,0E0,0E0,0E0,0E0,0E0,0E0],"parents":[2147483647,0,0,1,1,2,2,3,3,4,4,5,5,6,6],"right_children":[2,4,6,8,10,12,14,-1,-1,-1,-1,-1,-1,-1,-1],"split_conditions":[4.81E-1,1.08E2,1.23E2,1.05E2,1.14E2,1.15E2,1.29E2,-3.3900496E-3,8.195783E-3,-7.91325E-3,-1.5913782E-3,2.3058061E-3,7.7574817E-3,-7.4613416E-3,3.8325181E-3],"split_indices":[3,26,26,13,13,13,13,0,0,0,0,0,0,0,0],"split_type":[0,0,0,0,0,0,0,0,0,0,0,0,0,0,0],"sum_hessian":[6.630679E2,3.5000238E2,3.130655E2,9.144002E1,2.5856238E2,2.15338E2,9.772751E1,4.264976E1,4.8790257E1,1.6804417E2,9.051819E1,5.2239147E1,1.6309885E2,5.3513203E1,4.421431E1],"tree_param":{"num_deleted":"0","num_feature":"27","num_nodes":"15","size_leaf_vector":"1"}},{"base_weights":[9.101164E-3,-3.281061E-1,3.8495103E-1,2.7984226E-1,-5.6110215E-1,6.4693975E-1,-2.1039313E-1,-4.7102706E-3,7.4927914E-3,-7.5866794E-3,-6.561306E-4,2.3896866E-3,7.7215815E-3,-8.0286935E-3,3.0253278E-3],"categories":[],"categories_nodes":[],"categories_segments":[],"categories_sizes":[],"default_left":[0,0,0,0,0,0,0,0,0,0,0,0,0,0,0],"id":56,"left_children":[1,3,5,7,9,11,13,-1,-1,-1,-1,-1,-1,-1,-1],"loss_changes":[8.411338E1,4.971083E1,4.9087124E1,3.4753372E1,2.4740326E1,1.0961395E1,2.9617592E1,0E0,0E0,0E0,0E0,0E0,0E0,0E0,0E0],"parents":[2147483647,0,0,1,1,2,2,3,3,4,4,5,5,6,6],"right_children":[2,4,6,8,10,12,14,-1,-1,-1,-1,-1,-1,-1,-1],"split_conditions":[4.81E-1,1.08E2,1.23E2,1.04E2,1.16E2,1.15E2,1.27E2,-4.7102706E-3,7.4927914E-3,-7.5866794E-3,-6.561306E-4,2.3896866E-3,7.7215815E-3,-8.0286935E-3,3.0253278E-3],"split_indices":[16,13,13,26,26,26,26,0,0,0,0,0,0,0,0],"split_type":[0,0,0,0,0,0,0,0,0,0,0,0,0,0,0],"sum_hessian":[6.616758E2,3.488339E2,3.1284192E2,9.659386E1,2.5224004E2,2.1718169E2,9.5660225E1,3.7157173E1,5.9436687E1,1.7995544E2,7.2284584E1,5.168768E1,1.65494E2,4.4125717E1,5.1534508E1],"tree_param":{"num_deleted":"0","num_feature":"27","num_nodes":"15","size_leaf_vector":"1"}},{"base_weights":[-9.101173E-3,3.281061E-1,-3.8495103E-1,-2.798423E-1,5.6110215E-1,-6.469398E-1,2.1039316E-1,4.7102706E-3,-7.4927914E-3,7.5866794E-3,6.5613043E-4,-2.3896864E-3,-7.721582E-3,8.028694E-3,-3.0253269E-3],"categories":[],"categories_nodes":[],"categories_segments":[],"categories_sizes":[],"default_left":[0,0,0,0,0,0,0,0,0,0,0,0,0,0,0],"id":57,"left_children":[1,3,5,7,9,11,13,-1,-1,-1,-1,-1,-1,-1,-1],"loss_changes":[8.411338E1,4.9710846E1,4.9087135E1,3.4753372E1,2.474031E1,1.096138E1,2.9617586E1,0E0,0E0,0E0,0E0,0E0,0E0,0E0,0E0],"parents":[2147483647,0,0,1,1,2,2,3,3,4,4,5,5,6,6],"right_children":[2,4,6,8,10,12,14,-1,-1,-1,-1,-1,-1,-1,-1],"split_conditions":[4.81E-1,1.08E2,1.23E2,1.04E2,1.16E2,1.15E2,1.27E2,4.7102706E-3,-7.4927914E-3,7.5866794E-3,6.5613043E-4,-2.3896864E-3,-7.721582E-3,8.028694E-3,-3.0253269E-3],"split_indices":[16,13,13,26,26,26,26,0,0,0,0,0,0,0,0],"split_type":[0,0,0,0,0,0,0,0,0,0,0,0,0,0,0],"sum_hessian":[6.616758E2,3.488339E2,3.1284192E2,9.659386E1,2.5224004E2,2.1718169E2,9.5660225E1,3.715717E1,5.9436687E1,1.7995546E2,7.2284584E1,5.168768E1,1.6549402E2,4.4125717E1,5.1534508E1],"tree_param":{"num_deleted":"0","num_feature":"27","num_nodes":"15","size_leaf_vector":"1"}},{"base_weights":[9.028987E-3,3.442102E-1,-3.656245E-1,-2.76931E-1,5.6422734E-1,-6.3712513E-1,2.31951E-1,3.3581206E-3,-8.110984E-3,7.825697E-3,1.5656743E-3,-2.2647583E-3,-7.6695713E-3,7.3775616E-3,-3.8045077E-3],"categories":[],"categories_nodes":[],"categories_segments":[],"categories_sizes":[],"default_left":[0,0,0,0,0,0,0,0,0,0,0,0,0,0,0],"id":58,"left_children":[1,3,5,7,9,11,13,-1,-1,-1,-1,-1,-1,-1,-1],"loss_changes":[8.316449E1,4.7923542E1,5.088549E1,3.0415827E1,2.2880562E1,1.1305031E1,3.0769926E1,0E0,0E0,0E0,0E0,0E0,0E0,0E0,0E0],"parents":[2147483647,0,0,1,1,2,2,3,3,4,4,5,5,6,6],"right_children":[2,4,6,8,10,12,14,-1,-1,-1,-1,-1,-1,-1,-1],"split_conditions":[4.81E-1,1.08E2,1.23E2,1.05E2,1.14E2,1.15E2,1.29E2,3.3581206E-3,-8.110984E-3,7.825697E-3,1.5656743E-3,-2.2647583E-3,-7.6695713E-3,7.3775616E-3,-3.8045077E-3],"split_indices":[3,26,26,13,13,13,13,0,0,0,0,0,0,0,0],"split_type":[0,0,0,0,0,0,0,0,0,0,0,0,0,0,0],"sum_hessian":[6.6025775E2,3.4852945E2,3.117283E2,9.109525E1,2.574342E2,2.142984E2,9.742988E1,4.260007E1,4.8495182E1,1.6704523E2,9.038898E1,5.2137047E1,1.6216136E2,5.3246742E1,4.418314E1],"tree_param":{"num_deleted":"0","num_feature":"27","num_nodes":"15","size_leaf_vector":"1"}},{"base_weights":[-9.02895E-3,-3.442102E-1,3.6562455E-1,2.7693102E-1,-5.642273E-1,6.371252E-1,-2.3195095E-1,-3.3581203E-3,8.110984E-3,-7.825697E-3,-1.5656743E-3,2.264759E-3,7.6695713E-3,-7.3775616E-3,3.8045084E-3],"categories":[],"categories_nodes":[],"categories_segments":[],"categories_sizes":[],"default_left":[0,0,0,0,0,0,0,0,0,0,0,0,0,0,0],"id":59,"left_children":[1,3,5,7,9,11,13,-1,-1,-1,-1,-1,-1,-1,-1],"loss_changes":[8.3164505E1,4.792354E1,5.0885487E1,3.0415829E1,2.2880554E1,1.1305023E1,3.0769928E1,0E0,0E0,0E0,0E0,0E0,0E0,0E0,0E0],"parents":[2147483647,0,0,1,1,2,2,3,3,4,4,5,5,6,6],"right_children":[2,4,6,8,10,12,14,-1,-1,-1,-1,-1,-1,-1,-1],"split_conditions":[4.81E-1,1.08E2,1.23E2,1.05E2,1.14E2,1.15E2,1.29E2,-3.3581203E-3,8.110984E-3,-7.825697E-3,-1.5656743E-3,2.264759E-3,7.6695713E-3,-7.3775616E-3,3.8045084E-3],"split_indices":[3,26,26,13,13,13,13,0,0,0,0,0,0,0,0],"split_type":[0,0,0,0,0,0,0,0,0,0,0,0,0,0,0],"sum_hessian":[6.6025775E2,3.4852945E2,3.117283E2,9.109525E1,2.574342E2,2.1429842E2,9.742988E1,4.260007E1,4.8495182E1,1.6704523E2,9.038898E1,5.213705E1,1.6216138E2,5.324674E1,4.418314E1],"tree_param":{"num_deleted":"0","num_feature":"27","num_nodes":"15","size_leaf_vector":"1"}},{"base_weights":[8.955851E-3,-3.2418582E-1,3.8030544E-1,2.7503556E-1,-5.539733E-1,6.390989E-1,-2.0673418E-1,-4.669537E-3,7.408781E-3,-7.836509E-3,-1.3367296E-3,3.1916993E-3,7.980218E-3,-7.0662075E-3,3.8942324E-3],"categories":[],"categories_nodes":[],"categories_segments":[],"categories_sizes":[],"default_left":[0,0,0,0,0,0,0,0,0,0,0,0,0,0,0],"id":60,"left_children":[1,3,5,7,9,11,13,-1,-1,-1,-1,-1,-1,-1,-1],"loss_changes":[8.1748795E1,4.8115604E1,4.7603065E1,3.3950203E1,2.4232597E1,1.0784035E1,2.899139E1,0E0,0E0,0E0,0E0,0E0,0E0,0E0,0E0],"parents":[2147483647,0,0,1,1,2,2,3,3,4,4,5,5,6,6],"right_children":[2,4,6,8,10,12,14,-1,-1,-1,-1,-1,-1,-1,-1],"split_conditions":[4.81E-1,1.08E2,1.23E2,1.04E2,1.14E2,1.18E2,1.29E2,-4.669537E-3,7.408781E-3,-7.836509E-3,-1.3367296E-3,3.1916993E-3,7.980218E-3,-7.0662075E-3,3.8942324E-3],"split_indices":[16,13,13,26,26,26,26,0,0,0,0,0,0,0,0],"split_type":[0,0,0,0,0,0,0,0,0,0,0,0,0,0,0],"sum_hessian":[6.588024E2,3.4733316E2,3.1146927E2,9.622041E1,2.5111276E2,2.1610973E2,9.535954E1,3.7109844E1,5.911057E1,1.6182E2,8.929275E1,7.2721634E1,1.4338809E2,5.1766933E1,4.359261E1],"tree_param":{"num_deleted":"0","num_feature":"27","num_nodes":"15","size_leaf_vector":"1"}},{"base_weights":[-8.95586E-3,3.2418582E-1,-3.8030547E-1,-2.750356E-1,5.539733E-1,-6.390989E-1,2.067342E-1,4.6695373E-3,-7.4087814E-3,7.836509E-3,1.3367292E-3,-3.1916995E-3,-7.980218E-3,7.066207E-3,-3.8942317E-3],"categories":[],"categories_nodes":[],"categories_segments":[],"categories_sizes":[],"default_left":[0,0,0,0,0,0,0,0,0,0,0,0,0,0,0],"id":61,"left_children":[1,3,5,7,9,11,13,-1,-1,-1,-1,-1,-1,-1,-1],"loss_changes":[8.174879E1,4.811561E1,4.760308E1,3.395021E1,2.423259E1,1.0784035E1,2.8991383E1,0E0,0E0,0E0,0E0,0E0,0E0,0E0,0E0],"parents":[2147483647,0,0,1,1,2,2,3,3,4,4,5,5,6,6],"right_children":[2,4,6,8,10,12,14,-1,-1,-1,-1,-1,-1,-1,-1],"split_conditions":[4.81E-1,1.08E2,1.23E2,1.04E2,1.14E2,1.18E2,1.29E2,4.6695373E-3,-7.4087814E-3,7.836509E-3,1.3367292E-3,-3.1916995E-3,-7.980218E-3,7.066207E-3,-3.8942317E-3],"split_indices":[16,13,13,26,26,26,26,0,0,0,0,0,0,0,0],"split_type":[0,0,0,0,0,0,0,0,0,0,0,0,0,0,0],"sum_hessian":[6.588024E2,3.4733316E2,3.1146927E2,9.6220406E1,2.5111276E2,2.1610973E2,9.535954E1,3.710984E1,5.9110565E1,1.6182E2,8.929275E1,7.272163E1,1.4338809E2,5.1766933E1,4.359261E1],"tree_param":{"num_deleted":"0","num_feature":"27","num_nodes":"15","size_leaf_vector":"1"}},{"base_weights":[8.888634E-3,3.400426E-1,-3.6128432E-1,-2.7265054E-1,5.571792E-1,-6.293899E-1,2.2785512E-1,3.3252593E-3,-8.029282E-3,7.7418755E-3,1.5389179E-3,-2.2231443E-3,-7.5860512E-3,7.2976802E-3,-3.771967E-3],"categories":[],"categories_nodes":[],"categories_segments":[],"categories_sizes":[],"default_left":[0,0,0,0,0,0,0,0,0,0,0,0,0,0,0],"id":62,"left_children":[1,3,5,7,9,11,13,-1,-1,-1,-1,-1,-1,-1,-1],"loss_changes":[8.082369E1,4.64483E1,4.9319458E1,2.970383E1,2.2395805E1,1.1099968E1,3.0068243E1,0E0,0E0,0E0,0E0,0E0,0E0,0E0,0E0],"parents":[2147483647,0,0,1,1,2,2,3,3,4,4,5,5,6,6],"right_children":[2,4,6,8,10,12,14,-1,-1,-1,-1,-1,-1,-1,-1],"split_conditions":[4.81E-1,1.08E2,1.23E2,1.05E2,1.14E2,1.15E2,1.29E2,3.3252593E-3,-8.029282E-3,7.7418755E-3,1.5389179E-3,-2.2231443E-3,-7.5860512E-3,7.2976802E-3,-3.771967E-3],"split_indices":[3,26,26,13,13,13,13,0,0,0,0,0,0,0,0],"split_type":[0,0,0,0,0,0,0,0,0,0,0,0,0,0,0],"sum_hessian":[6.5732965E2,3.4699335E2,3.1033627E2,9.07288E1,2.5626456E2,2.1323085E2,9.710541E1,4.2546154E1,4.818264E1,1.6601335E2,9.025122E1,5.2031857E1,1.6119899E2,5.296383E1,4.4141582E1],"tree_param":{"num_deleted":"0","num_feature":"27","num_nodes":"15","size_leaf_vector":"1"}},{"base_weights":[-8.888611E-3,-3.4004256E-1,3.6128432E-1,2.7265048E-1,-5.5717915E-1,6.293899E-1,-2.2785515E-1,-3.32526E-3,8.029282E-3,-7.741875E-3,-1.5389177E-3,2.2231445E-3,7.5860503E-3,-7.2976802E-3,3.7719663E-3],"categories":[],"categories_nodes":[],"categories_segments":[],"categories_sizes":[],"default_left":[0,0,0,0,0,0,0,0,0,0,0,0,0,0,0],"id":63,"left_children":[1,3,5,7,9,11,13,-1,-1,-1,-1,-1,-1,-1,-1],"loss_changes":[8.0823685E1,4.644829E1,4.9319454E1,2.9703835E1,2.2395805E1,1.1099968E1,3.0068241E1,0E0,0E0,0E0,0E0,0E0,0E0,0E0,0E0],"parents":[2147483647,0,0,1,1,2,2,3,3,4,4,5,5,6,6],"right_children":[2,4,6,8,10,12,14,-1,-1,-1,-1,-1,-1,-1,-1],"split_conditions":[4.81E-1,1.08E2,1.23E2,1.05E2,1.14E2,1.15E2,1.29E2,-3.32526E-3,8.029282E-3,-7.741875E-3,-1.5389177E-3,2.2231445E-3,7.5860503E-3,-7.2976802E-3,3.7719663E-3],"split_indices":[3,26,26,13,13,13,13,0,0,0,0,0,0,0,0],"split_type":[0,0,0,0,0,0,0,0,0,0,0,0,0,0,0],"sum_hessian":[6.5732965E2,3.4699335E2,3.1033627E2,9.07288E1,2.5626456E2,2.1323087E2,9.7105415E1,4.2546158E1,4.818264E1,1.6601334E2,9.025122E1,5.203186E1,1.61199E2,5.296383E1,4.4141582E1],"tree_param":{"num_deleted":"0","num_feature":"27","num_nodes":"15","size_leaf_vector":"1"}},{"base_weights":[8.817494E-3,-3.203873E-1,3.7580106E-1,2.0558864E-1,-5.7581043E-1,6.314993E-1,-2.0313041E-1,-4.4847075E-3,7.055799E-3,-7.6903193E-3,-1.0962827E-3,3.1428644E-3,7.896759E-3,-7.871182E-3,2.9788392E-3],"categories":[],"categories_nodes":[],"categories_segments":[],"categories_sizes":[],"default_left":[0,0,0,0,0,0,0,0,0,0,0,0,0,0,0],"id":64,"left_children":[1,3,5,7,9,11,13,-1,-1,-1,-1,-1,-1,-1,-1],"loss_changes":[7.9472084E1,4.6705494E1,4.6173077E1,3.762606E1,2.0964775E1,1.058963E1,2.8337177E1,0E0,0E0,0E0,0E0,0E0,0E0,0E0,0E0],"parents":[2147483647,0,0,1,1,2,2,3,3,4,4,5,5,6,6],"right_children":[2,4,6,8,10,12,14,-1,-1,-1,-1,-1,-1,-1,-1],"split_conditions":[4.81E-1,1.1E2,1.23E2,1.05E2,1.16E2,1.18E2,1.27E2,-4.4847075E-3,7.055799E-3,-7.6903193E-3,-1.0962827E-3,3.1428644E-3,7.896759E-3,-7.871182E-3,2.9788392E-3],"split_indices":[16,13,13,26,26,26,26,0,0,0,0,0,0,0,0],"split_type":[0,0,0,0,0,0,0,0,0,0,0,0,0,0,0],"sum_hessian":[6.558154E2,3.4576862E2,3.100468E2,1.1308834E2,2.3268027E2,2.149975E2,9.504932E1,4.9040054E1,6.404829E1,1.6403993E2,6.864033E1,7.25301E1,1.424674E2,4.3626614E1,5.1422707E1],"tree_param":{"num_deleted":"0","num_feature":"27","num_nodes":"15","size_leaf_vector":"1"}},{"base_weights":[-8.817513E-3,3.203873E-1,-3.7580112E-1,-2.0558861E-1,5.758104E-1,-6.314993E-1,2.031304E-1,4.4847075E-3,-7.055799E-3,7.690319E-3,1.096283E-3,-3.142865E-3,-7.89676E-3,7.871182E-3,-2.9788392E-3],"categories":[],"categories_nodes":[],"categories_segments":[],"categories_sizes":[],"default_left":[0,0,0,0,0,0,0,0,0,0,0,0,0,0,0],"id":65,"left_children":[1,3,5,7,9,11,13,-1,-1,-1,-1,-1,-1,-1,-1],"loss_changes":[7.94721E1,4.6705494E1,4.6173073E1,3.762606E1,2.0964767E1,1.058963E1,2.833718E1,0E0,0E0,0E0,0E0,0E0,0E0,0E0,0E0],"parents":[2147483647,0,0,1,1,2,2,3,3,4,4,5,5,6,6],"right_children":[2,4,6,8,10,12,14,-1,-1,-1,-1,-1,-1,-1,-1],"split_conditions":[4.81E-1,1.1E2,1.23E2,1.05E2,1.16E2,1.18E2,1.27E2,4.4847075E-3,-7.055799E-3,7.690319E-3,1.096283E-3,-3.142865E-3,-7.89676E-3,7.871182E-3,-2.9788392E-3],"split_indices":[16,13,13,26,26,26,26,0,0,0,0,0,0,0,0],"split_type":[0,0,0,0,0,0,0,0,0,0,0,0,0,0,0],"sum_hessian":[6.558154E2,3.4576862E2,3.100468E2,1.1308834E2,2.3268027E2,2.1499751E2,9.504932E1,4.9040054E1,6.404829E1,1.6403993E2,6.864033E1,7.25301E1,1.424674E2,4.362661E1,5.1422707E1],"tree_param":{"num_deleted":"0","num_feature":"27","num_nodes":"15","size_leaf_vector":"1"}},{"base_weights":[8.74928E-3,3.3582416E-1,-3.5694396E-1,-2.684647E-1,5.5018204E-1,-6.216121E-1,2.2352616E-1,3.3004007E-3,-7.955193E-3,7.657659E-3,1.5148154E-3,-2.1813363E-3,-7.5025773E-3,7.218731E-3,-3.74383E-3],"categories":[],"categories_nodes":[],"categories_segments":[],"categories_sizes":[],"default_left":[0,0,0,0,0,0,0,0,0,0,0,0,0,0,0],"id":66,"left_children":[1,3,5,7,9,11,13,-1,-1,-1,-1,-1,-1,-1,-1],"loss_changes":[7.849962E1,4.5022175E1,4.7744816E1,2.9088732E1,2.189212E1,1.0897125E1,2.940419E1,0E0,0E0,0E0,0E0,0E0,0E0,0E0,0E0],"parents":[2147483647,0,0,1,1,2,2,3,3,4,4,5,5,6,6],"right_children":[2,4,6,8,10,12,14,-1,-1,-1,-1,-1,-1,-1,-1],"split_conditions":[4.81E-1,1.08E2,1.23E2,1.05E2,1.14E2,1.15E2,1.29E2,3.3004007E-3,-7.955193E-3,7.657659E-3,1.5148154E-3,-2.1813363E-3,-7.5025773E-3,7.218731E-3,-3.74383E-3],"split_indices":[3,26,26,13,13,13,13,0,0,0,0,0,0,0,0],"split_type":[0,0,0,0,0,0,0,0,0,0,0,0,0,0,0],"sum_hessian":[6.542993E2,3.4542975E2,3.0886957E2,9.038268E1,2.5504707E2,2.1209361E2,9.677596E1,4.2497643E1,4.7885044E1,1.6494043E2,9.0106636E1,5.192717E1,1.6016644E2,5.266951E1,4.4106453E1],"tree_param":{"num_deleted":"0","num_feature":"27","num_nodes":"15","size_leaf_vector":"1"}},{"base_weights":[-8.749279E-3,-3.3582416E-1,3.5694402E-1,2.684647E-1,-5.501821E-1,6.2161213E-1,-2.2352616E-1,-3.3004011E-3,7.955193E-3,-7.6576597E-3,-1.5148155E-3,2.1813363E-3,7.5025773E-3,-7.218731E-3,3.74383E-3],"categories":[],"categories_nodes":[],"categories_segments":[],"categories_sizes":[],"default_left":[0,0,0,0,0,0,0,0,0,0,0,0,0,0,0],"id":67,"left_children":[1,3,5,7,9,11,13,-1,-1,-1,-1,-1,-1,-1,-1],"loss_changes":[7.8499626E1,4.502217E1,4.774481E1,2.9088736E1,2.189212E1,1.0897125E1,2.940419E1,0E0,0E0,0E0,0E0,0E0,0E0,0E0,0E0],"parents":[2147483647,0,0,1,1,2,2,3,3,4,4,5,5,6,6],"right_children":[2,4,6,8,10,12,14,-1,-1,-1,-1,-1,-1,-1,-1],"split_conditions":[4.81E-1,1.08E2,1.23E2,1.05E2,1.14E2,1.15E2,1.29E2,-3.3004011E-3,7.955193E-3,-7.6576597E-3,-1.5148155E-3,2.1813363E-3,7.5025773E-3,-7.218731E-3,3.74383E-3],"split_indices":[3,26,26,13,13,13,13,0,0,0,0,0,0,0,0],"split_type":[0,0,0,0,0,0,0,0,0,0,0,0,0,0,0],"sum_hessian":[6.542994E2,3.4542978E2,3.088696E2,9.038268E1,2.5504707E2,2.1209363E2,9.677596E1,4.2497643E1,4.7885044E1,1.6494044E2,9.0106636E1,5.192717E1,1.6016646E2,5.266951E1,4.4106453E1],"tree_param":{"num_deleted":"0","num_feature":"27","num_nodes":"15","size_leaf_vector":"1"}},{"base_weights":[8.680101E-3,-3.1668553E-1,3.7142906E-1,2.0191593E-1,-5.687832E-1,6.1128414E-1,-2.3010077E-1,-4.4393796E-3,6.9739986E-3,-7.947053E-3,-1.7495384E-3,2.683194E-3,7.854202E-3,-6.996703E-3,3.8715678E-3],"categories":[],"categories_nodes":[],"categories_segments":[],"categories_sizes":[],"default_left":[0,0,0,0,0,0,0,0,0,0,0,0,0,0,0],"id":68,"left_children":[1,3,5,7,9,11,13,-1,-1,-1,-1,-1,-1,-1,-1],"loss_changes":[7.7274734E1,4.5240746E1,4.480502E1,3.667603E1,2.054943E1,1.3023277E1,2.6059996E1,0E0,0E0,0E0,0E0,0E0,0E0,0E0,0E0],"parents":[2147483647,0,0,1,1,2,2,3,3,4,4,5,5,6,6],"right_children":[2,4,6,8,10,12,14,-1,-1,-1,-1,-1,-1,-1,-1],"split_conditions":[4.81E-1,1.1E2,1.24E2,1.05E2,1.14E2,1.18E2,1.3E2,-4.4393796E-3,6.9739986E-3,-7.947053E-3,-1.7495384E-3,2.683194E-3,7.854202E-3,-6.996703E-3,3.8715678E-3],"split_indices":[16,13,13,26,26,26,26,0,0,0,0,0,0,0,0],"split_type":[0,0,0,0,0,0,0,0,0,0,0,0,0,0,0],"sum_hessian":[6.527295E2,3.4416217E2,3.0856732E2,1.1264145E2,2.3152072E2,2.205919E2,8.7975426E1,4.8945694E1,6.369576E1,1.464761E2,8.504461E1,7.514098E1,1.4545093E2,4.988933E1,3.808609E1],"tree_param":{"num_deleted":"0","num_feature":"27","num_nodes":"15","size_leaf_vector":"1"}},{"base_weights":[-8.680096E-3,3.1668553E-1,-3.7142903E-1,-2.019159E-1,5.6878316E-1,-6.112841E-1,2.301008E-1,4.4393805E-3,-6.9739986E-3,7.947053E-3,1.7495385E-3,-2.683194E-3,-7.854202E-3,6.996703E-3,-3.871567E-3],"categories":[],"categories_nodes":[],"categories_segments":[],"categories_sizes":[],"default_left":[0,0,0,0,0,0,0,0,0,0,0,0,0,0,0],"id":69,"left_children":[1,3,5,7,9,11,13,-1,-1,-1,-1,-1,-1,-1,-1],"loss_changes":[7.7274734E1,4.5240723E1,4.4805027E1,3.667603E1,2.0549446E1,1.3023277E1,2.6059994E1,0E0,0E0,0E0,0E0,0E0,0E0,0E0,0E0],"parents":[2147483647,0,0,1,1,2,2,3,3,4,4,5,5,6,6],"right_children":[2,4,6,8,10,12,14,-1,-1,-1,-1,-1,-1,-1,-1],"split_conditions":[4.81E-1,1.1E2,1.24E2,1.05E2,1.14E2,1.18E2,1.3E2,4.4393805E-3,-6.9739986E-3,7.947053E-3,1.7495385E-3,-2.683194E-3,-7.854202E-3,6.996703E-3,-3.871567E-3],"split_indices":[16,13,13,26,26,26,26,0,0,0,0,0,0,0,0],"split_type":[0,0,0,0,0,0,0,0,0,0,0,0,0,0,0],"sum_hessian":[6.527295E2,3.4416217E2,3.0856732E2,1.1264145E2,2.3152072E2,2.205919E2,8.7975426E1,4.8945694E1,6.3695755E1,1.464761E2,8.504461E1,7.514098E1,1.4545093E2,4.9889336E1,3.808609E1],"tree_param":{"num_deleted":"0","num_feature":"27","num_nodes":"15","size_leaf_vector":"1"}},{"base_weights":[8.61412E-3,3.317031E-1,-3.5268354E-1,-2.6423186E-1,5.432898E-1,-6.142353E-1,2.1991482E-1,3.276779E-3,-7.8826E-3,7.576935E-3,1.487624E-3,-2.1406317E-3,-7.4240053E-3,7.145423E-3,-3.7078194E-3],"categories":[],"categories_nodes":[],"categories_segments":[],"categories_sizes":[],"default_left":[0,0,0,0,0,0,0,0,0,0,0,0,0,0,0],"id":70,"left_children":[1,3,5,7,9,11,13,-1,-1,-1,-1,-1,-1,-1,-1],"loss_changes":[7.62467E1,4.362133E1,4.6317684E1,2.8490604E1,2.143953E1,1.0711197E1,2.873064E1,0E0,0E0,0E0,0E0,0E0,0E0,0E0,0E0],"parents":[2147483647,0,0,1,1,2,2,3,3,4,4,5,5,6,6],"right_children":[2,4,6,8,10,12,14,-1,-1,-1,-1,-1,-1,-1,-1],"split_conditions":[4.81E-1,1.08E2,1.23E2,1.05E2,1.14E2,1.15E2,1.29E2,3.276779E-3,-7.8826E-3,7.576935E-3,1.487624E-3,-2.1406317E-3,-7.4240053E-3,7.145423E-3,-3.7078194E-3],"split_indices":[3,26,26,13,13,13,13,0,0,0,0,0,0,0,0],"split_type":[0,0,0,0,0,0,0,0,0,0,0,0,0,0,0],"sum_hessian":[6.5117914E2,3.4381018E2,3.0736896E2,9.001989E1,2.5379028E2,2.1094202E2,9.6426926E1,4.2447975E1,4.7571915E1,1.6383469E2,8.995558E1,5.1818512E1,1.591235E2,5.2367046E1,4.4059875E1],"tree_param":{"num_deleted":"0","num_feature":"27","num_nodes":"15","size_leaf_vector":"1"}},{"base_weights":[-8.614117E-3,-3.317031E-1,3.5268357E-1,2.6423183E-1,-5.432898E-1,6.1423534E-1,-2.1991478E-1,-3.2767793E-3,7.8826E-3,-7.576935E-3,-1.4876239E-3,2.140632E-3,7.4240053E-3,-7.1454225E-3,3.7078194E-3],"categories":[],"categories_nodes":[],"categories_segments":[],"categories_sizes":[],"default_left":[0,0,0,0,0,0,0,0,0,0,0,0,0,0,0],"id":71,"left_children":[1,3,5,7,9,11,13,-1,-1,-1,-1,-1,-1,-1,-1],"loss_changes":[7.6246704E1,4.3621326E1,4.6317677E1,2.8490604E1,2.1439522E1,1.0711197E1,2.8730637E1,0E0,0E0,0E0,0E0,0E0,0E0,0E0,0E0],"parents":[2147483647,0,0,1,1,2,2,3,3,4,4,5,5,6,6],"right_children":[2,4,6,8,10,12,14,-1,-1,-1,-1,-1,-1,-1,-1],"split_conditions":[4.81E-1,1.08E2,1.23E2,1.05E2,1.14E2,1.15E2,1.29E2,-3.2767793E-3,7.8826E-3,-7.576935E-3,-1.4876239E-3,2.140632E-3,7.4240053E-3,-7.1454225E-3,3.7078194E-3],"split_indices":[3,26,26,13,13,13,13,0,0,0,0,0,0,0,0],"split_type":[0,0,0,0,0,0,0,0,0,0,0,0,0,0,0],"sum_hessian":[6.5117914E2,3.4381018E2,3.0736896E2,9.001989E1,2.5379028E2,2.1094202E2,9.6426926E1,4.244798E1,4.7571915E1,1.638347E2,8.995558E1,5.1818512E1,1.591235E2,5.2367046E1,4.405988E1],"tree_param":{"num_deleted":"0","num_feature":"27","num_nodes":"15","size_leaf_vector":"1"}},{"base_weights":[8.546765E-3,-3.13096E-1,3.6716372E-1,2.626203E-1,-5.343601E-1,6.1709845E-1,-1.9641846E-1,-5.9771948E-3,6.453096E-3,-7.607261E-3,-1.2607471E-3,2.2150944E-3,7.404824E-3,-6.858766E-3,3.8042485E-3],"categories":[],"categories_nodes":[],"categories_segments":[],"categories_sizes":[],"default_left":[0,0,0,0,0,0,0,0,0,0,0,0,0,0,0],"id":72,"left_children":[1,3,5,7,9,11,13,-1,-1,-1,-1,-1,-1,-1,-1],"loss_changes":[7.515455E1,4.3897022E1,4.351406E1,3.2004658E1,2.2867546E1,1.0264412E1,2.719702E1,0E0,0E0,0E0,0E0,0E0,0E0,0E0,0E0],"parents":[2147483647,0,0,1,1,2,2,3,3,4,4,5,5,6,6],"right_children":[2,4,6,8,10,12,14,-1,-1,-1,-1,-1,-1,-1,-1],"split_conditions":[4.81E-1,1.08E2,1.23E2,1.02E2,1.14E2,1.15E2,1.29E2,-5.9771948E-3,6.453096E-3,-7.607261E-3,-1.2607471E-3,2.2150944E-3,7.404824E-3,-6.858766E-3,3.8042485E-3],"split_indices":[16,13,13,26,26,26,26,0,0,0,0,0,0,0,0],"split_type":[0,0,0,0,0,0,0,0,0,0,0,0,0,0,0],"sum_hessian":[6.4955786E2,3.4249857E2,3.070593E2,9.5035324E1,2.4746326E2,2.1265645E2,9.4402824E1,2.908538E1,6.594994E1,1.5864328E2,8.881997E1,5.1222874E1,1.6143358E2,5.0967396E1,4.3435432E1],"tree_param":{"num_deleted":"0","num_feature":"27","num_nodes":"15","size_leaf_vector":"1"}},{"base_weights":[-8.546746E-3,3.13096E-1,-3.671637E-1,-2.6262027E-1,5.343601E-1,-6.1709845E-1,1.9641848E-1,5.9771948E-3,-6.453096E-3,7.607261E-3,1.2607471E-3,-2.2150942E-3,-7.404824E-3,6.858766E-3,-3.8042485E-3],"categories":[],"categories_nodes":[],"categories_segments":[],"categories_sizes":[],"default_left":[0,0,0,0,0,0,0,0,0,0,0,0,0,0,0],"id":73,"left_children":[1,3,5,7,9,11,13,-1,-1,-1,-1,-1,-1,-1,-1],"loss_changes":[7.515456E1,4.3897022E1,4.3514057E1,3.2004658E1,2.2867554E1,1.0264404E1,2.719702E1,0E0,0E0,0E0,0E0,0E0,0E0,0E0,0E0],"parents":[2147483647,0,0,1,1,2,2,3,3,4,4,5,5,6,6],"right_children":[2,4,6,8,10,12,14,-1,-1,-1,-1,-1,-1,-1,-1],"split_conditions":[4.81E-1,1.08E2,1.23E2,1.02E2,1.14E2,1.15E2,1.29E2,5.9771948E-3,-6.453096E-3,7.607261E-3,1.2607471E-3,-2.2150942E-3,-7.404824E-3,6.858766E-3,-3.8042485E-3],"split_indices":[16,13,13,26,26,26,26,0,0,0,0,0,0,0,0],"split_type":[0,0,0,0,0,0,0,0,0,0,0,0,0,0,0],"sum_hessian":[6.4955786E2,3.424986E2,3.0705927E2,9.5035324E1,2.4746326E2,2.1265645E2,9.4402824E1,2.908538E1,6.594994E1,1.586433E2,8.881997E1,5.122287E1,1.6143358E2,5.0967396E1,4.3435432E1],"tree_param":{"num_deleted":"0","num_feature":"27","num_nodes":"15","size_leaf_vector":"1"}},{"base_weights":[8.479217E-3,3.278504E-1,-3.4870535E-1,-2.604674E-1,5.3687775E-1,-6.072265E-1,2.1617675E-1,3.241685E-3,-7.81053E-3,7.5024394E-3,1.4630976E-3,-2.102127E-3,-7.3495237E-3,7.3791053E-3,-3.3438988E-3],"categories":[],"categories_nodes":[],"categories_segments":[],"categories_sizes":[],"default_left":[0,0,0,0,0,0,0,0,0,0,0,0,0,0,0],"id":74,"left_children":[1,3,5,7,9,11,13,-1,-1,-1,-1,-1,-1,-1,-1],"loss_changes":[7.414334E1,4.2335777E1,4.493828E1,2.783538E1,2.1015556E1,1.0532692E1,2.81302E1,0E0,0E0,0E0,0E0,0E0,0E0,0E0,0E0],"parents":[2147483647,0,0,1,1,2,2,3,3,4,4,5,5,6,6],"right_children":[2,4,6,8,10,12,14,-1,-1,-1,-1,-1,-1,-1,-1],"split_conditions":[4.81E-1,1.08E2,1.23E2,1.05E2,1.14E2,1.15E2,1.28E2,3.241685E-3,-7.81053E-3,7.5024394E-3,1.4630976E-3,-2.102127E-3,-7.3495237E-3,7.3791053E-3,-3.3438988E-3],"split_indices":[3,26,26,13,13,13,13,0,0,0,0,0,0,0,0],"split_type":[0,0,0,0,0,0,0,0,0,0,0,0,0,0,0],"sum_hessian":[6.479535E2,3.4212747E2,3.05826E2,8.9625626E1,2.5250185E2,2.0975542E2,9.607058E1,4.2393517E1,4.723211E1,1.6269896E2,8.980288E1,5.170019E1,1.5805522E2,4.9152187E1,4.6918392E1],"tree_param":{"num_deleted":"0","num_feature":"27","num_nodes":"15","size_leaf_vector":"1"}},{"base_weights":[-8.479195E-3,-3.2785037E-1,3.4870535E-1,2.604674E-1,-5.3687775E-1,6.072265E-1,-2.1617672E-1,-3.241685E-3,7.81053E-3,-7.502439E-3,-1.4630976E-3,2.102127E-3,7.3495237E-3,-7.379105E-3,3.3438993E-3],"categories":[],"categories_nodes":[],"categories_segments":[],"categories_sizes":[],"default_left":[0,0,0,0,0,0,0,0,0,0,0,0,0,0,0],"id":75,"left_children":[1,3,5,7,9,11,13,-1,-1,-1,-1,-1,-1,-1,-1],"loss_changes":[7.414333E1,4.233577E1,4.493828E1,2.783538E1,2.1015556E1,1.0532692E1,2.81302E1,0E0,0E0,0E0,0E0,0E0,0E0,0E0,0E0],"parents":[2147483647,0,0,1,1,2,2,3,3,4,4,5,5,6,6],"right_children":[2,4,6,8,10,12,14,-1,-1,-1,-1,-1,-1,-1,-1],"split_conditions":[4.81E-1,1.08E2,1.23E2,1.05E2,1.14E2,1.15E2,1.28E2,-3.241685E-3,7.81053E-3,-7.502439E-3,-1.4630976E-3,2.102127E-3,7.3495237E-3,-7.379105E-3,3.3438993E-3],"split_indices":[3,26,26,13,13,13,13,0,0,0,0,0,0,0,0],"split_type":[0,0,0,0,0,0,0,0,0,0,0,0,0,0,0],"sum_hessian":[6.479535E2,3.4212747E2,3.05826E2,8.9625626E1,2.5250185E2,2.0975542E2,9.607058E1,4.239352E1,4.723211E1,1.6269896E2,8.980289E1,5.170019E1,1.5805522E2,4.9152187E1,4.691839E1],"tree_param":{"num_deleted":"0","num_feature":"27","num_nodes":"15","size_leaf_vector":"1"}},{"base_weights":[8.414566E-3,-3.0959737E-1,3.6303985E-1,1.9549604E-1,-5.556093E-1,5.976321E-1,-2.228403E-1,-4.366625E-3,6.8407487E-3,-7.4639455E-3,-1.0241397E-3,2.5966922E-3,7.7056233E-3,-6.8610874E-3,3.8114707E-3],"categories":[],"categories_nodes":[],"categories_segments":[],"categories_sizes":[],"default_left":[0,0,0,0,0,0,0,0,0,0,0,0,0,0,0],"id":76,"left_children":[1,3,5,7,9,11,13,-1,-1,-1,-1,-1,-1,-1,-1],"loss_changes":[7.31105E1,4.258049E1,4.2257797E1,3.510436E1,1.9819572E1,1.2606606E1,2.498552E1,0E0,0E0,0E0,0E0,0E0,0E0,0E0,0E0],"parents":[2147483647,0,0,1,1,2,2,3,3,4,4,5,5,6,6],"right_children":[2,4,6,8,10,12,14,-1,-1,-1,-1,-1,-1,-1,-1],"split_conditions":[4.81E-1,1.1E2,1.24E2,1.05E2,1.16E2,1.18E2,1.3E2,-4.366625E-3,6.8407487E-3,-7.4639455E-3,-1.0241397E-3,2.5966922E-3,7.7056233E-3,-6.8610874E-3,3.8114707E-3],"split_indices":[16,13,13,26,26,26,26,0,0,0,0,0,0,0,0],"split_type":[0,0,0,0,0,0,0,0,0,0,0,0,0,0,0],"sum_hessian":[6.462893E2,3.4080118E2,3.0548813E2,1.11690956E2,2.2911021E2,2.1812761E2,8.7360535E1,4.873734E1,6.295362E1,1.6077888E2,6.833134E1,7.4679924E1,1.4344768E2,4.936261E1,3.799792E1],"tree_param":{"num_deleted":"0","num_feature":"27","num_nodes":"15","size_leaf_vector":"1"}},{"base_weights":[-8.414562E-3,3.0959737E-1,-3.6303982E-1,-1.9549608E-1,5.5560935E-1,-5.976321E-1,2.2284028E-1,4.3666246E-3,-6.840749E-3,7.463946E-3,1.02414E-3,-2.5966924E-3,-7.7056233E-3,6.8610874E-3,-3.8114712E-3],"categories":[],"categories_nodes":[],"categories_segments":[],"categories_sizes":[],"default_left":[0,0,0,0,0,0,0,0,0,0,0,0,0,0,0],"id":77,"left_children":[1,3,5,7,9,11,13,-1,-1,-1,-1,-1,-1,-1,-1],"loss_changes":[7.31105E1,4.2580505E1,4.2257805E1,3.5104362E1,1.9819572E1,1.260659E1,2.4985521E1,0E0,0E0,0E0,0E0,0E0,0E0,0E0,0E0],"parents":[2147483647,0,0,1,1,2,2,3,3,4,4,5,5,6,6],"right_children":[2,4,6,8,10,12,14,-1,-1,-1,-1,-1,-1,-1,-1],"split_conditions":[4.81E-1,1.1E2,1.24E2,1.05E2,1.16E2,1.18E2,1.3E2,4.3666246E-3,-6.840749E-3,7.463946E-3,1.02414E-3,-2.5966924E-3,-7.7056233E-3,6.8610874E-3,-3.8114712E-3],